image,0,1,2,3,4,5,6,7,8,9,10,11,12,13,14,15,16,17,18,19,20,21,22,23,24,25,26,27,28,29,30,31,32,33,34,35,36,37,38,39,40,41,42,43,44,45,46,47,48
0.jpg,29.516687,18.999702,5.2766695,9.854261,50.6402,8.684813,5.1197042,9.942494,11.060494,9.861703,13.668755,1.4220964,17.989824,-0.31344798,4.4026074,-0.3867781,10.644315,14.973298,8.406125,-0.12688953,2.7168286,-3.9085903,1.5204947,1.1735884,7.741072,4.7246137,-2.6993883,-4.29496,-0.39760125,1.8053137,5.3601837,5.435787,5.275155,0.64099747,0.065826625,-2.7694223,0.64224774,-3.3065052,10.810714,-1.3111397,-3.3280454,5.860852,7.999523,10.730949,5.1767035,3.7822251,1.5021608,2.2893574,0.933622
1.jpg,25.152287,47.81213,3.8229876,5.902512,41.269802,13.188037,0.7755652,1.974078,9.975295,1.4430116,6.709994,1.8869445,5.3588147,-3.2243974,1.341188,2.4168637,8.782698,10.41986,15.4698,0.33794576,-0.2675824,-1.0523822,-1.9076526,0.6811701,0.7176475,16.563538,-0.37773693,-3.446263,2.132754,-0.7670315,3.9810262,3.7548747,1.1278175,0.8253667,3.5355368,-3.1713505,-3.1083038,0.112800345,3.4203253,2.9803534,-2.4427385,2.9180346,-0.16493616,9.261918,0.15606591,1.082671,-1.0270015,1.9096566,0.020062178
2.jpg,34.95852,22.112644,-1.3881214,14.27169,51.663197,4.7874866,2.2620869,6.6387796,12.800634,0.9983996,11.695003,-3.3747413,6.626144,-1.1913625,3.524989,-2.4555876,11.790241,13.672449,9.906513,2.0964925,2.9477353,-3.7293189,4.8174596,-0.05482342,7.649932,7.2298794,-2.0177827,-4.849218,1.1424336,0.72566366,5.8332496,4.633805,6.768869,2.7057524,1.0649966,0.47880343,1.2126764,-3.108477,6.999523,-2.2318892,-5.5573373,7.4706435,7.3238654,13.964345,4.5077333,1.7383258,1.0479499,2.3252823,3.7682936
3.jpg,22.230587,43.609123,5.474538,8.8549,43.7685,8.458647,1.7537501,4.308165,9.019744,5.1788173,2.0508275,2.3343966,8.449308,-2.862234,3.5792298,0.97216517,-0.7272072,8.33313,17.561821,-1.4507697,2.3356874,-4.5777135,1.6185536,0.8384608,5.8365607,6.7975173,-1.7369267,-1.0246606,3.9635274,0.40998432,-0.5569081,4.235219,12.448043,4.1600285,2.5106945,-4.751124,-1.044529,2.2529151,3.4852722,4.261838,-3.8240843,8.129322,-0.53198886,6.8697224,1.5014434,0.34530163,1.4062291,0.6203333,0.117695145
4.jpg,29.14316,36.755234,0.4353011,9.810659,45.08498,16.961592,-0.20492636,2.7093022,4.101438,4.473213,9.724103,7.0091085,16.963951,-1.4714652,4.129705,-1.3798728,-0.8557424,6.4252095,17.787073,0.8883889,4.6475043,-8.615646,1.3941021,3.0269396,5.5489054,3.780299,-1.858754,1.7575659,2.1339142,-2.4912622,0.30996615,2.7050548,6.1287165,3.5097194,2.5742586,-6.75658,-2.8752277,4.5385847,7.7519937,3.7916808,-3.696539,10.403729,1.6201642,6.5855713,3.0052776,0.63225895,1.1394851,0.33410144,-0.044399872
5.jpg,38.81736,37.685364,3.3093042,13.242701,41.721508,10.591772,1.719696,3.1990566,7.4456534,5.4465375,7.8088,2.120852,6.487882,-2.6022456,3.363718,5.395785,5.4570923,8.59144,13.379325,-2.7050643,3.5162575,-5.70489,1.5690877,3.429523,3.9837368,2.9794314,-1.7578691,-6.1620245,5.7319155,3.8714898,4.8867946,2.195397,4.043525,1.3143178,3.8159285,-2.8227317,-4.3609667,1.019793,4.2662225,-0.73665357,-3.7248962,6.4487114,1.496486,7.169208,1.380491,1.0331969,1.430851,0.87166744,-0.99368
6.jpg,26.80816,46.264328,-0.3016848,5.3343143,47.96734,8.303043,3.2893457,7.147809,17.5968,2.3575573,0.21022087,3.7523084,9.26441,-3.355787,1.7460561,0.7652965,3.7372105,9.068566,17.402458,0.20075533,4.0902624,-2.633854,1.367619,2.307269,7.4040046,4.8961945,0.58453655,-1.8387351,1.9009567,0.47030616,-0.9116926,6.228851,10.79995,5.2508473,2.7006655,-4.2232447,0.2817695,6.782936,5.9325147,2.724988,-2.2969677,8.494198,-0.20108065,5.7755527,1.2310914,0.35798848,-0.12723841,0.82353073,-0.716112
7.jpg,32.990776,35.91936,-1.6940428,7.4491224,45.877354,17.24661,2.5452197,5.4551215,12.352168,0.082421586,6.298335,0.15276429,12.622523,-4.4964104,6.3423,3.9094336,5.084784,8.121645,13.154647,1.7396318,2.3406978,-7.8415337,3.0116653,2.8418043,5.536009,-0.37428504,-1.8168029,-3.1206157,4.835318,2.6870687,4.3617,3.1220646,13.514855,5.2230787,2.424221,-3.9281023,-4.5420156,1.6739875,6.2342625,0.91237557,-2.0468397,9.111966,3.6740613,9.972765,2.7496169,2.4186354,3.0788665,1.3905269,-0.11973567
8.jpg,29.414917,42.378574,-2.128554,7.2145767,48.004284,7.958991,-1.1970099,5.2251363,9.753302,3.3500485,11.142804,0.515629,15.803298,-1.9437319,4.8690705,4.7110105,3.6609833,7.009199,18.48453,0.7243903,2.0116553,-7.0717216,8.550206,1.0693094,6.999347,4.4767675,-1.5176405,-2.562163,2.5316257,-0.23585781,1.7907344,6.5693007,11.45515,5.9815755,1.2165679,-6.0383654,-2.2439866,3.4791873,7.0199504,5.3022847,-3.4212172,7.320175,1.709647,5.830626,2.8309453,1.2254949,2.7812946,1.1905785,-0.88729644
9.jpg,16.566036,43.836098,1.2666876,9.724162,42.513435,12.1853075,-0.8443935,6.1049004,12.50266,6.288332,13.107636,2.3997066,5.056398,3.8695664,0.83120334,-0.29675445,5.0004125,7.126282,15.781882,0.20569651,2.2651713,-6.049065,4.7588344,1.4948123,3.740159,5.28436,-0.56481266,-0.37060678,3.568583,4.840391,2.5803025,1.9202597,5.7700987,2.635701,3.949748,-4.3586726,-0.97163004,2.0984786,5.716376,2.9331532,-5.2336955,8.269494,1.8335747,5.90255,2.641501,0.08913167,-0.39292192,0.060096525,0.92672205
10.jpg,24.208014,34.648876,5.3200355,9.932652,44.980114,9.09866,2.9928904,4.3521767,13.100407,9.273946,8.209964,1.680635,6.03304,1.6789473,2.5207896,0.0414439,3.4464023,15.174869,15.137842,-0.28864193,-1.2431234,-4.1937094,-0.8028327,2.4982073,3.031387,13.345506,-2.10156,0.48731565,3.5302203,4.1491942,0.52794695,1.4826249,4.7168245,2.4083264,-0.9171082,-2.0702903,-1.4543664,-2.7594538,4.1324053,3.3203292,-2.9934354,7.760113,1.8496994,11.14776,4.5088925,2.1033716,-0.5541834,0.1702738,2.9983206
11.jpg,30.863523,35.455048,2.7983456,8.210148,48.296463,7.794387,0.6619919,2.0034134,15.134421,0.81214875,5.9624114,3.9473395,8.850391,-2.0355577,3.8037121,3.2536879,0.6331592,7.7611856,20.652603,4.3180146,3.571498,-8.9746475,2.4923694,1.8257525,3.451717,6.508336,-2.4346359,-2.09959,4.3359265,-0.51705784,4.555085,5.49091,13.078415,6.190713,1.8652513,-5.5159717,-2.258143,3.9821093,4.488893,3.5773833,-3.6722846,8.52761,2.9206111,5.31773,2.0242088,-0.2564897,-0.058443077,0.5200412,-1.6980318
12.jpg,25.021618,30.468464,5.8772535,8.63072,48.457314,8.733942,0.5360175,7.0518174,17.071,5.851876,2.3906388,7.5973196,7.4965043,0.67106223,1.76146,2.6246443,0.0923929,9.769596,13.890017,1.475099,2.1172564,-8.672056,-1.5958328,0.13726708,3.739436,8.100512,-0.43408757,1.1098547,2.9759548,-2.3812022,-2.2090619,4.059225,9.417209,3.3247366,2.9962616,-4.7132025,-3.2376454,3.7078779,6.3639035,3.2079883,-4.071939,8.258611,1.3894191,5.9434404,2.5946074,-0.38531455,0.057159595,-0.99701005,-0.745087
13.jpg,15.708961,26.75493,4.8234024,15.498068,50.36164,6.8242073,1.1246748,-0.5684718,9.249952,9.049194,7.9040537,10.691179,-3.1123307,-1.3622568,4.9827585,-3.96826,2.417323,5.614198,12.445808,3.1846874,-1.2004071,-4.400765,-0.537759,7.560266,-1.8570318,19.26501,-2.2828863,-2.059061,-1.1235402,0.37109423,8.105477,6.1794066,2.0600612,5.1231046,-0.69065887,-1.5371801,-2.443297,-0.63918734,-1.6013045,4.237817,-3.5648458,7.587549,2.8251455,6.996017,2.212778,1.073886,1.670244,4.723089,1.7960701
14.jpg,17.186365,11.220477,6.04643,15.406433,50.432117,8.349584,5.6382985,4.336505,15.751563,10.743712,12.0009365,4.9350653,4.714776,1.3526645,-0.5359039,-2.9416716,4.5154586,11.167419,4.927544,3.6728866,-0.14080824,1.1285975,14.591597,10.043303,-1.588998,12.364957,-3.2955647,-0.27121288,0.150525,5.2161107,7.320412,7.29468,3.248863,4.595555,-1.3260034,5.0258064,1.5679933,-2.463823,1.5081359,0.5264595,-2.5889938,10.53997,9.004307,7.500316,4.540926,2.8376074,0.28825253,3.3284988,2.378494
15.jpg,17.407763,9.675443,0.32600388,17.740562,49.024982,10.256422,3.6426268,5.4187026,17.94136,12.193005,12.402255,12.345035,3.567359,5.4541717,3.0304081,2.247819,3.0338948,7.0448065,9.104351,-0.35928437,4.6797066,-2.5078497,6.636443,11.829054,-0.92800874,20.892048,-4.092475,1.5974045,-0.13234662,5.0696535,3.119412,5.964798,0.96256036,-0.27583855,-1.2829477,-2.1537557,2.459019,2.6621377,0.75916666,2.2046974,-2.9864826,6.8219504,5.825363,4.866867,2.4548202,-3.1966999,-3.7875454,1.1048244,1.0660369
16.jpg,15.218973,9.831611,2.5469484,20.005142,52.073444,2.9794598,0.7029176,1.3396299,12.800614,7.1341915,14.102127,4.058682,1.7783523,0.31833342,3.6482544,-3.7227106,7.449101,7.5821548,10.706014,5.207565,1.2857587,-0.68167055,8.230012,18.46588,2.468806,12.725147,-0.8666169,-0.30896962,0.20555538,5.0381727,9.841765,7.8386745,11.469826,5.633076,-1.1259505,-0.2750361,-0.12204894,5.0397315,3.3481576,4.4349184,-3.4090095,8.398726,4.745026,8.251314,5.1780553,2.5117588,-1.1367309,4.134809,1.9235451
17.jpg,13.629723,5.850329,1.6955167,14.672087,51.99376,20.587055,4.830741,2.6852067,13.251827,6.2394204,18.810854,12.076662,1.3481674,4.1008654,2.669806,-3.7138715,4.128255,16.177898,6.554492,3.6562953,0.43195122,-2.7069898,6.7810073,7.7349,1.9167218,12.055516,-2.0703206,2.138042,1.3178018,2.2249126,8.848599,6.165322,8.226088,5.636393,0.14055325,0.9756987,-1.3620981,1.5095857,3.1057813,0.3543539,-2.8926308,7.0581408,9.166574,7.388629,6.2650056,1.9189181,-0.21803463,2.4705727,2.587583
18.jpg,14.319695,4.614038,0.8354569,26.69952,51.063572,10.565208,1.7166932,5.930293,11.232595,12.822702,14.7522,4.21818,2.6489398,5.4546432,2.6332157,-1.3215976,-0.2557044,10.198044,7.391699,3.793469,7.191459,-5.420969,3.723801,6.334734,2.874374,9.790414,-2.6259372,1.826699,1.6911497,-0.013729744,10.075816,7.614685,4.33965,6.7809343,-2.3965917,0.22367077,-0.3627104,2.7751954,1.5835156,-0.5779566,-2.687413,5.9472504,6.4117374,6.576251,2.9495687,3.9883885,-0.9725846,3.7393618,2.4670167
19.jpg,8.2752285,8.721531,4.8212667,17.325516,47.040493,25.488626,3.2007143,1.9342558,14.053011,11.640267,24.332327,4.1948905,1.307076,10.86614,1.9188434,-1.6295269,3.8683918,10.602305,7.01707,3.3129783,1.7373874,-5.940074,6.050453,4.5043073,0.31277034,7.871498,-3.8274155,2.099923,0.1788538,4.425753,11.341989,6.2550187,1.7771393,5.509753,-2.1789331,-0.7912867,2.518214,-0.066768095,0.70045066,-1.4815303,-2.2763972,9.517533,9.162114,8.605763,12.216207,1.5871879,-0.8256152,0.67891794,4.3767285
20.jpg,11.1932335,10.355882,10.702714,14.522472,48.54531,17.541506,2.658012,7.0431314,12.694095,14.532584,21.326696,2.3133337,7.3266826,1.2320582,-1.8119123,-3.8930383,9.57196,16.151241,7.7459283,1.2372152,5.936121,-2.8821232,3.0790854,6.2745123,0.68490356,9.465436,-0.5071433,-3.4133978,3.7717798,2.1872838,8.679323,3.0471673,5.4129224,2.4469743,-1.0096822,0.1027652,-2.1415253,0.6368817,1.5407363,-1.9514753,-1.9401757,6.184591,4.410244,10.494322,5.892123,3.825926,-2.3269148,2.8740077,1.037078
21.jpg,13.646199,2.5397553,11.804484,9.91067,52.118553,16.767353,10.0919695,4.644657,18.840467,6.0195727,11.188876,7.465515,7.6921015,-2.4306443,-1.9424471,3.6724794,7.0314302,19.738329,7.9407206,3.0384684,1.128815,-6.2845783,4.4833293,7.5011716,-0.8527306,5.1487036,-2.0061743,-0.16795956,2.8186944,0.7692372,5.5181675,4.856886,10.385062,2.780424,2.2445712,-1.6249199,-1.5174363,1.4960406,5.020875,4.5051985,-2.019643,8.5375805,12.717955,8.311284,4.5423384,6.2316856,-2.2791348,3.4868696,1.0857886
22.jpg,19.892534,8.60995,-0.75927645,17.502556,52.377655,16.600903,5.7325315,8.38348,16.419773,5.0400796,16.328423,8.563489,7.155976,2.937692,-1.4294475,0.20067906,5.3619356,13.45537,9.197264,3.2728455,1.089739,-3.443376,4.574225,8.271028,-0.077216044,7.7912464,-2.6730294,3.2944515,0.08360855,0.96524626,5.858568,3.3950903,3.9012253,1.1337621,0.3989574,0.20564897,-2.4032009,0.80492926,3.8221285,0.27274093,-4.7767835,6.015925,10.013377,8.917,3.7437775,4.72869,-1.3109171,2.924622,1.6934041
23.jpg,12.799231,8.954143,0.8322764,24.874481,50.176723,8.397772,8.271594,7.548254,16.536827,10.300695,12.42317,11.308371,3.3607788,-0.5612826,0.6204721,2.1057935,2.363518,9.947503,6.512011,1.4754553,2.9320192,-1.5384527,5.5765347,20.48642,2.8876238,5.2510524,-2.62785,1.3655605,-0.6136704,3.2900057,11.958451,11.475529,12.193088,5.2982936,-2.4905078,-2.5117333,3.6393292,-0.47076765,0.9295296,-1.2510314,-4.067751,8.206766,10.133548,6.3415074,6.83898,4.3715534,0.9669802,8.688982,0.37767664
24.jpg,8.987666,8.382567,9.923194,19.366741,53.085846,7.2820067,3.423347,2.2207122,13.902447,13.494557,24.03418,8.232629,0.40039885,2.7969532,-0.9784033,-2.4358287,7.609782,12.28223,6.0749946,0.79076344,1.7604057,-4.000372,6.8770356,7.7292695,-2.922892,10.294469,-3.2339745,0.10329382,0.6340332,3.110996,9.133845,9.564255,5.3629684,1.2108511,0.4949266,0.19896065,-0.43877774,-1.1821258,0.41003823,-2.0684195,-2.9316373,7.345119,5.5468597,4.413684,6.3449817,0.4070403,-1.1336728,1.8345336,0.91299874
25.jpg,15.009022,27.616796,6.816663,13.918525,48.422108,9.0809145,5.222487,0.77531755,13.340667,10.044408,8.508622,8.390732,-0.58667755,3.077991,3.2268887,-0.49714506,0.96896684,7.4585342,8.916619,2.9832425,1.7353525,-6.5276237,-1.341664,5.769571,-0.9874166,11.766125,-2.8664052,-1.2161845,0.5500704,0.008542836,9.37659,6.678572,5.2018476,4.942951,-0.26196533,-3.0907028,0.8472071,0.9140097,2.2752645,2.2205765,-3.2152295,11.37935,5.6239104,8.051479,3.7992492,0.18173233,0.026850449,0.4543513,1.6882085
26.jpg,19.385565,7.2022753,1.9810697,24.130482,54.387657,3.5319865,1.5806195,7.790033,11.066444,10.36944,3.3622575,10.597687,4.5761967,5.791568,1.6313308,0.2798228,1.921613,5.70095,11.471678,2.5268779,2.792261,-1.6317902,-0.11506621,9.935273,2.8236248,13.509546,-0.9522678,-0.76763046,-0.8343952,2.0774715,10.016826,7.583679,12.388611,4.1537733,-0.88108695,-1.6174052,2.352732,3.5780408,1.2160801,3.7580683,-3.3503494,6.189752,7.9263673,4.354658,3.8031023,2.526601,-0.28555524,4.0418615,0.7519037
27.jpg,11.207511,13.629961,9.873422,17.890411,54.047657,15.955093,6.4268365,5.482976,14.89163,15.033695,10.502367,8.295216,2.6579392,-1.5808579,1.8245869,-0.59745103,3.9931986,14.098452,8.956636,2.4551127,1.8964432,-7.040142,-1.0542909,8.183035,2.605113,6.312512,-6.1105065,-2.4040778,0.15489814,-0.27669016,9.946097,5.809253,9.105341,4.526069,-0.11839825,-1.727623,-0.11338554,1.7035265,3.2204409,-1.5998738,-1.4877573,5.9731326,8.864448,6.1527658,3.8514404,4.5447683,0.124962114,3.5569448,0.39297676
28.jpg,21.905409,2.5687997,3.501861,14.721113,57.257523,3.8766994,4.929325,10.325082,11.885683,12.731536,10.965007,10.653228,8.770331,3.0671482,-1.712678,0.97891057,-0.142066,12.026867,6.9102607,4.1636195,6.530652,-8.155702,1.3104794,7.237042,2.8859413,15.741454,-1.9028697,1.4902401,3.9010034,-2.3278832,8.166443,8.868732,4.306193,4.856189,-4.709471,-4.0211906,1.8598478,2.8858259,0.7895296,0.09506475,-1.1784971,6.1455684,9.354277,2.9252932,2.4539008,5.8358083,1.6616818,3.1915188,1.444441
29.jpg,27.177456,10.660806,4.055254,12.113905,54.91971,5.7229576,4.6598344,5.8593183,9.14897,7.5950994,3.7758727,9.725847,10.74076,5.039937,2.5787644,-0.6485293,0.71001023,10.658553,5.4176917,0.44562835,4.219996,-3.6014624,-2.232759,6.866207,-5.2421937,15.924604,-2.9457328,0.06844877,0.37878463,1.6181138,7.2617755,5.6674967,4.6415644,0.22077183,2.6174176,1.8871484,-1.5972025,-1.4633415,0.32152152,2.8045564,-1.1424195,8.129772,4.7125807,5.18981,0.9406035,0.018838793,1.6202502,3.1742647,-1.3040371
30.jpg,24.119825,5.081942,1.4683738,10.260406,54.769302,2.3759992,3.913219,2.407277,14.911856,2.0490663,11.329154,15.467366,8.437437,-1.2039791,-0.8680226,0.9406595,12.156404,19.13046,13.571091,5.245387,-0.5509056,-0.29469168,-0.41260606,6.165747,-4.769784,16.080658,-1.395907,1.3610727,-3.2417245,-2.824952,6.8695955,6.732689,4.778951,-0.9751353,3.9040287,-0.67752886,-3.805481,-1.6477715,3.702142,2.6886914,-4.796906,4.937004,8.416505,8.622374,4.2787004,2.4066648,0.70967406,4.380033,-0.9055002
31.jpg,16.44637,-1.0138931,4.0959277,23.974716,54.58386,2.1343884,2.9741678,7.9833775,14.879455,10.566724,11.459518,7.040939,4.5145445,5.1934776,0.53306085,-0.6518559,2.2608593,13.2936535,8.715003,4.2589197,5.899926,-4.3596344,4.802276,5.4540863,2.819792,8.4252205,-2.0787942,-0.42904186,0.082874484,-0.92335063,9.445755,10.737487,11.53657,6.2926254,-2.2195117,-1.901244,0.7978396,3.368368,1.2564514,0.07358082,-2.8755448,3.7823007,9.356795,6.36374,3.9442186,3.2740052,-1.810505,3.835351,1.0648879
32.jpg,22.804739,9.178064,7.342106,14.313539,49.73771,9.972809,0.58469623,6.054787,12.149926,18.3206,9.881412,0.06575119,3.0373437,0.6711064,6.464757,3.7515655,6.8591604,9.446468,15.028712,-2.6056345,15.347725,-4.554688,3.474699,5.988694,30.621212,5.594598,-0.095592625,-3.7413213,1.6299427,2.0980406,2.3066354,4.9843693,15.033425,4.1514964,3.5996041,-3.8039997,4.4914284,-1.5076289,6.0649853,-1.9916553,1.0240966,4.8207097,3.7306876,8.051397,2.1385546,8.945258,3.1511788,-0.10467656,1.3849865
33.jpg,21.638018,3.7373343,3.4090385,14.147122,47.179337,0.37299636,4.8615537,2.8891015,17.227879,5.7493415,28.000694,8.083284,3.0465403,5.2352653,1.059242,0.13689788,8.416303,16.111649,0.5617798,-1.533182,-0.9547797,-3.6596994,7.30576,8.64618,8.908569,2.1022,1.0006604,2.1145015,0.42028502,2.6562426,7.23703,10.975712,7.243123,4.7616982,-2.5726135,1.3456097,1.7810168,0.47969428,4.2386794,-2.809039,-5.0688496,8.66618,9.069809,7.152483,32.436928,0.17299709,0.27397704,2.9087098,1.9500453
34.jpg,24.865463,2.2049565,8.912492,16.700108,47.494717,1.4210986,-0.71181804,2.941234,8.156292,17.327078,18.071663,3.9378972,13.52541,9.2111025,-0.9987046,4.7440543,6.359388,21.481693,7.60537,4.2064066,5.484557,-8.224051,-1.8913957,5.1478014,3.3801734,7.229051,0.44081685,2.4262178,2.9705238,2.528461,3.4362435,2.3139465,10.220175,2.6239977,-4.033458,-2.6480186,0.057203367,1.4748783,2.8152878,-0.49930093,-0.5465387,5.735253,6.9067135,8.872865,6.610678,3.534227,-1.4688029,0.26491117,1.8279294
35.jpg,20.611351,1.7042948,7.7787147,16.340141,54.92736,2.434134,5.231786,3.5909078,21.789343,12.108263,11.358209,11.764328,6.1377444,1.8958757,8.04763,-1.2763941,1.5999109,11.802295,4.8158026,2.638372,7.0929503,-4.5529613,2.4360118,9.756305,10.049282,3.622769,-0.46991798,-2.0238361,1.4453907,5.3455997,10.866605,8.319224,16.87085,8.098873,0.84579045,-1.5080084,2.3712082,3.7745743,0.12663035,-0.33977237,1.5197927,5.094914,11.165419,2.1994429,11.010937,9.168174,1.8331699,3.770101,1.2547244
36.jpg,22.529737,3.05717,2.3995636,20.023548,55.018234,8.04628,4.804263,6.1967807,17.705278,8.996324,14.984552,8.248487,1.2926902,3.5127528,-2.111292,-0.20270567,6.5862007,10.4236555,6.909024,-0.16304645,0.16252491,-5.3889933,5.5072317,3.585946,6.865494,3.2081287,0.47875658,0.35562032,-0.74022675,-1.2623976,6.855472,5.2616353,5.999957,1.5821576,-1.7734103,-2.0225034,1.156508,-1.5193455,4.152327,-2.696257,-6.6233144,4.2602224,11.46491,8.656828,25.642845,3.4402099,0.7623684,3.6470697,-0.89725125
37.jpg,27.114386,5.8084445,4.9075036,12.393878,50.19242,4.3413534,6.041279,8.669021,32.400024,13.161381,15.136059,4.513456,18.429344,6.7198725,0.050340965,-2.291227,4.2502494,18.858124,9.076635,7.644023,5.570288,-3.3805404,3.7447677,2.5940616,-1.816934,9.194813,-1.205286,2.2086911,-0.051988754,-1.1271341,5.1670947,0.9705346,4.7440577,1.0178659,-0.076025814,-2.9098358,1.3414006,-0.64654946,8.941838,-0.4260873,-1.9464861,4.0828257,12.961409,11.02893,4.8916626,3.433736,-2.3382533,3.188304,-0.58480257
38.jpg,22.619024,4.0785646,5.6530185,17.515821,45.508717,15.259211,2.5436919,5.9328833,9.37257,19.664341,10.841804,5.351637,-2.3677812,-0.65633774,1.7950333,1.6586479,1.723128,9.017465,14.6532345,1.4667265,17.444618,-1.3431358,1.0497478,7.0213833,28.385687,6.569545,-1.7672896,2.9413283,-1.6458697,-4.2824626,1.5346307,9.361748,1.7773178,2.2893639,3.457322,-7.3235655,1.5529892,1.7468476,6.849043,-0.44754297,2.049481,3.4857352,4.4745374,5.309838,-0.37070447,0.77636707,-0.035745185,-0.7583468,0.74975735
39.jpg,20.90767,8.054826,2.4037623,13.455963,51.714153,17.219873,5.514499,6.611186,14.795513,3.2427628,21.078896,6.198548,0.7569557,5.679584,-0.86683404,-0.4401981,5.5942783,9.603543,2.73572,2.404369,-1.6552964,-4.626563,7.351882,1.9668075,6.853579,1.9324343,1.9613266,1.9408414,-0.96332675,-2.233131,6.059705,6.3158064,6.8460507,5.103422,-2.632929,0.061006844,-1.9693508,2.8273156,4.918678,-1.7099205,-1.953428,11.219144,12.9346075,10.21678,27.357117,1.8522,6.2658496,1.0973843,1.5217806
40.jpg,25.915337,1.4941629,3.5277967,20.043797,48.325123,4.252729,1.8798728,5.2681046,12.908712,13.998476,15.95186,6.356768,7.1528034,7.33445,1.9395974,1.5458139,9.755145,13.799827,4.444174,2.5332873,2.6951604,-2.8890922,1.0964851,7.8205333,12.178439,6.17534,1.1750213,0.4761752,1.8610249,-3.679135,0.7423551,2.745321,9.635316,1.4305215,-1.0786226,0.88378006,1.5157832,1.4769024,3.8379445,-3.3201017,-1.0168374,7.03796,6.9446297,9.773287,13.637622,2.2103224,-0.24777967,1.8905632,-0.4558573
41.jpg,16.84338,2.686152,2.6796527,16.689186,44.3502,-1.0638317,3.5635092,3.1320412,9.356564,11.709497,21.334604,7.7879653,9.685191,1.6638793,-0.9775486,-3.0532875,7.7562323,18.734472,4.4232426,0.9412415,0.7409703,-5.315093,19.64092,13.600447,5.384732,4.2252636,-1.352987,-0.70352185,0.59903115,3.963676,3.0588315,6.1149025,8.190834,1.4428858,-1.0280008,1.7379678,-2.234661,1.4583191,4.0025873,3.1144996,-0.87326133,7.609208,5.1282973,3.987924,6.767403,0.40258196,-0.12151235,3.3559165,0.9300625
42.jpg,23.17236,0.6755786,1.86226,16.41108,53.68224,0.7219175,8.920844,6.2712574,24.69779,6.4231386,14.2443495,13.186137,4.11461,0.19862573,5.416248,1.1781998,3.888905,13.0135145,4.182281,-1.7880241,-0.5608236,-4.621256,4.154394,8.181275,7.937806,1.8492606,-1.5702724,-0.01616031,0.08565532,1.6873682,3.2111392,5.532845,16.515371,3.3042781,-4.2483935,0.7123562,-2.9789026,-1.7420838,3.9478283,-1.734896,-4.5574555,6.3835716,7.4187098,7.583886,24.878454,2.5628781,-1.626265,5.943387,0.989044
43.jpg,28.50924,-3.6020644,2.6212425,10.546081,49.32068,14.235756,4.8289237,9.494899,17.47685,6.572155,13.747799,13.495475,12.13471,1.2885262,3.7514951,-1.8222924,9.342945,15.066998,5.673268,3.0350046,6.0303926,-2.531055,-1.1041578,3.1973596,-1.7374452,18.38478,0.5497941,0.36473897,-1.5532721,0.29680926,5.377832,3.8678598,1.2702872,0.68374753,2.626962,0.21911342,-1.40831,4.136971,4.496408,1.0610929,-3.5017576,3.4495997,7.3315525,6.166889,2.5772314,-0.8639205,-0.53211004,0.8079903,1.6833093
44.jpg,15.548717,2.4519703,2.9531255,25.882128,52.369778,3.9889588,3.3843412,5.447183,21.559507,10.612196,5.7946215,8.086974,5.9185634,-0.19814786,7.3220434,-3.2079082,1.6176357,8.905375,4.869088,2.374841,3.8408391,-2.3307517,2.0087333,11.471746,6.86325,7.4822917,-1.5296102,-4.4021044,1.5061725,4.2221727,10.189761,9.846988,15.5057745,7.3670974,-1.7235885,0.15084115,4.344895,4.7099257,2.4542744,-0.12840909,-0.0052512623,3.7827334,8.403934,5.188384,4.817306,2.4332788,0.6670541,5.2530675,1.3514344
45.jpg,14.302261,0.5566824,0.9904828,17.301073,51.526184,-0.662851,1.3521882,4.324872,17.762201,7.610647,26.465067,7.930464,2.58961,12.179064,-0.20854995,-1.0332167,7.9834394,15.181163,3.6821306,1.393006,6.5783114,-6.3113384,5.2139306,8.875086,7.0866876,5.0439095,1.1052343,3.3715584,-1.9041054,1.554101,6.020831,5.790893,10.596908,4.7016196,-3.8327444,-0.4153248,0.40119854,3.2770119,1.9501504,-3.24902,-3.6958477,6.93736,9.453577,9.523714,26.940567,3.5626493,1.1006668,4.7406735,1.1917005
46.jpg,21.621069,1.9752901,4.115925,17.451883,47.044693,4.1994905,2.5697398,0.57381207,16.504885,3.1153853,25.635174,20.95394,3.1623776,3.8863454,4.886169,0.40495223,9.721674,13.865486,6.6737204,-2.929839,-5.794074,-3.4209604,8.405903,9.413921,2.5400543,2.6000004,0.55061746,4.8123846,-4.148498,3.7987928,-0.92281306,3.6068206,-2.0993128,-0.57927734,-1.4854524,-1.5887585,-6.661223,-1.9959542,2.731158,2.2419481,-5.0790763,5.449504,10.141328,6.5729237,34.072037,-1.3436741,0.2385404,8.477606,0.42303693
47.jpg,29.898193,5.59638,3.4309044,28.83555,48.695786,8.286961,1.6404063,13.25039,11.433944,9.823042,15.175822,1.8475308,9.898875,3.3812835,3.6339748,-0.2856316,11.618098,9.436759,4.130016,1.0914955,6.086192,-6.0382037,2.2526884,5.09292,12.734847,0.81264937,-1.3454703,-1.044019,0.7808209,-3.1155164,5.574594,1.5678372,11.205173,0.97193867,4.9469976,-1.0488034,-2.3070555,2.5080717,8.950798,-3.3788145,-0.8510028,9.016848,7.314662,15.149336,5.6339936,4.9841385,2.361885,3.5908267,2.0321865
48.jpg,22.077024,2.3370142,1.836678,12.972901,50.705414,4.043309,4.260584,2.124149,17.140652,6.9281487,28.256855,7.535595,6.102811,6.846444,1.3088702,2.9202867,5.5315537,17.85627,6.7266955,-3.5646818,-3.2108788,-8.090456,4.638921,2.097363,8.703579,2.7952194,1.8595387,2.0560405,0.32575595,-0.05295165,3.1443107,4.6849523,3.1227987,1.7609669,-1.4768873,-0.938303,-0.7260467,0.87674856,5.104793,1.1986835,-3.1111336,8.114731,9.794048,8.310215,28.351086,2.5191019,-1.2803235,3.5518694,1.8771509
49.jpg,26.205639,7.6189356,8.194087,23.076902,48.227127,4.0513678,3.9468403,8.584771,14.448224,17.611254,10.002227,2.2541308,4.194805,2.0963101,-2.7336452,-2.3290324,4.55331,13.307598,6.9312954,3.6181219,-2.5358493,-3.214776,3.0985193,0.0496123,3.382033,12.093909,-0.56239027,-0.7769637,2.9009662,-2.965899,2.569416,2.583436,7.118764,-0.36716264,0.29945356,1.3873967,-0.25410917,-0.2570588,5.5064306,-1.0579643,-3.7658103,6.1739683,2.1319163,9.738668,3.0889661,-0.24246508,-2.6924117,0.751897,-0.87415195
50.jpg,22.267494,-1.1468676,5.570414,12.457884,52.573742,5.5042324,3.5592034,4.8672757,24.282562,15.520841,6.8858027,7.206247,11.347426,5.10519,-1.2240497,2.2071207,1.9071976,24.858395,5.640732,9.156637,-0.5010325,-6.4357557,0.22559017,3.8643076,1.6881969,9.228825,-2.0453057,1.7772317,-0.25171107,3.104856,7.672833,6.301639,12.700478,4.6994743,-2.936143,0.5813808,1.2489414,1.6980075,3.7890992,0.15282966,-0.7847302,6.768886,9.948279,6.41606,3.485985,3.83519,-0.6572538,3.3910499,2.237436
51.jpg,10.055687,-1.3734604,9.291712,12.720193,42.45014,5.6138744,3.494966,2.7415748,21.896366,5.568497,27.585632,8.0415945,2.3960493,11.371667,-2.63779,-0.6892584,11.849045,16.703476,0.23739888,-4.6825314,-6.3452797,-0.83748317,4.765268,8.107786,4.952643,2.7001793,0.7284598,3.65218,-4.0844393,2.9325633,6.4415636,8.929537,6.2762275,1.3855616,-2.6974673,-2.9317675,1.9995593,-2.0099266,3.3751516,-4.0417223,-3.106209,5.6054,13.749194,8.743533,34.98244,1.4699985,2.340512,4.2546444,1.3443815
52.jpg,25.975306,3.0177078,0.53529775,38.90921,46.262074,8.358783,1.6473219,3.098264,12.928316,13.51486,24.606462,6.081069,2.4213107,-1.7135508,3.7903645,-2.4967608,18.948853,14.917554,4.3339024,1.2388982,5.3938413,-2.935044,3.7560973,12.832029,6.687288,-2.574867,-1.5457425,-3.4524224,1.6095874,-0.2765553,9.837203,5.561573,5.714365,2.5058463,2.3015914,0.31132725,-2.950706,1.2282724,6.4948835,-4.163419,-2.3556561,8.267997,7.540009,16.347895,9.368817,2.4589546,1.8651135,5.318364,1.8676575
53.jpg,27.047354,2.7760777,3.241347,16.285866,48.33418,1.7564191,-0.3790142,3.9839988,11.127811,14.51837,4.4831824,5.897507,28.696081,4.5241876,0.04667379,-1.4361551,3.2020922,15.093195,8.88405,4.2718434,2.6436713,-7.82749,-0.107093714,4.0522137,-1.5560293,13.221769,0.056396704,10.757676,0.34550363,2.4415832,1.5097877,-1.448288,4.846887,-2.3976479,-1.0385358,-0.7223267,2.2206974,0.9561021,6.32163,3.2001033,-1.4781189,4.5131273,7.508763,5.7792826,1.3866769,2.1670747,-2.1081817,2.0224526,0.76148874
54.jpg,33.29246,-0.898365,1.8143435,9.174583,48.487415,3.9002273,1.7336694,3.8341298,17.647118,4.595257,2.824963,6.747508,17.039423,5.089793,-2.4395132,5.915438,8.035303,28.096031,4.2523904,4.45069,2.8945293,-2.7906952,-1.1198368,6.253648,-2.4693012,20.827152,-1.8948615,2.4520497,1.3827299,4.2794857,9.2005825,3.5635953,1.9215075,0.44050133,0.48270673,3.0754256,-0.5312463,0.23699921,7.631992,4.7279763,-1.0250784,3.913784,8.2439375,5.769664,-0.11095284,3.1754584,0.73481214,3.237249,3.1379309
55.jpg,19.247875,8.989657,7.9953747,23.725033,50.559147,8.372843,9.415702,5.1582365,24.986448,7.4242063,9.982468,10.735516,3.6498845,0.49162886,3.9996185,-2.6836286,5.739142,11.786971,2.7532284,0.26502478,1.1357803,-4.781403,6.0269413,6.2282844,8.83899,3.293958,-4.3666224,-4.2794843,2.2922902,4.6177864,9.520297,4.4533763,16.526295,3.4507546,0.73856044,0.6358774,-1.0362517,0.9141598,4.775232,-2.3429832,-3.013609,6.198747,3.0820231,9.804694,5.1560516,3.1255417,0.86815965,3.8643935,2.389901
56.jpg,24.156748,5.9344506,9.3305855,13.70764,48.32417,7.035768,6.2691507,6.418167,19.959717,17.7749,3.2160547,1.804309,6.841665,-2.4179597,5.358451,1.8373914,0.40471336,5.479313,12.821219,-1.3177037,13.897011,-3.3810124,1.76804,3.3811085,31.918278,2.7306278,-0.06256746,-1.7615503,2.1955397,3.767187,2.9039593,2.174353,7.3105307,2.1398022,5.275991,-1.8373457,2.0715837,-0.4274388,9.490625,-1.3473539,0.50086707,5.462642,6.9812765,6.2346177,5.758992,6.5467196,0.35483307,0.36610496,0.488671
57.jpg,6.087211,5.625056,3.436083,12.000192,46.015884,3.0563834,2.3358026,-3.6875062,17.12732,8.233576,26.108164,9.092738,0.3250571,0.87754864,3.799975,-7.478771,7.076579,16.50804,4.097778,-2.6274662,-0.0653537,-3.376766,5.22836,21.26266,6.81073,2.1885235,-0.5329663,1.6175948,-2.9437282,4.598038,7.9219737,10.024246,4.5921946,5.7831497,-4.1691327,-1.8261498,2.56165,3.2990515,2.994513,0.34955806,-2.6790965,7.8414917,5.284588,5.1885133,25.459152,2.6482868,-1.6867813,6.1244345,4.7048664
58.jpg,24.094803,7.450355,6.707017,15.479815,48.464695,13.0563,10.103913,16.821192,11.996992,10.652149,12.684321,8.114085,3.4059324,4.0315456,5.9117823,1.3424197,2.978399,11.67686,1.7742147,-5.349931,-0.43069977,-6.5285096,0.64670974,3.838943,7.32677,9.290493,-0.64895695,-3.371081,4.330635,3.0954468,7.2336683,4.0476384,1.8627381,-0.42457157,-0.7756877,6.348087,-2.484068,-1.5738366,1.515378,-3.963679,2.1233256,6.6350894,1.9201686,8.734988,5.414242,1.9825451,2.9403043,4.747186,1.8453132
59.jpg,27.83041,-2.173928,3.812752,15.936987,45.70519,5.4907126,-3.7055209,3.3172853,13.700557,7.1266866,15.303554,4.833292,14.811947,3.2491517,0.17890242,-0.2200541,19.156342,31.214052,10.3643055,6.4089375,4.3486314,-3.183651,4.6531973,8.354581,6.0830584,9.494715,-3.4600332,-1.1198984,-1.9150711,1.1800606,7.1934752,1.7373724,16.755444,5.518479,-0.20999503,3.3154473,1.7896954,3.5585258,9.202517,1.0220404,1.7917931,5.7388244,9.148245,13.917513,6.0001564,10.663068,0.76743054,4.0724335,3.4046233
60.jpg,15.650209,9.890465,6.8585744,20.018717,47.533596,0.9347964,4.0740395,4.285234,14.535776,14.812441,24.9579,7.254769,5.366152,9.972275,1.6172705,-2.9383028,4.64376,15.868181,3.6590164,-6.12045,1.7209342,-1.2465237,1.459431,2.5482488,4.358966,7.947257,1.9903315,1.6636137,-1.2211915,-0.50185883,3.4383812,6.143169,-0.9373785,0.09295875,-4.17744,-2.6775832,-1.361239,-0.33199778,2.4061596,-1.4981107,-2.1647434,4.470834,3.7924914,8.214172,27.074635,-0.47012335,-0.5970231,1.882212,2.7353637
61.jpg,11.03106,1.5552399,2.6234295,13.116937,49.350227,3.742316,2.9827566,-1.9557189,10.573223,5.0665145,34.735878,10.298625,4.7944336,9.784632,2.5547903,-0.9378801,13.2352295,19.378075,-0.8588617,-1.005082,-0.9833243,-2.5188434,10.215771,6.2178516,5.7886014,2.4486806,1.1460309,4.314893,-4.0145874,3.104815,2.1621134,9.173279,4.6961727,2.544671,-0.045276247,-0.12348327,-0.41436604,-2.3296182,6.131625,-2.0926762,-4.480778,6.7689896,8.985116,5.2121205,28.200336,2.725593,-1.1778619,2.7661915,3.4270968
62.jpg,24.167551,10.5347,3.2448478,11.558603,52.553604,5.6674166,1.6802173,9.692823,14.820398,18.08273,4.8904104,-0.94779205,7.4258475,-1.4456563,2.998467,1.2120508,2.9721906,7.9876347,16.46435,-2.4905124,15.1605015,-6.4577265,0.7909907,5.2604446,33.382996,6.034548,-0.9097656,-0.5264044,0.6367773,-0.9401374,2.1552234,3.5458558,8.716247,1.8228201,4.059141,-4.3966985,5.8074822,-1.041015,10.404323,-1.3746997,0.88947785,3.8457732,5.608797,5.7992826,2.8473237,6.843734,0.18694186,1.4964272,0.5969745
63.jpg,18.005016,1.1496646,1.8197019,20.73139,51.32154,5.576792,0.6926548,8.735864,12.800301,7.134781,20.883938,3.9277353,7.147943,6.8908916,0.31466126,-0.05059652,10.790988,20.131258,3.3171573,0.104765594,1.0116647,-9.700352,8.048872,0.042348914,9.268984,3.9947622,-1.5281968,-3.4155765,2.919409,4.8476753,4.352591,0.71086234,3.9360433,2.4796693,3.7640805,0.73877704,0.43362728,3.4463267,7.0498867,-2.26985,-1.1272666,0.50955623,3.3384464,14.1074705,3.5528212,2.2272666,-0.37676236,1.8407811,3.0241516
64.jpg,25.207043,4.2626905,3.443778,32.60949,47.085564,8.700043,0.6784611,8.796941,15.749678,9.421431,11.52111,6.050429,6.194435,6.8997564,1.5616875,-0.77898204,12.813385,13.350135,1.834742,3.7251458,1.6328384,-5.92364,2.0250118,6.2434545,8.74103,3.359605,0.5118551,-3.7938285,5.335858,2.3725638,7.545869,2.1030698,14.729135,4.6568217,0.60551715,7.432319,1.590487,2.551436,3.2833486,-3.0659854,0.04111724,8.844436,3.0876591,11.738136,1.9025307,6.5457573,-0.050835777,5.6628428,1.8560698
65.jpg,18.083893,5.132592,5.299511,13.621202,48.191547,2.9923525,2.769687,10.2586,25.909456,13.445171,2.525237,2.1380904,5.7220125,-0.64783096,1.6096926,0.8026435,-0.08296911,10.166971,11.848194,1.8194034,14.899824,-4.304076,2.5923102,3.5491846,30.358522,5.710567,-1.8806157,-0.030903798,2.2643077,1.1816825,1.5824407,6.871658,6.8508706,5.6289234,3.1556249,-4.91717,4.8834295,8.75073,10.78246,1.7650499,2.6131768,5.924638,3.0505698,5.196533,3.2671533,3.1500213,-2.0589547,0.41474402,2.7293916
66.jpg,22.907526,2.820023,2.9194858,15.88964,42.9488,5.0466084,8.611602,5.0749435,13.883312,9.048371,24.539999,1.4660008,-4.000441,20.022781,7.168624,2.436128,-0.59288573,10.020016,2.8325708,1.9124568,-1.1999793,-4.279313,9.311913,4.3105316,7.0187054,2.7297537,4.148653,6.923049,2.3479314,4.8566656,1.9639108,4.30221,9.466277,5.424838,-5.1256027,12.566084,1.2470694,-0.3600792,0.4182106,-6.6629395,-2.7846463,15.41567,14.720673,5.9076786,27.825304,3.2636755,1.8313551,-0.49500597,0.5274299
67.jpg,40.51728,-0.68574715,0.6573137,17.214209,52.784584,1.6114563,-3.1128726,10.515195,16.311544,9.149274,8.91785,9.861312,1.3929565,11.208407,-3.3060188,-0.3424827,10.28562,11.869421,5.608073,2.3899567,6.5844445,-7.555192,2.7503695,5.9298487,7.817724,10.823299,-1.333821,0.0030498952,0.17460836,-3.014006,3.470765,3.4277015,2.6970067,1.9451201,0.23172846,2.5189455,4.922912,8.570259,1.9104805,-3.5789742,2.2042828,6.5960464,1.8733677,10.252817,-0.5289695,0.062175095,1.6861207,1.6914613,0.927638
68.jpg,19.981876,-0.17762221,3.4531817,31.946379,53.303932,1.5859905,0.30999333,5.1717167,12.854086,9.4146805,10.779671,10.225918,5.8939137,7.36611,6.0529094,-1.145412,0.16740337,11.2237625,5.616018,1.300514,4.142088,-4.83563,2.795012,5.3599267,4.3758044,16.57187,0.06729339,1.8711314,2.3835926,2.2264233,7.0828342,6.3224144,6.7642016,3.715158,-2.1750338,1.4581212,-2.3622706,2.3455787,3.8744733,1.3768083,-1.0060344,3.7634816,7.3709054,6.212074,3.8276105,1.725786,0.89805835,2.7156749,0.6865334
69.jpg,13.137463,1.2188599,7.229645,21.221865,49.52056,-2.0630178,0.0061303377,2.4963112,8.49601,17.19802,24.758102,7.5294466,5.7821474,8.364941,-0.4822915,-3.1023502,7.168121,17.758265,3.2212594,0.8501947,5.9466968,-6.8675337,3.3481534,12.817921,6.1727653,4.468254,1.5238037,1.9514236,2.4975367,1.0110512,5.254797,3.2672126,8.634607,5.091931,-2.5963519,1.7721683,3.7441518,2.1238966,-0.9818051,-4.1449265,0.40122,6.2646995,8.516886,6.92602,14.544782,5.264048,-1.0573748,2.9509223,0.5752157
70.jpg,25.728052,4.6217403,1.341731,22.79785,47.362503,1.826325,-0.35548565,4.843375,6.604083,11.767829,19.031612,2.9275694,4.90626,11.567623,6.9847717,1.5334855,2.303455,12.268458,7.2238655,-2.3161342,4.1587644,-4.918246,4.2715354,5.3701825,3.889452,6.8406353,0.5218315,1.1719873,1.5512843,5.7444587,3.4209647,5.2767677,6.2428474,1.0601622,2.843829,-0.9453194,1.4764621,-1.346773,2.753954,-1.4055505,-0.94263256,6.890306,8.06976,8.055595,9.061921,0.47837785,-0.37184864,-0.2956627,2.3690262
71.jpg,16.361485,4.9799657,4.4139137,29.388424,52.14967,-0.31434184,-2.06433,3.4307187,14.484989,20.586308,18.269493,5.8357596,2.9368777,3.54712,0.6129487,-2.2147803,6.8577156,16.098223,0.90627897,0.22980385,3.2643557,-9.930287,1.2749009,11.563221,6.986735,3.2964993,-1.1343616,-2.3282125,4.6800303,0.49200514,6.7088737,3.332389,9.134132,2.9595346,-0.84782976,1.7042935,4.4961023,1.6461716,-1.1121935,-4.865419,0.7341909,5.9502583,6.129964,10.717614,7.9142942,4.341465,-0.7465766,3.815045,1.5606531
72.jpg,19.954979,0.24790247,9.334366,20.26042,55.04361,7.304019,-0.96139723,3.1124392,9.458206,13.987154,10.997569,12.164539,1.8269374,-0.054404605,2.719149,-2.9511354,3.7588642,8.906637,10.178264,0.67082524,2.5434752,-5.829418,-4.032997,7.2875814,2.7196743,12.942769,-0.6444348,1.3024983,0.9426277,1.7325118,8.1324625,6.9208665,2.5952206,2.5430343,1.8339041,-2.2485971,-1.2015288,1.1324635,0.5543848,2.0089664,-2.1016695,4.946273,5.4011574,6.9691906,2.5042791,2.2478423,-0.08307274,3.429281,2.1499817
73.jpg,25.756842,4.267313,2.332683,10.396031,43.368187,-2.4435549,4.4127812,7.53522,12.475336,12.236858,20.745663,8.111516,26.21346,15.634044,8.4978485,-2.339951,9.321402,17.816856,2.2284188,-1.3866849,0.037563592,-1.858852,1.6394153,-3.1921763,-0.7807062,4.047011,1.2871308,5.367116,0.2907518,-0.6047143,-1.2200547,3.8359902,1.7418733,-1.242814,-4.8965206,0.029971845,-0.39463118,-2.501819,7.545259,-1.150727,-1.1444374,5.805372,5.317883,5.1161275,9.639194,-1.9551337,-1.9513117,-0.6663967,0.045116898
74.jpg,17.341482,4.438211,-3.2528586,28.8059,51.04159,5.047628,3.6612616,7.5777965,16.177586,12.669401,8.954214,13.195409,6.8365498,5.4300656,5.5142446,-0.40766737,-0.1831755,17.13809,3.7908368,3.1499538,-4.034152,-1.6046474,4.2659745,11.286818,2.5705817,8.050821,-2.3476012,4.3379197,0.9110742,4.630502,3.412213,8.563231,2.3258164,2.4845634,-3.746732,-1.1453425,-0.54173785,-0.66746694,0.3098905,1.5339836,-0.5534347,4.5995317,10.726284,6.2395754,6.8951225,4.0492787,-0.951107,6.6517687,2.7015886
75.jpg,24.874552,0.33543572,4.307759,18.555618,53.61154,5.982919,1.4796253,5.702795,25.957611,10.88561,5.055721,13.860822,4.9006267,-0.76460594,-0.8266263,3.87721,4.546155,14.373976,0.8477684,-1.4659048,-1.0918274,-4.8528013,-0.7466937,10.57414,-0.17412901,10.316933,-1.5534004,1.7564056,-0.32408702,1.8789489,4.015344,8.100051,1.2739724,-1.9044589,-3.8232427,-2.7310827,-1.3564335,-0.29210848,4.187364,0.8209601,-0.90880597,1.9003404,6.830339,7.985206,3.1602702,-0.44691527,-3.1156814,4.7275953,0.3347993
76.jpg,17.090107,5.7385488,6.707166,23.362524,50.797684,13.196108,-0.42290613,0.97199845,6.7099543,19.675043,10.906504,5.049414,-2.5327456,4.0315347,-1.7806135,-2.0341835,3.7206974,12.952839,3.7454627,0.65579426,0.016208738,-5.675826,0.04054783,4.6734715,-1.2751542,13.162324,0.18889773,-1.2578626,4.0264497,1.1861112,4.943776,4.4797044,0.76053756,0.34664714,0.34445393,-1.2922398,-0.75324017,0.8974413,-2.0782511,-0.8418063,-2.066242,3.5942688,1.7078733,6.3291073,3.4900234,1.9534509,0.26536444,1.3569776,1.5955951
77.jpg,32.10622,1.2228166,-1.1658556,22.577549,53.36973,3.2835286,-3.8262591,4.322259,16.238901,9.076246,10.943547,12.980503,4.869123,-1.5181118,-1.0124441,-1.1363125,8.418497,10.848805,6.777822,5.2161636,2.6378286,-6.6387243,0.67748845,9.487985,7.174039,15.500498,0.018107798,-1.679802,1.1797734,-2.9476306,2.746906,4.631013,8.588871,0.3943022,3.2182026,1.8754812,2.5909429,5.384674,3.7046785,0.34160316,-1.1287694,4.047237,2.8485048,8.56142,-0.101586945,0.17557311,-1.781406,2.3885586,-0.016623363
78.jpg,24.509792,3.1621323,-0.14378875,45.041058,43.617226,3.8571022,-2.6899343,0.23959675,12.741809,16.120035,10.913555,12.035863,1.3408946,4.5351286,0.21205284,-0.47948036,12.693908,12.529619,3.6186066,1.6702011,1.4871286,-3.9861798,-1.3731278,4.6866565,2.7001553,11.988211,1.3970484,0.631566,4.012202,-2.275112,2.9383826,-0.13224967,5.9935794,-1.8495404,0.9951646,2.6020544,-1.0731885,2.673691,3.9249034,2.766375,-1.578121,2.3647044,-0.5770222,11.916149,-0.09789546,0.8403265,-3.245531,2.9926364,0.489475
79.jpg,24.71697,0.57683283,-0.33419448,25.443823,58.565754,2.8592653,-0.34131408,1.3225237,15.912395,8.208932,7.5963335,6.664367,2.8481927,1.0626118,4.5840306,-3.5586722,3.7068353,12.509665,4.2986727,4.4902325,3.5541236,-8.147432,3.5425072,6.7854986,7.659237,5.648239,-1.3619103,-2.8140602,1.291292,-1.0697858,7.3314285,7.817475,17.96403,7.1222396,-1.1165831,3.671246,0.77321625,5.2240157,1.598676,-2.7301078,-2.0567477,5.993172,2.3256931,8.072392,2.974193,2.7033558,-0.029460108,2.4947257,0.89270276
80.jpg,12.686324,10.1167965,3.3938353,29.11183,51.91576,5.1725645,-0.014191866,-0.49608833,17.400738,16.441784,16.073465,4.49174,0.055471808,1.8092272,1.6742448,-2.9947412,5.8526187,9.448117,6.5495434,2.944426,0.79758114,-3.9061573,3.2539606,9.003542,2.443767,8.7537365,-1.4607561,0.8352285,4.3913574,5.2524676,8.876655,6.427015,1.8413465,2.2085612,-1.4172778,-0.1506959,0.7072894,1.732949,2.3527112,-0.8291365,-0.79059017,7.9943614,6.0830016,6.743723,3.4842055,3.2540567,-1.5419698,4.382354,3.9720337
81.jpg,0.36488807,7.3950157,6.5780296,16.788675,45.695305,4.9494667,1.8060839,0.445028,28.865034,8.274295,21.324505,11.7241745,1.7019676,4.9405456,0.3673112,-2.9418836,9.721033,14.968016,2.3413484,1.8102527,-0.18181065,-4.5447803,7.673709,7.7330933,8.062187,5.071231,0.27746567,2.983932,-1.5120798,3.088251,7.681621,7.303957,5.6561255,4.721196,-2.2669454,-0.9665171,3.9358287,4.3868933,4.738297,0.12752134,-3.8274262,5.9426317,10.870322,7.3865013,32.036453,2.187231,0.9350026,5.691716,4.1124873
82.jpg,23.793169,0.5408194,-1.7277625,25.828922,54.243862,5.6871505,-5.059141,-1.5427781,16.440115,11.7399025,10.066325,12.923111,-0.25938806,0.9344015,-0.034572184,-3.7430067,10.02784,14.257412,7.4040914,0.8291023,4.2107396,-6.630402,6.3215337,12.319087,8.306645,11.780986,-2.3205292,-1.0737723,1.7878523,-0.0059090555,3.863192,3.7993734,4.887885,-0.5379812,1.0408093,0.5037226,2.4290438,6.309729,0.90159893,0.7751438,-0.9363759,3.634568,-1.0833598,8.81601,1.5176938,0.4972074,-2.0020115,3.2464118,1.6207505
83.jpg,17.360657,4.70445,9.373787,22.414927,47.859,7.7972674,1.9575543,0.4108371,19.21971,12.566878,14.959574,12.209291,6.7619205,2.1268363,1.8086209,-1.2734785,5.7235403,7.963509,3.388585,1.883071,-1.2134675,-6.4335465,3.5965264,9.162458,6.3128414,6.8494,0.90855265,1.830502,1.6765453,2.5115492,9.52557,4.300965,8.154797,3.141292,-2.827504,-0.22689718,-0.8109646,6.497726,3.595002,-0.16883072,-1.9237849,6.9808474,12.02701,5.9180036,28.888453,1.2603097,3.7970397,4.5728507,1.2525029
84.jpg,24.865463,-1.850076,9.244433,16.791664,49.570065,10.462551,5.097159,6.6101274,13.824604,16.185028,8.357131,8.396174,10.620095,-1.6549997,0.05642432,5.496158,2.2014904,23.310617,5.7145844,1.2566342,-0.4706189,-7.6055937,-0.17171912,9.910502,3.4851472,5.0145245,-1.722841,1.667975,2.6848395,3.287504,1.9364197,-0.20787372,8.0779505,3.2828715,-1.9948281,-0.33391207,3.456416,2.1829684,5.6921086,-1.3376004,-2.5603335,11.39148,11.648133,8.343971,4.3660517,6.3265877,-1.1170764,3.7419457,3.9028492
85.jpg,28.060442,1.2253667,0.37057477,18.757603,47.103542,0.9574685,1.5951725,9.002646,9.605206,14.106521,14.895044,5.291683,4.763323,2.0574076,2.538377,-1.1779945,7.2160015,9.193081,16.554914,-4.7303205,22.525818,1.2106658,6.4187512,3.0033782,28.323212,7.6303124,-0.5281384,-0.6680592,0.50343615,-2.7606184,6.222825,11.592382,0.60237813,3.6477842,5.189377,-4.2337513,4.7943363,4.3020725,9.4529915,-1.8329628,-1.0664171,3.4593828,3.3923812,5.4353724,1.9190557,1.4566958,5.675838,1.3447584,0.17002909
86.jpg,23.511766,-0.43606237,14.948002,13.284716,43.33765,16.046957,2.002851,9.45843,8.117886,18.285252,7.6417365,13.376397,16.488583,3.2845433,-5.859972,0.7856178,0.91799164,18.217976,4.7039638,1.0924315,-3.6190257,-3.2964182,-2.8352544,13.431583,-0.955584,17.319723,2.379067,4.911849,5.5813375,2.393358,1.980376,-3.2417343,-1.4492131,-2.5073729,-0.12003028,-0.40304437,4.840683,2.3129122,4.9707613,4.714296,3.1223328,7.7769585,12.404071,8.931062,2.364384,4.738078,-1.8143477,-0.1743909,2.5376308
87.jpg,30.78262,10.688453,-1.4566305,21.735357,50.023823,4.366926,-2.8472998,10.368271,15.741672,13.282366,13.214191,0.83583,5.655384,0.23603979,0.64681154,0.12446996,7.7773557,13.336775,13.895872,-2.7756839,9.944457,-3.9536421,2.5140903,3.021721,18.270252,4.001792,-1.4503708,-1.764432,1.3513237,2.279497,2.4878964,4.686343,9.240402,1.7324364,6.1966114,-2.6520913,0.46832132,2.348876,6.276968,-3.5681157,-2.780735,4.4003143,1.9537544,9.12355,2.3051302,2.2163355,-0.48799384,1.3151712,2.3537
88.jpg,26.426367,4.946869,6.880644,14.079552,47.397144,3.8202598,3.8736522,8.544,16.897585,20.726334,1.3525141,0.67204684,8.977805,-3.941514,3.0388236,1.335584,-1.5206348,10.737462,13.305053,-2.6034746,9.669408,-5.713725,-2.0756564,0.09163208,25.410145,3.549113,1.4721525,0.50653356,4.1103606,-0.6831583,-3.3508763,0.21692067,1.8554572,-0.018789293,1.5846409,-3.012729,1.5027043,1.0762634,8.143827,-1.9683172,-1.0620162,8.025755,4.527386,5.9146104,5.1388383,3.8024924,-3.3788958,-0.016365573,0.93841517
89.jpg,20.306877,-0.17340378,4.214091,15.772287,52.10849,9.982707,1.6063381,9.152232,7.897029,13.953522,17.364918,15.889214,3.284661,6.7522497,2.1024895,-4.477067,0.33703968,14.389178,8.552953,-3.4068446,5.2714386,-7.4432836,3.3762417,6.3609304,4.558753,10.219038,-1.1450108,0.12755188,4.718314,-1.0045933,2.8730066,2.5850003,2.10938,1.3478307,-3.4392886,-1.6574755,2.2232568,-0.2408601,-0.9798236,-3.6505363,-0.65115106,5.983408,5.406854,8.334901,5.0700717,4.454298,-1.3962501,0.63539463,1.2176741
90.jpg,9.692854,0.99164826,-0.451267,21.433506,43.574947,8.595445,7.9413095,-0.50221646,18.27155,4.0031857,31.31683,11.730955,10.671122,19.799501,-0.8313419,4.36903,12.517078,24.885605,0.8444026,-3.145359,-3.8158975,0.34446734,6.1480203,4.3379517,5.1710396,8.224649,0.14027637,5.286658,-2.3569715,2.7896552,2.241477,12.435015,4.811058,3.5206277,-2.696896,-4.385324,-3.799571,-1.4402858,5.8500667,1.3287461,-5.7181983,2.5337164,8.375819,3.803093,35.84267,-1.2228479,1.7517306,6.5488734,2.0405467
91.jpg,12.693802,9.738541,11.567073,39.800186,34.369614,8.590333,-1.7545111,8.43708,8.407155,17.818365,23.414902,3.5151987,5.8889227,14.896957,3.5539255,-2.6157491,10.85173,11.060481,5.7506433,-8.482524,4.837931,-4.9467945,2.295435,6.980838,12.171322,1.6538303,0.14771372,1.5891612,6.4572625,7.6386585,9.040887,1.0657282,2.4738486,-0.85003805,4.463454,2.6912565,3.9619367,-0.97654796,6.539395,-2.7494855,1.918962,6.2314672,0.8511737,12.581235,4.659981,2.2260253,0.7681221,4.1455054,5.3503504
92.jpg,19.79447,-0.26159668,3.6315322,25.853195,54.126297,5.681591,1.855122,7.0280104,13.092737,14.065754,11.671858,9.360802,4.223635,-0.39342526,1.9022269,-3.5761282,2.0983396,9.799214,4.364977,0.7799629,7.054019,-6.489309,1.1966801,8.134455,4.468487,1.7891738,-3.1272092,-2.7420633,1.3001808,2.689518,10.916831,7.3282995,7.58365,4.7531204,-1.8736186,-1.6030262,-3.3904943,1.0753976,0.34585315,-3.7771518,-1.7090973,6.393708,10.344562,5.286764,7.7139335,3.3441267,1.5904576,4.435541,-0.12275837
93.jpg,19.604374,6.1150913,13.527732,30.540583,44.073887,7.634461,-1.6441816,4.994969,11.477452,14.304407,13.976544,10.788933,-0.59202677,3.4875557,1.664156,-1.6106472,16.32424,12.395009,2.015676,-2.573798,0.21664202,-2.8024967,1.4862778,11.247547,3.2246747,6.4104567,0.6330372,-1.7043408,4.907719,1.6913748,6.6741734,4.5441947,4.343964,-0.313748,2.290061,4.005337,0.5376485,3.904801,2.3665967,-3.7273154,1.821664,8.790863,4.315,14.200764,3.693337,4.740416,2.0339851,4.6813273,1.8263857
94.jpg,22.09143,5.398874,1.6670191,18.620464,52.113415,4.632745,-1.388086,7.315323,15.417427,14.469549,8.575421,-0.94701314,6.0590243,0.037497934,4.234673,1.9280095,1.1216935,8.087454,17.804712,0.12512691,22.890594,-8.0527115,3.317297,6.4350157,33.226673,4.5900717,-1.5835074,-2.135021,3.8289695,1.8198649,3.6834307,5.2938786,6.2749944,4.343451,1.3669517,-5.4355035,4.0643578,2.0983436,6.7523317,-1.4058498,2.8337007,4.92648,5.4644017,6.459702,3.3035092,5.3564777,0.40286905,2.4929545,3.6698997
95.jpg,14.821174,9.069094,7.5887637,13.847394,50.916256,6.0703177,2.8901744,7.316588,28.381561,16.32346,18.10256,11.833131,4.5380106,7.3619947,3.82825,-1.4756994,4.7121353,11.659187,8.717808,-2.7719572,8.13749,-8.284187,11.611354,8.019185,11.536188,3.1462615,-0.055504218,-2.7755415,2.6939557,3.8531072,8.215221,6.8798513,7.1060867,3.6289594,-2.094772,-3.9554617,4.773536,1.1147596,3.9161007,-0.41601816,1.7991556,6.814035,7.389769,7.806922,13.595324,1.007552,-3.7847917,1.519424,2.3677201
96.jpg,32.578423,8.094157,3.916762,27.689207,46.517715,8.220157,9.4093685,12.514276,13.60525,9.023042,15.2357,8.580989,3.4000297,2.1363366,2.3648713,-0.45563662,12.593564,5.6290765,3.1563516,-3.929289,0.8270999,-0.8017883,4.4636655,6.2011485,8.759023,1.7461935,0.09821043,-3.9205334,2.8858569,2.559051,9.943104,7.04848,6.514858,-0.7644281,0.42891082,3.9296389,-1.321729,-0.90888685,7.4043217,-4.3481364,-3.3446498,9.216776,5.173203,8.633489,3.1489968,3.6232324,5.344721,2.6200256,0.31826234
97.jpg,24.348146,1.1487296,2.1407995,18.446226,47.915695,2.8629236,1.7275658,2.894732,15.853069,13.817761,13.904163,10.909736,14.533934,3.0603383,-2.4016392,0.9417094,7.399216,25.100895,8.222813,4.2892575,4.4433026,-3.681424,0.07149782,2.581144,-2.1988695,13.748736,2.563927,8.582914,2.3907762,2.1252859,5.9790626,1.1909736,-0.37898478,0.5754131,-2.2797294,1.8472321,-1.4938818,-0.23626564,7.071449,4.380434,-2.2102318,4.433539,5.6141186,5.7575793,6.64213,3.3612409,-2.778489,2.4527557,1.7475717
98.jpg,24.213764,0.5243048,3.0096025,31.06922,49.73806,9.936028,4.432699,9.328252,11.225907,14.55201,9.234989,4.724402,5.5270424,-0.11284966,3.7054248,1.9551353,8.546825,14.444174,1.6066852,-1.6915735,0.8218591,-3.3766136,0.47415686,7.0597186,7.405229,0.5730411,-1.6340381,-4.299131,1.1676842,2.6321566,4.9263916,5.784784,12.550809,1.79447,1.4334397,1.5209136,-3.8280056,-0.34227055,4.6519203,-6.2800226,-3.0067773,6.0030527,6.632764,9.969707,3.0521839,3.215947,-0.3418266,3.3366828,0.47566706
99.jpg,26.118666,0.9965118,-4.3926506,11.75116,46.1283,25.368797,4.9680285,10.237126,5.413415,4.729701,17.517025,4.845513,7.32089,1.4972165,6.747056,1.5352417,4.105248,11.191575,14.788431,0.31523034,12.139213,-3.9237785,6.517516,5.502387,29.00781,3.6440194,-1.0263767,3.742002,1.3909457,0.26076528,0.51330245,8.843263,2.4855912,5.377678,3.3437226,-2.3729038,2.674183,1.5935006,9.446189,2.0220633,-2.7260318,9.184621,4.015472,4.4289947,2.1503682,0.19782586,3.2696934,2.298243,3.2428973
