image,0,1,2,3,4,5,6,7,8,9,10,11,12,13,14,15,16,17,18,19,20,21,22,23,24,25,26,27,28,29,30,31,32,33,34,35,36,37,38,39,40,41,42,43,44,45,46,47,48
0.jpg,9.854597,3.7500768,25.294538,-1.660192,-1.1493202,14.851186,10.177514,8.65948,-0.5893335,3.169767,9.104048,10.064436,0.978399,5.155796,0.7830017,-1.2698592,2.6977983,7.8983874,2.6739306,-3.239666,27.669844,8.618975,4.2646203,4.063965,5.894607,-3.1244845,2.8187633,1.3669795,0.44551826,5.182223,3.3039303,-3.0834706,-3.6850567,-3.5369668,29.324781,6.4931803,4.5609174,1.7294848,2.270868,0.3767606,2.4548655,1.726152,2.6460345,0.57315826,-0.08218773,2.083927,4.971343,0.50285023,3.1261034
1.jpg,18.965649,32.475235,1.752106,12.382608,1.1573794,12.299414,2.6423006,5.1215024,-3.7426927,3.0444384,8.814006,8.442177,9.39837,16.136446,2.5542014,0.006521959,6.7306614,17.375519,29.04207,3.1008632,4.317411,1.5016867,-1.3176551,-0.36558807,2.7334049,4.4153123,5.787275,10.739342,5.23917,1.6733613,2.274225,6.440147,-1.8523812,3.2955627,5.6494637,0.06015729,1.126278,-2.4202216,2.3996298,3.012971,0.8131169,8.398844,-0.114699826,5.6309214,0.54142374,2.6756954,5.6485524,1.0640463,5.306205
2.jpg,7.563369,3.2688372,5.4858193,17.229109,9.934209,4.4713798,-1.0109011,14.03051,-1.4670926,18.759548,13.106322,1.7407428,6.2012615,6.8295255,3.771922,7.84813,3.93809,11.166059,16.342894,-0.9727422,10.868551,4.403375,1.8032713,9.235292,31.651693,11.88222,0.7173244,-1.7010072,0.9091257,10.688895,4.1041474,4.7784986,4.339302,6.7204823,1.0404359,-0.23446563,12.177487,4.5201697,-0.24732518,0.5154052,13.9935465,1.7989901,0.096260056,4.1003013,2.7526152,10.23774,3.4026597,2.9953048,5.5398827
3.jpg,-8.145338,8.3724,7.3387012,19.034355,1.1808802,10.765493,1.6680619,5.33482,-1.0078079,32.462463,12.856859,7.6586537,16.004362,8.837756,8.400885,-0.33441913,1.035164,17.999361,1.6940942,3.7475302,5.510651,5.458617,5.6117187,11.607416,21.550962,11.284652,2.7156358,-1.2263739,4.9605784,8.6187725,4.7829785,6.350523,8.556024,7.77303,-4.3234434,1.8231057,9.637684,3.6622818,1.044624,7.3899584,19.769875,5.634566,1.957296,2.1708019,4.5478187,10.417099,6.0841417,2.9063826,6.9044614
4.jpg,29.611555,-1.9667695,9.2895355,31.358887,4.9702735,-0.94824916,1.9739853,15.929773,3.4319706,18.769972,-1.3683352,2.2789361,17.833927,34.863113,11.080403,2.2121007,-0.8606406,8.106056,-3.4504883,6.649873,2.5972311,4.2579174,-2.415075,2.8746054,7.4420495,10.68925,7.3811097,3.2534952,6.802334,6.5055175,-2.434069,3.872107,16.021152,5.096008,0.84761083,-2.15943,20.789005,2.465604,-0.7759621,-0.13478966,8.255139,4.637569,2.9998786,3.545713,-6.3863277,3.6296508,3.446861,-3.1510868,3.3141587
5.jpg,28.61088,7.3051987,7.683914,34.075127,3.4329515,7.974777,-2.4637377,11.223813,3.7555628,12.830004,7.2999187,2.8232203,8.92607,33.607258,3.8209145,5.216584,2.3172657,9.329781,-1.9133787,-0.24102293,5.413259,-0.009274669,-1.7630469,5.304652,4.4082923,9.2258215,3.7995582,2.9504714,5.0909,1.6008267,2.4313629,1.6731156,7.4877357,1.0393487,3.0918512,2.5030854,18.811945,-0.8514416,-1.0607822,-2.1024666,8.304318,5.341413,-0.1531092,4.827643,-5.04418,4.065637,1.8120215,-1.6532716,-1.56617
6.jpg,11.696567,4.100079,12.85014,27.644793,-0.4599323,-0.05089715,9.536245,6.7973485,6.532097,35.841366,15.975237,1.6396575,-0.893192,41.63234,2.3306494,3.8555834,-2.4754553,9.907124,1.2271134,9.828973,4.074395,-2.9903474,-0.33017117,3.313323,5.220269,5.352161,4.9394164,6.5146265,8.128992,6.0197268,2.6123905,0.13411921,0.4334189,1.3264418,2.0129397,6.909284,12.705475,-3.3760831,1.8057932,-1.2006361,5.6448503,11.056995,2.3128066,0.1926763,9.378598,-0.65484035,3.0195181,-1.3186526,-1.6351022
7.jpg,16.167574,0.7339497,6.9292727,20.990036,-5.458658,6.369013,3.5037727,22.018644,2.2199562,6.3352084,11.833679,4.216183,14.314127,46.914867,10.826527,4.9146457,1.1967039,2.3760042,4.220537,1.958852,3.1476684,4.195501,15.802606,1.9118842,5.1829987,8.708906,10.407091,4.835949,5.877179,14.843763,-4.6003346,-0.8468823,-1.7150472,-3.0684192,3.029983,-5.0700097,12.3123045,2.1304388,8.065968,12.114386,6.968677,1.0523975,-1.5792485,3.680101,-2.6876132,1.0641065,-0.12866315,-3.066562,4.7140093
8.jpg,32.220943,2.1180193,2.1720104,6.158557,6.7438684,0.90657973,7.246633,66.1735,1.976442,3.1478133,3.1478844,4.459618,18.891815,11.629419,13.196468,3.3355784,2.7352805,9.77739,0.7564675,0.5515444,13.278246,1.7061673,5.4774456,-1.3811711,1.7819798,1.3354309,0.8024751,-0.3324637,4.240454,4.9238787,4.3698316,5.3202124,13.68844,2.42896,-2.240168,-1.119852,-3.86656,-1.7339315,1.3975396,-3.0838792,0.9110503,0.10328768,2.7943602,-1.737744,1.118498,-1.5104526,2.9413204,1.3837165,2.7972517
9.jpg,8.964554,6.7526608,23.74073,23.813416,1.9821343,3.3064575,14.656767,21.88194,-6.064156,42.801834,9.32283,1.3823023,4.8734436,34.617836,1.8262401,2.5933526,-1.7433597,4.7310786,1.6528875,-1.4115748,5.26424,0.5995853,0.040601194,1.643154,6.6272626,5.3277116,4.1018276,2.579554,15.6678095,1.3339679,4.532511,-2.5036647,3.5972862,-5.031697,-0.93228316,1.3817174,12.1015,-4.8348145,0.15899125,2.53509,5.894576,1.3996218,5.7028155,-2.5675495,0.35600892,-2.585788,3.363037,-3.4330516,-4.269805
10.jpg,15.299738,0.32914096,6.441099,23.782673,-0.26670146,9.619682,2.8879118,15.066552,2.3182397,15.766515,15.85808,6.3658514,3.6857214,49.410557,4.7014923,4.626582,2.453064,12.784152,0.42705628,4.580147,9.592448,0.00018104911,3.0594413,-1.5421739,1.0479017,7.135985,6.8755774,3.9926212,12.030446,7.101443,9.250444,5.153844,1.4450655,6.1386847,-0.091996044,-0.12650779,19.804464,1.24818,-4.2034564,-2.1298184,6.5523,4.5417185,6.05185,4.438791,-0.61045945,0.83814913,6.1059523,-3.7385306,5.1611314
11.jpg,22.632647,10.461909,-0.8631576,12.950241,-3.049186,10.395249,0.667144,38.74966,-1.4073017,3.6427484,17.371561,11.59614,16.913141,13.029408,1.2737677,2.4574306,11.31815,15.107451,3.4411724,-3.759157,3.1305056,0.37467453,21.364815,5.944801,3.590677,6.505099,9.474199,9.503171,0.99057245,9.837003,0.8504548,-0.70587313,7.0699615,-2.0196118,1.9678434,-0.7621758,1.5949454,6.8544774,1.5309268,0.8172432,6.051323,3.3294592,-5.103111,4.7638545,2.5097597,-2.3636985,-0.38219458,-0.88176215,4.157827
12.jpg,18.60094,1.3464415,24.90326,7.4867144,-0.22892119,5.823535,0.11988678,40.102665,-1.9761238,7.09228,8.95046,5.976608,6.353527,9.867108,1.983064,-1.0425892,9.433695,13.837485,-5.332049,-4.948718,19.426708,5.5165234,-1.4756935,8.62555,-2.3284895,4.2039604,5.6799116,5.5624337,12.205946,6.9833117,3.3419344,7.5516043,-3.650009,0.58411753,6.148697,2.0884101,0.57878125,1.7403536,2.1304908,-1.3830643,0.3324179,4.4184513,2.318421,-1.0567155,6.948673,-5.8443613,0.05235879,2.9031696,5.693026
13.jpg,-8.209878,38.12093,5.04925,14.127911,2.0389569,11.4235735,-4.7756305,-0.5660424,0.6736512,9.872849,19.540369,-3.197344,8.210141,4.254442,13.268482,0.90283155,2.7930279,2.5417442,15.202443,-4.6474657,2.2093248,6.5933228,10.693242,7.1931386,20.913015,4.44983,-0.15290213,0.16214377,4.265744,12.076887,8.383658,8.270869,6.3219366,11.758572,-0.03953073,-3.1980884,10.777209,4.5562167,-1.615861,4.9605665,8.6595,0.92011374,-0.3556696,1.6204581,1.3312734,5.016216,1.7786477,-1.1541923,6.134943
14.jpg,10.931606,-1.0236928,47.511246,21.833689,1.2593116,-4.4598174,6.453371,1.8305272,-5.3433566,27.241179,14.253693,11.557289,4.4445605,7.0673046,3.2767475,-2.4467354,3.55725,7.64464,4.139819,-1.2846496,2.0611067,4.9350834,0.68929994,15.48561,7.826131,4.5229325,4.3637466,2.618809,1.4528846,-1.0950779,-1.3571975,5.3831964,4.4524627,2.804052,-0.26617852,7.7879033,4.1534243,2.5655136,-0.82372326,2.2896934,9.64231,4.206198,2.98664,2.0833042,8.165542,-0.58524036,2.9710383,1.5731815,1.8626654
15.jpg,8.651533,28.293604,2.7950811,11.58991,7.1313977,8.521999,6.6500316,8.113532,12.938263,12.186999,5.5279665,17.296904,4.068309,6.5951905,0.25527868,3.61961,11.797821,17.74919,32.53615,0.14995393,3.2151482,1.4266783,-1.4575375,5.080413,13.563869,6.6401234,5.790003,10.597433,3.565669,0.1409134,0.6652456,5.864759,3.9072018,-0.83601546,4.533164,0.22748084,6.5258,-2.3910735,1.217939,-0.5628505,-4.8722687,3.800189,-1.7489178,-0.63009185,1.3732826,0.57135934,2.4332974,0.65141094,1.3345814
16.jpg,2.553014,33.784397,3.236819,13.469534,-3.571432,7.7010274,-0.17606483,6.1468096,-3.2688189,8.098639,24.43731,11.1513,10.401208,14.452079,22.34771,-6.76203,12.5893135,10.298318,7.5301013,-2.3557677,9.320843,2.8903055,0.59700155,4.1950817,8.481165,16.744253,-1.328245,1.5760138,4.520081,8.352394,0.45479816,3.3580341,7.1536875,3.6794279,0.9806267,7.2577877,2.7320857,-4.284501,-0.47222748,-0.61780596,1.0464964,2.247602,2.495679,0.55411077,3.8607695,3.7179756,-0.8251442,-2.1428027,2.4582875
17.jpg,1.1166126,42.155857,7.043547,19.088758,1.1558166,2.2005923,-0.55397767,5.1537795,-1.6636719,7.771325,18.736298,1.8649346,7.4337006,21.909628,17.408743,-1.9757453,5.8293853,14.172297,12.202271,-2.8471441,24.859081,0.3821551,0.26104766,2.0346467,8.918806,10.770247,1.9780054,1.1193227,-1.6276362,7.6839643,1.9597478,2.0579264,5.3744884,3.7016847,-3.223759,1.58868,4.3880477,-2.0648806,-4.766284,2.4298792,5.6796002,-3.2212615,1.1088525,0.43957633,3.5093813,1.311772,0.3002353,-1.6903982,2.9467604
18.jpg,22.533167,-2.1210384,16.619223,13.629701,10.83079,5.9847517,-0.6713046,14.616024,-3.183977,22.869535,17.436079,4.895999,32.332066,18.215673,0.7803379,6.1629715,4.3203278,12.131515,3.67743,5.0448775,8.429775,-6.221248,3.3812766,-0.5029476,4.7606225,0.96920544,1.1306101,0.5292612,5.288408,6.2510448,-0.059685484,-1.4246955,8.517474,3.8095503,5.79601,-3.7589164,1.7254426,1.1751676,5.601826,4.9188623,2.879086,9.244527,2.9312596,6.307778,8.479664,2.6872058,3.603992,-2.7728534,2.8285582
19.jpg,-3.1083565,77.68692,7.405076,5.7104397,1.1693537,8.373942,-0.6443235,3.935382,3.2682407,3.9642594,6.5375156,1.6467154,2.7773786,4.491132,0.83078814,1.247338,2.0004947,10.738559,3.024192,-3.2415793,0.77626777,3.4276643,2.8851128,7.160362,1.1628946,0.40035546,1.6566375,3.848074,3.422683,5.2644567,0.19085729,1.8076073,1.557894,0.93890333,1.8021291,1.5518297,0.79078954,-3.1238546,0.24282429,3.6502614,0.61092806,3.059558,2.7500026,0.87124324,3.1582222,-1.2644888,1.1219871,2.219247,0.46863073
20.jpg,-6.146375,39.34509,3.6948547,-1.4567584,11.970223,4.931862,8.883841,-1.4064778,5.598838,3.3345833,8.650267,15.721181,8.4381895,17.753504,13.300257,1.8369867,7.350806,17.44767,-4.206893,0.8530256,0.19206387,7.969038,6.7721767,-1.0365841,3.1943188,1.1262443,-1.374462,3.8675075,-1.4759766,4.9114046,-0.87926376,8.960132,1.0191787,6.645242,7.733537,-2.0888772,-2.077344,-1.3811485,2.8050206,-0.62868226,-3.627536,5.5328817,0.88726807,3.6713228,2.1100159,-2.767473,0.31025174,-4.333305,2.6928506
21.jpg,18.119745,36.726494,-8.180846,-3.6740859,13.919965,-8.523529,4.9464216,13.892685,-0.4063416,-2.7718127,19.38214,9.574713,12.44716,9.71422,7.861307,8.8885975,5.5019193,11.674316,14.530457,2.8947594,6.873084,-3.39167,0.1710816,2.0867765,7.34661,2.3876507,0.24025102,7.374953,2.2765238,-0.88210917,-0.11132033,2.5605717,2.3406909,2.4552095,-1.2997534,-5.5339065,4.8847127,3.3546746,1.6472422,2.2572649,1.4467876,0.4685512,3.2891593,2.7396274,4.873396,5.859182,-1.9408386,0.96166337,4.973058
22.jpg,-4.2819304,68.5411,6.885928,11.164698,7.192897,-0.49663606,-1.6723179,3.5778437,2.674631,9.327362,4.935992,-3.9984949,3.467004,9.8179245,10.58485,1.1681905,6.3305154,16.353745,4.2697983,-2.668977,1.2028345,8.766329,-2.9677796,6.096643,7.534403,3.6034715,0.22981577,2.4197433,1.6773978,5.989052,-2.6482654,6.1578865,3.2772171,7.0403194,-2.197117,-0.33596596,3.2133234,2.9830148,-0.3113972,2.6354802,-0.28771186,0.178988,-0.09357196,2.831731,4.9454465,2.679783,-2.9042032,2.9044971,1.8496195
23.jpg,4.9706903,11.86116,17.340073,14.276682,-0.1267314,-1.280874,1.0259535,4.2265034,-4.235104,30.892092,22.192461,12.2733555,4.4950953,9.983298,-5.7072415,6.4510236,10.3325815,8.503016,34.774593,9.885767,16.998247,-0.074781105,7.6172223,4.904905,12.138983,9.732081,-0.3514331,7.094203,-0.6038055,-3.0880613,4.374679,5.8609443,6.6901274,4.7959676,4.205659,2.106559,-1.4357612,-0.47519222,2.105334,2.9482727,4.4911666,3.930029,3.111013,-2.5906851,-2.8698306,-1.9996074,1.9408505,-2.9535031,-0.31414133
24.jpg,5.8441105,12.932952,1.766279,2.0436585,1.3936815,1.7342839,3.5811753,15.863281,2.72565,3.1667557,36.098476,5.582314,12.953469,18.803865,1.4524195,5.2074723,9.576062,13.458711,24.908705,11.372956,6.795767,6.068701,10.869824,-0.9411551,5.3038,9.315552,7.3066764,9.364564,3.922003,8.189722,3.6667526,8.131345,5.0451193,2.7564566,0.057789497,-4.199631,-5.2009935,-3.0269668,1.2776442,4.8959055,0.06722407,7.654868,-2.4897544,-2.5087736,-5.1988316,-1.2422721,1.4838607,-3.9922998,3.7266147
25.jpg,16.764154,13.836777,-2.1090903,13.765004,7.168755,4.005319,2.841344,4.2762733,2.0451374,8.723439,31.796726,4.245675,3.491103,9.346338,5.844881,0.76547533,8.952702,18.285864,26.028473,6.627528,10.652592,-5.320582,10.441116,-1.8953573,5.422478,3.3086438,-1.1845638,2.94751,5.7862463,6.6901164,3.4554296,2.5735226,4.0683966,7.2345266,4.2393847,2.6273322,-1.2109289,0.8091971,-2.5627143,0.6494092,1.6895529,5.2524695,-2.2394073,1.693471,0.21394971,0.8705015,-3.2372303,-1.7089566,5.922303
26.jpg,27.859465,18.451056,-4.094043,3.7853458,3.220898,-4.519146,5.422796,12.059215,-0.10807784,4.405581,21.491043,33.92653,6.279254,14.953613,5.690669,-2.5683997,13.452981,16.47099,30.028137,6.225286,9.483243,-0.5059522,7.8871207,0.39025763,1.2432115,3.4677691,1.1511073,7.14081,-1.1011292,4.19098,-0.906952,1.9672575,6.0415564,4.203545,3.5453074,2.7542043,-4.5321965,-0.84811676,-2.145759,0.68400156,-1.2008874,7.166171,3.3961575,-0.2439811,-1.3031784,-1.1435148,0.8538902,-3.277545,3.0470674
27.jpg,23.350456,48.738823,16.588621,1.5730587,4.55558,17.13112,6.3517275,0.41277242,6.773433,3.0406978,5.6671042,0.04856754,0.6133849,0.37868977,-0.6372053,20.529589,10.1476145,9.456004,2.1320374,5.2659845,3.7113152,4.193962,2.8335485,-1.3024894,1.7039726,-5.3477483,13.913366,3.8350382,-3.0426404,0.7281436,8.118856,8.379953,3.134787,9.432758,0.68657184,5.709603,0.17926763,-4.4429574,0.08212607,-3.704948,0.2702227,6.0819473,0.72010076,5.846753,5.8552523,2.4286377,9.18717,5.7317333,4.481286
28.jpg,29.800182,31.40378,-5.1617274,13.95439,6.3406067,16.862144,7.268115,12.1037035,1.7992125,6.658497,3.783016,13.52853,7.151638,1.3288053,-0.7324038,3.188587,6.809009,16.992926,39.917755,6.6394134,12.012851,0.6055453,0.1615108,8.876668,10.401887,8.443111,2.9221678,3.917865,4.668208,3.4265864,0.2611708,-0.07172204,2.5422068,3.1796052,1.1906399,-0.53224957,-3.0213368,4.73505,2.3792415,6.979233,-1.3466066,6.285951,2.1553864,1.055238,-1.7634696,0.77544844,1.2114167,-1.6634921,3.150624
29.jpg,-2.1632497,-0.5913082,45.39475,22.830065,-0.514386,-1.7740501,6.7898383,0.64206517,1.1901003,20.429207,1.8646442,11.939741,3.3283076,2.954055,-6.312756,-6.6692038,-2.2192638,6.12238,-2.4320774,-4.003771,5.3737745,5.217468,1.4454875,9.745803,2.4463844,2.9270492,6.3393126,5.5335503,7.0329986,-7.4602246,-2.3309615,-1.2567756,4.8067703,-3.6556296,5.464824,1.2712868,3.009683,-5.105605,2.4215908,4.6911807,-3.4450762,2.467655,1.4722395,-0.81773996,4.8967285,-2.5108976,3.2984037,1.4659913,1.9886675
30.jpg,0.9503346,4.840186,46.077507,19.541,-0.5040781,4.267461,5.35325,8.690393,1.7759124,23.588272,3.8657925,4.6859922,4.6796017,10.121704,-4.0124235,-2.8780346,13.061246,13.771164,-1.5723271,0.14355001,5.1536627,3.2157996,-4.1006947,2.0107224,7.6133037,10.202131,7.6527925,-0.93893844,4.7364197,-6.303233,0.1443442,0.75991523,0.1647436,-0.15317164,4.5151463,5.892589,9.425776,-1.9448045,1.8953061,0.9846497,2.2789176,0.7744912,4.3466935,3.0842912,2.9566896,4.7975755,-0.089246035,2.4109418,1.5807565
31.jpg,16.06111,4.269308,5.9988194,36.58984,0.36517912,5.390305,9.532838,10.806101,2.7198334,29.997587,22.54504,17.869623,2.6274312,14.744581,3.9915092,3.0913894,8.708195,18.058672,2.4242692,3.695881,1.7344098,5.025398,0.60521036,17.699177,3.59919,9.073609,-0.3289979,4.441087,7.822804,3.739687,-2.3258529,7.372517,0.36667323,-2.3134682,1.7725974,1.6482323,7.1032763,0.9120393,0.46242717,-0.6664534,3.2497272,6.3591056,3.0748591,1.6345311,-1.1788998,-2.4654815,0.28525218,-2.062333,0.23748837
32.jpg,6.188273,18.591763,3.7413616,15.963134,4.6639757,11.177674,3.30019,3.884704,1.5796591,17.239515,14.415862,24.415707,2.630108,5.3737273,-0.95476264,1.5578243,1.3904705,15.735165,30.674938,-0.102000356,3.0138583,4.9380445,0.9991623,11.732778,1.8772886,6.3386173,5.739619,10.935574,4.298895,0.3622626,4.9693375,8.5837145,0.24628387,2.1649575,1.92182,2.975402,-4.465242,1.5986296,-0.8950384,5.007126,4.0133214,2.904419,3.6355755,-0.56982374,1.2895399,5.318042,2.660936,2.149621,4.3837757
33.jpg,3.8297083,61.32961,0.10325824,12.169747,11.149746,4.171277,2.8726768,3.0666761,-2.9647229,3.2234385,17.068403,18.18096,5.454959,6.486163,0.39830002,5.035053,13.890216,12.970055,8.864283,-0.63612133,-2.2262387,3.8536928,4.731437,5.634595,2.9308085,5.0464525,0.2637538,3.099421,-0.76296014,0.190779,6.682862,5.2292275,7.123495,4.0638003,-4.322256,-1.9502356,-0.89460623,0.72133523,4.067894,4.841958,3.745823,0.19465369,4.481778,5.3508735,5.135213,1.3228581,3.2805152,1.1234343,4.544161
34.jpg,13.103869,2.9800658,21.331911,42.523403,2.425103,0.68738985,2.9825623,7.4462676,2.734819,33.930172,2.4342823,11.443065,-1.2987984,15.05985,1.0737743,3.5932024,2.5071166,13.547738,-0.59994555,0.8953875,6.463121,-2.555582,-2.201017,1.7041008,1.2284845,12.462324,4.902902,5.7813907,2.1157417,0.49106088,1.1406263,1.5215553,2.8512192,-3.083433,2.341161,4.891752,1.3080584,-4.7247953,-1.173645,0.5232755,4.3980145,1.7841423,2.227558,3.449319,-1.8358283,-3.5335205,4.355207,1.0011995,-0.3893532
35.jpg,2.5516286,2.0376523,16.576962,29.308212,11.038174,-2.9708977,-4.0297008,5.723312,-0.95491123,38.790695,14.76561,13.319722,-1.5734003,2.7385144,-2.4447792,1.9537054,3.8574736,17.39411,14.093322,-0.35622698,14.521596,-3.709976,-1.4971858,19.009287,10.774992,5.3805285,3.9792364,1.4395707,-0.056701712,-4.380628,4.1504636,3.0215576,5.4016666,5.830122,1.2118459,3.685887,4.098256,2.1382253,-4.085774,2.7910204,9.905169,-1.3617789,0.7287986,2.2793045,2.805649,0.39265212,4.031607,1.199401,0.94123685
36.jpg,10.576181,3.5523798,15.984353,44.935688,11.102807,2.2915537,-1.018853,9.150793,2.5251904,43.642853,11.970434,16.367525,3.211216,9.626511,3.0637796,4.3848104,5.6999416,16.005894,2.7837758,1.1141877,9.422876,-2.3765576,-0.6677948,12.38412,-0.89837563,8.137248,3.2664754,2.8162253,3.4209278,1.0198059,4.4588346,3.0530806,0.41754302,1.5675701,7.88208,5.632965,1.7074548,-1.2268869,3.3185596,1.8250382,4.554529,6.1357627,3.5007842,4.185164,3.411781,-1.3573182,3.8212597,2.5874884,1.1300753
37.jpg,8.124892,15.791949,23.25997,16.076305,-0.6882154,2.269232,5.2153363,22.497301,1.3256301,22.329792,5.973999,-1.3448179,12.893328,35.185425,-3.8342912,1.5428283,1.3411702,10.887246,6.528054,4.707121,7.556107,-4.679095,3.5954468,-3.3063202,-2.4780757,-5.382392,3.3471022,1.9822485,30.16872,6.752315,2.7165105,-1.0748926,4.884879,0.9994913,2.3191512,-0.3641459,-4.5205812,-6.7591863,5.334801,2.2575772,4.3168807,12.760923,8.820612,3.2501864,-1.8729182,1.7413104,1.8819697,-4.581033,2.7402687
38.jpg,22.581776,8.6084795,9.99413,21.280287,-5.1569333,4.0446377,4.441353,15.24806,-4.076181,12.807582,7.1820483,-3.414956,11.829085,21.369328,-2.9603019,7.0595913,-3.402345,10.525117,17.157675,-1.5801705,7.0038958,-2.9160478,24.95123,0.36139628,5.368857,8.028528,9.627932,9.55595,13.558682,3.314621,2.1664202,0.30134985,-1.547545,2.9933333,6.354973,10.342538,4.0137477,-2.8066535,4.2197146,5.6511087,10.566032,3.682726,4.930611,0.8964665,-1.4751934,7.797559,-6.721212,-5.0384784,2.534226
39.jpg,6.1560698,19.161465,16.531246,7.649559,-3.0336146,3.487146,6.315357,16.477364,-2.0573025,9.378364,12.990381,8.507348,5.5696354,18.306652,-4.851443,-0.9012383,7.1956143,14.759797,22.834011,2.707881,1.6109254,-0.45175982,13.759534,1.8570086,3.0347326,1.6248769,-1.1692775,9.24622,28.677433,1.2691127,6.0643096,5.960515,1.016029,1.2911521,4.390588,0.9553358,-0.22972016,-7.6685414,3.8465261,4.989592,-0.115153655,7.6217785,3.3431687,1.6920696,-1.9295279,0.61227494,-0.51084673,-3.8697748,4.660031
40.jpg,-4.361623,18.905243,8.801106,26.372274,4.99403,2.3703766,7.5961986,8.36174,6.24565,19.862389,11.182016,25.634537,5.946128,10.591209,1.3648666,-0.9812863,0.101721056,9.924737,12.241063,-3.0354648,21.0775,2.1848667,2.5065274,12.127069,1.3428733,0.14820156,-0.8289905,8.505911,13.714874,1.6054991,0.0041124877,0.077182986,-2.831217,-3.016216,1.8754233,-6.2092357,4.099598,1.0510736,-0.32313707,1.3127449,-0.93446225,4.5227594,4.470526,1.6236749,5.019495,-2.2690203,-0.18967706,2.567896,-0.2851739
41.jpg,4.9034266,4.0540686,16.550186,13.562538,1.6388049,-2.0788622,-2.4465587,9.731044,1.4423592,32.561035,17.496017,8.197922,10.70271,8.50361,-4.6902714,5.6505427,2.4532995,11.8727865,9.778658,7.2767587,4.1336617,-1.1885949,10.715378,13.676113,13.786541,16.136635,-1.3895866,0.31290752,0.44637993,2.1701639,2.926185,4.252423,7.681647,1.7238289,5.0020895,-5.9235463,1.2091247,-1.0335453,-2.817971,3.4112394,8.983569,1.2339326,-0.7386512,1.5784088,-4.1647573,1.3720747,1.2754413,0.15366581,3.430895
42.jpg,2.8498433,9.865017,8.795198,16.438292,4.291548,-7.2418957,-4.3858476,5.199823,8.658169,27.903519,15.795045,2.8880272,7.152482,9.782882,-3.3820882,5.7378583,5.802174,14.966356,17.308813,8.196929,3.9806042,5.230879,4.0878396,17.3143,16.422085,18.464088,2.2329347,3.0206351,0.21746176,3.6824067,2.0650399,9.601504,10.529694,6.8865104,0.17243457,-8.71211,9.833393,3.084827,-0.70052695,8.274802,12.7160225,3.0413973,-1.8254244,1.5066776,-3.0312066,2.3525457,-0.66493815,-0.0116813,6.697926
43.jpg,8.088706,33.133423,9.802118,12.1458845,0.36374304,2.8387299,-0.61521304,0.45986807,5.8792276,28.405523,12.619426,0.53928864,6.171985,5.62592,-1.801694,2.176792,6.2396665,13.298951,7.882285,4.958741,8.087981,9.052209,14.128622,18.497866,11.825167,22.341915,-1.4986206,0.6551314,2.6758156,5.4132957,4.376509,8.021513,1.2718713,3.3835135,4.6725745,-2.1650984,11.5721245,1.3026018,-4.768339,1.7320248,12.082139,1.3961333,-2.664239,1.518862,-3.0240874,3.022085,2.7876854,0.025001634,6.259492
44.jpg,11.165079,20.415066,-1.1688315,8.968627,5.392496,2.0780458,0.2498543,13.4405985,8.979249,10.638898,15.678118,6.8728657,7.85655,10.830279,5.7578707,4.686152,9.5823345,8.018673,26.10252,4.184238,1.6364303,5.8772583,3.0817287,11.649389,32.56679,17.750559,-0.6711357,5.2237477,2.9363046,3.1220844,-0.2706688,6.31314,2.87345,5.125754,-2.2593644,0.017714594,20.644302,1.8244941,3.0268624,3.5256677,5.240671,-1.5594506,-6.903137,-2.550689,0.91661066,6.759735,0.8096667,4.3143873,7.8348546
45.jpg,24.485817,7.797783,12.4633255,21.630243,13.225261,8.867405,6.8936677,9.289039,1.6257806,25.33939,6.397357,7.1879535,14.050343,5.0449023,1.5268924,10.487842,0.67145795,5.37049,4.795004,-5.7680144,15.181288,-5.1036425,15.321949,4.6427546,21.7267,2.4342384,-4.940344,-1.2279835,4.009784,-2.43988,10.425369,-2.7355742,1.2941878,-1.0457773,2.6748881,0.4055217,10.394277,1.2459258,12.246598,3.9232876,7.572563,4.845493,6.178694,2.326748,1.846642,8.292488,4.3352284,-3.6912615,0.3008541
46.jpg,31.377762,3.2804408,3.4293776,6.915761,-0.76187485,1.3211194,-0.42038354,6.788911,3.4021544,12.733729,11.928676,5.6554728,13.868555,3.0124643,7.799963,15.161243,1.9428337,0.70605165,4.2977796,10.208466,-2.6678987,8.4564705,19.12183,19.944292,12.283875,21.67667,27.91856,5.944912,0.12068041,6.4079156,-0.8961778,2.9355817,-0.9634182,0.9842328,-1.649107,-5.1683984,3.954411,0.5357863,2.2932882,11.873299,5.0808873,-0.96623737,1.8566185,5.2348747,3.4019568,4.520904,-4.6933556,-1.6150944,10.096848
47.jpg,21.982046,4.7475295,2.5052457,10.602388,-4.819726,-4.3243947,1.282477,3.8488991,4.911303,21.329952,18.64704,11.350471,14.3405075,5.2864194,4.304518,13.452389,15.239821,17.363983,3.8497665,15.732039,3.6138113,4.77698,-1.1598057,25.007988,13.975922,25.45008,2.213661,1.8339356,4.184824,5.708358,-0.35594255,3.3631458,-1.2363627,2.4229078,3.6095407,-0.17423962,9.5219555,10.241633,0.1411859,11.602247,15.518152,3.6799788,2.7132983,1.6588674,-4.1139297,0.044436194,3.9355323,1.158265,1.6130364
48.jpg,6.77664,10.8348255,6.157774,20.497446,-0.9990791,4.5831723,-0.5725811,9.579328,-0.3465909,27.367031,28.901688,14.437553,0.6709547,6.7008905,-0.48266044,7.848626,18.911215,1.8159032,20.542702,5.6126633,5.102834,4.3123665,0.34264064,17.98041,18.839464,17.382002,1.9171344,1.4706132,-0.04200954,2.7715235,0.49070725,-2.3293245,2.7028582,0.22387812,-1.6224563,-0.55095154,7.6355314,8.665969,-1.964791,-0.9682437,11.337877,2.8637834,0.20488864,2.839121,4.31769,6.010183,0.9208348,2.3445117,5.7978277
49.jpg,5.893255,12.870267,13.914914,19.073172,-1.7429203,-2.825201,-1.6785138,3.0537336,6.711773,34.627174,4.0733213,10.450905,5.2205687,4.8716354,4.6102786,3.6790385,2.687386,8.809133,12.571023,7.9263597,5.6871147,8.162473,-0.37820673,18.390272,19.347055,14.880673,-2.3648736,1.8134667,2.330243,6.063783,0.4864456,4.4824347,7.4512296,5.7661047,2.656038,-0.8744525,15.247276,14.660257,-1.2207083,8.724265,16.163548,0.758859,2.3664045,-0.20850123,2.3429108,5.687596,-1.1048217,3.5915415,4.8867407
50.jpg,24.896175,1.5697237,12.002695,18.389801,5.3898335,2.2471707,4.941161,49.25967,4.4456196,16.892643,1.720257,9.089409,9.084921,5.8575273,6.8473883,6.7495756,-2.2271895,4.3830214,2.6260679,1.0806353,7.987593,3.1401024,5.1205673,9.637991,0.33525246,10.440226,9.776955,1.0338857,-0.68740934,3.1166975,0.48196986,4.703621,12.167356,2.4818459,7.2631016,1.0445907,-1.0641701,5.025917,4.4690547,1.23414,1.489274,2.440714,2.3325014,-0.88297874,2.405129,-1.2216736,1.406544,-0.18022908,1.1648065
51.jpg,23.205265,0.123958945,10.325764,34.268864,8.852371,1.425166,-2.0777988,9.600089,10.943383,9.758439,6.2995954,4.5807056,4.11555,26.389647,6.114708,5.110249,6.244596,7.176289,-0.8002604,15.150948,5.8718605,4.6304083,2.546607,5.0201325,7.6834283,9.8659935,1.7106075,4.3200045,2.187521,-1.5483601,8.912507,7.1538,28.65524,10.270413,6.3374014,7.5272374,15.462963,-0.8822929,-1.1987345,3.331281,3.7993543,2.7496665,2.9620872,-0.049300957,-3.1224756,3.1837847,8.890188,0.14615068,2.0177023
52.jpg,6.3018994,15.389924,32.87471,9.182966,-4.76314,5.45045,5.4597898,14.98408,0.6757046,17.776752,6.0365186,4.9380646,15.599796,7.063672,10.971574,-0.31994423,4.4578967,4.7351685,4.8400216,0.8433358,4.776339,6.6990533,-2.8516636,9.032755,8.755302,2.1587806,8.294476,3.3046484,11.879538,13.222969,1.5947732,0.4769032,1.3880113,2.629973,-4.5146146,-2.3116,15.693426,4.9327536,0.6726997,0.702459,4.762705,8.976937,-2.540599,3.7137375,4.0618753,-5.1260157,4.4713006,-1.5836129,5.7853947
53.jpg,14.687369,-4.465349,35.21376,19.215971,-1.7798921,13.027096,5.933574,9.314806,1.2123297,30.26934,14.063233,21.881994,1.9669505,-0.40923432,3.5083942,-0.6626242,3.5290399,6.445873,0.6251049,-2.5357478,5.710121,2.7013168,2.638056,22.643623,4.2462816,7.2944365,3.7344966,6.7949414,12.7637415,1.1407921,-0.946708,3.7445335,3.7396073,-0.89160174,6.7787223,6.445799,8.250115,6.1841087,-2.3244462,2.7169428,10.026392,7.8561196,2.0121317,3.6697373,1.2464272,-2.8977404,4.6896524,2.9937274,1.112288
54.jpg,32.84026,1.9473907,9.369218,23.774687,3.2880895,-2.302771,-2.0697334,8.004038,-1.9229091,14.705711,5.067512,-0.74644035,32.65737,14.945448,16.7268,-1.1049386,11.029428,9.142472,1.6160969,2.8453035,-1.2395114,4.8429704,-1.305367,8.843539,6.761652,10.080045,6.1009574,22.900007,7.615867,5.37806,1.0507467,-1.9577339,-0.6657567,1.5825864,-2.8337677,16.673803,6.0502896,3.209669,4.634309,1.5858461,18.455917,5.7486672,0.82798916,1.2191327,-0.53602767,4.8719144,-3.4333463,-1.1470058,3.757172
55.jpg,22.58284,5.6631436,8.4665,7.707755,2.4876602,6.356426,4.546527,16.318577,-1.1032438,8.530169,1.3194938,8.275776,40.600273,10.493025,9.277933,-0.44085327,1.5095232,14.840393,0.50947833,-3.1743736,9.526351,2.5929637,-0.32187873,5.344996,-2.533809,10.059536,8.050176,6.9792004,6.2998548,8.111939,6.407339,-1.5296714,3.1477294,0.32349032,3.3607311,2.9094298,-5.231402,5.257688,3.9249663,3.3061266,3.3924167,3.886139,2.5132759,-0.22996944,2.375127,-1.0547385,5.4851403,2.3841507,0.89014566
56.jpg,3.9089189,3.2645783,18.413754,23.360386,4.57315,-0.79658526,0.2954589,1.9909912,1.5363835,40.847145,10.7902775,11.240821,2.6324775,9.1572,-5.9063406,5.124911,8.224959,15.601903,8.63607,2.3435547,6.6435204,0.14666161,-2.9704757,14.079916,14.883807,13.542006,3.513297,6.264253,-0.28032228,-0.86033857,-3.4987137,0.54144347,4.840741,-1.4975045,0.5237136,-0.1621032,6.545493,-0.007198588,-2.1043925,9.323761,8.899265,-2.316414,-5.0568132,1.0316261,2.1985607,-2.63615,3.6901138,3.8554997,4.7104206
57.jpg,14.49323,0.49047694,1.9537319,25.256678,4.5580225,1.893378,6.949025,3.9928734,2.8654852,12.85372,32.94634,15.158923,30.751282,16.292202,16.700048,1.2224604,7.9846926,15.039013,1.2173408,16.712168,6.236016,0.77058077,19.998213,14.522728,13.287753,9.2568,-4.779903,5.291436,8.120215,-0.5176419,0.15823655,4.9766703,15.593115,12.209898,0.8948243,10.0892725,11.040878,10.541937,3.1146088,2.2559044,7.5493603,5.0108113,2.8096783,0.36273426,4.403378,4.975277,-0.27773958,0.83747256,2.6419709
58.jpg,33.95467,3.0589433,1.7603056,10.525603,7.1970644,-0.6085558,-0.34169737,4.272629,2.1751454,9.522511,25.433306,2.4240215,12.228421,2.2258928,-7.2728024,14.746742,19.164652,20.778906,3.8730838,16.98706,-2.967842,4.3505864,34.865536,17.839354,13.77476,17.78825,-3.4975924,0.07400969,-1.1382775,7.412802,-0.4990604,4.172931,6.3290186,4.7233844,5.438386,4.5768094,7.4610634,11.850023,-3.0020647,11.121481,6.329563,-0.32351148,1.3617836,4.787493,2.5819051,4.694698,1.2744192,-1.0237714,4.9177337
59.jpg,5.795105,64.37578,9.838511,2.64933,-1.4279704,5.3878145,-0.700469,4.9469695,-5.2417192,3.195825,9.429675,1.1312537,3.914765,8.050522,9.243975,6.1478777,-3.6551328,6.038182,3.905829,-3.3416457,3.065962,3.9125733,8.404616,7.3650556,4.7415595,-2.9068093,2.1275423,3.886678,-3.5966177,7.547465,-0.013145618,1.5143468,-0.9219588,2.1277003,3.3765752,0.517538,-1.2631757,-0.4221933,2.87258,12.310335,0.8001717,3.3432598,2.0022652,-2.7448668,1.8816524,0.71722835,2.2422385,-3.3656795,3.3276215
60.jpg,27.18761,-1.2651374,8.520302,6.570052,2.1358256,1.2758914,-1.9578669,59.72487,-3.2200694,4.8861947,7.881865,9.422863,17.444338,14.317574,7.950804,10.425535,-0.22626129,10.858233,4.0123506,-0.11249809,8.422123,-3.6931283,16.934872,2.008423,1.4186068,3.360317,3.749992,6.1856537,4.366443,6.6465707,2.2757995,7.4345393,3.675583,6.179117,2.6849656,2.2131526,-2.5441499,4.461636,2.2171369,-1.043269,4.0512314,0.59808695,6.864109,1.0392439,2.7221606,-0.82690036,1.9284699,0.49423444,5.508584
61.jpg,31.204765,0.6129219,6.8211546,9.794602,3.6247659,-0.30486947,1.6700499,50.301636,0.42464113,2.0690832,-1.0688525,10.963857,25.249035,6.2961025,7.935029,2.5980618,-4.5572505,9.970258,3.4693584,0.5297022,4.1405888,5.989045,8.520631,6.353139,-2.020334,11.849082,2.8990889,10.438946,7.8576365,4.7967415,-3.3070014,5.7683163,3.2321684,5.227924,3.8957312,3.4892917,1.6589831,8.277715,5.768703,3.1750946,5.6203933,5.517618,1.8214207,1.9672718,3.886237,-2.4145641,0.9009421,-0.29507658,5.608679
62.jpg,2.305767,39.680916,5.340535,15.817925,6.453579,28.792059,-4.5856595,2.8148441,-0.13411579,15.938747,13.597941,13.733631,4.206667,4.003202,6.530799,6.9970713,7.9945436,22.371733,15.161074,3.504075,8.293988,2.546622,1.1524318,12.218313,17.861164,7.964424,-5.384727,0.73045695,-2.758226,10.658508,2.9243338,5.584952,4.3591866,9.215812,2.3950317,-0.8037004,9.209034,1.0629845,-4.527104,2.6573832,4.9043937,0.6577372,-1.3272408,6.188761,-3.8403814,0.5425667,2.5522523,3.867997,7.4652305
63.jpg,19.712202,33.11275,5.369425,3.6807225,7.541104,-3.4430273,10.645036,14.736797,6.242123,1.8055927,1.1764066,11.763749,4.5516047,6.659359,5.005022,5.552929,6.1093254,17.02782,22.162203,4.4479666,4.063866,2.855819,3.0320876,-1.6100738,4.5635657,0.9475279,-4.4210725,-0.28023872,7.513357,2.8765142,-3.4059517,4.209625,-0.94436866,7.0575876,0.8773564,-2.3381896,2.9776316,-3.2561886,-2.3700542,3.0022905,-2.25571,7.3114924,4.8270473,7.366435,-0.800466,-0.79800797,0.20245682,-3.5353858,3.549432
64.jpg,-3.89972,8.573235,13.453981,19.960896,28.179688,7.1539216,20.706322,13.84941,17.204601,31.52614,6.2467017,14.075026,-1.9356949,11.734388,-2.0746837,-1.633618,-7.0310926,0.58735096,-0.034770556,1.4811268,27.053156,-5.6587753,1.6960813,8.700205,10.556386,5.39728,-0.82611257,-1.1637247,10.571722,1.8654983,0.05377624,-1.2024834,4.997313,1.0259533,-1.672378,-0.5917343,8.586923,0.9582255,-1.4579282,1.1817449,4.2769175,11.500952,10.115605,2.2603037,3.1456451,0.07853676,3.6674802,2.3097548,-0.26027727
65.jpg,18.017776,0.32365388,9.629376,-1.0392027,6.2729025,-0.9997226,-3.508862,46.286514,-1.0603228,12.18548,8.508766,12.45943,17.678408,4.0843854,2.4668348,3.8634584,2.528668,12.657988,4.849433,-0.9433463,4.1881094,-2.365136,3.4838774,0.04109279,6.4930983,8.718414,3.711225,5.993816,1.121359,7.068,-0.5933298,3.0274167,1.1790067,1.5365627,4.0665784,-5.056359,0.9329276,5.494979,5.558448,1.0274512,3.24684,6.8796625,-0.964476,1.1838621,1.5784708,-2.0020292,2.8499234,-0.7312187,0.9316152
66.jpg,3.4876556,21.576988,-0.28904712,6.7278705,7.115547,10.209593,0.44596857,2.4491644,-10.279838,4.199764,28.680601,7.1572886,6.9592876,12.005299,7.12317,6.8024397,5.6512704,21.336546,12.61511,4.984514,14.767835,-1.2566652,9.845265,4.1929283,22.772419,-0.9560095,0.0877535,6.9322834,-0.4947678,1.6152205,3.1281385,9.301421,4.8357377,13.052694,5.368286,3.7826629,-1.6624855,2.0892735,3.657586,2.961634,-2.5923007,9.331436,5.1905828,-1.5928639,7.8674564,2.6479216,3.0147307,-3.3727436,2.1715608
67.jpg,6.630172,13.778353,6.088993,23.70117,5.716162,-0.58057976,2.3400936,13.927701,1.2852746,25.83422,6.3595915,16.335976,1.540465,8.321313,0.24665502,5.998166,-2.4006255,10.426823,2.964359,2.4504292,4.08055,-2.173626,3.2775223,9.865262,3.1592305,9.4860525,5.1590986,5.194244,2.8618152,-4.962185,2.802474,0.7832249,3.0260413,1.0443956,3.183816,1.3904337,7.4787693,-4.122846,0.31936067,0.6385381,6.8959026,6.3509703,-0.044546835,1.6754382,-0.9287996,-3.1227818,0.23639864,0.8725072,-0.5256597
68.jpg,13.68244,-1.3334634,15.656364,26.207321,4.242026,5.019588,7.7721834,21.197649,2.9220607,28.123405,3.3842542,6.0713196,16.749846,36.84084,-0.48082358,1.0501952,3.2686121,10.941998,-1.7067639,7.3839574,2.7260997,-0.8795463,4.2499657,-3.8728013,5.2669697,8.728224,0.9653597,10.81971,8.519206,3.081836,0.41614416,0.8338079,3.6458004,0.2118839,-1.0519426,5.2234793,10.259998,-7.237923,5.5333233,3.2480412,1.8260685,3.0007942,6.0317025,1.2004455,1.2311367,-0.49739295,1.2528094,-1.5613391,0.28688592
69.jpg,12.034969,21.238104,8.633291,9.861589,3.532793,8.973911,-0.70191526,6.863811,-2.397902,22.314459,4.8329673,20.896727,4.149153,3.2995727,4.047041,1.145097,-0.76469886,11.903303,36.822834,1.7763999,3.1103325,-1.7756375,-5.5598755,9.398005,2.000123,6.2893696,4.6731815,7.2114425,7.905461,2.5342085,-0.66210294,5.4005623,-2.1346521,4.8929744,-0.8549038,0.017935596,-0.82274324,-3.5048194,-0.22101882,0.9478355,2.8113053,10.041348,6.441674,-0.28658068,-1.1191031,2.6063457,3.2633283,-1.9092388,2.9611733
70.jpg,1.555124,56.912148,3.7706993,7.580702,10.521995,8.002604,0.30624297,3.0786521,5.3551826,6.9916344,22.208982,-0.335725,1.0794766,8.4776,-0.2273826,0.5153444,14.732599,15.894625,6.35434,6.3606305,2.635806,1.1243333,5.7533965,-2.334035,4.3183217,3.0420916,1.8624727,-4.611427,-0.7911429,5.4538703,1.9294994,4.1140823,4.8877306,7.9838767,2.2729213,-1.9855648,-4.0763626,2.616473,0.34572613,0.54495066,-1.1739551,3.7740984,3.3219154,3.3658109,4.628069,1.3928261,1.1888845,-1.2049108,-0.39346665
71.jpg,10.142698,61.09158,9.483088,1.1055615,0.916435,17.780527,1.3602781,2.3420255,5.613076,5.42308,10.628419,5.10163,3.7853792,7.2488933,-1.1100808,15.246092,7.672216,13.3124275,3.0103629,1.9707298,8.680739,0.08793883,12.247915,1.7218007,3.9077823,-1.8807586,-1.2046643,-2.1432784,-2.1021123,7.5168295,0.81363225,3.78531,-0.44600716,4.9130635,0.91655624,-0.3304811,1.4115986,-1.7650194,6.1186953,2.9477973,0.38659844,3.9839857,4.1831546,3.0586119,0.88291365,2.5993927,7.3467865,1.4454159,-1.1915196
72.jpg,-4.377763,20.493458,18.736523,14.080059,-2.9004521,7.7339807,9.7494955,-0.42972648,4.627925,41.340332,7.01863,8.780668,-4.7593555,14.980313,-5.468841,6.6647964,1.2120531,12.244315,-0.4327355,0.9422438,5.483332,-0.40475625,-3.1434774,9.008208,6.606394,0.52416056,10.035183,-0.06624675,4.3929644,2.2463098,2.460133,0.8668777,1.7481467,2.4441593,-3.1698034,0.65413594,15.166545,-2.1853967,0.7131081,2.0823393,4.3373146,8.339676,-1.4049793,2.8252726,14.211789,1.3487501,4.1856585,-1.0667435,2.392025
73.jpg,10.936781,45.677914,4.458997,6.53817,5.7535434,21.661821,5.4167504,7.1940317,-3.5686839,5.2167196,5.4888196,5.4301763,5.825578,-0.99205106,-3.4348269,8.824365,9.237171,10.720294,1.7421196,-0.1797419,5.1387935,1.4080524,4.4551816,5.540645,9.321608,2.588333,3.881461,-6.0650353,-0.24071187,2.838755,1.7392267,1.0482352,6.0179353,3.4079862,4.5622683,3.8095384,1.0544535,1.8648959,4.862752,-0.14257869,1.4736421,3.9521773,-0.9967912,5.206354,-0.1570283,-1.5424885,3.5310078,2.2518163,1.8653117
74.jpg,7.5898194,14.891861,12.600941,31.96141,-7.227525,0.6262148,0.77140874,8.471517,-0.6102401,23.502932,12.012635,28.667599,4.2643213,1.2422153,2.3234408,-2.0706277,1.9306283,9.999416,30.479475,0.04206244,18.901129,8.121772,17.255943,16.114647,0.9431634,13.486578,-0.8381711,6.107541,12.540002,1.9375553,3.5339913,6.0135264,0.49332267,1.6971076,6.5114894,8.584712,2.431319,3.4265459,-2.0691612,5.34916,4.0426874,4.310519,-1.3899173,3.25186,0.17613453,0.1495823,2.8261635,2.3488615,3.6013062
75.png,22.879772,1.2224785,15.20436,-2.1304069,6.0487413,7.710931,1.6221467,53.498966,1.2993397,6.3436756,2.7143235,5.2453094,31.869808,7.067572,7.552111,5.1972733,-2.944374,12.91406,0.035193935,2.7789078,3.4971309,-2.2631083,1.5619291,2.7040358,-0.48858902,7.2963185,1.3246193,-1.956946,1.0047425,6.4787536,5.369612,5.5083556,5.236889,4.411215,2.3664613,-3.4796398,1.306009,4.6951365,5.8811026,1.0905422,6.761938,2.6663196,5.6055827,2.627499,-2.3535378,-2.9206953,1.336003,-1.6036205,2.2448375
76.png,14.756146,40.94747,5.447685,11.82214,7.6091948,5.0161166,8.899825,17.15469,-1.0360954,7.735818,8.047158,2.2528749,18.224346,10.574415,0.45603955,2.7472312,8.150259,15.234007,0.20646109,0.6100522,6.440261,-5.529208,-0.16560033,1.3073059,14.262617,-0.08834274,2.8755982,3.8663359,2.4873123,-4.5264707,1.6893141,4.7709613,1.285558,2.5588207,0.44313622,2.3451128,4.887666,-2.112729,7.6286488,4.6277003,-0.22478327,13.794104,-0.47457713,6.1163015,-3.1788971,-0.32321197,-0.6730279,-1.2487874,2.8009455
77.png,11.98585,18.9357,13.619968,35.960064,7.174334,3.055911,3.9687247,14.563725,-3.6639266,43.378986,8.499146,15.427084,3.756847,3.0965035,6.00742,-2.71951,9.382476,15.828475,0.14293748,-8.816818,8.556011,9.22378,-0.11622875,4.2162848,2.0877283,-0.7534611,2.8126628,7.4523406,6.04399,2.445858,5.8103495,7.1734743,4.480167,2.4100103,3.5818691,2.2531395,5.5733647,-2.61926,1.1297169,-1.1353549,8.971496,3.0380926,0.55895203,5.944955,8.966949,-3.7878084,3.6527865,5.301638,6.0159936
78.png,-7.010866,60.090374,4.865331,10.312184,8.92449,3.1436317,4.389892,-1.4935449,5.172834,6.5446644,4.3832083,6.193863,5.762079,7.6158943,3.6227913,0.059548672,11.647764,16.139626,11.817818,-0.68801486,5.153817,3.9719403,1.303389,2.685583,5.957485,0.7928062,-2.093803,2.6861556,2.9061007,-0.34570378,3.5225053,8.181124,8.432312,3.9573019,0.6726381,2.2323298,2.2920363,-0.94523746,3.6236002,4.0868692,-1.5956204,5.813764,0.83448005,3.144378,1.2780097,1.7613862,2.9164732,3.5629306,3.8786418
79.jpg,-1.0349859,59.128944,12.506865,1.8902626,6.666672,9.291172,9.750681,7.1966844,8.806907,1.8525846,1.8848834,18.433071,3.7383318,9.13918,11.95321,2.239599,4.4911156,2.9610996,2.522035,-1.4776099,-0.91464883,4.4113727,3.9274137,9.691558,1.941009,4.1818585,-0.02167644,2.5550778,1.5295023,4.758628,7.9939976,5.0112104,1.7738518,0.49893445,6.6704803,-0.99096876,2.3277447,0.41489825,4.012324,7.273792,2.3988168,4.1873217,8.133308,0.5022991,0.7375312,-3.6708598,5.841716,2.5584507,5.216214
80.png,8.531535,50.07318,-1.1598192,9.794844,10.869812,4.8565207,4.36653,-0.18759686,7.214415,5.299526,13.984221,27.100536,5.2332473,5.403487,3.7551656,-3.1422634,18.571926,13.791317,9.454838,-2.0167108,-3.7636566,11.989507,3.4358878,9.596428,2.5215716,3.0584824,1.3377758,7.6544495,-0.54261255,6.300135,4.2917705,6.1300917,1.9277755,0.42720932,-1.2460783,-5.6797514,-3.6959577,2.8410666,3.1409547,3.7254512,0.4329855,6.4700828,4.870439,2.5234418,7.1713343,-0.09761732,5.3879166,5.5372553,5.156793
81.png,7.830377,8.184916,21.44067,10.792038,2.7416353,4.458392,-3.6756232,7.0727415,1.7720027,31.402842,13.038147,17.332975,5.591201,1.6906466,1.9549516,4.23269,4.37583,2.4024081,13.300918,3.8812134,5.328963,1.7375989,-1.6352111,24.748466,10.165083,20.268894,0.12610388,5.5359654,0.08116569,4.1313624,-3.5053368,0.24249089,5.1113343,-4.447992,1.3028349,-7.0532837,-1.3023386,3.2819958,-5.1895413,3.0099826,10.129767,2.8532856,-2.0375009,-0.31121513,-2.8084795,-2.1018596,2.8980694,-0.038386554,-0.19989106
82.png,-12.527922,12.643626,14.252257,22.070492,1.8692695,-4.9059587,1.192916,2.4898674,5.246589,34.714447,12.833977,5.996991,8.490847,8.941104,0.39163566,-4.462265,3.9036527,14.212368,8.630542,4.364129,8.088015,3.9717283,-0.19641842,8.746935,25.800537,13.040717,0.4892599,1.7842141,0.58041346,3.1865358,-2.448096,4.757928,1.916694,5.6251793,-3.6492486,-0.18418804,19.401035,1.6831311,2.7644265,6.658598,11.264272,4.1695857,-7.3973765,-2.0472114,1.4685166,4.8444724,-0.034220237,0.8236153,5.617476
83.png,5.4332027,3.3339262,13.088496,8.214206,7.1978927,3.7352707,1.8951718,6.2090244,13.028331,31.365644,7.8586063,12.166107,8.920216,-1.6004453,4.0074744,5.0669575,10.342474,5.408214,7.2005057,11.70005,4.033105,7.680257,2.1397836,17.068151,17.014784,18.213432,-1.493633,2.069556,5.217446,5.923692,1.6711373,6.9245534,5.6855235,6.6734085,0.77242535,-3.232174,7.081607,12.302707,0.8764057,12.273088,15.577711,2.031393,2.1625977,1.855085,2.283552,3.4163327,5.286936,3.6180549,8.319071
84.png,15.550044,8.195376,2.0606172,13.247039,-2.6989617,5.1750617,1.2491224,9.580783,4.069014,13.59782,11.166255,16.790611,16.611109,31.296904,-3.7666168,6.244759,7.418497,23.93404,14.558393,5.3340626,2.1459222,-1.813578,1.3287761,-2.344614,0.8866572,3.6870465,-4.762559,2.7414982,5.7142987,11.4749565,-3.2964258,2.4315474,2.5539916,2.403701,-0.49652275,-7.306241,0.3620633,-3.9741743,2.9397647,2.4562337,0.8045791,5.8921924,-0.7018467,1.6637415,-4.116888,-3.287373,-0.37616274,-5.752603,5.5496964
85.png,5.846275,14.6524,13.611748,13.9773,-2.9387226,4.4087505,-0.48783904,-1.3485715,-3.2541065,35.006027,18.02985,6.055245,5.35016,3.591278,2.7535493,8.076481,1.1909436,9.540324,8.1360655,9.2788,2.9708016,1.9756738,9.484767,21.818804,13.302533,16.93306,-3.292552,6.116262,-4.2997346,5.5559187,-2.3846853,1.7627296,7.902402,-2.649199,2.8808513,-1.8631896,0.8291399,-0.41750446,-1.4177403,7.8349733,7.1518345,-2.4468904,-3.440889,-2.0184205,-2.691684,0.59152573,-2.5881257,0.21171607,2.7814043
86.png,32.829292,0.890634,2.3328578,1.19933,9.725733,0.42185736,6.57637,49.86742,0.67598605,3.8668866,3.5889049,6.2208385,19.838501,8.807082,5.9009113,5.2404375,1.0480789,22.891586,-3.2811985,-3.5895255,1.9737899,-1.1050138,5.4520445,0.114774704,2.971539,2.5779464,2.9054317,5.7654486,4.3284836,5.950337,-2.8325922,2.7406914,-0.42078388,0.3492212,1.2527916,3.6256328,1.4692122,-2.3770056,7.618405,2.5510058,0.79670453,7.213795,2.7782478,1.1783341,0.49119714,-2.3454065,0.85291827,1.6064614,3.7698877
87.png,-7.6775565,69.18237,8.818581,4.533188,4.519184,9.2134285,-0.2621335,1.04168,0.39767128,7.62196,16.234592,2.996019,7.1214185,5.9187303,1.3298982,1.4420606,11.216588,11.985151,-1.7897211,2.3006134,3.6865273,-4.6626782,4.1695523,2.7864318,5.783274,-0.77622354,0.8755848,4.1312866,-0.2198359,2.931448,3.2083712,3.5216422,2.5773113,3.769631,5.0392127,-2.1046739,2.1921062,-3.953794,0.8044738,0.8971267,0.16030855,6.044107,2.4987776,-0.59400666,3.9062388,-0.62877715,-0.7780375,-0.8687134,3.0953436
88.png,11.11182,10.408928,21.657522,14.197594,1.0226358,3.2735565,5.384797,6.3670597,-0.60358715,31.303362,0.4069416,6.808399,6.7026405,33.14358,8.392061,7.894565,-4.821591,2.9780767,2.4118092,4.6178317,24.220081,-3.8499184,0.05715345,-6.788944,4.160773,-0.040254787,5.493547,3.9517753,1.9044224,2.9174235,-7.6461406,-1.8316288,-2.553613,-1.7258902,2.164266,-3.1319647,7.1095867,-3.12076,0.63314664,5.0041094,12.576699,-2.8942428,-1.1764973,-7.6235204,0.05998602,1.9409252,0.174319,0.043334905,-1.7057672
89.png,3.507859,15.002712,9.302865,13.814463,1.7287437,-0.16141534,0.65504694,2.9669259,3.9769027,23.018724,16.387901,17.716028,3.134534,-1.969247,-1.7061981,-0.44119534,7.984331,17.664366,7.687431,1.5297621,-1.2815892,5.412107,0.5965726,16.692383,12.718689,6.502261,0.5871446,1.4280785,5.6442456,-4.006998,0.8772168,8.453494,2.1883686,5.51623,-5.4152975,-2.2651906,1.406574,1.5230422,-3.4439232,11.084626,5.1097207,-0.22504027,-3.4030564,-0.15530679,3.1768322,2.2695942,0.7229501,3.5662901,2.3931081
90.png,7.8746305,0.042972013,53.202694,10.646847,3.0516415,-4.1892085,2.713888,10.738627,4.590462,19.054317,5.6041965,8.156009,3.9272408,7.0040636,-7.7832537,6.73562,1.7084954,16.00357,3.31579,-2.0384793,4.0332174,-2.0938714,2.3799152,-1.4645729,4.2422585,-1.0494872,-0.4872635,1.3619431,3.4292076,-1.028395,2.8943214,2.9776876,0.6040687,2.4703305,2.2422826,-4.5824747,9.525969,-2.1219916,9.661284,-3.4426303,-2.6006103,4.055915,4.346116,3.441862,9.558195,7.232742,-3.003782,0.26772103,6.3932767
91.png,13.680665,39.913906,0.66164875,13.095962,-0.6970808,6.0160832,0.9440442,5.511302,-7.914856,6.815317,9.635477,-0.7322798,5.7748632,8.814762,0.9617286,7.7888293,-4.113528,12.387951,19.288843,-1.2950937,6.104398,-9.247321,22.418928,-3.769669,15.667418,-0.7864412,-3.1217775,2.6462553,0.938314,1.2673484,1.4473932,2.8677132,1.2601532,9.863019,3.5064042,5.6068845,9.864335,0.16607559,-2.648975,6.8209596,-0.14961529,3.5373113,3.5733712,4.752417,5.1431603,1.7447833,2.0748978,1.2738342,3.4091685
92.png,0.894017,69.57933,3.7931218,3.9189305,10.683269,4.4857144,6.268562,10.90567,3.246598,5.0295277,7.221491,8.508087,8.658373,2.1379373,8.396199,7.4247828,2.2823668,12.000395,5.712287,-0.26989773,2.5811813,4.347612,-0.39365765,0.34553808,6.837267,-0.9377794,7.2460256,4.12324,1.3645127,1.2010561,-1.3519062,0.44238064,5.0717425,2.9013765,-1.5991439,2.6994748,-3.0039568,-2.0630517,2.4698756,0.92840475,-1.2856933,1.9513313,0.5496489,4.904822,5.9076076,0.9283258,1.9206594,3.96109,1.1348335
93.png,16.699265,7.469042,15.225747,13.53132,16.772106,4.012502,7.246849,8.381819,6.7641644,30.445293,7.41326,8.97077,10.460846,9.351726,-11.685417,-3.3625755,6.6850796,11.862432,4.2203593,0.21489021,-1.2107,-1.1725754,4.462266,-3.201861,12.360787,6.4222364,4.358566,-0.058310106,0.42703953,-2.480412,5.4650617,2.8875027,0.66932213,2.2141385,2.734293,-0.9400947,14.469385,7.496348,5.5348825,-0.08514617,3.1711273,3.8935318,6.0938563,7.859719,22.69389,10.207169,0.6945008,0.1668822,0.76697695
94.png,4.985155,44.292976,16.954693,5.4791794,-0.6563233,-3.1242812,9.271608,3.2257502,-1.9444737,12.395233,13.286388,7.128713,4.038668,5.219446,4.8566318,5.1281757,7.1639977,17.38413,7.0328007,-3.8012722,4.873775,4.599064,-1.4447477,2.3407485,5.168766,-0.36141118,2.9075813,3.8250506,5.487281,1.8240921,0.6701506,3.1036685,0.3894521,1.9396149,-1.4398798,3.3517401,7.1198626,-3.678304,-0.5307819,3.3873596,6.9434023,3.6259875,3.1110551,0.5763745,8.780828,2.6468363,0.6607443,-1.9677274,3.4518898
95.png,5.538184,-2.2545547,17.4389,44.004932,6.4886255,2.862641,9.116408,2.7704976,5.038827,42.436394,2.1706133,9.050092,-4.984968,21.192245,4.1823697,4.8865533,2.0856013,3.6431973,-1.54203,9.608256,4.1599035,4.1766305,-4.750525,4.077079,0.41128653,2.9208345,2.184945,3.3476267,13.8454075,3.7894793,-2.2230897,4.34333,5.603303,1.8634121,7.972488,3.2964587,11.310416,-1.8886671,3.785242,-0.1633034,3.6964655,8.290416,5.4312015,1.5518603,0.31886828,-1.2613181,5.688797,-1.3777384,3.0818574
96.png,-7.1235647,28.48349,34.248936,30.799383,-4.3890705,24.068317,3.6153874,3.9555683,-2.0412095,31.250902,5.19357,15.374131,3.321822,-2.2651508,-11.608252,-6.332165,4.0118036,7.5805144,-0.41137427,-3.8089633,5.493771,2.233554,1.0972669,14.561336,2.3123033,2.7669945,0.031614117,3.008803,2.0887504,-4.9657865,2.0013986,-1.5220764,-0.89655787,-4.2812023,6.7161164,1.7959044,5.324668,-5.686964,2.2292752,3.123207,-5.2637043,3.222839,4.383514,-0.6808309,2.7473624,-3.0897286,0.037485734,1.8614821,2.764939
97.png,10.578593,-1.7970406,15.209172,34.118465,6.6201835,16.18344,10.897845,6.4519763,5.0909295,29.98131,13.922952,22.531603,-2.6720572,12.265856,-8.548185,5.2898216,9.524213,10.148532,1.8272523,8.913484,9.493467,3.2529857,-1.8814709,14.40389,-0.53455234,8.121369,1.1437094,3.6701844,2.0578165,1.4432845,1.6941164,8.726226,3.6044517,-0.16878681,5.9857993,-0.19434305,6.9827304,-2.295368,-0.8838106,1.2991699,3.3968887,5.1096582,8.177251,0.85757446,-0.95790553,-3.4123592,3.416492,-4.2845707,-1.6080096
98.png,0.83243793,1.7476807,14.939456,43.8702,11.755029,2.4336944,8.492192,6.2109737,-6.1724024,33.86837,21.089577,8.723535,8.345191,18.147163,8.798515,4.2026453,3.8118813,13.286583,0.3064625,-2.3744116,9.746625,3.3363812,-2.9066658,8.198531,2.7926075,-2.4240084,0.12686811,8.418497,17.440426,2.7859557,7.554804,5.217969,5.7153673,0.3499061,0.06305929,1.5949242,5.0034347,-1.984789,0.66707796,-2.7742608,3.3950613,2.8266993,8.857259,0.92168564,9.920072,-3.269487,4.101158,5.237783,3.361904
99.png,3.3493702,61.00661,10.714068,10.207396,1.499466,-0.73069346,4.5940013,5.5342813,-0.51076746,6.498779,3.7451491,6.643012,10.865557,1.4936433,2.8310597,6.3288064,2.5185487,12.314464,2.1651173,5.2916117,-0.2833968,-1.5995755,6.4797425,-1.3163998,8.334838,1.9429542,1.330339,5.6741204,3.4133792,0.056879595,-2.4305842,4.0462933,-0.113295995,5.569242,-3.4532022,-1.8492321,3.5412636,0.995159,0.98261386,2.3999367,0.5223157,6.0356355,1.3769915,1.2010888,0.84398866,-0.4125405,0.5677559,-2.3500853,6.8740115
100.png,6.180129,30.947886,-2.1910224,8.919695,4.8093786,4.68419,4.128121,8.26733,6.8599463,-1.3980494,16.563534,14.275559,11.002377,9.75677,0.76165956,4.342204,19.632942,23.491987,24.36529,-0.020110607,2.6957054,1.7270509,2.1220257,-0.20384508,14.103329,4.236568,8.153427,4.494414,-4.91953,3.477739,-2.3837476,6.325946,2.089529,7.104745,5.3034163,3.1749156,4.3769693,0.6682774,4.10707,4.6430798,-0.30545667,5.1189475,6.369866,5.9117804,8.339536,4.4118404,-1.2542273,-0.5596112,6.055876
101.png,13.172433,41.36211,5.8644795,2.6817095,0.21593496,1.6137872,6.8348565,13.421339,0.10621519,11.214995,9.703005,10.66517,14.437122,4.627032,3.6460855,3.4640737,7.531436,27.565002,0.7601637,4.3554487,3.3672385,6.3309007,9.372555,6.330268,1.6040143,3.256771,1.6808921,-4.8638268,2.7853587,5.996543,0.8859338,4.21721,1.5548469,6.1594944,-3.9970484,1.8906114,-4.1532855,1.7811071,6.895216,8.593673,5.6959453,2.9854097,2.479444,2.3186815,-2.1177382,13.08615,3.0028024,-0.05133059,-0.0036941841
102.png,-0.1338806,-1.8359842,45.947193,16.555038,2.531906,-1.1948062,3.562738,8.295824,-4.704694,39.42552,3.6882877,2.7116508,6.6851325,0.65838814,1.9624963,6.6622915,-3.1424541,6.83174,10.060171,-4.658222,7.875901,5.231991,-3.4374886,13.743314,25.92337,5.9084034,4.1155796,0.7899521,1.1137905,1.7609861,-0.7689709,2.337404,-1.3164825,5.151005,4.5581603,-3.1428554,11.872086,4.4880347,5.164451,10.244967,12.531387,0.7914787,2.5894775,3.336537,5.4739065,6.280934,3.3744004,1.917192,5.2712073
103.png,10.956558,8.8671255,7.428841,15.822276,2.3678546,0.93467283,3.9118137,15.899994,-2.786079,21.776712,7.7166386,11.127924,21.237795,8.820131,4.550169,1.7443078,12.082958,21.34677,-2.0723605,3.1308002,-2.3199146,6.768886,0.1571591,1.3911152,7.046501,14.612262,4.680053,2.3897836,5.5698442,6.282998,-0.9263238,0.49800584,3.622859,2.820436,-4.473178,3.166551,4.0861177,9.518084,7.6700025,-0.40443355,9.655314,4.3398323,-0.8362338,9.052656,4.416279,5.044863,3.161797,-3.364528,7.6513624
104.png,15.592605,-6.8285637,5.0051575,42.54387,3.9033911,2.1423335,3.085475,13.26913,4.117257,37.575005,25.732672,16.97664,0.5633955,3.9648368,-0.02383478,2.7285137,10.562636,9.8073635,6.3032312,7.7832127,4.9846816,-0.5083792,7.0029182,19.419357,9.611909,6.168795,-0.18029474,1.474683,3.1485941,1.732656,0.9427963,4.6244774,2.5031977,1.042494,3.0913622,1.641513,3.7489214,4.587918,0.14493185,-0.68073004,3.6717322,6.1863985,3.7734096,4.9697456,0.6066216,-5.0805697,5.8280864,2.1642056,4.304483
105.png,3.1401653,59.319763,6.7386746,8.215101,4.6734724,33.840492,-0.13341816,11.12936,0.0018979888,6.0615277,10.149433,4.2953873,5.335006,7.503849,8.027339,2.1157951,1.3401985,5.496083,1.4952431,-5.6159863,2.4079652,-2.6674044,19.741592,2.0251083,2.783478,2.0549104,1.4239986,2.506227,-2.4622269,12.357557,1.0861489,-0.34010485,-1.0837644,2.4446306,2.3963637,-0.63968015,3.7064593,0.9765486,-1.9687444,-2.8026457,0.13303849,1.3165855,-0.950078,3.2397397,3.0095358,-2.0361748,-1.6472723,-0.367219,3.850627
106.jpg,40.405407,0.35461748,3.6404066,23.079306,0.63288045,-2.2983966,6.418423,24.225338,4.1231093,14.271632,-1.0685557,3.0349233,9.383516,42.08875,5.2457976,13.936283,5.716733,7.672217,-1.8820859,11.231821,0.8002841,-0.8125119,-6.5398097,-5.0867934,-0.5700428,5.770703,11.954116,13.628457,7.2466245,11.787451,-4.6449857,-2.5016935,2.2625558,-2.7173724,2.4781723,3.2883446,2.4857051,-2.045619,0.71856433,1.3454242,4.0702963,4.517517,7.0761724,2.1440578,-4.5190372,-3.1676617,5.6876593,2.7774067,3.580368
107.jpg,3.423924,45.60119,15.0231495,10.832473,1.4137403,4.2935767,11.782827,5.3113832,1.5135893,7.3936844,11.852538,12.78202,8.855133,5.465015,5.0637054,-0.7813488,1.7551843,7.7945232,1.1091034,-4.750861,1.0977527,4.1205688,5.0192914,-0.4467845,6.6846824,1.5096956,5.5579963,3.758227,0.20584911,8.086879,3.0906878,1.5580888,3.6098323,-1.0470994,9.361483,1.1469437,-4.339418,-1.4115938,3.759561,2.0874126,3.8547554,1.6754664,3.4763064,4.9500003,3.8637083,-0.9632917,0.32399547,-1.7405925,-0.12984858
108.jpg,14.329503,21.225048,13.242478,5.9549513,-1.6350842,-2.187059,9.270218,21.829956,-0.35856822,21.05717,8.601723,8.247646,5.8984447,7.9944363,-8.192285,0.7958644,7.482824,15.891224,1.3380613,0.45740026,6.9009647,-1.4418801,2.042489,3.4902322,-2.6663282,-3.950706,6.3531146,-2.2448707,22.400278,-2.7183058,5.926005,5.3863297,1.9071043,3.2017827,3.9595165,9.417788,-1.3026016,-3.0123198,1.2821374,-1.1642483,-5.130103,12.379933,8.019716,4.0865493,8.137579,4.268596,9.491437,-2.7000256,-0.59183294
109.jpg,0.89103264,3.6930687,15.993021,34.53119,3.0167074,-4.554529,2.9130344,7.379895,-0.2854394,45.321987,6.78137,8.580898,0.34694934,10.076259,-3.855589,-0.6218168,-1.5674207,7.283595,4.0059724,0.67414594,7.24656,4.5727715,-1.7878234,11.163135,11.172326,13.862077,3.5715249,2.487595,-1.1367193,-2.456003,2.1808639,3.2197692,3.1654005,2.986353,2.4917185,5.0747223,9.785767,-3.75975,-0.8656147,5.064165,3.9552555,0.929699,-2.412827,-3.010649,4.214239,-1.6599185,-0.9640154,-2.673517,-1.9286968
110.jpg,6.616544,49.03097,1.973383,15.330632,3.7225358,7.7591524,-2.378669,9.333507,-8.29419,6.4870706,25.723022,0.55708176,6.539757,17.35659,0.8734582,1.624907,2.9244046,10.276275,29.04784,1.44567,15.616682,-1.3051033,15.535432,10.359816,2.9087522,2.8005784,-0.6356733,-2.9073577,-5.604869,12.443464,-1.7204602,-1.2066936,5.4735546,7.357661,-0.16641971,5.0680966,-2.248797,4.621365,0.48127928,3.833492,1.4780385,-0.118229166,4.338654,4.722929,9.29565,4.506487,-1.6412079,0.3322102,1.2594345
111.jpg,2.288706,12.29094,16.306131,14.997724,6.6006618,-4.635877,-1.7551985,0.7418495,2.6180942,36.124607,8.809364,25.751465,-3.6598098,3.3908076,-2.2806816,-0.8510418,4.374391,8.31971,18.67074,3.2574024,4.0835314,2.5829241,-5.370917,20.480513,10.769567,20.41997,4.882913,6.8862257,-0.24362588,1.7380104,-0.8852916,3.4144738,4.7398367,-1.930274,3.9935005,-1.622194,3.9665122,2.4912524,-4.1497707,11.48941,9.994251,1.8079761,-2.5693052,0.7740847,0.018216355,0.06653732,2.3885732,4.805048,0.7338184
112.jpg,4.4308586,5.822137,21.706598,32.824703,13.752434,3.903472,3.2297664,0.26865304,5.583731,37.49,9.926255,11.611259,2.883584,6.584052,6.549734,0.55837184,0.74521613,9.904892,5.320936,-2.0813506,15.998544,-5.6019673,-0.7049057,16.333126,8.140457,8.520485,-1.4774929,-0.438964,3.4689777,4.8239217,-1.330792,3.4948106,6.3890734,2.438646,-1.712595,1.0668399,10.7812805,2.2040625,-1.5549868,2.4581568,8.806479,2.4162087,4.583224,4.826747,2.4316423,-1.5275161,5.3418493,1.6500536,-0.033456087
113.jpg,4.427911,2.207892,17.238125,29.273472,6.8897233,-0.6891393,-5.006647,2.3434992,1.1815158,36.23638,10.752906,12.205521,3.2985172,-0.52842546,-2.5566945,6.574346,4.416401,18.495665,9.035759,4.1087003,6.4027576,-0.95465,-1.235943,20.471304,12.503378,13.889207,1.3461478,4.67993,0.27231294,0.7170065,-4.583671,1.7688966,2.183166,-1.693662,-2.2858884,-3.926609,-0.87278473,4.2812014,-3.7880745,7.382544,7.6928244,2.710684,-0.508049,2.4643602,-1.2178657,-3.397339,2.2632456,-1.5542642,3.2110214
114.jpg,13.982715,1.8073108,13.425457,45.85929,3.9931178,-1.1082712,1.6462941,2.597112,2.804654,44.60431,12.453495,10.879412,3.5075524,7.003453,-1.4268286,-1.4271994,7.3612413,9.364351,4.884166,8.488607,4.628124,-0.78132695,-4.388245,16.703838,3.3259795,9.197558,-0.16678609,2.185454,4.5753865,2.0701594,2.476932,4.3826723,4.6856875,1.409715,0.54538566,1.8750099,7.0303216,3.0785394,-0.5054717,-1.8619882,2.5378299,6.266726,-0.7154102,2.9421606,3.6778157,-2.3289177,4.7006016,-0.56221175,1.4121952
115.jpg,11.732178,50.34736,0.025962759,7.8864756,4.1900578,26.24649,-0.5119417,12.162542,1.2508627,7.6992674,10.288638,0.44403225,1.7739944,4.87681,1.1094108,-0.028246362,4.056349,11.757594,32.490383,-3.9873488,3.4188743,-0.97730124,17.497126,2.514607,10.658957,5.952667,-2.4106054,2.8930318,-3.5598283,4.941975,3.0803635,-0.90700704,-4.833001,3.1702344,1.4733212,2.1607075,-0.6964654,-2.4495006,0.115295686,0.11074096,-1.2294503,4.773272,3.9591238,6.2113447,0.27898756,5.0351725,1.5093421,-0.59042925,2.8879066
116.jpg,0.21395712,10.227678,7.7624083,29.369608,-2.5247638,1.1826882,-4.2890964,5.98085,-0.12528822,31.743017,16.538862,19.672726,8.990986,7.5544214,8.520891,1.5556905,-3.9800003,3.3277967,14.406115,1.7864549,2.684694,-0.14209943,24.007633,25.648409,14.592807,12.432618,-3.3617244,8.011144,5.310332,10.238959,0.24574977,-0.7195685,7.2494574,2.803857,-0.8502137,-1.5217125,4.731926,8.4648695,-0.6400131,6.7168884,8.259965,3.920003,0.3701144,0.729703,2.156555,3.2647028,0.5894991,2.2864308,7.0817766
117.jpg,-2.03898,5.6282053,8.4833145,16.112621,7.681913,-1.9901898,-0.71436536,8.385084,9.622576,32.228832,12.498933,19.59846,1.2038382,10.314798,1.1285309,1.996999,3.753249,10.199914,17.414719,2.534264,0.41964063,6.551852,2.892797,19.994726,12.491742,15.26717,6.513164,6.53611,0.23239322,4.4676337,2.4653578,6.275891,6.9160595,3.8853004,1.3293488,-2.493604,4.9551754,5.697481,-4.226536,10.811286,7.9209385,0.6615646,-0.45051473,2.5950089,1.6443053,-0.7569597,2.8733466,1.3363916,4.9016285
118.jpg,12.890603,21.853611,4.189561,6.1865387,0.55618274,6.4962454,15.823966,9.650274,-2.8889925,10.173308,22.668022,18.992165,4.07225,11.021343,-1.9543041,7.3773594,2.1419215,11.105548,5.464042,7.4378715,3.9232097,-2.2792425,3.802691,8.527568,2.2970445,-4.0379367,1.1357576,8.759112,8.839089,-3.536356,3.7240167,3.1602423,1.9123459,2.201228,0.20370786,-3.744946,4.1424956,-2.602866,-0.93115133,0.031056255,-0.53809065,10.046331,6.4730406,-2.1632648,7.2113504,2.258677,1.2673316,-1.4603273,2.0111003
119.jpg,13.826314,13.3751955,2.692763,12.117304,-1.0651106,-3.3509266,-6.4656816,9.018426,-2.7532165,22.890173,19.054094,5.450128,8.113172,11.540636,10.85499,5.0291033,6.412664,20.876759,14.510507,-0.9897772,-1.3237618,2.0471559,1.8369114,7.671518,23.712708,12.352316,0.8087925,5.3994346,-1.5361274,7.665801,-0.23981184,2.8510563,0.8696424,8.730618,3.346057,-1.676686,15.603228,6.71265,2.4017417,7.2337074,10.576363,4.8580446,1.3325003,2.4841065,0.87297094,21.134932,-0.58091414,2.186458,9.416156
120.jpg,23.689552,2.6747358,-2.914584,23.860727,0.9996641,-6.288248,3.5726407,3.763426,8.485635,7.922922,12.496162,10.582109,-0.1575388,20.144594,6.1657047,5.345528,2.2627306,16.175024,8.609579,2.1823053,5.696939,-2.8152719,3.9696865,2.6278932,6.3392677,5.5252485,-1.9347776,11.064039,0.82710665,3.4757295,2.183426,1.6302304,-0.39371774,2.0671763,2.5934343,5.829607,17.47798,-5.231633,-1.4597456,0.30675888,2.9301548,5.9370317,2.1933744,9.774451,0.12130411,-2.2947311,2.4882638,-2.245387,2.1953466
121.jpg,18.116701,18.190802,9.106045,9.182884,-1.083334,1.6015987,9.735705,5.3665137,-0.9853977,14.297064,4.764235,4.4543605,11.175623,10.372351,-1.091177,6.6903634,7.9396853,8.386221,36.504063,3.674341,7.832618,2.4014566,-0.5733408,-6.7033978,11.292145,5.7682633,6.644662,10.147886,4.5291657,-5.607997,9.511202,3.2514355,3.9310992,3.4310095,4.4171443,-3.1156256,-0.71806675,5.1020384,9.950474,14.355038,4.4986343,5.5329857,-2.7595763,3.425733,-4.3048396,8.260632,1.0911349,-1.4749194,2.5919354
122.jpg,15.809016,21.841648,4.8460407,19.31712,-2.2126875,3.1323292,10.959899,6.099936,1.8089373,14.582534,8.421597,3.5777972,9.060041,14.866562,0.8639983,3.7401118,3.600141,15.757311,29.418432,9.624041,11.594233,-3.8096614,4.2861276,-7.9471292,4.0205307,-0.11634594,0.99838644,-0.76706207,5.020167,-2.0641782,5.8243523,4.5871267,8.931187,10.004792,3.3356183,1.1429805,4.5220284,-0.9526109,-1.0054277,4.349339,0.47545955,3.9909503,-3.7472413,-1.5005015,-6.080637,9.304773,-1.754075,-4.47639,0.3761759
123.jpg,6.29137,5.694879,8.559702,18.144753,-0.023446046,0.90494406,0.5909791,5.638146,3.433715,27.805025,9.103324,8.078434,16.418837,5.3331127,0.5178755,6.2697797,1.6034796,18.759602,4.072317,4.224535,2.9205842,5.2339425,-0.55621314,19.839064,17.664665,15.49131,-2.3405604,5.0316963,1.4675145,-0.7103193,0.005011633,5.3832345,-0.14049056,1.7521212,1.0536675,-2.1100135,7.6210127,4.636544,2.7247858,8.697644,12.4841585,0.38847756,-0.6209136,4.293381,-2.1302397,-1.2703266,2.6425145,1.8121157,4.401315
124.jpg,2.7504015,1.8207788,9.242433,15.032114,0.84167385,-2.4419975,-2.668225,4.536685,9.34594,37.567806,19.569664,8.752065,10.677012,7.4756265,0.5527761,12.695186,12.187897,14.928635,7.159609,14.378998,3.8083606,4.033229,4.115746,22.189049,16.3273,17.065973,-1.3232986,6.5380216,-0.8303454,1.6672045,9.336706,6.5279408,0.9692505,5.155479,2.134492,3.5401912,12.422976,5.7639256,1.952005,9.67406,20.514698,7.3333874,5.2034855,5.3757544,-0.20528622,2.3381662,8.358334,4.213691,4.4632063
125.jpg,6.2538342,8.074949,0.062658265,16.911871,-2.8315914,0.9778417,-3.2010226,2.6009429,4.3018475,23.343021,22.080494,6.701856,16.233263,9.154461,13.484825,0.71880007,2.945927,18.316652,1.5873562,1.8023189,0.9968898,1.4851199,3.030137,17.984692,3.1142008,6.1707687,-1.2091709,14.192097,2.1683068,2.4336376,2.2531943,5.9435377,-0.2365429,2.0588546,-1.5846746,-4.5293713,6.6092043,0.7978057,-1.0676966,2.1653833,10.882854,1.5985519,-1.3586897,5.1535115,-3.148571,-0.47383672,2.4525094,-2.3887823,1.4105644
126.jpg,3.1704743,9.244217,8.47036,11.037661,-0.5906244,1.558342,2.989285,4.040105,7.169501,28.532154,18.427801,3.8469567,10.303339,23.205202,2.5917327,12.443584,7.0591025,26.994509,3.6011696,13.699213,3.246488,1.8123548,-0.33565128,13.523826,16.001259,16.852646,1.1681418,1.7308522,4.236311,7.269343,1.2693372,8.330735,2.746941,8.567844,-0.9298388,0.07823014,10.227074,2.0816243,-1.0999839,6.176532,13.542361,5.1222363,-0.96586657,4.305835,-0.64169955,3.0786607,3.581302,2.106936,7.0383353
127.jpg,-7.812562,9.80951,14.188032,18.78151,6.0350165,0.93635154,-2.2614734,0.92216283,2.9503207,26.303482,17.61228,0.5229993,10.010871,9.912064,-3.285616,1.2195688,5.715949,19.927452,6.289348,9.962852,4.250247,3.9116838,1.3574253,15.987545,15.061325,18.500492,-0.1385834,6.4215755,1.4480087,1.1767348,5.246533,5.559125,5.3164935,4.3665147,3.1211364,-3.4299314,5.102381,4.641244,-0.11809994,10.563687,10.1743965,2.9149036,-0.53593653,1.4560407,2.3510349,2.4171143,3.3780715,3.0312865,5.075272
128.jpg,-11.569921,10.171306,15.507693,23.025707,1.3314058,1.8982315,-1.8495932,0.53364635,4.741862,37.834084,10.859129,10.5023575,0.4004169,8.959313,-4.220794,-0.9325706,4.2257943,15.71327,7.634942,4.476223,6.473042,4.486964,-0.058408733,21.785032,18.203247,11.969608,0.746374,1.8698115,0.0033708988,-1.9480178,7.327482,8.24788,7.680538,4.990942,-2.4064257,-5.638611,12.469294,4.99817,-2.810631,4.1111984,11.410682,2.3385344,0.41584322,3.6254406,3.313398,3.5610836,5.34798,3.9579005,4.5464406
129.jpg,25.972366,3.4017112,-0.461143,18.150259,5.2378564,-0.47880617,3.371864,16.09674,-1.8726187,12.7715845,5.814951,4.923569,15.505615,42.578743,10.004532,21.538868,0.56583387,4.346899,0.92720836,16.009186,5.654714,2.320308,0.042428106,-0.76339346,1.5982658,3.2730255,14.788011,9.865863,6.129763,12.75724,5.818443,7.2583103,1.7519826,4.5446043,6.7993274,4.494113,1.7613984,-1.8183186,1.2855382,2.636354,6.5322385,10.234354,1.1227027,-4.0412188,-0.3686511,0.37515646,12.180169,0.69150823,2.5855017
130.jpg,9.095061,-3.2238178,13.474838,8.650086,10.998295,-0.82694274,4.716631,30.456432,4.095745,11.212849,9.16113,-1.2081454,16.20853,11.215428,1.809047,3.7945895,2.2883215,19.040524,4.7455063,2.9266336,13.312581,-5.80471,3.4523857,-5.2198467,7.6705413,0.09305668,1.8814038,4.223867,31.85564,2.8728094,-5.4330645,-1.2475722,-1.7813792,0.9694253,5.594453,-3.512331,-0.37605846,0.8326604,4.3487806,9.074573,-1.6418328,4.293783,-3.671797,2.6668832,-1.2265818,-0.4138323,4.2548037,1.2524664,3.5748284
131.jpg,2.5937366,4.863637,14.900252,30.456316,5.1914706,4.4078097,0.17640255,0.14137588,6.554717,22.875874,9.569776,26.697931,-1.1318367,-0.7616382,4.7443876,-1.8960366,0.9487808,9.158048,15.101308,-3.5769825,6.329566,6.6495895,-2.1451333,21.584562,12.4233675,6.247623,-1.0879698,7.2908244,-1.7373277,7.765183,1.3898221,6.454406,-1.0411612,-0.72502345,5.53957,-2.5631995,1.2981204,2.721827,3.1473227,4.495753,0.38506544,-0.2321668,4.964834,-1.8058039,-0.07854309,-0.9116789,-0.32552254,0.011845771,6.5667524
132.jpg,7.714934,4.494089,14.433831,30.456573,-4.823354,0.86275357,1.4054786,6.1314116,0.29349038,45.772747,11.985273,15.179213,7.866748,21.79034,-0.49113053,-0.52742314,7.440702,10.385752,0.7087136,-0.8442387,1.8928146,0.7753905,3.7471645,5.148837,9.459816,2.142677,1.0844615,9.937649,4.531921,0.59963304,3.821847,3.9908462,0.34387672,0.06064535,1.9795828,-1.216031,14.386771,0.05520545,1.5974799,1.9083545,13.536622,-0.32055107,-0.881482,3.3323174,7.6834693,1.1058187,5.105816,2.1896396,4.8104916
133.jpg,10.820089,7.9103374,3.1804786,2.8822029,2.855838,11.343041,11.719777,13.131852,5.934681,7.8754606,5.3972087,6.3425803,9.513238,6.9544926,2.8376403,1.3302323,0.532779,15.377649,7.7237525,2.1348767,52.43667,8.046329,1.9886785,0.40401956,-0.82305765,0.7842332,4.6238527,5.967512,8.518033,2.4749737,0.8602146,3.9136074,-1.9394923,0.47120553,10.240115,-4.9031315,-1.8802764,4.8179264,6.899771,-0.68479776,2.204877,9.517213,0.92234,7.209281,0.5123549,3.1911094,3.5940864,-1.5474267,-0.38925892
134.jpg,18.721296,-4.6299496,14.130682,30.72115,-0.66606474,0.26521868,2.2055054,11.698092,2.3855495,30.487019,12.38982,16.309048,9.611161,9.995512,-3.3672347,1.7990742,5.562717,9.484536,2.596494,3.6749017,0.2213439,4.6122055,1.2561855,19.896353,3.1061072,17.143383,5.170738,6.401354,0.8605652,1.9987024,1.4310017,5.029061,4.790284,-2.8316886,2.7488177,1.7643081,6.480761,2.704786,2.1289732,2.3341873,4.8661036,4.402812,1.8403397,0.6806382,-2.3174632,-6.23932,6.389545,-3.4748883,0.6923249
135.jpg,17.096418,-3.9021492,10.423013,29.35575,2.5146358,-1.4683261,4.260592,4.3278832,6.403663,31.144894,11.404406,16.209803,12.570347,7.484214,1.2520145,-3.5655358,5.6206336,13.053706,-2.1414022,-2.429964,3.2130673,-0.017817039,-4.9964566,7.4527135,1.0151584,8.265783,18.514868,6.89997,-0.21993472,-0.73700416,0.96557873,1.5611633,-5.033804,-7.7325954,6.886415,-0.41861624,8.374661,-0.8100407,3.3520498,2.4845297,3.764721,2.986648,1.9110384,0.01856112,-0.36777928,-3.5602365,-0.1011129,2.4917428,-0.2671823
136.jpg,8.647985,38.796738,1.6966949,2.9128785,14.333487,-0.1257603,1.63637,6.514231,4.746937,8.841636,9.192716,6.6193147,23.733728,17.020409,10.791804,-3.2573228,5.5152507,17.004898,0.45811582,1.5524032,4.102733,2.3751025,2.0583258,-0.5124882,3.347611,2.8032308,5.367153,13.85817,2.2995489,3.9518328,-0.85404104,4.71733,3.1690295,6.2369647,0.76232797,0.6974494,2.9885058,2.7739658,5.324058,1.0654297,7.080164,3.8024142,8.092035,6.820749,2.6941729,-2.6763954,-0.6734209,-4.2344136,3.09433
137.jpg,-1.4906685,72.5791,4.7777295,2.890856,3.9854207,5.955968,-1.5350484,6.7265906,1.3039688,5.481593,8.232434,4.005072,8.470878,5.886799,8.645433,0.9754665,4.140523,13.847713,9.237413,-2.3452082,-1.2026308,-2.2702143,1.7674176,4.75398,5.377424,3.2093883,-2.3213332,1.1579034,1.5157245,5.478574,0.3813846,4.22092,1.4628354,5.4551425,0.46133986,-1.0286968,1.2871307,-0.09001717,2.5720468,1.677227,2.6831994,6.601858,3.487993,6.504459,1.9922279,0.4628458,-1.2750244,-0.26060024,4.3278403
138.jpg,6.781953,28.194845,6.599646,6.488669,11.09721,5.2258816,8.376093,0.08957712,3.9645104,12.795952,6.595919,3.5507526,8.897296,2.907434,8.730084,0.021625124,7.1620107,15.362435,25.869915,5.6130214,-1.708442,2.9736984,3.6997519,-2.5613072,12.369686,6.814028,-3.1210842,1.2912014,3.17569,0.25712523,0.2723068,4.3790593,5.386876,9.039369,-3.7776425,2.4980063,9.305632,-3.9483678,2.4217935,3.30659,4.637663,2.581609,0.060464583,5.988884,4.502243,1.7966906,0.8406817,-1.5092695,4.3882427
139.jpg,4.491929,43.830482,12.579997,7.7691207,-3.663524,25.374382,2.8183286,32.735477,6.605747,0.8313114,11.367189,7.2837086,4.918091,10.395196,4.9176044,3.0263324,9.042348,12.834131,3.2001517,-6.2317514,0.3910225,4.244025,11.621757,0.17846873,2.4992216,1.1339006,2.0089698,0.18767802,-3.6598797,13.484478,2.4524472,1.7809391,3.656175,3.2837377,-3.4245565,-0.8673413,1.6574159,-1.2365533,-1.0354308,-2.3220677,-1.0161669,-0.052953605,4.5379434,4.906665,6.6663003,0.6705873,2.4738529,0.97015816,5.4394765
140.jpg,5.501152,1.2976395,13.397545,39.345085,2.5025866,5.348419,16.93093,9.146681,10.467741,31.086489,14.125751,11.425467,8.889382,6.4929647,2.260872,6.1341023,4.2751436,18.82717,-3.0518107,5.450912,8.817424,-2.9195712,0.591146,8.583988,5.7215457,2.5455496,-0.45954454,0.50507015,12.609363,3.389218,0.97856855,3.8663502,4.6037035,4.949437,0.30592772,3.1464868,8.154191,-4.8033466,0.5875187,-1.6194254,5.4861217,4.96301,-0.26531303,-0.93415415,-1.569983,-2.8507152,3.0991654,7.4623814,0.9821324
141.jpg,4.4701977,2.1998599,61.627888,5.8943176,10.368202,0.07197354,5.756011,-5.4254556,-2.2856197,19.114017,6.057844,11.021694,12.001661,4.4520845,4.3311725,2.9477022,-2.2235541,16.341183,4.3013296,-0.5073663,4.416222,-6.411031,-2.1125002,0.9073751,6.6930466,0.3090071,-1.0860177,-2.4778116,1.5232884,2.376988,7.4414806,2.9021811,-0.3380378,2.8770604,6.383663,2.1004558,-1.141666,4.8325005,1.764824,3.641355,7.385873,0.6610604,-2.616538,3.7412195,4.5640454,1.2497401,1.0041728,3.2909997,3.418125
142.jpg,22.605267,-1.5616231,10.455253,37.08753,10.659258,-0.6464746,6.6173816,9.581529,0.8683612,39.03161,1.9288259,14.409161,2.2050648,2.91726,-6.480434,2.4961,1.4421225,14.018595,3.3646612,4.230123,2.7075818,-0.19517913,-2.5218794,14.84181,6.4480214,11.877413,-0.39967644,3.084879,3.5771847,0.38083112,1.984743,2.1685452,0.60907567,-0.2449445,-1.5652165,1.821705,6.745358,-1.1488404,-0.9902304,-0.16827154,0.8323811,4.0347824,3.8701572,-0.17095134,2.0033133,0.9511155,1.4217972,-0.25819737,3.8601015
143.jpg,6.810394,22.82154,4.9722543,10.223431,2.2828948,5.3688273,8.305216,9.626928,-0.74747425,11.971514,13.173183,9.390225,10.440999,18.9011,6.285731,1.8454882,11.31061,13.373339,37.990982,3.3057504,22.422638,0.11106972,6.579652,-1.8424982,15.742618,5.488887,-4.6324034,-0.17647706,3.1241233,2.3570583,1.2925366,1.1672614,5.219126,4.753932,3.2029445,-3.029116,3.691184,6.239419,0.75824463,2.5025926,4.1001344,1.6694969,0.40435684,3.323403,-2.2615445,4.9211082,2.3528697,-1.3394477,1.1569036
144.jpg,37.71901,-2.9138944,0.6511515,18.413675,8.401476,-5.1210284,5.2462893,12.498712,-2.1869962,8.03256,1.4629006,8.6040745,19.802908,20.801126,4.4028645,1.957292,6.946218,10.709565,-0.28799194,3.2217495,4.143009,0.4809079,7.942336,3.4372513,-2.1631413,8.739095,4.6992273,11.682093,5.8338566,8.067294,-5.1326814,-7.7158995,-0.17422624,-0.034628436,2.1789112,15.522495,1.7672446,1.3479645,-4.8399134,-0.14756638,5.7544174,7.6187105,-0.1352082,4.4127216,-1.285913,-1.929263,0.31244183,0.9537397,1.2598482
145.jpg,4.981168,6.9286757,11.410324,8.234637,2.7467146,3.1685643,0.29764408,6.043185,7.964699,24.888453,14.02972,12.941506,6.6525235,3.0174727,-3.2709203,5.1639147,9.268541,9.651667,14.546412,4.3158183,3.2753625,7.2556696,7.5277157,19.742958,19.345129,13.941947,-3.285434,-0.7484893,0.61808026,6.164652,-3.520537,4.6258597,6.710512,1.7430596,2.414237,-0.82138664,6.010077,7.3186665,-0.12517872,8.97703,11.887932,4.193898,-2.8460364,-0.67932975,0.024378765,4.0681944,-3.8706005,3.0076184,2.1442275
146.jpg,-8.229089,13.102637,14.664734,22.917023,4.1240835,1.3725505,-1.1708083,7.6400576,2.7491293,38.603348,10.818265,18.790182,2.057133,3.4604034,-3.5579183,-4.644521,7.061293,14.629083,14.856322,3.482698,3.897161,4.982324,0.231334,12.878778,15.133579,9.193514,-2.0538697,2.3210845,1.8096019,-5.4201627,2.4141319,6.22957,4.3425784,4.69113,0.50908214,-2.2476993,9.261986,1.8288963,-0.48442882,7.766521,7.4995,1.9738847,4.7395716,0.9539742,5.518083,-0.81428736,3.338874,2.5548413,5.097988
147.jpg,7.9026275,8.201314,5.949928,22.545149,4.020692,4.823999,-2.599467,0.8520789,10.062658,24.911802,9.955966,19.228687,7.90178,5.3300033,-0.49766797,-0.1701525,3.386033,14.743693,18.083778,4.5627503,7.0812464,2.5826433,-1.1394855,20.299656,13.648243,12.786867,-1.7347971,5.7103605,-1.5923198,2.167933,-1.8204377,6.1257725,5.945552,3.244639,7.6953144,-8.562188,10.23855,9.796379,0.4812465,9.650327,7.0161715,-1.6202765,-1.4059947,2.9618716,-5.5666184,1.7111917,-0.94013566,0.2205126,3.6855268
148.jpg,10.581333,34.243164,-3.8913927,9.978732,6.8581023,8.219581,2.6495414,13.820783,0.83399713,2.0145311,15.793789,7.0766816,11.110304,7.6898327,0.03530262,-0.3868482,11.863592,15.161501,38.34075,0.796023,3.262659,3.9124343,11.548273,1.1893406,2.7447066,5.5975237,-0.28872824,1.1662173,4.8957624,13.681917,-0.122302115,6.1524625,-2.5383706,7.5562315,2.0738292,3.7290506,1.4908118,3.5761633,2.2333813,4.044467,1.1047482,2.7836065,5.499597,1.0266474,7.388263,-1.8457221,-1.923779,-3.2504349,4.815565
149.jpg,13.369974,22.407997,8.402458,15.037573,13.079903,19.860895,16.245813,9.402567,-1.132316,-1.2576768,11.639297,16.900614,11.321923,-0.5344429,0.028117374,9.376991,6.413457,16.19426,3.8649256,2.0884752,-1.8422732,-1.2879112,6.253432,3.6703799,7.339395,-0.64635706,-3.8282726,3.8679733,6.3085823,3.3414693,8.888146,2.9006217,0.15310608,7.79409,5.789415,5.265083,0.016211461,-6.619088,6.2440104,5.2548847,1.8718169,7.8926063,3.9397373,9.142219,6.766963,2.5603,3.3498232,8.605707,6.2085295
150.jpg,4.9502845,36.42866,13.830654,20.725594,0.8182753,14.06068,29.963552,19.969595,1.3892225,12.052492,0.83879095,1.0064464,4.414692,8.965605,-6.712959,3.414958,5.2726192,4.456692,8.443649,-1.2660697,10.752308,20.801575,0.827888,2.135496,8.029819,0.11663242,1.7656062,-2.3255417,6.168215,1.3956678,-2.2297912,8.5094185,19.530533,1.5604839,-3.4628575,-0.8479327,-2.7070749,3.6733568,8.8367,2.6255393,-2.4436955,4.3326635,3.4290094,1.3699725,1.2928821,-3.1615608,1.6231829,-1.1618211,1.2937088
151.jpg,2.9227324,30.24071,14.381832,16.68694,6.300084,35.53603,7.661022,9.359883,1.4525214,15.024224,14.10456,7.0307403,5.7544017,7.4465632,-0.8968232,3.911215,8.46024,8.877076,4.6604977,-0.75108635,14.152278,0.24551944,3.1007826,2.1893556,4.6369114,-1.1118296,1.0399284,0.8723804,-0.8058296,10.446587,4.192599,1.6797808,-5.2512217,-1.0457473,7.2340817,-0.23061393,4.715527,-2.2086966,-0.017807633,3.3790643,8.104092,-0.119782895,1.1353422,4.7677817,4.1571183,-4.8223987,2.883641,2.6535387,4.0672407
152.jpg,13.889668,0.46934897,17.78577,20.37815,2.1241307,2.9441643,20.154701,7.879874,8.162593,37.020523,9.747594,-0.7400518,1.320439,40.08576,1.2025359,1.6232103,5.880625,12.22395,4.469452,-0.103285536,6.806115,9.197545,2.720757,3.8953743,-2.465602,1.5395625,5.3965936,4.621681,8.835222,3.2724478,-2.0576541,7.9196873,0.106901765,-1.0730188,0.5595967,8.304474,10.513152,-4.8663383,7.814277,-2.9854114,0.800475,6.401071,5.213561,-4.680578,2.075315,-0.6612349,2.304611,-1.1281672,-3.0514817
153.jpg,30.183939,-0.41046384,15.461828,11.999764,4.471393,-1.6833,1.2487141,50.634407,1.4158217,9.46071,-0.24760817,11.334933,18.994545,4.8087444,2.3838315,4.511045,1.5276551,10.951482,3.975667,0.8552431,4.4115405,4.198558,-0.15544258,6.2886214,1.4542524,10.790201,5.550908,6.215902,1.8706348,3.8728278,-3.8364456,5.3015127,1.2636046,1.427921,1.5188165,2.7485375,-0.9899596,0.29029584,5.6232986,1.247449,3.3625717,1.6210954,-0.71168905,-1.4571134,2.1412017,-5.122199,2.7886758,2.489955,3.1116233
154.jpg,21.38078,-4.3460135,5.0177035,32.89245,9.154947,9.310759,6.6106877,8.441076,3.481453,23.709509,10.987798,21.97794,4.0333676,10.788796,-1.2370827,7.31104,5.4396253,14.59345,5.6564546,2.637298,9.01628,-3.2293518,0.9181452,12.45894,-1.2159891,9.29102,0.89486784,3.862708,0.78265035,-0.33298248,-1.0462592,5.6644773,3.7820258,-0.35990244,6.4347973,0.06336216,3.5984933,1.8601905,-0.45291278,0.21884404,3.2757037,6.8083487,6.0015674,2.953843,0.26298323,-5.4938574,4.5128508,-1.7836595,1.7893295
155.jpg,11.027712,10.618698,3.1210377,12.674567,12.056383,7.5197773,-0.3665289,4.5494614,8.240347,6.938428,10.506962,31.42563,3.5061605,4.5204563,-0.53736734,-0.7857811,6.526408,11.816531,27.689123,0.90050197,8.132841,2.0427392,1.8684679,18.744057,13.404372,16.286676,0.01588443,7.7596745,1.3625609,3.8683958,-6.3789086,5.856583,7.9785333,1.0879885,4.1106167,0.06273119,1.0872952,6.618713,-3.9594288,6.60175,7.303349,1.417602,-6.3881664,-0.1973015,1.2508441,-0.21875678,-0.5810175,-1.5067118,4.539274
156.jpg,3.9755468,2.0673041,13.927616,25.799803,4.014633,2.805564,-0.96445864,5.790481,6.9211273,43.5988,11.983053,11.524813,1.8317974,9.135954,-3.8390334,5.4509287,6.4471364,10.063471,7.9802275,5.150085,4.535022,2.579283,-1.7455928,11.715229,8.405974,13.3940935,-1.1435264,0.69220245,0.22455621,-4.30862,-2.6094956,4.4358826,3.5343103,3.1314857,1.2805845,-2.6181917,13.076882,6.354931,-3.1940858,4.5433187,13.457071,0.21665953,1.5016662,1.4447186,0.96362066,-1.277725,4.8433924,-2.9093757,1.1144178
157.jpg,2.6826892,-0.9515317,23.212866,16.751122,3.8929827,7.1444883,9.0262785,5.2098694,4.94437,38.768955,3.922238,9.047068,0.96232224,7.4928656,-12.162087,0.1590738,7.2418013,9.346146,3.0372233,-1.0155903,7.2721353,8.409165,-1.4372172,16.67353,13.520625,11.481981,0.079518184,0.9056272,0.04654806,0.6571375,-4.05391,4.9874177,3.8444884,-2.9603488,-0.7812253,-2.538905,8.121401,1.2476048,2.436925,4.5975027,12.186911,4.0966163,-1.3932333,-0.12799837,-2.471159,0.084026136,1.727321,0.23135412,2.101265
158.jpg,-2.8464189,9.332256,10.171832,33.014004,10.089699,4.130399,4.3335004,6.3184752,4.830362,34.01472,10.244262,8.599943,2.9367838,12.740025,-7.4398665,0.73277766,4.2281203,12.348173,0.40367806,6.2512918,7.8738227,-0.6024085,1.2074827,13.245533,5.5947094,7.654418,1.1356403,1.9979719,3.6233153,0.33069867,-2.9012177,3.7575707,2.950578,4.1570244,5.9200087,0.15484673,22.189777,1.9327579,0.10518525,5.398591,3.7883282,5.58872,3.2199693,2.9606743,-0.5183564,-2.3227367,6.904968,-4.293169,-0.8543564
159.jpg,-1.7772082,66.459274,6.2749257,3.61631,4.140064,4.828737,5.865489,3.6683998,1.3203138,2.6909628,6.0501924,2.802288,4.9367943,3.395099,1.3419505,4.2138033,4.901393,9.695694,6.6693125,-1.055342,3.59984,4.4913626,6.664236,3.9851203,3.3328302,0.01526922,2.807718,-0.79444253,-0.95155585,3.0422049,3.1295662,6.7066183,1.8484218,7.52099,7.489018,1.1737391,4.948089,1.0648298,4.0206842,8.868719,2.0317543,5.07924,8.572809,1.6031137,-0.42094922,2.7127705,-2.0358179,1.227698,-0.9106532
160.jpg,4.8354173,59.177406,0.7849688,8.696091,10.661637,-0.7464879,-1.1266508,0.4224263,8.776206,1.8016864,6.1608224,7.3771095,4.6853685,5.066941,-6.572905,2.888267,9.587688,22.531456,5.5865254,4.5760164,-2.0840864,5.8758035,-3.6826394,6.784111,5.2914166,6.479209,3.4169457,3.2085054,0.77775437,2.7294369,2.6938896,11.2259865,2.6521552,9.214771,0.3906327,0.9443282,-1.6940826,4.969845,-0.81442577,2.5241504,2.7469819,7.80842,-4.1987495,0.085235134,-0.88414866,1.7681757,1.879153,2.5202632,0.64802384
161.jpg,10.772979,17.39076,8.251786,12.5681505,-0.004798081,5.4065657,7.375251,18.867338,3.885271,36.538017,9.619492,8.418439,4.423195,39.181946,-0.28147447,4.3855987,-0.4307813,15.434557,4.19616,0.7236706,8.648171,-3.5644333,-0.75540704,9.833787,3.538692,-0.15946366,4.975231,3.9640932,1.5070534,2.096563,5.048463,1.3244486,3.708497,1.809871,0.022221263,-0.21937135,1.9768814,-1.2228717,4.0144434,2.3502908,3.4958053,3.2481637,5.094022,-2.034679,2.9039276,11.332769,4.3643446,3.4613962,-0.19224174
162.jpg,15.882714,-1.2295238,9.425987,27.261036,7.4397593,4.694012,6.4306965,15.8741455,1.5110815,35.66214,2.5167189,14.569512,4.7785954,28.615269,7.1660666,-0.64761174,0.29997602,14.971524,-6.5654116,-3.4041843,-2.1787179,2.3649442,-0.6943925,1.0517755,-0.40005437,14.796596,6.5772,5.3140044,3.5788984,4.2032285,0.79797274,-0.99917597,2.7646255,-1.7156534,-3.020293,7.9729476,8.17142,5.13074,5.4769893,3.1420588,10.472565,0.000121071935,6.8707886,0.8212341,0.58020586,-0.85079384,4.77021,-3.7535298,3.1004648
163.jpg,27.221283,4.2088823,6.5459785,9.040506,6.132,1.3907602,-2.1398585,57.34396,4.4542565,7.1438975,4.4493356,-1.6421411,15.040014,8.753894,6.962143,7.408684,0.16895327,11.532241,-2.7059653,-4.850116,8.316742,1.2532847,10.831544,4.196526,-0.053579964,1.8833052,0.3471965,3.6478593,-1.4631051,7.5287447,1.016419,4.2559276,-1.3196131,4.6362467,-2.1900492,-0.7346981,0.23572044,-0.0948312,3.3059604,-0.035804417,4.6167455,-2.8362904,8.6847925,5.2624793,7.8359222,-2.3742416,-1.3969339,2.5890749,3.1229587
164.jpg,18.40147,2.8182938,14.69819,10.145471,-0.58115834,9.871392,22.15941,23.317509,2.90529,11.860199,-1.2210004,10.628195,6.9996862,10.030255,-0.49341545,8.920958,-1.2927313,16.30691,4.1706967,0.04332727,12.29941,6.8862276,3.150907,4.5495906,6.023935,3.8096771,7.69878,1.4228783,24.639362,7.0522995,2.967514,8.0151,1.0568537,4.5394473,3.565643,2.6270823,1.0611273,1.0841584,4.673286,8.534469,2.0021129,7.58937,3.7343729,3.4478889,3.1743624,0.8191048,4.516706,3.25045,3.7090366
165.jpg,26.109043,3.8618033,-2.539695,10.263964,5.5854616,3.7410743,7.510996,2.5975494,4.2470045,10.516325,2.937856,20.247244,15.327774,6.1670465,-8.855559,9.562947,-1.178927,14.339095,11.157891,20.790838,2.3746843,1.2325815,2.6793578,11.339989,12.452706,30.331045,3.5904453,9.619548,2.2618454,1.6721014,-1.8017176,0.79795736,6.1468496,2.2743945,3.6472042,-2.3773036,0.040684782,9.706329,-3.1352684,16.544357,6.6355863,5.204246,-3.4560335,0.7182404,-1.9455172,-3.6260822,-2.2246535,-3.8878274,4.076151
166.jpg,15.799543,1.0864344,11.147194,21.380018,-1.2566903,4.804144,7.517143,9.984446,-4.3466506,19.117603,14.629149,9.863129,9.542515,10.7014675,4.278783,3.5737493,5.738364,8.530587,6.954308,0.104522705,8.424446,7.843565,20.173819,10.467023,5.791574,9.482,4.460368,10.418257,1.4273046,9.720043,-4.431975,4.587951,4.535748,-2.2940624,7.1691937,8.160382,4.4193435,-0.42201924,0.5032466,8.432237,5.2621684,4.6249332,3.5073757,1.2500619,2.3594358,0.4895028,1.68013,1.9453187,3.4047337
167.jpg,14.308998,4.36536,7.7377295,6.6175113,6.42002,-5.0215077,9.244784,0.8270302,-1.7088648,35.848576,9.303704,15.262888,-1.6931558,1.8535882,-3.939271,3.857208,1.5917771,13.846658,-0.26564178,8.154369,-1.4053758,6.033035,1.1242843,16.634586,8.682978,11.595308,16.4294,-0.198102,-4.546624,-2.5641658,3.365661,9.535863,5.6480775,4.909216,1.4077716,0.51584303,12.667835,5.8883743,-3.6844935,1.3114225,10.758414,1.6087327,-2.7783334,-3.6401207,-3.1640065,-1.7435415,1.72938,0.1513805,0.13876864
168.jpg,9.011986,7.460165,13.028643,6.6804466,14.266823,-1.26593,5.6799674,-2.6559856,3.9883738,21.428852,16.96113,18.601028,12.635596,5.8748026,-1.9527134,3.454897,0.16811481,32.298332,0.8057844,3.8646345,7.529365,-3.6064954,0.028006686,16.47495,10.136643,9.726929,6.480635,0.5333983,-1.1252925,-0.8630367,8.961305,5.3956666,7.995837,6.213763,4.2225337,2.9884808,13.051659,0.20968789,0.65484136,4.892846,5.6547775,-1.150172,-1.7588364,-1.3175498,3.9875023,1.7781447,-1.5810695,1.8883476,2.566238
169.jpg,32.579857,-4.418507,-2.9490683,-0.99049246,12.140708,5.748438,11.759443,16.049702,3.8362563,0.8990063,0.40475932,1.8684454,29.823547,7.552841,2.2209082,-1.8237474,2.0143168,19.270771,6.492096,12.611875,2.1216762,4.1729903,-0.026091002,2.0851583,-2.4204855,7.901547,-4.0804462,3.6300137,4.490913,6.612298,-1.7996188,1.2472122,8.498585,7.169823,6.801091,11.030281,-2.6678247,8.998713,-5.971913,-0.40169394,4.569248,11.93784,1.0630682,1.6511712,-0.5637968,-1.4817457,3.8285897,-2.7542324,0.5883106
170.jpg,24.26465,7.237151,9.773551,2.932866,-3.6600873,-5.9307704,-1.9484619,53.133453,-0.43263024,5.291419,10.798685,11.886046,12.426095,10.126025,7.3113995,-1.5699917,3.3245544,10.204218,4.405748,3.8005419,6.6666684,1.6558677,7.0601745,5.3647647,-0.77576745,8.3763685,10.538854,4.6983495,-0.19643642,3.3669033,-1.3090256,5.5353856,11.39156,1.280497,1.4162265,-0.60666066,3.5551026,0.042008653,-3.879677,1.6486965,4.6507335,4.4473643,-3.804542,0.41554636,1.9163921,-4.4487085,2.412808,-1.1622112,-1.3931738
171.jpg,15.65499,14.557585,22.399145,5.6021028,-3.999583,3.490074,22.542551,53.131252,-1.0354934,8.750791,2.9479678,-0.8918806,3.3999674,11.698992,6.14518,3.4009523,-3.3917859,8.840702,0.47819903,-2.6207125,6.8864083,8.324363,1.1041924,1.354968,-1.2650907,-0.89498806,7.3087482,1.030091,-2.1361384,-0.34674796,3.365561,9.253146,2.629425,2.139733,4.5869546,-0.48338977,2.1018584,0.62550753,3.2833014,1.658891,2.1357691,-1.0173863,1.0453019,-3.0727644,1.577126,1.2945802,1.6393989,2.2407918,-4.6869354
172.jpg,25.42429,2.4457724,13.354358,1.3641895,-1.2104267,6.7117343,19.66553,57.6862,2.9009213,-1.9711541,0.11259876,5.0450473,10.577279,17.317894,4.4409456,5.5200467,-0.13811667,8.868219,-3.0484564,-2.2396297,13.46119,8.736555,-0.39416212,-1.5254334,-2.6645868,2.3249302,11.710986,3.4318035,0.005216908,4.117064,-2.0716949,2.764657,0.6494585,-4.04311,8.392455,3.317038,-1.296104,-1.4653645,2.4753664,1.0669336,0.4680615,-0.96113586,6.194209,-2.6217868,3.6857507,-0.5380515,0.5646515,-0.7842256,-3.2083347
173.jpg,3.3813148,3.7102535,-1.637278,17.200014,8.5068445,8.137493,5.8428926,7.622178,3.25225,11.471619,12.076189,25.526068,13.17641,0.9331503,8.80529,3.497198,9.669818,20.012207,9.8620825,2.2724977,9.806489,11.34021,2.8089497,18.69639,10.161492,8.593705,-0.11984203,4.080533,9.017327,5.899008,7.6756225,8.383372,10.347289,4.2277904,2.5657718,0.88958424,-0.9225463,12.892667,1.6573988,7.8044662,2.258855,0.8011338,0.7061995,-0.66753805,4.058632,-0.7189477,1.137648,2.6113217,4.819183
174.jpg,16.344484,-2.0517032,6.773974,45.91761,5.9371448,5.765524,1.9836612,12.074392,1.7599642,37.065994,5.5349846,14.514635,12.070023,5.4754972,-0.795955,2.280236,5.8518963,13.081767,-3.0804477,0.84658253,0.954494,3.0178552,-3.366591,7.2253556,1.2822051,17.777262,3.1192932,2.587318,0.033998117,0.0041493215,0.05029235,3.7804139,2.765003,-0.655373,4.051354,2.4751585,0.59139293,5.078219,2.7259865,2.557032,2.6098397,1.8122312,-0.33107495,1.3164417,-1.2464632,-3.8563442,3.4765222,3.237805,2.2278275
175.jpg,2.9302368,49.53881,10.77268,2.4776504,9.12929,2.1207566,1.026722,5.9413195,5.116359,7.0108356,8.144288,6.4399424,12.809965,7.568818,0.7892037,-1.714121,10.638249,18.887312,1.1059238,-0.32555404,3.149246,-0.88039225,5.8649826,-1.0586327,4.0285416,3.5278008,-1.2872915,0.5292086,7.3007665,2.5937815,2.6996987,6.7806654,3.984379,6.6132755,1.2927339,-0.07479447,7.2903633,-6.2037077,3.3708327,0.52690494,6.1586404,8.282112,5.2191243,7.2167816,2.1729615,1.9805816,3.128044,-1.449688,4.389049
176.jpg,7.358587,58.156853,5.5198007,0.7510268,3.8728886,8.162457,2.5649433,4.8810883,5.451125,4.203029,4.5692225,5.4054537,8.910515,8.071147,4.254091,3.4209802,7.5463476,10.993816,6.1856017,1.5243936,7.212439,1.4648875,3.944211,5.4572434,5.8245087,6.678763,-1.5765562,0.22091502,8.825288,3.8450809,-2.4457178,4.657133,5.8991385,7.1207733,3.3837094,-1.1977874,5.6909857,-4.3595777,-0.5334525,2.8661954,-2.52056,8.479502,2.0876203,5.96618,0.7661535,1.0255462,0.89778966,-1.9568522,3.1029341
177.jpg,25.37173,7.7699037,8.950076,5.210479,8.443996,-0.88523257,4.3084407,31.82798,4.9039373,31.57824,5.679537,5.680443,14.14271,4.156495,7.796856,5.996574,3.8191364,18.923956,-3.2775593,-3.8988874,1.5230343,-4.308962,4.932647,-2.4300249,2.9744985,2.5186117,0.82350427,0.9727398,0.39904052,6.8113103,3.5920706,-0.6892118,2.5976484,-1.468935,-3.8925898,-1.1927803,0.02850499,2.6519184,4.1853967,-1.5940409,9.32208,5.045396,-3.430469,-0.62629944,0.20140502,-0.059306342,2.3649552,2.4872332,2.6838634
178.jpg,26.627266,0.49445274,6.836536,2.8417156,3.0960624,0.525428,4.7248216,46.07639,-2.1876554,11.166527,4.2837434,5.2880354,21.890234,9.319654,8.568973,1.6519094,-2.948121,14.143513,-1.8066775,-1.5334224,4.489058,-4.0155373,8.042978,-2.043982,3.3235338,1.043577,0.14008768,1.025031,3.1378753,10.488376,-0.54098916,1.0879381,0.32888865,1.9187052,-3.3715925,1.7793827,-0.5968283,-0.3376287,5.342476,-0.48485053,2.1582277,2.8351598,0.37763947,0.030134175,2.4953716,-1.0846567,-1.6712334,-0.49010226,2.3154159
179.jpg,21.942133,6.715794,-4.2549796,11.148292,9.411143,-6.9610558,7.4271717,13.105748,7.1200924,9.57432,20.010462,7.268335,23.334389,13.892107,-2.8454888,-0.32532746,17.753183,19.422144,3.846456,-3.196466,-1.7567538,-0.7597792,14.464727,-0.17333421,5.5220594,2.216449,-0.7465112,5.8666573,3.409157,4.6974754,5.5297313,6.4945207,-3.236577,0.9246436,-3.1787639,-1.5660985,-1.0513952,-4.9597993,7.9584694,0.6912013,-0.8435955,2.904455,-0.3189903,3.7283297,5.110108,2.783167,2.8151977,2.736774,3.547199
180.jpg,3.9006884,48.47955,6.7034154,5.2206717,9.467997,-0.84794945,3.9686248,4.0830493,1.6026288,10.011631,9.508322,5.5968566,12.43466,6.088588,-2.0446074,-0.17335536,12.639071,23.99302,18.981466,4.084629,-3.6641433,4.0628185,-7.961305,6.2090054,8.834339,8.738767,2.7725556,8.463254,0.8335675,0.70764816,-3.7620096,4.0763063,0.6957682,2.0789218,-1.7922975,2.4892802,0.8113033,-1.329979,3.4829729,1.8003879,2.2316892,4.113342,-1.7753313,1.4433172,-0.63330084,-0.16412558,-0.78011954,2.1917422,4.4394927
181.jpg,5.346167,0.2275548,6.27934,12.773773,3.4082758,-2.1909592,-0.100758485,3.7055736,10.306527,26.936794,17.439371,12.704304,9.345901,7.115984,3.267444,5.293704,3.5581264,16.211721,4.151239,16.9256,7.5524793,0.90793484,-0.13158637,17.274353,18.331118,21.739147,-6.1606627,1.0287095,5.7387137,0.88061225,8.068577,4.439822,2.178834,6.5055737,-0.5374806,-2.6786869,4.6591716,8.148309,-1.3571873,6.6990294,15.145938,7.738508,-2.947276,2.1282818,-2.7286787,-0.5137682,5.339923,-0.8516045,4.9079123
182.jpg,4.780752,0.6159062,10.925256,18.015728,3.6649334,0.90800905,-7.586924,3.616674,-3.4809556,25.869122,16.549118,19.835081,7.027939,3.4140456,3.2374005,3.5550792,6.7668996,13.596397,23.967243,4.2245855,5.631999,3.6519792,-2.1043134,22.445105,17.64698,20.67465,1.8945163,6.0195823,3.4663618,-0.44890288,5.3928537,9.343315,4.6925125,5.5882096,7.1288,-1.1771395,9.607207,14.198117,-0.70027494,10.748588,12.403677,0.10493249,-1.8008474,1.5991479,-0.06508339,1.7783287,2.3189623,2.4572048,5.8953834
183.jpg,0.025808625,5.8992486,14.30858,11.777364,3.3621576,4.2825594,-0.8735357,4.8259387,1.0682466,30.707544,23.812471,15.199656,1.8200268,1.4469376,0.3274035,4.945309,13.222315,10.127046,7.919658,4.8831925,7.320381,-0.78143245,2.4420764,31.210634,18.25131,10.253445,-3.0404422,1.7963132,0.35959667,5.083662,1.813711,4.2259107,7.32342,1.6312983,1.1028787,-5.03199,7.173304,7.637641,-0.6607062,2.769595,12.394624,4.4185586,-0.052251108,1.2682729,1.9054145,2.3175685,3.4077845,5.0132093,7.2218657
184.jpg,5.0534396,5.1577473,11.956498,11.204267,3.2627244,1.1972448,1.9999919,6.7375126,-0.44290972,31.408459,23.077751,19.543013,8.096331,13.0617485,8.258034,3.70493,8.783589,17.848501,2.2071626,1.1213472,1.1433918,8.197162,3.4792066,20.853033,8.413682,14.585293,1.6420984,2.8128667,4.0199556,5.4494925,1.5683953,7.758751,0.40876698,0.35209712,2.7149103,-1.7686893,11.103469,5.1807804,-4.695818,3.727442,15.036424,1.5704818,-2.0772138,2.5096896,2.7677374,0.6375624,4.9453573,0.8508886,4.56572
185.jpg,14.703266,10.384376,13.544747,31.512333,7.4500933,0.57426244,4.3240995,6.166445,-0.5060314,42.359776,-1.8653564,1.3491684,6.2442236,3.7582595,4.533983,-4.7131104,-3.015457,13.901168,-1.6951193,6.7738338,8.316688,-0.549636,-2.6833572,3.2295558,1.5726801,-1.2479974,2.721799,1.2086188,4.3400946,6.4555326,-1.6491109,-1.0385605,-0.25331518,4.4672146,2.6921892,8.157384,12.2780075,-0.72794604,1.8429115,0.41244888,-0.35815313,7.615307,3.913372,-2.1459904,2.8961935,-6.992479,-0.70428056,-2.6213117,1.4672949
186.jpg,-1.7887186,1.9593943,10.751605,28.215015,4.4836617,9.162976,7.063172,4.800699,4.158018,38.292637,7.9577456,5.295826,8.666727,4.1275682,-6.327369,-1.6153924,6.9223666,7.044473,11.635151,-0.7429756,8.008305,5.4533033,1.1699315,12.074301,25.416729,10.581805,-0.5282514,-2.1510375,1.0778731,-0.88047314,2.4629793,4.4649014,9.110346,0.6374469,-2.1172326,0.2848531,16.891315,-1.0086399,3.113024,5.154043,3.7582145,3.5850394,-0.8139277,-3.5393097,2.1200986,7.047004,2.839868,3.309395,2.1206224
187.jpg,10.875216,34.691517,14.167536,2.786753,3.9082766,0.30882183,0.47223642,0.5539432,1.4538785,5.449565,13.136794,7.00929,-0.7358311,4.2551627,-0.5330791,4.9634156,1.7574102,9.96602,17.82102,3.1789854,8.031376,-3.9440215,22.803778,-0.24576095,8.045931,1.2198808,4.89209,0.28660718,-6.621582,-1.5480628,-0.89661217,-1.7360516,0.5485104,5.1281533,13.16971,7.61265,9.258814,6.7354493,-8.715515,4.688962,1.2945153,0.40155387,5.7578697,1.4666781,10.61445,2.1076188,0.46952665,0.21229291,-0.09981291
188.jpg,15.284334,4.8152657,2.3651996,32.9612,10.336452,-1.4280772,9.092448,15.5372305,7.549931,28.846678,7.9998813,10.730724,14.290306,22.410938,4.954901,2.3360646,0.24478379,7.1202307,-0.9560914,3.06005,3.0473378,-4.238892,2.9654505,-2.3343065,-0.08554393,7.214283,9.4426565,13.919661,17.889456,7.6490602,-1.1261553,-0.2244085,4.6446366,-0.97828263,1.5719501,2.34584,7.0351934,3.844897,3.151755,4.492976,3.8297787,13.836474,4.399629,-2.054288,-3.330795,-2.985613,5.1123776,-1.7204418,-0.09250324
189.jpg,12.127232,1.7554507,8.13134,21.762373,0.6094915,5.74361,-2.6877117,3.0883143,2.7429967,36.07744,26.348454,15.454714,2.4103613,3.8866143,-8.201178,7.8471556,13.821032,7.574813,10.995148,13.961739,4.8931093,1.0689304,2.878425,23.548275,13.22972,15.402612,-1.7732322,4.6010995,3.7848659,-0.87612635,1.2741197,2.4639864,-1.4355444,-0.93838733,6.2731876,-8.12029,5.5769787,8.056368,-3.255149,9.301022,12.206918,4.560903,5.2700267,4.9072814,-1.5559607,-1.6927985,2.7404585,-0.4039987,5.471985
190.jpg,14.792357,-3.3933766,9.77644,19.047195,8.902044,-3.1435966,-7.950086,4.7287116,0.2733892,32.30285,20.563803,19.4493,-2.0519156,-0.29316083,-0.89916587,8.384128,12.044986,4.9906774,9.407888,10.48066,7.194624,3.366728,2.2483113,25.774002,12.607222,11.6659355,1.5276142,6.982872,1.1708057,3.3653903,3.7649717,4.917718,2.866249,2.8868806,6.791218,-11.11393,1.5358497,11.120562,-5.76509,7.810521,14.000877,5.4445105,7.9688287,8.7262535,-1.351848,2.106465,5.358662,0.69223195,8.946003
191.jpg,2.224627,6.055619,15.001867,24.622696,-2.9540055,-3.3930595,2.0884576,8.0527935,2.9005103,29.972277,16.780315,2.3387213,6.4152956,10.929777,10.503923,1.6610559,7.7239194,9.9057865,9.66356,-3.1674094,2.1193721,10.988823,2.3092496,17.146196,19.995884,16.154781,-4.686532,1.2453786,4.229792,6.502126,-1.2435064,4.3136554,7.464814,-0.2845059,0.69117814,-1.4659724,6.9558897,5.185373,1.0604554,5.7716618,12.213338,2.1429763,-0.07074061,2.7450376,3.0988076,6.040065,2.9317622,2.3720558,8.219432
192.jpg,-1.0870765,13.661968,10.174696,9.547191,2.128374,-2.8029387,-6.5919704,0.6856047,4.401247,29.399914,21.943783,-1.3108121,4.3387437,7.9198933,-8.295113,5.2103357,13.892053,11.056789,9.150412,11.8336935,9.411999,0.28075665,8.761343,20.617659,17.373695,17.379873,-5.5447392,4.051201,2.267762,3.39566,-1.5722994,-0.65247995,0.4267987,0.6046956,4.0817556,-3.4464116,7.3317103,4.4557743,-1.1421618,4.726818,9.560091,6.7595243,-4.351874,5.922693,-2.0167513,3.0198503,2.6814585,-0.24954313,8.104828
193.jpg,0.9589867,13.412637,9.094154,6.9427304,-2.985219,-1.4814934,4.956132,8.803283,4.061266,33.292366,16.593742,7.2864556,3.3845975,0.6054245,-0.17684065,0.8928882,5.1806498,9.552352,3.0606046,5.223841,1.9212341,6.522164,1.9814179,21.665697,12.316451,16.853273,-2.5225334,4.1982555,5.80639,0.57607424,1.0126405,2.3711782,0.80420226,0.62584776,3.61969,-3.7964866,6.416227,3.5682962,-1.9839361,2.6299458,10.0073185,2.3119173,-2.8525388,4.433285,-1.7920398,-0.80223584,0.5042339,-0.69693285,1.6287584
194.jpg,47.927544,0.74623686,7.602586,-4.2446775,6.4276004,0.6439621,10.9021,42.818165,5.196717,5.85998,-0.017676875,-5.4820004,10.790937,8.738123,0.7895019,22.380184,2.9472125,10.501668,-5.2606077,13.779775,4.8713846,0.1571279,-0.69232446,-0.6000717,7.2530737,10.075519,12.153597,6.118218,0.3212708,0.58333266,-3.783338,-0.48760372,0.32992625,-0.26746556,5.416948,0.6406766,0.0018404797,-0.81778896,9.02032,3.4466953,-3.365322,4.6643076,4.9987264,2.9236596,-3.695519,-0.39947224,0.5991982,-0.67195094,3.744787
195.jpg,12.140476,34.565147,-3.0327659,11.865629,9.331254,9.958127,-0.32396075,9.796532,-9.886907,5.70697,27.410206,6.979467,7.5484753,10.6080475,1.7546145,1.3510356,18.760386,13.811539,39.67657,3.5773535,3.6861193,-2.8215413,8.818767,9.574218,11.355498,5.657741,-2.7237694,5.164124,-0.19065021,7.037421,-2.7396607,3.1490629,-1.7428852,4.532174,-1.6425103,0.9254368,-5.6228065,5.220926,2.3963914,2.917419,-0.47554338,5.665621,3.4947567,1.6681103,2.8130875,-0.30029175,3.032551,2.2807462,3.8865097
196.jpg,3.6423943,36.05418,11.396194,3.5997033,2.760456,28.555048,2.3817503,6.2698574,-2.699184,8.3764515,15.95602,7.0736313,14.860172,2.6299567,8.851396,5.8483467,6.043221,15.415375,12.636924,-4.7568603,4.8848166,-0.8488405,8.042405,3.3363461,8.620949,2.528415,-3.3561647,-6.3788624,4.753146,11.250779,1.2154416,1.1850227,-1.5188074,6.196087,10.994355,1.515227,2.9058285,0.3370313,5.8664517,-1.7058144,0.7752986,3.9376683,3.7046692,0.10559913,0.4297744,-0.60648715,4.089854,1.7487185,1.8399805
197.jpg,19.889893,-2.9383216,20.895012,17.750008,2.8847725,1.2610284,9.968153,33.37624,-0.92630076,22.495365,3.9060786,14.115046,10.770309,3.0240946,3.3686883,0.36364374,-1.2566104,16.806633,2.1176813,-3.9538212,3.9992046,2.263903,4.4803195,7.226691,3.1128013,6.287286,2.94479,5.945341,3.1358187,3.965889,1.5391148,5.771017,1.7068789,1.1976632,4.973614,0.28755105,1.3951092,3.6525745,1.0634342,4.6533475,1.9614726,-3.2376666,1.5541751,0.8602401,-1.9789801,-4.286267,1.1918211,0.1503557,-0.44149077
198.jpg,18.618942,27.96954,-2.1713297,14.480385,9.677192,-2.8626854,9.262791,10.062394,2.4337296,5.185796,13.897787,7.879372,18.025637,13.832355,0.71392155,0.9912064,5.7441874,25.508795,29.090504,5.9035172,14.987697,4.295338,1.5005218,-0.26470208,8.263552,5.247324,1.3050588,3.871543,8.113941,-7.6754956,0.11074077,6.3591046,11.004862,6.2855735,-3.7750335,-2.1469572,5.0064673,1.5592551,4.451652,6.063767,1.3853803,4.8662972,-2.55843,-0.39084974,3.6190667,2.0948155,0.26939112,1.7218143,4.2423244
199.jpg,9.945325,30.624804,-5.993941,3.624811,10.024734,-1.9665006,2.949802,9.031365,1.0915383,3.2492573,9.135697,10.177184,34.28319,3.7987347,12.852322,-5.594016,3.6295395,12.915709,2.6351795,6.8950405,-0.41609016,-5.1318564,18.368486,-2.2698765,8.823904,2.0172698,-4.5334997,5.7246933,0.1820229,2.6396348,9.342987,4.8875065,1.2086021,9.5584955,0.6130569,5.5430813,1.9755728,1.9036928,5.5118256,3.345638,-1.6096148,9.862047,1.5322765,-1.2696815,-4.103308,0.11275755,3.589388,-4.0214205,0.61961955
