image,0,1,2,3,4,5,6,7,8,9,10,11,12,13,14,15,16,17,18,19,20,21,22,23,24,25,26,27,28,29,30,31,32,33,34,35,36,37,38,39,40,41,42,43,44,45,46,47,48
0.jpg,16.170443,-4.386687,23.548353,-0.7442479,8.926927,1.989257,18.9589,14.694649,18.83849,9.974434,6.592455,30.460993,1.0433081,24.965878,5.2414875,3.0929694,5.6103444,13.691598,-1.4029967,11.112312,8.433883,-0.99773717,-3.065916,4.3412185,-4.036129,-1.0221283,9.706221,11.949449,4.706753,0.6834083,1.3663303,4.7704077,-0.06689394,2.139947,6.7043037,3.91923,2.3998547,-3.2076218,0.6585691,3.5940099,1.7752019,13.625781,10.580998,3.6639552,-1.805594,-2.2993917,2.767949,2.9008367,6.118559
1.jpg,3.8666308,7.303164,26.100632,5.968248,7.9145617,9.311726,31.530453,13.3736105,9.746567,10.534004,9.629178,9.505197,4.688903,7.728357,-3.0949402,-2.4494424,2.713899,2.3620088,11.949738,-3.4733615,30.202007,13.651246,3.0596137,-1.1460395,2.1357157,-3.3079662,8.028107,1.7494295,11.057661,-0.72678596,6.6844316,4.388173,2.2317667,1.2621597,5.4675007,0.57570934,-5.2592597,6.9865522,3.8292224,1.8747009,2.6361792,7.3177733,2.73475,-0.36185655,2.3642466,2.1188211,1.3603817,-1.0748069,-0.7446007
2.jpg,22.98507,5.4659886,6.718691,7.0512547,7.469576,12.184526,29.555645,14.670652,6.29146,13.586694,14.403185,25.787567,8.063268,5.1955476,2.2502482,-0.43763527,12.458357,13.848487,5.503807,3.9464734,4.4929857,-0.557696,1.8900696,5.7459955,1.0561569,4.402012,1.0521272,7.416591,9.3221855,3.3753655,-0.43228427,-0.6248272,0.06910306,-4.250639,-5.7317967,5.376492,-1.9662356,1.8112298,3.159602,-1.2929764,2.6047897,9.721315,5.0214763,1.4762063,6.511499,1.0968103,0.55642146,3.117279,2.2759314
3.jpg,34.63878,4.1229224,3.2116954,3.4902732,10.755932,-0.099334866,11.239845,69.24929,2.6642907,4.602523,3.6766417,-4.963523,10.751469,10.266908,4.493154,-1.0329087,-0.95728123,9.263105,6.2292843,-1.6602939,4.5583663,-4.3218827,6.159734,-0.6780053,0.59407604,-0.6511269,4.252034,0.4493989,8.875706,2.7154362,-4.9303837,1.6956587,1.5141348,0.18724562,0.32139924,0.22912729,1.0355864,-0.45486075,11.976895,1.0610288,3.0103636,1.7753491,6.436902,9.899989,4.5140224,-1.850413,-1.5090024,-0.54439735,3.5650291
4.jpg,14.976247,-0.4879769,2.8609424,8.734753,16.872969,-1.4878858,3.0114856,22.928942,6.812031,9.545517,27.663258,14.469738,23.543713,36.417507,8.002562,-5.397872,19.699232,13.475829,0.047620617,-0.9880769,5.3077087,-2.1258001,3.2232676,1.1614819,-2.7946756,4.1156297,2.238743,8.846541,6.6866794,6.7507744,-3.4414172,4.812972,0.85326535,-2.6562736,1.2571298,-3.3312366,1.2102573,1.7609268,2.7918959,-4.3866787,4.1045785,9.128638,4.4805684,4.9048343,4.491076,-1.1836201,2.730478,-1.0885717,2.7565992
5.jpg,10.555508,6.037103,19.735884,2.5165246,2.5826094,30.256554,33.297802,28.22663,4.1713347,15.536001,7.248086,6.879523,1.0267152,4.3249836,4.749481,-1.2095709,3.6498237,1.920644,0.66928035,5.896703,4.44053,2.2281573,4.2655997,0.71411765,-4.460039,-1.1993229,-0.21530744,0.4128095,5.7416325,4.0061064,2.726229,3.7392373,4.2089877,0.6786493,-5.4520154,0.29672316,-4.437642,-1.0326687,2.30917,0.6120719,1.3454484,5.6366496,-3.8204744,-2.024419,-2.82843,0.49196815,0.51823133,5.1935883,-2.4782279
6.jpg,30.913347,-0.46669012,11.281794,-4.081174,8.867759,15.943867,33.167713,20.272116,5.4033384,9.11551,4.2253027,8.429308,3.42291,12.139677,10.432559,1.9450237,4.619703,1.7906682,6.7937994,8.42579,36.25754,5.985374,0.91767085,4.338445,4.8574257,6.7852287,-0.71190745,2.2099118,11.968089,1.4040276,5.977754,11.762455,4.932493,3.0837839,9.799438,0.7678293,2.6702337,6.536641,-0.49952865,1.6948229,2.969246,4.820788,9.87362,1.9061074,0.6428745,0.8948555,5.1690526,-0.93668604,3.4268112
7.jpg,11.062027,5.8339286,10.485946,5.8486524,35.172688,13.51672,29.074806,19.203312,15.045634,-0.5883026,12.75545,22.058243,4.115976,6.1515703,2.0376983,-2.3556669,2.5273297,7.175538,-0.6554988,0.39342335,-1.0098428,2.0428317,10.7840805,10.542396,0.5614008,0.8738216,1.4508206,5.879721,6.4219007,3.7790093,8.929265,9.184875,1.2756652,4.8799386,3.1180773,1.9265642,0.56395566,1.1592093,7.261415,3.9256475,0.11182493,13.737419,5.8730507,1.3171462,2.4247217,0.7876612,-0.44532436,3.0607195,7.060136
8.jpg,9.717418,15.398865,13.834853,2.3070085,18.858517,12.376097,37.235676,20.707026,10.247719,12.528186,8.60022,6.8501053,5.795415,3.391362,-3.5932393,0.387799,6.5178304,8.605966,1.446093,3.772372,12.1388855,6.185914,2.2849326,-1.5183458,2.716776,4.4884562,1.0712277,1.7151564,14.036766,3.9712079,3.369365,7.222166,4.630379,1.6974089,-3.6827927,0.020540226,-0.19274187,3.083421,6.968045,-0.64018387,2.2921762,9.058144,3.9949112,4.1541944,3.2298286,0.24348804,0.056606017,-1.0787948,2.5495172
9.jpg,16.976866,1.7813271,20.698135,1.0774662,24.215952,27.524942,40.63757,5.968089,20.042849,-0.3843882,2.954168,14.827778,8.449367,4.4613028,-2.7334678,-2.5494423,-0.9626215,7.7552276,-1.4729952,4.158031,4.9933887,6.035303,5.952851,3.2689464,3.8277254,5.2752266,1.1194719,-1.6515526,5.4679093,0.495061,3.3822079,4.921218,3.2264404,2.8148413,1.6687762,1.9624485,4.1243825,5.4915204,2.7940245,1.780444,0.20218202,9.464488,4.6423254,1.9461175,-1.1581781,3.5851486,-4.5758834,-1.3414718,0.9094831
10.jpg,34.819614,0.44363922,0.22254996,28.159115,32.46728,7.5185404,16.271015,11.484716,3.2901003,2.4961212,9.33282,-0.09253128,21.776701,2.534273,14.848253,1.4716777,11.248924,5.9070244,7.601939,-9.856078,12.53344,5.620743,2.4633298,7.8573136,21.506105,-4.896946,-0.99676734,3.3499315,3.82692,7.498842,-0.3298331,6.4140887,-2.9828494,-3.0382025,-1.3526477,-2.2517037,0.98898655,-1.048365,8.145175,0.37351224,-6.2988997,7.5426006,3.4417748,12.479873,2.7928603,-2.7404182,2.786147,4.6133256,6.8364515
11.jpg,5.33971,-4.0008035,31.296045,1.8238548,1.2589331,31.704638,42.72865,17.86513,14.929697,7.18328,2.2628763,6.6957126,-8.334764,16.493801,-1.2791319,4.605587,-0.32825434,2.7439091,-2.0962293,11.054654,21.246208,5.648745,0.05177781,1.0829061,1.1273059,-2.276856,1.6801625,-1.9952396,7.197306,-3.2170522,4.2082295,3.4945555,1.8799736,-0.038425624,3.0878081,5.597081,3.0640273,2.153439,-1.4338572,3.4990263,0.075980835,2.3224697,2.0187905,-5.0112853,-2.8008473,0.17963834,1.2208586,1.9837685,-1.4560481
12.jpg,3.3189435,9.176535,49.195324,7.4216614,3.2789495,11.031525,15.058896,6.108891,10.006797,25.572447,7.4826107,15.267499,-1.2762082,13.915999,-3.7854838,0.28059822,6.7623196,4.2035537,-1.9380447,1.8714204,4.222519,0.44209063,-2.0249848,6.6750026,0.31556255,1.0383224,5.292856,2.916844,1.418564,-0.7347158,-1.7267423,-3.6594331,-0.15918575,-3.3420227,-2.243056,1.8369228,1.7484155,-0.42095882,-2.3123415,4.1752534,9.946913,6.0320473,6.0402536,1.2989689,17.251041,0.84854776,-0.0005092472,0.57066697,1.3014019
13.jpg,-0.15907791,50.599503,37.905533,10.668275,4.830497,1.7081032,9.476657,5.364774,4.740965,19.228113,6.0772076,4.541886,-2.3724866,2.8918092,-5.18177,5.491288,13.436934,9.368513,2.8162878,-0.82720137,4.2834826,9.041833,-0.47600242,-3.555914,1.107452,-1.1983086,9.921524,5.368712,-3.6021457,-5.202507,1.7668359,4.7754393,-0.48971763,3.5657845,3.887182,1.5332241,7.5600176,-0.13317484,7.379134,2.6797676,3.4935527,0.8840289,0.49814078,3.4122307,-1.4683782,1.7720636,0.02742759,4.51496,-2.1124556
14.jpg,28.822691,7.955567,2.1199832,2.2756383,13.43009,6.2203875,19.506954,23.348623,-1.963487,6.1755257,5.20444,10.213915,19.325716,2.7850587,4.3531103,0.006669108,-0.5022426,6.6343403,2.989151,2.8396134,15.635243,-3.5037718,2.7265232,2.0997815,0.61462903,9.581015,0.6283909,4.171052,13.860986,0.25073183,1.2256393,4.958092,4.2513037,-0.5451246,2.3464198,-0.6312806,-2.8753095,5.4847517,3.521315,3.7840896,-1.7809808,10.898013,1.6469296,-0.031897146,2.965001,-4.125158,2.4068434,-2.5292416,1.1704704
15.jpg,16.523003,-10.741854,19.109102,16.466717,6.902117,5.4197493,28.06336,14.612897,3.5204735,30.9763,5.160593,32.73361,2.289711,9.706979,2.8173392,1.0410304,0.35625362,7.358199,-3.6442769,1.6888479,6.7991443,2.3070142,0.63702005,1.632452,6.366489,1.0930377,4.323435,9.779486,12.400371,0.051774364,2.8349307,-0.16958722,1.8423964,1.2450732,1.4559215,5.019168,8.262566,3.5052285,2.9315162,0.92720354,4.864899,8.273741,6.6377106,3.3822615,14.082758,3.6611774,7.884611,3.6746192,5.2256203
16.jpg,-0.56990767,39.085407,6.9003673,7.3172703,5.218947,7.4736824,18.64796,9.885509,0.18231925,28.995005,7.2635293,8.966,8.755141,9.477985,-0.7824745,-1.449773,9.484525,4.5940666,14.480832,8.721111,-3.3364275,-0.9613444,0.7702543,2.9797575,3.571475,7.915551,-0.11095926,12.055204,6.903467,2.21583,1.9969504,0.35206163,4.9570537,-0.99132854,-3.3690844,1.4244754,1.8599609,4.088825,3.7992158,7.1992083,6.248196,9.121272,7.189861,3.6238637,3.9677427,-0.53744197,1.2436917,5.483206,3.3676486
17.jpg,14.36199,8.841006,8.000574,12.161988,2.044271,12.834193,34.0326,32.46857,5.403878,20.16115,8.081594,14.676692,-0.24360642,18.511639,-1.156364,-2.233302,3.8579304,1.4589148,2.0377922,10.888106,26.26772,1.6444762,1.5035299,8.821522,2.3338375,2.0582352,-0.4707487,1.5902529,13.222201,0.69498974,4.071664,2.8586853,2.498138,-2.727205,3.2116034,3.4537678,9.281069,1.8685225,3.4221954,5.763488,6.4081273,15.263252,6.2486725,1.8093315,2.9929523,-1.2781613,4.975101,0.21354464,4.996554
18.jpg,14.661659,-2.3119833,17.809248,19.771978,2.290687,1.7389436,1.0910262,17.737242,-3.2536945,27.778915,10.220182,11.0636635,28.824001,10.993111,-8.3227005,0.8340899,13.055197,10.971744,-2.2119765,10.492962,9.837334,0.4733474,4.1065097,-4.2862167,5.524339,13.093786,0.7968719,36.86238,9.513232,-4.29879,-4.067102,3.7255385,6.8303256,-1.7406538,1.8779026,3.1026173,2.70443,0.55902845,4.522282,2.179004,4.7917833,1.244141,5.2721987,1.770851,1.9124054,-0.6188654,3.461561,2.1349034,-1.4106864
19.jpg,7.486856,5.4560304,30.221336,-3.3439298,3.1830974,36.97516,40.081905,17.33162,8.54068,6.1557894,-3.145133,8.752919,-0.8099342,8.750647,-1.6307768,0.51628566,1.4221398,-1.2450664,8.159595,14.190062,37.144726,10.22851,3.6864035,-5.44461,2.9661136,1.7260922,3.996353,1.8881118,10.456217,-0.3153708,6.623892,11.045267,5.7404656,4.663241,5.7732778,4.704523,-2.7689357,3.2594879,3.4083538,2.6522849,2.709504,9.690371,0.35873327,-0.9539266,-2.372079,1.0992614,-0.7854022,2.9079905,0.6947443
20.jpg,20.793291,1.826628,5.3666153,2.3254273,8.968273,29.408297,39.08124,9.010719,16.680443,2.5141387,5.2391195,25.043026,-1.190212,7.576287,6.733388,-1.4200402,2.6655462,5.479275,-2.111633,5.0121136,5.5598936,3.5633519,2.71341,-1.528437,-4.6565475,-3.5906234,0.7377601,3.601043,9.287453,-5.378799,0.30273637,2.299461,-0.25750053,-2.477748,-1.1380017,-3.4213037,1.5184408,-0.1647952,-1.1898179,0.26967093,-2.4267745,9.935493,4.9522214,0.6786272,0.20748898,-3.1185021,2.3080192,3.6831367,3.9275975
21.jpg,8.861158,35.217052,11.512042,0.45000762,22.597795,3.6478434,4.0502586,5.964353,9.396233,14.716792,7.6208515,16.06852,9.026375,7.6041727,1.674369,-0.92422336,4.730321,3.7852883,27.235035,5.9061756,0.0014359131,-6.436928,1.6964713,5.9263887,7.0185366,13.866133,-0.11980571,9.62217,0.5429219,-2.4976704,1.2198584,1.1722777,0.5987687,1.7626858,-1.8253733,0.010088552,2.435545,3.4480815,2.3662064,4.1879187,5.698232,12.310627,6.2183056,3.211399,0.49233687,-1.7400612,4.2815795,0.61809224,1.7168175
22.jpg,24.708038,4.1461105,2.760426,5.1876626,22.170595,9.7249365,21.391872,23.260086,6.2868147,8.068934,10.08361,3.5254822,21.983852,6.858618,-1.6620677,2.1165216,7.621144,28.411732,-3.4998026,0.019303337,-0.2585629,4.3004723,6.2994056,-2.9066596,-0.26712325,2.966153,6.8465176,-0.5415319,3.461547,-0.3834096,0.863789,7.581468,-1.9189365,4.7903852,3.9473462,6.3749433,-2.4485316,3.7014327,7.4108453,-0.47896093,-2.121061,7.1271873,4.807185,3.3075147,1.4971063,8.233732,1.8113151,-0.33229962,-1.6182784
23.jpg,17.748924,-1.95865,25.53507,-1.5998632,2.7849305,16.767862,36.20393,9.433363,10.186456,1.9517772,3.6732833,26.443172,-2.733865,6.382844,3.559533,3.412712,0.29388368,3.1496108,1.0236646,4.285907,8.08302,10.097932,1.0482868,-2.443732,-5.307544,1.130864,4.035396,2.7924583,9.387606,1.3968261,1.2915609,2.0069752,5.16787,-2.9602356,2.1523478,1.3236738,-3.2963614,-0.21282803,4.5509176,1.8423,-2.7531407,6.371115,3.0093327,-1.3583282,0.4826626,-2.0306118,-1.3062412,5.272553,-1.1765711
24.jpg,26.582247,9.3478155,-6.428525,13.246228,18.663387,0.1142371,29.269064,20.350275,12.935633,11.975478,8.311299,33.904278,0.35777724,7.994453,5.1881657,1.5855871,12.583028,8.482533,5.2146683,7.0007772,8.980164,2.3235462,4.9388485,4.6361423,1.8504183,2.7570233,-1.968313,10.107077,8.099604,2.8757107,1.5404285,6.777431,4.4952435,2.5373585,0.45063245,1.1935558,2.541011,3.482512,5.4953485,-1.7514541,0.105755866,13.082321,5.937589,3.6012516,1.3668779,-5.162135,7.5016594,5.8432918,5.9037647
25.jpg,39.427505,2.7017634,5.2466664,12.17921,21.929747,10.351822,10.481793,19.518192,4.5203066,13.281354,3.7104018,6.97925,21.487799,37.631603,9.728864,6.519834,7.6060653,1.3212006,0.57644325,1.0034678,4.4008226,0.17605555,-0.31809154,-1.0538266,5.0330906,4.650182,4.3128133,9.826011,1.6337482,0.6255278,3.0438395,0.5901461,-2.0305824,-1.0873983,1.4877582,3.0249784,3.487056,2.9766777,11.216662,2.095992,3.9227817,11.554161,11.285048,-0.6201605,-4.5242696,5.597975,6.083611,-3.8665652,-2.4810548
26.jpg,35.54424,7.033295,3.272248,7.2624536,14.231118,6.2366576,23.827547,53.506638,15.173162,5.399316,3.3892126,19.524548,10.44506,11.127268,-3.4158328,-9.76805,2.1581929,6.9339037,3.249289,1.3738309,2.54655,5.424959,12.817637,-0.0805902,0.38912138,7.705565,6.6024446,4.6992307,4.0985823,-0.24761581,-0.48580292,2.4850388,0.26218966,-3.0448568,-0.40368238,-0.44316825,1.4643911,8.136138,6.3031054,6.240172,2.9529653,7.15887,6.9293046,1.4370422,1.8537389,5.47623,2.578471,-2.7395096,-1.4600705
27.jpg,10.452164,2.2801378,11.721741,11.702283,16.098658,2.058072,2.5840046,9.969665,-0.7258138,23.404827,13.915606,9.592971,16.61979,13.383597,1.8507769,2.1860142,14.61014,30.437105,4.6278524,2.2188427,6.4141316,-2.2799623,-5.1731277,3.6010537,5.227719,5.520211,4.2541275,10.860532,1.7623044,2.6809752,-7.520322,-5.5214653,3.4507148,-2.2955031,-6.737514,0.85940975,-4.1930566,-0.9377385,2.9393203,1.7782254,1.5714933,5.4132795,1.5354425,-1.211849,5.0218425,7.5330176,-6.0756483,-0.7480936,1.2264129
28.jpg,13.045223,3.074126,7.6942058,1.837849,28.608204,23.711107,22.076502,17.874426,12.939411,16.805954,2.0374897,11.82971,15.383421,7.115081,8.0120945,-1.0531689,4.896098,5.7283797,-4.8398128,2.3114703,11.867121,0.49447593,-7.3804297,7.515878,3.9902017,5.269449,2.5694613,4.3098664,11.037327,3.1504576,7.5778217,7.849668,-2.3504868,3.700565,0.7848799,4.220129,1.9895126,3.703002,9.667051,-4.6625276,1.4626608,22.015121,10.24371,8.222434,6.583843,1.5407369,5.3057356,2.4457757,7.116879
29.jpg,34.785625,1.4060044,2.6404352,1.9352909,7.9162097,-0.10383642,18.688911,24.511547,1.8222567,11.594907,1.8893093,11.375926,13.090581,7.2010145,6.807995,5.438676,4.867851,7.926844,6.819726,7.0412116,20.940933,-6.5182633,-0.4494451,-0.8825918,-0.5521937,-0.19970769,0.36462712,-0.738686,13.285867,3.5839312,-4.8842483,2.940426,1.0165908,-0.53038055,4.8342466,-0.6005473,-1.8270661,4.4671016,10.466076,2.6121166,-1.6550947,12.127728,3.435209,-1.5187263,0.6021339,-5.6422663,-1.5500882,-1.8489752,5.8225794
30.jpg,32.085056,2.9371612,1.5421549,5.9887915,15.124567,1.8950548,32.169827,5.9558234,10.516321,2.934167,3.8939729,31.16186,2.098754,-0.20770518,13.939958,-4.0507274,11.136999,1.9682668,3.738831,5.598213,5.1368117,6.9546537,8.41328,-1.5599005,-7.0396824,2.4487085,2.3152654,6.191055,15.935822,-2.55993,1.4691863,7.400273,4.6029654,1.8319765,1.6793439,2.1290898,-0.16159174,1.3217341,-0.696468,-1.1806898,1.168791,15.002288,5.939714,2.5030346,4.8820148,-1.67166,4.6559668,-0.29568002,7.2302566
31.jpg,25.98446,3.8501813,3.7065048,8.102258,23.380459,10.530383,18.664282,7.5325875,15.039433,26.987516,4.7119837,10.40686,8.593834,2.5094547,7.993196,-1.0974014,7.1427236,3.7683396,1.4854577,-1.6798375,3.992645,6.085217,4.2877636,-0.1603555,5.9620605,0.31516048,4.414589,4.3066907,10.732457,4.3865824,17.208872,13.823852,-4.4916043,0.67949575,3.6908753,6.403777,6.534218,-2.26354,1.0470512,-1.0070716,0.15029162,13.68854,13.52395,3.9317205,1.9915965,1.8116289,12.327734,-0.89765525,5.364219
32.jpg,-0.91535896,-0.31609628,29.649443,1.5649385,9.641436,52.58271,40.6877,14.4939,10.941603,7.683161,8.522758,10.566988,1.9367037,11.610949,-3.1963077,1.6279442,0.1377494,4.351185,0.32482958,5.151918,9.698467,4.262594,-0.30684853,11.022854,2.4342039,-1.6806414,-0.4732523,1.0804404,9.953265,-1.196629,5.5023756,3.5109243,1.2085538,1.0487586,1.0644994,-0.10831724,-0.59756696,4.9133906,2.6621082,1.5807291,-0.35935605,10.363242,5.501939,1.4950396,1.2665477,0.880171,2.9016917,2.4536572,1.8036187
33.jpg,17.644701,5.8191786,-1.5103223,6.619122,24.07188,0.9591146,26.73601,18.273043,3.9324503,25.586271,1.9033089,19.589237,12.47413,2.525024,-4.3270903,3.6989987,1.2136849,10.885628,6.853596,2.0096362,2.6311324,-0.52246636,1.4562434,4.515843,6.2384815,7.8669868,8.2201805,7.833311,6.18168,-0.82513726,1.8517431,3.5531964,4.043914,-0.04317239,-1.5140256,2.5914767,8.399808,3.3107984,1.7343594,9.357962,3.5575633,7.516212,6.4824476,1.3118356,-0.31531033,-0.13019946,2.6439452,2.7475703,1.8132144
34.jpg,9.926611,10.020792,5.97538,54.83304,11.063501,1.7010994,1.9403957,-0.42821383,7.5025053,33.121017,21.116032,16.094082,2.899744,6.3070817,5.234784,0.81233543,11.104058,13.292366,5.3727345,-0.49397665,12.790606,-1.4308892,4.146016,13.79976,-1.3144454,2.972186,1.5122138,-0.2887289,5.6236286,-1.0822847,0.2467975,2.6057572,4.7420197,3.044362,2.55172,5.9983745,6.8346763,3.9842134,3.0190685,-0.38006884,9.118575,6.989506,1.6079564,7.088362,2.939349,-2.2135317,-0.05450081,3.929931,2.4022956
35.jpg,29.034979,13.006844,-1.0926865,11.316928,15.267719,13.650504,2.8570487,-3.8708038,9.061153,1.9120727,36.000587,35.481583,7.16515,-0.47266352,14.155489,-0.40534726,20.81408,9.214362,34.15938,2.4016755,7.5642796,0.026754104,4.603887,18.8598,4.369459,3.0909176,-0.11158809,4.786952,3.576339,4.8560495,3.282883,-0.8110281,0.71846384,0.7551269,6.634576,0.89917463,3.6799476,8.382292,3.7542627,1.4824493,6.2713633,3.6596923,-0.7002361,10.085332,6.3516335,2.0101519,0.17904055,8.59278,4.5101833
36.jpg,15.228798,1.8456846,3.180261,4.7569613,33.49608,-0.39554793,-0.8412663,7.2909675,8.429319,5.647516,9.2694025,17.28,19.39769,4.418558,-0.73462313,-3.4982343,14.490003,17.458458,12.614711,2.4030395,2.4426816,-3.3104722,-1.3729781,7.464037,5.7545238,12.402336,0.495794,3.890552,12.534406,1.8323888,3.200494,7.658785,-0.42473027,4.6189103,-1.3204268,-0.9890113,5.938495,10.774522,6.1549506,2.7692354,2.3434188,13.80367,1.0969799,6.7136497,-4.045542,7.649678,-0.6135389,-1.1848277,4.279349
37.jpg,29.28869,6.409552,0.5771793,17.87217,-1.7651074,8.313133,19.433237,19.400307,4.360812,18.602474,15.035686,23.410528,7.4029775,6.7127028,6.9308033,1.6554743,15.929058,7.470796,5.3098097,2.1549351,11.389382,1.0073924,3.7522712,1.7325968,-7.9908004,-2.0996299,4.0343986,5.077221,6.7217627,4.3555965,-0.9464073,-5.348751,-6.776749,-6.864313,-0.50045514,2.1495152,-0.88379073,1.8094037,4.843818,-4.670983,5.911867,8.036758,5.754293,5.1039944,5.5376186,-1.2538869,1.9148899,6.1602883,1.5541134
38.jpg,24.816647,1.9099593,1.8565164,15.278805,8.239853,11.086224,3.3486686,63.521576,0.7163752,5.8922358,16.6335,12.708738,10.427255,10.690589,4.9372196,-1.9726511,11.333906,1.7664753,4.021104,0.09379266,10.269669,-5.776428,11.6565,7.4372096,1.41666,2.3675148,0.49599382,3.8259335,2.3814626,9.505691,-1.2289422,-2.3562384,3.1994276,-2.3522575,8.9134,2.1690075,-2.7560647,6.802375,0.2771446,-0.653875,3.1563017,1.7595315,7.3988447,1.2378006,2.259453,-1.9529015,4.746924,3.0231452,3.3095083
39.jpg,13.687698,10.898081,5.1747255,8.326673,19.662338,10.6503525,39.090336,12.495704,11.497282,2.5876734,10.488308,14.641486,10.482791,12.089197,13.326347,4.2261972,13.004351,6.969011,1.8221676,0.031362474,14.238557,15.145476,6.0526037,-0.13450757,7.6735153,0.18432754,0.686537,2.2431898,4.834513,0.4680779,5.5211554,6.9073944,17.023932,1.6730524,3.2487042,-1.7343438,0.59324676,7.1548357,9.778241,1.8520378,-3.2317028,5.360172,6.860897,7.378938,9.553944,1.4972829,4.6278815,4.6887493,3.3638458
40.jpg,4.7434483,2.1098125,9.066863,16.67603,11.353671,4.209859,13.143623,13.748905,3.0605917,20.988125,14.247661,20.67688,4.4405336,4.5112014,-5.5603375,6.2039466,18.237411,21.512924,-1.4034805,0.39106208,0.4804223,5.2283077,0.21547955,7.401934,8.025365,3.4189672,3.1051435,4.9092298,6.9755673,5.8897605,0.5249269,3.6916423,1.219112,1.0103608,6.7897654,-1.3193489,-4.3417997,2.180008,7.6119094,3.377596,1.1153826,5.1981225,2.6067739,4.6136155,5.790646,16.96629,2.7040749,3.7522097,8.911297
41.jpg,16.33213,-1.1912582,7.1407022,16.715347,12.34181,-4.205158,13.061707,16.477003,7.802876,21.295475,20.887358,16.699419,12.174318,4.137185,3.7278392,5.1108146,8.45118,21.2347,3.170771,-2.8950472,-5.655709,1.0638179,-0.509158,9.431042,11.629345,8.375541,2.432672,-0.9460936,3.1484928,-3.6109447,-0.75919724,3.0168457,-1.5295614,-0.11591932,-5.4110436,-0.42578456,3.5874426,6.987164,5.938891,1.6301215,10.799694,1.4659071,-0.21340996,2.2271197,0.67123145,0.6464606,1.9900657,2.5531073,2.2690938
42.jpg,8.781393,-3.3809137,5.664268,32.583652,32.345657,2.848791,5.6264076,-8.567637,15.94827,14.822641,25.029568,6.9214754,2.6864796,6.469504,-0.8479266,-0.034647204,21.842478,16.286024,5.7292023,-4.294582,1.0275992,4.9269753,4.018311,0.32780802,8.885641,-2.5123298,2.9609509,5.0816016,-3.3710127,0.70514876,5.9529734,5.8445582,1.9314975,1.5650901,-2.0969732,2.448888,-5.9187965,-3.4410205,3.8933442,-0.2958987,3.03691,6.897995,7.5835094,15.905181,25.432268,2.3566098,1.3316538,4.4799623,1.2487358
43.jpg,10.740793,4.5723667,53.935444,-0.6287774,12.093379,7.9849095,9.657074,13.233142,9.599621,22.027908,2.8335664,11.169194,2.7665186,10.192771,0.94677293,2.4491587,3.6792912,1.5152563,3.5914383,1.9543678,5.7731023,-5.3473735,-4.189253,0.6820159,0.09461902,2.5010939,9.38212,1.8030905,4.640949,0.85192686,-1.4666862,-2.4680085,0.29949364,-2.2509158,3.3756788,5.3188844,0.13607131,0.90872234,3.4681313,6.6989794,9.037629,7.9958587,2.9302363,6.419341,4.895139,-0.72256243,4.7946715,5.9372015,2.408641
44.jpg,18.704731,5.543256,11.941814,20.707153,10.370569,-1.2279351,-4.4184113,54.576946,0.099647604,7.1621246,16.438427,9.762445,11.420428,16.362041,3.197376,-3.2904375,7.607493,5.7008405,0.22844505,-5.430194,5.215051,1.5104437,3.4694285,3.2108643,2.009687,2.3675811,5.0069394,7.9203725,0.5049853,5.742512,-2.6174254,0.7317503,1.1167283,-2.1920555,10.133514,1.9292291,-2.3801987,5.4270544,6.08426,1.4587108,1.6925324,-4.1867366,-0.95166194,1.1675045,6.553472,-1.1207234,4.0285907,2.6360393,5.07136
45.jpg,5.154701,2.9275472,66.94329,4.2606716,11.226695,5.477768,15.383742,4.8525004,10.999132,7.537887,2.3216047,2.173588,-2.8029642,11.430319,2.8978393,0.94318783,0.48400503,-2.0050032,6.33164,5.7189755,13.806407,1.0271456,-1.0788165,-2.1672819,5.148451,-1.9494623,0.7161415,0.2945274,4.0936513,-0.5793348,1.7969012,4.584024,-0.9254805,3.4986432,3.9244719,1.9117653,1.9193861,-0.5276263,-0.36119074,0.6125209,0.018335506,5.635724,1.8848207,7.0267415,2.7388647,-0.9883579,1.0521485,0.7922234,1.5449897
46.jpg,6.5128617,17.7685,4.3280973,7.703789,2.3074286,3.245016,21.163237,26.935837,0.24564359,3.9600804,3.71731,2.3064055,17.218845,7.4948645,16.66147,-8.740662,1.892836,4.8113384,7.788029,14.333543,16.673779,8.970515,11.0558405,-0.3601392,7.7745733,-0.23934823,5.252257,-0.8084731,33.945957,8.982103,4.6372356,12.37645,15.871107,14.347428,3.691437,6.53757,-1.1892071,10.088911,3.950948,9.935193,3.5422966,9.078601,0.16517955,0.65181136,-3.2617753,5.846117,0.22607073,-2.8787625,3.1479337
47.jpg,31.03973,12.992135,-1.5969104,-1.4528897,34.723274,3.4825287,15.096977,17.106747,16.250664,10.275505,10.4936695,17.465706,18.184977,8.132658,-1.484864,-4.0998406,0.7033948,14.198944,3.7781715,-4.398101,-0.9638114,-5.2983246,13.296337,-5.629386,2.8138225,0.47662994,2.9067502,2.185728,2.678949,4.229243,-3.6342676,-7.5151725,1.5145847,-4.0404835,-2.236938,0.2759979,-1.6772188,-5.4386353,1.6042508,-3.72322,-0.38685632,2.4185994,-0.001351349,6.761265,3.5909758,2.9961998,-4.370942,2.3030086,0.46840942
48.jpg,19.950943,-3.5070658,13.946048,0.4950693,12.498148,9.484291,27.375269,13.929406,16.654488,-6.082026,7.880353,38.865864,5.7799673,11.810656,6.1275096,1.9518211,9.048769,4.6259475,8.983893,3.070581,12.97262,12.339066,3.4104853,4.886139,-4.193064,3.5943217,8.256033,6.5516753,5.72861,3.0598907,2.838303,4.1660967,3.4435153,0.10512695,5.562248,-2.5311286,-3.1254168,2.2025185,1.6745045,2.76659,-2.7534163,12.815669,8.181892,1.8326949,4.1685185,6.174059,0.0074969605,3.9664843,3.0227606
49.jpg,45.793396,9.150594,2.3960729,4.999306,12.386071,1.3937726,10.846728,7.675308,22.652723,2.7445748,21.119211,26.961687,3.9784234,2.7856991,13.618042,9.107906,12.561507,3.2848697,10.614121,5.8529234,7.535721,-1.7025834,9.687323,0.9384478,-6.012293,-2.2242916,6.948489,4.588438,6.1211247,4.170256,8.240758,2.572272,-2.716306,-0.07253596,1.9326601,0.794811,5.499999,1.3038622,2.898978,-1.3715554,5.0158625,8.995504,5.378846,5.874786,-0.2236126,-3.5397198,4.063386,7.2698793,0.22776482
50.jpg,0.021585636,1.0721252,27.34374,3.5047228,10.449742,8.561469,31.981314,4.7726445,12.308327,8.625093,5.5694313,14.748452,-7.7886314,9.739283,6.6643505,-6.296028,1.8275704,0.5655542,0.8954613,-1.4990935,30.888086,18.862566,2.955448,-0.36683705,1.2403789,2.1497557,3.2161355,1.6848031,5.3432884,-0.6563537,6.6063643,7.2837114,6.312439,1.6854922,6.1036043,6.1165104,-2.4742324,11.076773,0.42412803,-2.956925,4.572643,10.218534,0.7014652,5.931788,-0.2853209,-0.26948488,5.6054854,1.4778361,-1.2090366
51.jpg,8.434806,4.1783767,10.124164,7.0419497,21.203093,50.294186,37.28332,11.125693,12.725851,5.3625474,6.8829827,-1.5559713,3.2316823,9.354304,4.4306083,-0.20014438,6.4730263,6.865211,-0.5435673,5.563492,7.122518,5.5781755,6.676021,-1.3774197,-0.41588974,0.24350658,-1.2720587,-1.5281522,7.4970527,-1.8675734,10.297434,13.600895,1.2364113,4.5930448,1.1206914,-1.2364113,-4.050901,3.7443109,12.909044,0.33121166,-0.122762054,4.7057414,2.8655186,-0.49132797,-4.907183,-1.5931858,1.1840801,-0.099375755,0.80789775
52.jpg,31.007565,-0.4953175,0.7344287,8.764373,8.464582,6.9883356,-1.034515,29.724049,12.9952345,9.247717,-0.10885373,3.0282247,17.861622,-0.10320488,7.9151206,-5.2709603,11.146857,2.4119108,7.294012,-2.8627145,4.5203648,3.954818,0.90402895,2.0112185,1.6435124,0.97211087,19.19804,3.4027278,28.484026,-4.1059027,-0.2415794,-0.6216842,-1.582448,-0.41001615,-0.74229014,2.970972,8.224908,-2.6646278,4.016735,5.760387,3.856967,4.973518,-0.94093364,4.384824,2.341614,6.4602385,-2.0756555,2.001453,-0.86539423
53.jpg,37.921207,6.5405836,-0.6519953,0.2022951,18.919533,4.4284024,29.723757,18.890368,4.642214,2.6559148,3.7717185,9.2464905,9.096954,1.1922724,5.384029,-5.4247303,4.148293,6.00987,10.960118,13.827583,9.867104,-1.795198,2.143619,0.029705837,1.0255579,0.20442009,-1.1215438,3.0659013,17.641748,-0.7108057,-0.0042717904,8.830732,1.7709274,3.4858897,-0.32356504,1.4904493,-6.596822,6.02183,11.25587,5.895318,-4.0667677,15.72527,3.8465123,4.779988,-1.5640134,-4.5102396,-0.05466256,-3.1604285,7.243227
54.jpg,-4.8878565,48.987804,14.05852,4.4067755,12.4088,2.5381591,1.1420872,1.1927885,1.2097994,22.51098,21.056744,5.552836,6.163017,2.1927,2.099207,1.5654262,11.988849,12.268056,7.406468,-2.6234426,2.4408312,-2.250818,0.010301685,13.381302,6.7516932,-1.1521873,-0.8679625,-0.79781,2.5201273,2.1202252,5.043761,1.2858411,4.067845,2.2160397,0.4007034,0.76587796,-0.42408696,5.3011174,5.9473276,-0.4003635,9.33278,5.4978347,2.0753617,4.257065,9.987577,2.9559207,1.7347826,4.7064776,6.491399
55.jpg,16.760155,-2.51261,19.923712,9.680526,21.584473,9.786565,17.633003,8.636326,22.454054,4.4312344,24.683619,29.790419,-1.2103127,23.457348,-2.1872857,0.69832623,15.763397,15.627368,-2.903992,-0.98465204,1.8363916,6.523475,1.7518263,9.384518,6.188315,0.1770882,10.025861,2.0740523,1.4952109,1.2469943,0.99577194,-2.6198668,0.54102343,-0.94932085,1.3291337,6.235484,-1.8891941,0.6209362,0.47894147,5.0408278,1.4466594,4.141823,6.222012,10.50402,29.049301,4.3462677,-0.5796116,8.739453,0.6487764
56.jpg,18.48723,3.7685626,6.7998023,4.905785,8.304239,7.1757135,10.182245,67.993996,-2.8671823,4.8819523,7.039632,8.795293,14.282889,2.374264,10.311257,-1.5769439,6.3573213,6.1015086,7.404977,-3.2147515,5.0923967,4.6362643,3.4848864,6.573738,9.559262,5.562066,-0.025458913,-1.6917586,4.6750536,2.5961387,0.4605096,6.724164,9.447972,5.3360357,3.267033,1.0567807,-2.4374187,6.3820972,5.1272097,0.107862055,4.1555605,4.5162005,0.5212555,2.7118604,1.3780453,1.6611738,4.0239086,-0.023839856,3.75238
57.jpg,15.114953,6.056564,21.626505,1.6067843,8.801672,3.46274,31.615757,17.697964,1.0940738,3.2087073,0.45034018,7.222639,7.481736,9.283536,-1.190579,4.99892,-0.10277811,4.374529,4.611099,0.8485912,42.09957,14.169605,4.4608083,0.10984451,-2.6083908,-1.5012088,0.49751675,-2.2352297,14.695608,-0.91408694,1.7150651,9.571055,14.255771,-0.5482083,-0.3746624,1.1457083,-3.0621648,7.8115644,1.8704212,0.76515526,2.1591275,0.8676843,2.753573,-6.395479,2.573648,-3.7634816,0.74079216,-0.21386975,-2.079028
58.jpg,2.7828434,16.170504,28.13626,17.927252,-0.9093171,6.498378,4.9841747,15.857911,1.8222548,39.6463,2.3079996,5.959651,3.8674135,37.66437,3.5328612,-3.5132813,-1.0805186,-0.8286815,5.475211,4.0992208,8.59309,0.92017424,2.4133604,4.8982153,3.194187,-2.049892,3.1430907,1.3625559,3.4286592,3.6619172,-5.4156837,-5.2221394,5.2624564,-4.902646,5.3582034,-3.2018006,16.935495,-0.45057786,-2.0303943,1.9581712,4.504295,-0.115054704,-1.9758857,-6.1199536,-2.4868276,1.9548811,-1.5497967,-3.4038029,-3.695106
59.jpg,28.378986,9.052719,-3.2305472,0.7105804,12.596769,0.7165173,32.87059,43.17541,3.1737738,5.1533194,1.7627319,5.8280444,10.16868,7.766384,8.116789,4.72022,11.505596,8.444966,1.0523883,5.2406864,5.53214,3.1053085,-0.067264125,-2.7494018,2.3256168,1.0856254,1.9139323,1.0575305,12.62388,6.625633,-0.93473464,4.1500025,0.39267698,-0.5405792,-0.1624398,4.2594833,-6.0390906,4.2202888,11.12741,7.158289,1.3042958,10.495302,-0.855095,0.21005599,0.97641575,-0.09299852,2.475055,1.4452364,3.3513951
60.jpg,-6.4432406,0.7827851,33.620068,10.239356,2.3594747,52.717613,38.166965,9.214086,8.651918,4.5368485,-0.22324416,2.2558029,1.3031138,18.49527,0.11978131,-0.08061654,-1.3305463,4.022475,-0.3324604,5.564263,7.637167,10.962167,-1.5256717,2.6903658,2.683084,-4.675037,-1.4324126,3.5889528,7.8583264,2.110059,7.073597,6.0676627,2.7311113,0.6231172,1.6849797,-2.1926234,-7.144183,1.8571401,2.931742,1.7532945,0.6018384,2.9645495,4.62169,-0.74734133,-0.59244967,1.6225264,1.4338884,-0.6513746,1.984806
61.jpg,38.11119,4.111871,-1.1544157,10.054566,20.558033,1.3367252,0.44432068,55.686485,6.4145036,6.9659643,4.701157,0.96193683,16.434645,7.6390266,9.262723,2.6501396,3.9903834,6.560877,0.8382776,-4.5240736,-0.40374434,-0.34842947,-2.8300107,-1.0979258,1.7212235,4.4726977,3.232558,5.954457,-3.5262198,1.9156837,0.06317608,-2.2284858,-4.6091967,-1.6549666,2.4780047,1.9327992,-3.7035503,1.9212626,5.8560653,-0.8741961,0.474111,0.2828531,5.8702765,6.9608555,1.908966,1.4926342,2.8452544,-0.13036612,4.0045285
62.jpg,4.558948,6.6460805,31.169197,0.41615266,6.612579,47.565334,33.492313,6.5314093,23.864367,11.590632,7.1881742,3.974805,2.8618255,9.680804,4.7510414,4.749428,5.1192408,6.2049313,-3.5807881,18.878572,7.7604785,3.3582954,-2.3955112,-1.6428668,1.6576352,0.83940554,6.449899,1.5570521,7.227593,-1.2321073,14.928821,6.517543,-0.650858,3.5110362,2.8998823,-0.56126475,-3.1022508,4.887447,-0.29036492,2.0134993,3.763838,9.740586,3.4388633,3.5251365,-3.259357,1.4373215,3.5735314,1.3692671,0.5667124
63.jpg,17.483688,-1.2374238,6.795132,8.8881235,11.449995,0.94948196,9.710013,40.876076,8.7154,20.135336,5.2630625,6.639646,8.433239,25.720081,-0.58901393,2.9698327,8.291037,9.580685,5.1507287,12.111321,48.98194,-4.263202,2.0525346,0.59608763,2.9120028,1.0385484,3.167157,1.3650092,20.98484,4.4778643,0.91561246,1.2749599,11.051071,0.7512582,-0.2334967,-1.090454,-1.0657775,0.28240186,0.32336962,-3.8620646,3.4827619,11.186349,2.6168709,2.8477457,0.51873803,3.9305854,2.076895,1.3887683,6.2835107
64.jpg,12.799547,8.530183,4.0120273,16.413979,13.07359,0.6340722,-1.6518596,7.1263404,5.0554423,22.35306,28.251102,15.979704,6.740509,9.172571,5.913534,6.5064936,15.212099,36.271538,8.189736,4.20688,3.7965887,-7.2292356,-0.019672886,8.308771,2.7779703,9.297731,-2.3927133,2.108885,3.0903962,1.0527235,0.45496058,-3.873394,2.5887616,3.124055,-2.5608876,3.829084,-0.9183403,3.454636,-2.5738456,2.4750392,8.732606,0.42223957,4.410271,7.9894414,11.559873,4.0647607,2.6492472,8.597255,2.4558756
65.jpg,29.224121,12.573452,5.1199355,-0.5597881,15.380591,13.06333,36.488495,13.933136,22.48814,8.486347,-0.11195764,28.508266,4.231701,-0.41848785,4.9052887,-5.782276,10.642616,-2.131355,-0.19314381,1.2827765,4.454118,6.2173223,3.2869358,-1.6680211,2.6034274,-0.39714128,9.753816,9.506066,9.382923,0.3652816,9.683918,5.423555,-1.1141977,-4.9754715,1.5068564,-1.8690503,4.0530214,2.2442105,6.5444074,2.895887,1.6253355,15.148458,4.2474833,4.842967,3.142015,-0.7800372,6.88031,4.1646857,1.9858383
66.jpg,18.883766,-2.0370708,7.6953692,20.20503,22.03047,2.7125688,19.413645,12.893457,22.175465,13.249381,4.772884,32.776962,-1.6453505,3.2453842,-4.5516872,-1.1894429,1.7627007,3.2669704,-5.480368,9.548448,0.8658262,-3.347212,4.715126,0.63381535,2.1628237,-2.8357506,7.75762,6.204691,5.1586895,3.4622114,4.2287936,1.169098,-3.4909124,1.4351847,3.7092752,3.4329512,-0.3001905,3.2192378,3.2585826,0.8323456,2.3743412,17.166637,3.975627,-0.47826526,-2.3780694,-1.0855592,2.337589,3.660863,-1.0717275
67.jpg,-0.6755534,22.524117,28.160433,9.908754,5.893109,50.23039,34.892857,16.616112,10.879193,5.5982428,4.5525146,10.60507,-3.5458312,9.906623,-6.9131656,3.90075,9.601944,6.3148117,10.423129,5.324232,10.247929,4.6143847,5.093223,4.035805,2.3664634,-0.5106693,-0.7165486,3.4154053,10.501779,0.104833834,12.519518,7.6734433,1.8538847,2.5515893,1.7501093,8.093268,-1.2029165,0.9067194,3.821516,-2.6453013,-1.2718189,11.075999,5.17845,4.729809,4.579674,0.92255145,4.568273,4.230053,3.2166357
68.jpg,10.287134,0.45479414,33.785725,25.253626,-2.507921,15.374334,32.65314,18.88048,0.26204902,32.664932,1.311524,9.435758,-0.48601627,20.729774,-0.46495077,6.003527,-3.0732229,4.630425,0.7425712,9.908185,11.30464,10.6248665,2.9926376,1.084893,-0.081454076,-1.6543076,3.466428,1.6456647,6.800936,0.9859505,0.10423884,-0.6271925,7.422198,-1.6107231,-3.024263,0.08376893,3.276715,3.2860503,-0.39209872,4.0483036,2.2344036,0.21563712,7.0029473,-3.5414298,-0.9121497,8.304194,-4.039869,-2.317311,-2.213355
69.jpg,8.589011,12.602596,25.459232,4.2700605,3.106989,8.552869,21.750889,29.315954,9.024663,16.748545,5.1904883,7.2279587,4.4779644,26.192104,-3.1579592,13.565826,2.7881684,3.4429293,5.9415393,9.472995,51.93204,4.042509,-0.9552754,1.2708793,2.6208937,-0.8860992,4.7852144,9.835392,16.373724,3.0296466,0.04111845,0.06724894,3.9721305,-1.8074229,8.5374,-3.3860228,-0.5245964,1.3447449,-0.9194927,-2.3791623,-1.4543821,4.6758957,4.230936,-2.8372965,1.727084,1.9909773,-1.9217223,0.6678576,-3.7232406
70.jpg,34.393406,6.3494897,0.7488647,16.024157,27.042902,6.2470818,3.5447445,6.480635,19.728815,0.41418,23.871687,29.80052,14.199323,-4.44908,6.702109,3.9319727,28.413816,14.215385,16.37591,-2.8080232,1.5544748,3.3818393,0.017261133,9.238548,4.494912,-0.79388356,1.7143561,1.2230784,0.7335482,6.5773687,2.6639616,-2.3807738,0.14880718,-3.868039,2.9290643,-0.0013880432,-6.0106435,-1.8421564,5.506478,-0.43485892,2.3916955,7.472226,6.5282927,13.557586,9.737817,2.0030444,-1.3319411,6.9982824,0.42331332
71.jpg,14.120616,9.927176,13.350015,2.9722917,21.306738,2.9319413,1.7896827,1.9829769,19.036285,4.872163,37.48712,9.449801,12.918652,18.728275,11.353918,7.069613,16.448025,37.998806,-4.9320827,3.0780532,3.9441228,-3.6674697,8.932177,1.3405428,3.2159724,5.5883045,3.2658947,3.539056,1.7047269,9.231355,-6.354576,6.0203257,-0.48201942,7.7750673,-1.8042264,3.2756631,2.7826781,-1.6364005,4.937045,1.6502331,0.26231205,0.15985565,-0.55389625,9.654927,19.624361,1.2394341,-0.93721205,5.95719,2.3283207
72.jpg,-6.0741315,22.141344,24.140907,13.030426,11.818479,53.75825,12.19138,-4.554727,7.069254,9.441601,13.476268,1.9317709,-1.134699,2.7310658,-1.5107008,-5.874512,4.767964,5.4922686,3.5405495,-0.01890678,7.301369,1.4437073,5.4875584,33.685013,4.335341,4.6894064,-1.0384189,2.5269387,8.492626,4.263047,9.359197,0.112363234,5.4139934,-1.3690239,-0.91308534,0.80297107,2.8572543,9.755346,-2.6671562,-4.0161867,6.7053037,2.8031182,-5.0992274,-0.65081155,1.0330915,-0.39082178,-2.3049967,5.8889976,-0.11098385
73.jpg,16.409275,-3.8313262,-0.5956317,16.123264,3.626971,-4.4990225,21.326328,40.37685,1.9540105,10.075402,14.605368,12.926516,5.592419,10.358999,0.8708557,-2.0204837,5.926484,9.941617,2.5314703,-5.7111373,2.1989675,2.671171,8.123073,6.6066055,7.8519464,4.2646737,5.031143,-2.6058652,7.4756904,1.7812971,-2.2130969,5.0300107,1.3585101,0.8118883,-4.0318007,10.561639,9.524932,3.426673,4.9521093,0.6480701,4.9873085,10.780794,4.022022,5.424181,4.7309546,0.49764627,1.287813,-0.64959425,0.6965702
74.jpg,6.712487,34.454304,25.750294,4.689044,-2.6201954,57.35935,26.943624,1.7446444,5.560984,3.0990717,4.3476076,5.3282228,5.8436823,8.449554,4.140385,6.435935,-0.97077304,-2.3215835,8.044758,1.6545959,5.3703284,1.4058024,9.1487,6.841661,-0.5567778,2.0959325,1.3441331,1.5206071,14.155258,13.579827,0.51425284,-5.1043644,1.7186314,-1.18992,1.6605179,5.302947,-4.304269,4.8650584,1.3419226,0.94378453,2.3151107,3.1315331,5.0580397,3.5393736,3.6044273,1.1100343,-3.3179355,-0.23122895,0.1265986
75.jpg,23.45036,6.5919585,2.7035916,4.777983,11.952544,7.195465,28.622936,39.44181,2.520636,13.418537,2.2231908,-3.6220922,8.321317,7.9360456,4.4307942,-5.00885,0.9037647,6.268727,-1.0458416,3.011331,-2.3443115,-0.38794932,0.5193842,-3.0286596,-6.683061,2.926313,5.6887174,3.3460035,5.6352468,3.770515,-3.6417148,0.86407673,-0.5364102,-0.966256,-6.2419147,5.1146407,-3.6909971,-2.0007808,3.7655408,1.4512032,1.9198523,3.6320589,2.8848581,0.5189333,3.331475,-1.4084628,0.74664885,-1.628096,1.8072635
76.jpg,11.955559,-2.7714138,7.708474,6.6516995,9.491255,18.537178,35.543373,13.480392,13.412015,19.40902,2.5714746,8.851023,7.1239977,13.157113,0.053466156,1.5534369,5.4929743,12.377361,-1.1504202,4.6446476,6.5855584,14.438388,3.5230513,1.7262661,2.8080971,2.837081,6.129694,9.619012,8.000459,1.8287222,8.102954,9.068161,4.37917,-1.4442599,2.458066,-0.6343349,5.591388,1.5019909,2.338349,6.755063,4.592731,5.2141647,11.044338,7.636261,2.4213343,7.3312273,3.0656826,1.666285,1.5659736
77.jpg,17.74624,3.7922375,9.299106,-1.4058685,4.91973,15.057852,36.36864,14.92523,5.827504,7.4527254,6.6293783,28.91658,5.655334,5.107885,6.947937,4.247066,3.9493341,6.9148407,-1.2450473,2.340394,9.329857,-4.041708,1.9539654,-1.4898475,-1.5537757,1.4304118,3.628283,6.5092244,24.355463,-1.8433053,0.76381254,5.897756,0.25330707,-0.2719423,-0.12349952,-1.715783,0.2471339,-1.0752072,2.785408,0.79731363,-4.114504,9.109002,3.269877,3.1659827,4.858602,-4.3356404,0.42945078,3.3136492,8.626479
78.jpg,17.678104,-1.0870844,6.579848,12.1662035,20.804922,-4.379621,19.747648,22.233255,15.735771,20.055147,11.896602,33.647198,4.6847134,4.376613,7.328746,-4.382171,9.049976,12.666045,-0.10190848,6.265525,12.9959955,-2.7691472,2.3083713,4.2821093,3.7735507,0.34473416,4.0398197,7.6431794,9.405396,-1.2835108,12.722331,10.04503,-0.7959965,4.5339146,-0.60734254,2.1220458,1.7979136,-0.58029026,8.640473,0.06409767,4.6924744,15.763235,2.5181925,5.204664,2.3076453,1.2807128,4.944567,7.9026318,8.044102
79.jpg,14.868629,-0.22748145,18.163198,-2.372238,28.203186,27.161295,44.2596,9.997203,19.997189,4.2712817,9.266127,20.868147,-2.1763961,14.026687,12.986983,5.2818136,4.0371084,1.6803933,0.47371,0.12650308,1.4399513,3.99289,8.625328,11.97345,0.06650728,0.73198396,0.844626,0.52379155,6.111211,1.0579666,6.518674,11.275631,-2.7235801,2.8633404,2.4935572,2.9626307,0.67965496,9.743686,9.493493,3.9877198,2.4884236,10.375622,12.787644,4.545972,1.7429371,2.7871044,7.611794,7.234455,4.6202884
80.jpg,5.5917535,2.466151,21.004776,2.4690416,16.259197,50.27644,41.771675,12.997622,14.60073,9.2452,-0.53422767,14.57213,-1.7684232,11.723657,1.9974908,0.6949345,-0.38998723,2.0231047,-2.5164437,3.6397333,5.8853817,6.856516,-2.7454681,2.5713234,4.118894,-1.2659733,-0.5374551,1.787404,6.5275774,1.9263878,7.6391907,2.1481986,-2.1606565,-2.452515,1.713942,0.91895497,5.896686,4.4942694,-1.8158942,-2.4867833,-1.1766514,10.91754,6.892382,-2.8394394,0.32685184,-0.59556234,7.2385654,1.5934461,0.39585644
81.jpg,26.487637,-4.5171843,5.436514,4.0063877,7.560435,3.1006603,19.435349,48.604733,5.6563187,3.410884,7.017497,10.441752,9.306617,5.230625,2.4733684,-1.5994526,0.59382945,4.4213037,3.0980098,4.627489,51.07661,-3.54827,13.598819,2.9089148,3.5964415,-2.0514781,2.317098,4.0352836,16.27501,1.2055504,-0.8402772,3.9082692,-0.17268005,-0.73916227,0.74258924,1.7749498,-2.1448605,7.473351,14.896816,3.9542615,-0.085568614,7.9947224,4.6369066,6.8833055,2.4484382,-0.60061055,-0.85594636,1.2134235,4.5900946
82.jpg,31.922535,9.045755,1.6976545,15.173186,26.906507,-0.85287493,2.4796531,50.638737,7.7707253,8.676453,-10.473262,-6.2361937,12.47411,5.9782767,2.403952,5.523393,-0.72818136,8.126037,0.9874409,4.974783,3.6089234,1.9734074,4.4088044,-1.920215,3.2182086,10.578466,7.5193443,-0.28215703,-5.0391936,3.758753,-0.6255441,2.669419,0.42820317,2.6400514,-2.5320823,7.220362,5.9280286,3.0515735,2.0792325,1.8984423,2.1733556,-2.9084496,5.207024,1.8632863,2.7139573,3.3934872,-2.6892807,0.13995627,1.2740142
83.jpg,21.142117,-2.6465092,7.3841915,12.256827,26.817646,13.232767,38.99056,17.364948,6.917958,4.2045484,4.0163536,0.688581,8.208375,13.695773,3.983985,-0.3003266,-3.682154,3.260441,2.3931558,2.7292008,9.308078,11.036965,7.568132,-2.3231869,5.122374,-2.4544554,-1.4485426,-2.7968693,4.9053183,-3.00014,1.6398555,6.2998714,21.826538,4.031768,-0.07335227,-0.5399094,-0.5312285,-1.9463774,1.9188288,0.3811873,4.209948,3.5021112,6.2226114,5.5622063,1.9326233,1.5708122,-0.31483224,-1.8756042,0.8742288
84.jpg,5.697966,13.512362,2.8924403,16.823036,12.90715,4.997921,7.1087465,8.890675,11.763247,29.19257,11.905121,4.1568565,10.460184,43.265305,4.7906365,1.5101184,0.4109418,7.621385,0.68807083,13.900262,3.5989485,-1.2728022,-0.109028906,4.205439,3.6407669,-5.7528553,4.1545095,3.1855807,7.6352134,9.84192,6.7943306,2.8486874,5.94219,5.9499006,0.15757474,2.0553503,12.073144,4.3489685,6.4826617,7.9586635,2.7139425,12.843822,2.214041,-1.4751811,5.594807,-0.6913245,9.135682,0.84089303,1.0265818
85.jpg,3.0551262,4.8226604,74.17168,7.0608125,-1.1594995,0.9191474,2.9834855,11.926256,0.34086275,14.921626,-0.045968663,3.5067022,4.4241343,1.4037396,-0.7153744,-1.4805335,-0.36259246,6.5232096,1.1790438,0.9099802,-1.7682847,2.6025972,-2.1890686,2.3825288,0.83776003,6.872951,7.1124763,-1.1710148,4.90919,1.2851884,-1.5234162,1.6896573,-0.1191074,1.7968045,1.3604383,4.1708655,3.164966,1.1509659,1.9750227,2.9871182,1.560122,3.0742044,4.8111653,1.8720318,1.7944895,4.5414314,-1.1999606,-3.1430602,0.39702272
86.jpg,6.416692,2.3493898,27.562654,8.190136,2.8154013,7.802081,3.6634438,-0.16967413,3.364027,34.70258,30.465513,15.642776,0.13324977,1.0728575,12.100479,0.16390355,21.836971,4.7038555,0.26586592,8.1157055,6.635222,9.8451,14.526097,16.08692,-0.14497992,-2.6681232,1.4806404,4.374875,1.8605418,5.6317706,16.992607,7.470999,-3.1229892,-0.062162522,7.0554523,9.23122,3.5200112,7.1407385,2.2820938,0.7937316,16.463604,8.629354,5.468531,2.8516836,7.5375023,0.74370724,14.288189,7.1086636,5.3495774
87.jpg,-7.117285,9.582477,18.464512,5.975486,1.3440957,22.47184,35.817734,20.059664,15.503967,7.5179324,8.553388,5.6550927,-1.9631042,7.7474146,-0.14734231,-0.49434575,9.078415,5.17256,0.12868126,1.2216802,17.244404,23.059303,4.987772,-0.25412533,0.8151194,-0.5788002,8.460499,2.3210607,12.283438,2.65176,6.4603186,8.944328,5.575081,0.25048843,2.6246374,-2.8264182,3.2375698,7.27814,5.0896807,1.7274837,-2.7183468,3.4107544,2.9073763,1.2259787,3.4870245,3.343925,-1.7756829,-0.5056459,0.7051914
88.jpg,40.138138,45.081566,0.8509757,7.72817,45.74299,4.8847265,5.2496567,8.716655,11.014041,3.6297925,4.824818,3.825217,11.455721,0.76829624,5.109175,4.9305544,2.841133,5.318446,15.46835,-2.9212623,4.0223293,-5.674617,1.2893116,-0.60500896,4.0893,0.94846797,2.4759219,0.10049958,4.212337,1.5911804,-0.20277761,2.8985713,2.2877083,0.36413115,-0.74467224,-1.4293005,-2.8510375,-0.95665073,7.0015287,1.5585889,-0.80490077,8.978205,1.7486975,4.968392,1.7656341,-2.0491743,1.5178316,0.16138646,-0.17571431
89.jpg,13.313493,5.686434,11.250263,1.4614352,10.900249,8.621289,25.942215,13.722345,8.42468,2.748242,10.380066,8.172973,10.722002,12.506908,4.0988817,1.5416536,2.1078095,3.3793323,5.5275216,5.551701,46.589077,4.8856525,4.372456,-1.492217,0.39383686,-1.6907532,0.83230805,2.503305,16.930723,3.1960886,3.81528,3.1729167,7.0398836,0.2643904,5.20154,-0.7016581,-2.5909462,5.316236,2.6435149,5.5748043,-3.6487727,9.736356,-0.24993299,-3.3030045,-1.5214823,-1.5451944,3.609017,-0.66907203,-1.8513911
90.jpg,39.290142,1.0029618,-4.202094,-4.755743,7.7217445,2.9365609,15.496903,30.934738,3.8577187,-3.881748,7.1324453,8.246957,29.437763,0.3001104,4.9757457,-3.0486834,13.923359,4.122243,4.0348554,4.075041,6.630573,1.0964245,3.1999328,-1.6263425,0.9119328,-5.460678,1.4982426,9.3116865,3.9795225,2.5009558,7.356805,7.445194,0.45382813,-1.076681,-0.6463384,8.965059,-0.7065346,-0.161477,23.975088,8.340685,0.5724586,10.955119,2.2333727,1.1447184,-0.2874165,0.8763752,6.217031,3.8011036,3.8133733
91.jpg,7.5662756,13.758402,15.148534,11.480867,8.009391,11.225701,19.963345,8.872363,1.619217,4.5525455,7.380116,2.0600052,10.390038,5.100584,11.591893,-0.9784814,2.9248362,3.5756443,4.533006,-1.1234381,14.786044,8.663979,3.3897672,-0.61145276,-0.8643692,-0.3713501,-1.3122724,-3.8360982,34.210484,8.273275,3.5300038,6.242615,8.070287,1.6011529,3.4440987,-2.2747624,-7.0186944,5.5299096,-0.09037787,1.8851326,-4.132115,5.930932,0.30348018,-1.4450988,-0.6664943,-2.2102144,-1.3207842,-0.77365077,-1.5118839
92.jpg,47.267387,2.1249716,2.143065,5.658716,3.6512284,1.4933231,5.101372,18.073513,6.60033,13.525124,8.910269,3.7431002,4.410079,22.888317,37.002884,8.133147,12.50414,4.078144,-2.5745637,4.906501,6.21041,2.9125452,-1.7876785,1.2679049,2.2631624,4.0560207,5.5836864,7.70228,3.072325,7.587604,6.630674,1.2068975,0.5569048,1.5636809,6.319523,11.927227,4.865899,4.12227,2.4296908,0.3167607,7.633779,7.044943,1.7997434,3.3273063,-1.0928955,-1.3694241,4.0059614,8.316331,5.2603474
93.jpg,14.787366,-0.8949126,19.493898,8.993373,0.98488826,13.9515,-0.045932177,26.436754,0.2988969,5.7739487,6.9846354,2.1041484,9.859607,-0.5433922,-0.22057253,-1.6264054,20.767536,6.422655,2.3327584,6.258808,6.662555,3.9012,-3.6862195,5.197283,-0.97322994,-2.0426183,25.601387,8.060113,33.747192,5.212934,1.5133626,6.4587264,-0.59380203,0.9094028,2.6545858,3.6792893,-2.4499426,-0.8823751,1.2962115,7.642118,1.694837,11.458174,-2.5020323,4.570136,-0.85958934,1.636307,4.0501924,2.4786851,2.9931772
94.jpg,27.695772,3.0021873,8.127362,14.750033,28.550276,-2.7018373,18.361483,13.59435,20.075987,6.7893176,3.796578,19.815716,7.9570146,10.612255,-1.4341222,0.44209492,7.0877542,18.743387,3.2319057,-5.3947744,0.90414786,9.070758,1.0542982,0.26415753,-0.4810551,8.448341,6.2642903,2.4942935,1.0945171,0.10400023,-0.8239705,10.272549,-2.7817297,0.229557,2.7067778,1.830313,7.2782903,-1.4182105,9.383009,0.22251475,3.4379828,6.814828,4.8350444,6.5654798,0.75113827,3.5824418,3.195598,-0.69994515,3.0381625
95.jpg,2.98189,35.092735,17.105082,12.459192,18.564192,12.994271,20.224073,10.586394,13.382446,36.115902,7.216051,16.073292,1.0792031,8.162681,2.279949,4.6367383,1.4654335,0.012606382,15.94024,-0.5059977,4.485456,-1.0846583,3.8917315,3.440037,4.366144,5.924381,3.1061301,7.6216893,7.2936954,1.6057972,0.1308091,-0.23635122,2.3396235,-2.770635,-2.4746425,0.6866831,6.6148205,1.7547144,8.747922,9.445962,8.702106,11.049276,6.0537667,3.1363018,12.7556305,3.644798,4.531243,5.470096,3.358997
96.jpg,17.13285,12.885118,7.473187,2.5266466,20.188942,7.9615116,28.491816,19.077543,27.512608,7.0213823,3.4239202,32.77697,4.2554274,-3.0532997,2.1332822,-3.9420106,15.849142,-1.2918819,1.6907202,4.198642,8.519837,9.19616,-0.6578021,2.914026,-2.9963813,-0.9237237,5.4752374,5.4418097,2.5897508,-0.74793005,9.341981,4.818159,-1.000817,-1.4733069,-2.167921,2.0213122,3.7159812,0.44652474,5.47861,-1.4771147,1.6794857,12.117752,6.9306555,2.1438491,4.13769,1.2099507,2.8555598,4.3019137,2.0971112
97.jpg,21.500341,2.1773505,6.182737,5.8144865,19.87896,3.9876208,15.915078,21.72738,9.422123,20.137213,7.4227705,29.484022,9.942132,10.898735,8.84712,-1.1667095,4.4860387,9.036267,1.8768502,-4.921803,14.425108,-5.016591,7.337876,3.9628663,2.0878835,0.95610636,1.5988946,14.082582,8.353427,5.3930564,1.1115438,-0.9406116,-1.1881002,-3.156695,2.8545358,5.642643,4.6199665,1.0816599,5.809103,-2.583923,1.3241328,13.752179,7.8824835,6.541485,4.2708373,0.4084048,6.8765864,2.3454301,3.275445
98.jpg,32.301216,9.322216,-1.0159075,9.665292,7.1131163,7.775418,30.8258,10.450955,13.353785,7.4028134,2.797089,24.304588,10.460277,1.1920378,-2.8283916,-2.876203,8.313205,7.116185,18.347847,5.189471,4.265441,6.234864,-1.0026461,-2.9436243,2.025044,9.156104,7.422695,6.705186,15.925738,-5.238487,-0.9944245,1.9066367,-5.964674,-0.43533874,0.010673469,-1.0761557,1.2312665,-0.264726,13.464776,9.957585,-1.3491105,10.7355995,2.4164598,5.752947,4.1979036,2.409364,-2.1747448,0.6788808,7.4796257
99.jpg,20.889479,4.2158756,11.936066,3.6363027,18.85429,9.652093,35.193398,13.5450735,9.402566,1.3656592,16.635761,-0.054932386,10.923309,41.32073,0.6257044,3.8102806,3.1077485,6.9866896,2.3630114,-0.1654217,7.7903724,4.817664,2.926852,0.07685998,10.678023,3.5093217,-1.5750633,9.451275,7.865323,0.4101908,-0.657708,4.942518,10.765989,-1.5690035,-5.054267,2.033822,2.3602302,1.34743,3.261668,0.99107325,-0.3694849,9.675435,9.762207,5.185803,22.365862,2.545346,3.1464393,2.985606,2.3320687
100.jpg,20.408981,1.6984205,12.9127,1.7170208,18.015423,15.173629,39.334778,16.481697,11.74791,16.575338,0.73468757,28.271126,0.07466995,-0.3945344,3.910685,-1.6592923,7.562843,8.136493,6.0548997,0.14783368,4.6388545,8.613047,-2.6623585,2.013335,9.283869,0.92736876,6.6986375,3.1675215,7.3245497,-1.798196,-0.08397028,0.3966663,3.234777,-2.8917768,-1.1858045,2.3988438,3.0877023,1.7416822,2.910173,-0.68012625,-0.8305638,1.8205742,7.714021,6.3170185,3.053621,6.094391,-0.7377464,3.3432317,2.6284642
101.jpg,24.36439,6.3245854,7.0379605,3.8970551,11.302089,-0.6317738,15.286952,19.588509,4.1417823,12.69058,18.593954,13.192701,11.864748,39.556168,4.729546,-1.2673801,13.525556,12.662405,0.35574365,3.9980679,9.827424,4.3279266,3.4640284,2.377218,-0.1796741,0.4042157,4.405526,3.4628363,6.363344,4.252319,1.9067414,5.899098,14.254425,0.15193811,-1.5806997,1.5198052,-2.9766555,5.952862,5.213093,-1.0288796,2.2824996,9.183805,1.5679356,0.019481592,1.6699642,-0.45736712,3.822253,0.58323246,1.866294
102.jpg,32.461143,12.433595,-1.8601395,2.820237,9.478138,2.0624838,11.424721,13.856633,8.695469,2.3689413,14.072969,7.9254894,22.61744,-2.815693,4.9597507,3.114594,18.68341,14.912896,41.23941,7.5181046,3.6503873,15.221484,3.4722545,-0.68025684,9.640056,6.2908254,9.166572,4.9092474,2.4076567,1.1374319,-2.8541427,6.159774,2.3917956,5.1357617,0.88562703,3.737388,2.0932322,2.4329033,12.521391,8.05766,3.66433,4.449852,-0.6912182,10.830106,0.9361856,17.599533,-3.0943458,0.44622388,2.9511378
103.jpg,27.510193,2.369639,-2.780752,-1.1656723,9.042148,-3.3292358,25.200384,36.920895,3.3910246,-2.9800513,18.59257,15.028897,6.5575852,5.3249874,-2.7711055,-2.495923,12.746546,8.359744,9.008664,-3.099099,11.123941,3.2386434,4.361624,2.635998,0.61103994,-6.32529,2.5114596,-2.939782,11.027198,-6.093297,0.48988312,2.7125502,1.0569835,-2.6194649,4.1979227,3.6828108,5.280303,-0.59171325,7.0073023,9.4429655,0.81904715,8.053443,4.3280454,2.8156936,9.886612,-1.1383388,4.6918197,0.9849037,-0.86662054
104.jpg,42.875107,4.641713,4.44568,6.0021067,1.6576965,-5.53866,-0.270343,46.704227,4.6404276,19.25667,3.2684832,0.7080907,20.725554,0.3452642,7.2962523,14.81212,5.6638536,-1.552838,6.733206,-3.6100883,3.1340134,-7.381639,13.24628,-2.0750763,0.66977656,0.33073038,2.1295555,-1.198667,-0.8014169,-0.24321987,-4.6110063,-4.8026586,-1.5617516,-4.2534847,3.0970294,3.0210178,0.81778514,6.206392,16.429354,6.7097464,4.362073,1.1752224,0.7572565,2.8637366,-0.85921896,-0.06312602,4.335074,1.8584799,0.902238
105.jpg,13.146426,7.3182487,9.73659,20.044764,49.990345,1.2632911,7.8150554,5.7697167,15.929524,5.9740396,21.858627,10.352764,3.2707207,6.6891136,4.7591386,2.2523124,9.792466,10.459863,4.1703224,-1.7015623,-2.0585532,-2.0244937,5.5501914,14.182414,7.9393005,9.5538025,1.7199625,0.68160594,2.0699806,3.4821131,4.462021,9.157282,2.1817544,1.232826,0.44833523,-1.4552894,0.44596326,5.0638003,6.9482327,8.187995,3.3412464,4.5620737,5.601074,4.057006,12.609838,1.1576463,1.2199851,8.1246195,2.8496995
106.jpg,14.295363,-0.72407836,1.8513997,24.158394,22.476198,10.792067,12.809292,-9.821179,18.690496,-1.8574424,33.438507,23.068386,1.79094,1.8724885,0.044325925,0.30055055,18.19111,36.58803,7.262215,9.306916,2.5875015,-0.375437,3.3694737,11.3775425,-2.4834905,1.2784752,0.26518536,1.654729,3.374841,-3.5352275,4.005097,16.637083,3.6273606,11.558398,0.8983955,-0.7394562,3.9614897,0.1492946,-1.1385778,-0.53690743,1.1820796,1.608818,-1.7412655,5.550443,1.9172426,0.87531435,1.8965371,13.22252,1.305982
107.jpg,8.542366,17.976704,10.791059,-2.4164612,23.249878,4.200666,33.844315,21.769382,25.869501,5.4039383,4.5894403,10.546362,1.7307099,12.098039,-7.6991253,-0.32491753,6.235716,0.09016208,6.939846,3.4543958,4.584491,1.1297871,-0.7936888,7.321009,6.1377687,2.3876057,3.312066,0.8406775,4.471415,-2.5866532,6.218279,5.1354256,0.10381155,0.66998804,0.042553805,1.3324405,4.6029963,8.800413,7.6775203,1.0645581,5.910908,13.1168785,2.592953,3.0418072,4.767162,-0.3092197,1.7693784,6.3392363,3.8779562
108.jpg,30.354368,-3.728623,19.178265,4.1600504,9.024566,16.342419,24.327692,57.258755,13.744649,15.932146,6.230087,9.878835,1.292173,20.229563,-6.812898,-2.2320857,4.229464,4.7450905,-2.054099,2.490119,6.3334236,1.0244939,2.8472636,0.7373936,-0.9446502,-1.0658633,8.021177,0.9545866,6.6599145,-0.593278,-0.91131,1.7568148,0.24006404,-5.2715755,0.5631088,-0.30442384,0.059132837,2.9232433,5.927638,3.70515,3.1093817,9.062996,13.150711,5.1664934,12.022447,2.9471488,2.1595857,1.487191,0.5550891
109.jpg,28.654394,8.612516,9.203801,8.636163,42.043682,3.947971,4.9512706,6.121502,16.295538,12.877351,3.360412,8.778937,39.24151,5.0072393,-1.3029237,4.661455,2.319548,30.443039,6.937537,0.38591018,5.296703,-5.0928073,-2.2924643,3.453205,4.531294,12.079854,1.3487043,5.8845534,0.1479569,3.4095674,-2.7382119,-1.7402606,0.39411518,-0.053161383,-0.6380825,0.4254577,1.4019549,1.7008964,12.057877,2.7825036,1.9784471,3.6957593,4.635121,7.515478,3.6161895,1.7516726,-4.038052,2.547508,1.7288436
110.jpg,35.39046,5.462669,6.7448726,1.0988789,21.222197,-0.2981677,15.012389,17.822823,8.734144,11.397702,3.3368804,13.207735,12.590035,-0.12649475,9.654007,2.4879546,8.954649,4.7437572,3.545792,5.427846,7.8617425,1.7781157,-0.1211226,-4.2902327,-1.5601416,9.437372,7.200041,4.735686,13.819086,3.1217556,17.233364,14.476689,0.39744303,8.467402,6.770693,2.7821162,-0.70672625,3.1445642,5.2737966,1.4935696,4.7480216,23.215225,10.506073,9.547708,2.294023,2.3183749,13.623373,-0.7374896,8.121482
111.jpg,23.77791,-1.4559726,0.71292686,7.4505935,18.895319,3.319986,21.534023,62.72103,6.5979795,7.8763857,2.2942317,-2.2601752,6.075201,1.9512644,1.0286964,-2.248589,-1.9687706,3.561186,0.6319824,-5.0256376,1.9798268,-0.1501446,9.570306,-0.7858188,2.5310273,-0.9654659,1.4394405,-2.7835004,1.8147091,1.6553769,1.07441,4.160143,-0.7867955,-1.9241445,-0.6291346,-0.27227905,-3.9375045,1.6934656,14.780739,2.64599,2.124887,4.459598,6.4740562,4.628865,4.632151,-1.3181361,0.42659667,-1.2925252,4.345703
112.jpg,21.83559,3.8306322,6.6261797,1.5262341,12.603918,2.1061246,24.363317,10.001747,1.897732,-2.0761342,6.0867143,7.0404572,12.880474,8.026197,4.7613697,5.910104,0.3703611,8.81919,10.316584,7.453526,37.868824,8.035557,8.216716,-1.9490722,2.3014643,-0.88700986,5.2299743,0.49910924,13.549521,-5.813568,2.2300777,11.121859,20.013388,9.628912,-6.303285,-1.1029917,0.8273786,14.123069,-0.71658546,1.7667273,0.13705343,3.879077,1.9672685,3.2278597,0.7402284,0.7425795,0.026929285,-3.6146708,-1.0153922
113.jpg,20.57499,1.6136348,9.15866,3.1410785,14.779011,8.896826,17.648926,28.143513,-0.17304616,20.987915,5.6882906,16.886377,25.115078,13.805095,-8.523319,-0.6557635,8.450468,25.651949,-3.6302223,2.56584,4.0531454,0.28751194,-0.43988413,5.8725133,2.3096642,0.3475055,5.0981245,2.9958677,9.428942,0.79459566,-2.0101833,-6.234264,-0.2054168,-2.0471706,5.9442782,0.6267813,8.186574,1.7962519,4.1903124,-1.9528389,7.73769,11.34992,7.0322385,8.45829,1.6513579,3.5169005,2.9438322,1.903839,5.285312
114.jpg,16.297943,-5.755768,19.656893,2.9305773,3.3893845,20.01788,39.377922,23.592958,15.7048645,6.182576,-6.573628,5.366822,0.5859595,8.058598,-9.861422,-2.2454555,-0.29246435,6.837409,2.6644742,3.0938706,28.367256,13.946504,0.71499944,3.6439638,-3.5789866,-3.9400764,7.8106375,1.6399857,6.9900675,0.14674234,0.08095596,6.675998,1.6761184,-3.4881325,1.7628899,3.918857,-7.3108025,1.2313967,12.433353,-1.1436945,-1.450075,12.36921,4.8365088,-2.945907,-3.2632456,-0.14959098,1.6870472,2.0978186,0.44589034
115.jpg,3.0411665,34.988792,12.072739,15.608954,11.727818,5.1497135,0.8163984,6.937174,-0.841997,24.934017,17.912891,4.309347,8.228611,-3.3949058,-0.8562424,-1.9669164,17.062803,9.24534,13.227341,-1.2011349,0.22721824,-2.2600157,2.2164488,0.7340565,4.714961,-0.3466201,-1.0949162,-3.758424,1.6954693,-2.6176696,-1.5021597,-1.3321409,0.5626906,0.760415,-1.2244772,2.1508954,-1.9651023,-1.8847327,4.1620708,0.9136014,4.8647223,8.5558195,2.9417317,7.827744,5.915447,0.45277312,6.0810556,1.5168263,1.5326123
116.jpg,34.86191,41.854687,-0.4419757,5.243337,43.397102,9.1097355,1.9498248,13.115888,9.618294,-1.1081281,3.788203,4.5994825,9.205435,-1.0366259,3.449642,4.9512596,4.3029876,7.2445045,14.353569,6.9037848,3.7599325,-5.856021,2.3340883,2.5600624,2.7915082,4.9911623,0.14378862,-2.1255777,4.572855,-2.5244706,2.7283537,6.786903,11.034235,7.259424,-2.2025824,-4.2548084,-2.610024,5.7072678,2.775442,1.7424054,-1.4839226,13.27073,2.742453,5.8091326,-0.15861931,-0.5839245,2.1951232,-1.2924098,0.17806646
117.jpg,12.729192,9.010636,13.852085,9.0213995,16.679106,0.6240182,9.539213,17.449451,16.196732,26.546225,13.11446,26.48164,9.368597,3.369958,-5.431887,2.3251522,14.938824,15.795426,5.468683,-0.541797,7.695027,0.42455935,-1.3730966,6.642414,-1.3683792,2.4231386,5.503236,2.377914,10.154297,-3.5504777,1.9822246,-4.4064035,-2.4630673,-3.2611399,-2.3736966,-0.31170565,9.445098,5.749648,5.5098453,3.8271995,6.2458243,8.5431185,5.7569175,4.2483296,11.5473995,-1.10253,4.4133954,5.220094,2.2441394
118.jpg,24.97752,-0.035460293,6.207324,-0.5943973,30.181444,16.132273,37.075104,22.472841,8.590253,1.372133,4.522579,1.5125064,15.337785,14.4281845,-4.8929677,-5.0932374,3.030191,2.251299,0.57543844,5.8326173,7.8641458,-3.228557,4.315744,-0.22487772,14.897463,0.41430825,-0.70664763,-3.156262,4.4539866,-1.5303844,1.7643425,0.27856266,3.9283447,-0.12555234,3.8755412,-0.90729034,1.843527,5.177455,11.841118,6.870977,-0.33802128,12.522976,7.884533,7.9023542,0.04557199,8.218583,0.87524074,-1.8666804,1.1263896
119.jpg,14.131422,-0.82072115,3.5508554,31.612673,23.985546,3.9624825,6.5222726,6.4563365,11.752281,15.149016,10.6269,8.595369,3.477056,27.405632,-6.099843,1.4580418,13.595647,15.236214,1.501989,6.135118,7.329114,-0.87558067,-2.1952336,4.774613,5.909665,-2.3233879,7.174106,2.024148,2.0667694,-0.9640659,4.44861,1.8533187,11.898594,2.4233031,2.0209377,0.69850546,2.3781626,0.24305937,2.278049,-1.9949665,0.55553114,8.664109,1.1931694,6.6186085,-4.866679,4.5954514,1.2239255,-1.6969687,0.5919501
120.jpg,-4.129003,16.517235,43.316494,3.752319,-2.0701392,16.151114,4.1485367,5.6104074,8.576236,3.2757514,1.9194344,-0.096370235,2.4620826,5.8528757,8.603366,-2.981133,9.268033,-2.1868439,-0.5981685,3.3438406,47.135406,13.576791,3.2445648,3.6530528,5.1387,3.3295155,-1.4486125,2.90251,1.8306341,8.645921,8.225486,6.628108,0.7886946,-0.5480068,14.512223,3.5456467,8.13989,8.648255,0.94436574,-1.0949965,2.809123,4.012301,-1.6334178,-3.4546711,-0.6278137,2.5260904,1.855035,1.0822604,5.0216346
121.jpg,11.368609,36.82286,8.172989,8.657199,18.787163,4.2964845,7.896736,12.91079,9.822071,23.247562,3.8983026,18.442387,2.513991,12.224159,5.346757,-0.3433446,6.5376244,7.7014537,29.771784,0.89726394,6.610994,-4.8793063,1.0868326,-1.0825999,0.27612215,1.2900636,1.0421662,5.9511237,4.3697147,-4.9604573,3.505549,0.40188944,0.71422344,-1.6866499,-1.0297841,-3.4260597,3.2637506,-0.6035184,2.4356318,2.1506116,7.2561665,8.502557,5.908143,-0.40596324,2.2799017,0.9695585,1.4609787,1.3987797,1.4904052
122.jpg,35.22971,7.612652,15.670826,5.2114973,7.765473,-2.6114876,8.8271885,37.943844,12.336348,9.254314,2.2660737,14.061992,4.880395,5.0783215,4.701209,-3.8887322,2.0610256,4.1676564,5.838857,-2.459557,8.12454,0.3081224,-0.8594036,-0.6189038,0.86319447,-0.13768971,19.507746,5.126404,30.234924,-1.4511969,-5.401717,1.2380242,-2.916587,-2.1597245,3.4394438,1.5065668,3.1555474,-2.1676824,4.9283757,4.1605,1.1982802,9.433656,4.6220093,1.9312154,4.7196455,-0.57137424,-0.16687499,-0.4003831,0.44157672
123.jpg,11.766445,2.8023088,9.180595,1.2333766,7.9998703,5.1146245,35.530544,24.33557,9.388035,6.816235,6.2530766,27.0428,1.4513651,9.75087,-3.6217618,0.023615966,3.6474931,4.404285,7.886815,4.4862614,30.482582,8.115469,2.2354097,2.833944,9.825775,2.7918286,1.0495771,6.3151026,14.55068,1.9891937,0.84231627,2.1340144,5.137923,-1.5755378,4.5395827,0.71519053,1.5153482,2.1242733,1.874697,2.0481162,-3.056529,7.601364,5.8779488,-1.5480492,10.338714,1.0794156,1.4596529,5.189897,3.5723476
124.jpg,24.028835,12.615906,7.7619605,21.78733,3.4446552,-2.94144,-0.22866371,2.5575168,4.3661857,31.495201,6.2939854,2.9913988,22.175247,3.5039754,4.455259,5.015922,6.165161,13.552496,18.368017,4.911158,1.1105696,0.021648966,3.8185875,-2.2165217,6.8779373,0.80786145,9.9056,6.3731723,0.6005737,-1.4060905,4.2294197,-0.8190534,2.4949384,4.059028,5.27145,-1.0015706,1.0163609,10.725009,7.083759,18.389374,4.29927,7.6759706,0.9666718,3.2047048,0.8308528,18.882444,3.3530302,2.969996,3.3073983
125.jpg,38.69861,-3.6620922,10.922043,8.986662,4.5801797,1.4147761,10.246928,37.943607,5.177273,21.511341,-3.2837384,21.163485,20.561434,1.288768,10.315542,-0.76940393,-3.8312178,5.05525,3.750437,-3.3238583,16.585882,-2.3990233,4.019207,-2.6089401,-2.7024717,-4.819349,13.64926,3.9234135,24.73125,5.572297,-2.9411294,-5.8706684,0.62948436,-5.5927167,7.599221,2.9359617,-0.72441286,-0.97883195,8.896076,11.245345,10.507677,4.6055984,7.096529,3.102196,2.7769983,5.9562726,-0.71594304,1.8709513,4.4778256
126.jpg,23.338648,18.920584,14.400861,4.470472,4.5543127,4.298619,2.6242888,17.533028,2.8490305,15.8209,24.964762,5.295669,19.589857,25.554634,-3.290455,-0.9167004,18.752253,10.058653,2.2906477,6.177766,2.887201,4.3355813,4.134896,-2.357061,-0.99233836,-5.0519,9.149006,4.083486,-0.5652938,2.0070379,2.9532914,0.53740525,-1.1275182,-4.2117386,3.4016411,-6.579909,-0.8314449,-0.37104794,8.176574,-1.8254062,2.8236475,11.317544,0.40719444,4.5222783,5.241933,0.11127165,2.2255194,-1.9412193,0.7513152
127.jpg,8.672603,13.885403,10.193418,-1.2107868,26.475153,22.245974,28.69524,19.707975,4.7974625,2.5104876,6.5538464,18.087864,6.947985,3.4741588,-2.194142,-1.6326332,-0.84908223,0.51258045,4.043478,3.733414,6.766843,-4.767283,3.0160227,1.8860562,5.6168675,5.1264935,-3.0640762,-1.2995621,3.6588836,-6.4582715,2.6406574,-2.8170745,4.0501246,-0.8139102,1.3814737,-1.230288,1.9328419,3.2838416,0.537719,-1.420441,1.0103015,7.290218,-0.06261226,-0.747402,2.1456754,-2.4682379,-1.8393847,-0.1550777,0.055417232
128.jpg,22.768196,11.324417,2.956883,13.087458,8.051649,-0.08374028,2.868486,9.476392,4.5375876,22.280205,6.315699,4.7605233,6.57409,27.168121,2.4133742,9.840962,8.846763,7.419964,-4.2683983,4.500647,-3.0314002,-1.1278746,5.074359,-1.2272403,2.0133111,4.753811,15.327861,-0.055803638,2.2702563,1.3598866,-1.9952409,5.1415434,6.4256816,3.8401186,-3.354876,5.5458894,7.424148,2.1804378,5.4725623,6.6571994,5.697062,3.8572657,-3.9308276,-2.2226102,-3.4136295,11.432926,2.3586628,-3.6951609,3.0953314
129.jpg,11.932018,67.75808,5.0625997,-0.20788729,21.015089,7.7761917,2.2247539,2.851749,5.795307,-1.466538,9.6199045,5.2809296,9.769715,0.7739565,2.8174765,2.8008504,13.1706085,9.372212,3.8973272,0.6497138,4.7460933,2.64993,-0.9190156,4.117666,0.8524809,0.6763735,2.37876,0.8533949,0.41113254,0.19342034,4.759956,6.516908,1.7650738,3.6136165,5.603268,-1.3308976,2.3195798,0.8158462,5.860128,-1.2443762,-0.12742597,10.81942,3.1807325,7.500508,3.5678997,-1.8762907,5.228819,2.9652064,3.7648149
130.jpg,6.347622,13.410007,15.410678,18.15687,43.27947,2.794088,7.810468,8.336331,12.495564,16.78442,5.7516375,17.888716,7.09399,3.0800645,-4.512566,-0.45465118,5.227786,8.578796,6.717926,3.031913,9.231862,-5.199065,-1.5690695,6.7134337,14.714146,6.5695004,3.3331182,-0.9890247,-0.54813313,-2.498844,5.8265643,3.9380968,4.6298146,4.082533,0.23391615,-4.318627,9.244661,0.31153297,-0.8638584,-0.47341204,1.3889731,3.7896075,5.676464,-0.9190063,0.42849892,5.38886,-1.8758807,1.364937,0.3442281
131.jpg,4.3939376,6.3706355,18.535194,9.892802,9.527369,4.0273256,11.2824955,7.5608664,11.313659,25.745672,9.596758,-1.4723129,4.5708947,27.975086,11.106915,0.5978751,-0.7482212,-0.04836293,10.245173,14.687064,40.010178,0.47906804,4.3931627,-3.4407477,4.8320966,7.0347366,-2.6160467,1.1073146,12.652477,-0.18077241,4.974726,2.5330272,8.261185,7.050035,4.4889183,0.9250248,6.547709,1.6173832,-0.97184724,3.4022582,-0.17713624,4.3926616,5.081959,0.96081656,2.7980099,1.188479,4.0166583,-2.768139,1.3497112
132.jpg,6.5745244,61.678993,20.942064,6.1441684,1.7598573,7.2833548,6.803365,-0.80682486,11.307255,17.876038,5.0192146,9.194346,3.4877617,-1.0972611,3.2052503,7.9414034,16.610912,7.7665887,2.136649,3.156872,5.482272,5.896552,-1.1625197,2.0103903,4.0888267,-0.13905154,1.7996669,6.0568647,1.7638203,-1.3980255,8.419545,1.4223357,0.31824782,-0.21625882,6.3969903,1.4984052,5.7785196,1.7056806,8.846765,1.0957658,3.36532,3.1734717,4.448766,2.5077114,2.7518506,0.9766545,4.541291,6.7676916,3.3873982
133.jpg,23.301514,-5.247308,-10.660343,-0.166744,23.82724,-0.26803917,25.01511,32.372555,1.9587705,-2.8741462,18.380585,15.876436,6.99882,14.193749,4.1544833,0.94127804,4.309391,8.293674,-3.4400709,-0.18676142,16.68972,0.06259605,4.1162996,2.1198916,0.76861846,0.730033,-1.4792914,3.1479962,9.512133,-2.824058,-1.6129315,4.967493,-4.527054,0.30366454,4.2391396,7.725171,8.629745,1.42137,0.19466938,-0.03180506,4.1554675,12.155674,1.3663929,3.8625352,7.677404,0.3160361,4.709744,4.3279405,2.70826
134.jpg,-1.7114292,3.5627856,15.132753,20.853582,10.188252,-1.965139,0.38168728,3.6359282,4.3090954,29.956453,33.59693,17.286383,6.0162845,12.411545,5.6376476,-4.023323,5.1069503,21.80959,-1.7440671,0.4713835,-3.6276586,-6.2824264,4.441869,10.08776,0.41409796,8.04977,1.0853868,7.065302,-3.1046112,-0.78004926,1.0804778,2.3707848,-0.33017564,1.7023728,-2.6511855,2.1143808,5.2846146,3.1536348,-0.9286558,3.0092273,10.014471,0.68212664,3.5512223,2.9317672,25.57166,-0.2758974,4.1266146,5.9518375,1.8135704
135.jpg,25.242758,1.0472169,0.19278732,6.5396523,8.458998,-1.5594139,28.691727,21.743103,1.852358,17.318985,6.1461987,16.878975,7.242313,-0.62771535,1.2875481,0.96012306,3.080084,13.309232,3.2115915,2.8017538,6.550807,-1.3120568,1.6773459,-0.81692785,0.14885263,1.0090483,5.5572762,-0.5947379,5.7767706,-0.15529618,-1.0790294,1.5857669,-2.4355803,-2.2901852,-0.94767326,5.6176605,-3.0295794,4.125853,7.5315638,-1.011998,1.1668414,7.1853027,3.682722,2.3337774,-2.0477939,0.57196844,0.81270486,0.4516979,1.0626444
136.jpg,19.143898,23.581762,15.415504,11.474076,3.0009158,21.199203,37.703514,17.892351,10.076778,7.781221,3.0597253,16.160109,9.31171,5.367553,11.875441,-1.3713574,0.46039414,-2.1043289,10.627193,5.396295,10.989482,1.0604413,0.73517406,3.033886,4.338652,-1.8103501,2.024089,6.243465,26.447014,-0.35598668,0.9698179,3.8518033,4.2276025,2.0190544,-3.0283377,-3.0680392,-3.4075537,-0.58923376,5.9987683,-0.6768141,-0.58800334,15.812272,5.796454,4.553089,1.5223792,1.2901837,3.5824695,2.990934,7.5905004
137.jpg,22.18895,-4.228157,24.611254,17.481834,6.696084,1.5584115,26.928783,7.549186,9.707522,30.626095,0.79531914,36.98529,3.107193,-0.88337034,-1.388943,5.1900463,8.087061,3.0621722,-0.3332259,1.9729671,10.574861,8.516196,2.4855359,2.5292544,3.2815213,1.2230877,12.750135,3.8322747,11.972378,-0.8206675,1.7827252,2.520106,5.997283,-1.1761421,2.579724,4.220829,9.759808,-0.2398747,3.1551323,2.2225707,8.681896,4.9517727,3.4949017,4.507264,12.801759,0.89889055,6.00614,2.0124931,3.1300685
138.jpg,14.998982,10.061211,12.173261,5.782578,12.094806,4.4854736,35.206486,24.865541,10.359805,8.1550865,4.838158,16.014679,-5.4550962,7.7644744,-0.16750595,-0.05168654,12.642924,9.899897,-1.5782423,4.334984,1.2430586,15.140839,-0.6822327,-3.7326887,-2.0481203,2.051402,5.183604,3.0447695,3.1589334,2.792686,3.399278,15.395138,0.15819156,5.7217083,-5.578298,4.868349,2.710112,5.1196713,-2.3719885,-3.560116,-1.5496098,6.9821796,2.051015,-3.1349156,4.311335,-0.66548085,2.482776,0.5541796,0.52390003
139.jpg,19.501245,3.71846,12.072288,7.350449,37.98475,28.74102,34.28005,14.252287,12.189621,5.298107,2.4932888,10.469367,-3.2232237,11.342365,0.7058842,0.98836255,2.5749533,4.968943,0.9720667,2.5841837,6.3373117,-0.8171648,-1.2219406,3.0614092,3.8957596,5.9220777,-1.3391665,0.85970426,6.116263,-2.540556,1.4116147,6.885998,1.3442948,-0.28901622,3.523973,-0.57301813,-1.2781883,-0.4665378,2.22087,5.954975,4.65215,10.176926,4.5542774,4.9084997,0.87951535,-0.3960344,0.7648666,-0.38047266,1.3507121
140.jpg,24.501158,4.284192,3.9008524,10.811879,15.834525,3.896218,12.617366,46.22496,7.6817727,7.7995496,2.8732042,7.8590336,9.628319,11.300355,-4.116507,2.2441232,-0.39404315,4.440458,6.2552304,5.9442034,50.8704,0.20722318,0.04626857,1.1682167,3.7576885,1.2944807,1.8845525,-1.5405918,13.1006,1.8401583,0.60748667,0.37915286,6.708659,2.301106,8.748716,2.5785086,4.0781274,3.085055,6.7542143,1.8929944,1.0025542,9.272368,2.7470355,8.778196,1.8330816,3.4411614,3.5012674,0.21765874,3.6154299
141.jpg,15.36404,3.5605922,10.70279,17.239077,39.69576,5.046428,1.8104109,12.383424,23.227236,14.560829,5.8486147,24.811558,2.7613192,5.684316,-1.1100222,-0.640396,4.460925,6.173176,4.0536036,-2.2215931,20.77572,-6.9984035,5.3285418,11.855668,10.110053,7.443327,2.940541,2.3657298,2.5375867,4.7027683,0.30944744,5.543156,1.2474068,0.30097738,-2.7161067,-5.349407,3.8319283,2.9576218,1.9328516,1.8112419,2.1737988,11.877458,1.3863845,2.0500255,-1.8127818,-1.5821961,0.39820564,1.872306,1.4953948
142.jpg,26.374361,-13.696401,14.705493,-2.7988846,9.532174,6.6719704,32.326546,14.249555,5.676264,1.7216321,3.6807914,24.817383,4.966735,14.177219,4.792101,6.6191154,4.8305016,5.21624,0.6819533,5.024869,6.325788,7.045093,8.142666,-2.4343328,0.20241244,-3.218567,6.2923656,4.3786964,4.899541,0.35082307,1.0317383,9.501169,1.7246674,2.7880027,0.20743701,-2.3042853,-1.6657307,-0.46742865,2.524381,0.29060003,1.4225447,9.4914465,6.832047,0.6904147,-3.8188896,2.2700617,7.939626,3.9719713,2.4925237
143.jpg,14.165814,8.899974,13.5539,-2.5124276,22.839613,41.034447,43.49784,9.499084,7.5415573,2.9073265,7.393545,13.3166685,-0.9934701,6.9351544,6.3766465,4.5575156,0.6343297,5.414746,-2.5254748,2.246867,-1.053279,8.5977745,-2.1385,13.531299,-0.03914514,-1.416055,-0.9331261,3.9633737,5.695472,-0.11291436,5.7759175,10.521922,0.41830513,0.6082727,2.7295725,0.9684018,-4.2937603,-1.3382581,4.858806,-2.9392526,0.71178585,11.261468,6.115972,3.9058223,-0.23289944,-1.3717753,3.493246,3.0274215,2.9464035
144.jpg,24.509487,1.8216364,16.623636,13.166514,16.588259,7.785134,42.11384,15.500996,20.180489,9.972135,7.164702,11.340766,-1.9641308,10.626934,-3.475164,-4.237773,5.0407033,8.967779,3.7484422,2.2052374,2.150598,6.7946763,9.806313,-4.0030775,-4.0286818,-0.6363271,1.0687349,2.1456666,6.1572895,-1.5846624,0.91243833,3.0331442,1.9624118,0.91805273,0.3241641,2.752195,-1.6301055,-0.6389281,5.3604136,-5.2686744,-0.30084997,11.558035,9.909204,8.672647,0.3125185,5.5438833,0.52464753,-1.0027362,3.5270956
145.jpg,13.978502,-7.6920056,31.144417,10.733065,0.86918724,20.05155,40.31957,13.198707,4.1090455,24.95157,-4.6770906,3.3316545,-2.55619,6.0559525,-4.6939354,-1.1803753,0.39682147,-1.8304758,6.5968738,6.5814815,15.715395,8.7164545,-1.8537595,-2.806599,-0.56224465,-3.7880037,5.229114,0.28846246,1.6110129,-0.83868635,-2.6415837,2.6890333,-2.1190386,-4.6978793,3.0010116,2.3233485,-2.2722661,0.3593063,8.954294,7.844889,-1.1545801,6.3020716,3.648222,-1.1250798,-2.6913636,1.5200982,2.8964982,-0.55893415,-0.11400618
146.jpg,11.330056,18.765112,20.908035,4.003129,-1.00624,4.866848,21.130886,32.430798,5.237645,25.41346,7.143747,13.916737,-1.8201001,30.722284,1.8416494,-1.9955434,6.209715,9.309761,-0.1356816,3.6901805,-0.09167725,6.330578,-3.529888,-5.541322,-10.038377,-5.116908,7.311633,5.91866,8.844013,0.49814564,1.9919368,0.5999415,-3.5918913,-1.3159004,2.5142033,0.3276336,4.9883275,0.40108016,2.185678,2.5405726,2.6514647,4.0287757,5.7211766,-3.407234,-0.918483,-3.0686357,1.8726584,-0.09890869,-1.2952656
147.jpg,-1.7081233,71.82182,6.6367106,-1.67743,4.8211236,15.38332,4.455624,0.94047457,5.5078955,5.690331,7.9991474,11.22351,0.123952515,7.1462727,22.667498,5.012363,-0.116243675,1.046195,-0.48065874,5.6521034,-1.5036391,10.286206,2.072166,1.2231879,-1.5604904,3.9606907,0.1480237,3.7070758,0.97306883,5.2927656,6.014675,6.953453,1.3317263,5.8636146,2.085302,-1.8285472,-3.660778,-0.7962025,0.12646006,5.424739,1.7630577,0.21136245,3.892905,-2.6224937,2.503491,0.08657695,1.2310491,2.5280235,-0.37388736
148.jpg,6.517507,2.1827261,11.734798,8.8036995,4.478503,21.986181,41.154232,22.531658,16.600042,10.259356,-0.03499393,1.8472431,0.71783304,13.441748,9.810341,0.8313232,14.167457,8.2681675,-1.085234,8.063644,-0.34156656,34.942238,1.2322721,4.261829,-1.0761293,-0.35191867,9.021875,1.5153865,5.1473727,2.739159,14.452821,25.160143,7.3511286,10.0198965,1.6413819,9.805835,8.898512,4.7289953,6.94812,-1.0696847,-1.0605295,7.943699,5.259012,-2.6565049,0.12365021,0.80856866,8.101938,-1.3545119,0.6469112
149.jpg,38.146282,-2.289931,16.420713,1.3689044,3.6391664,4.7726226,4.3658247,47.91673,8.486956,-5.254074,9.027002,11.522928,9.659494,8.349827,11.307272,-2.6176314,7.3794723,-2.3129919,2.7082667,-1.2983084,6.4245477,-0.40367562,1.359586,5.5419292,-6.697039,4.576384,19.62526,5.851035,34.06936,3.8697324,-0.5724659,-4.5073996,-4.695362,-4.433372,8.706872,4.5135703,-1.3028594,1.4226604,1.2506094,10.985638,-0.040842034,3.5827134,1.1344055,4.8457985,1.9964797,2.6775553,2.7285862,3.1466484,1.9168034
150.jpg,27.503067,5.9187455,-0.2654694,7.2637596,11.461648,7.8759446,25.48597,10.658311,14.451274,6.969775,-0.13443065,1.4194022,5.4521337,-4.1214476,1.975706,1.015728,18.09765,10.429918,-1.1115364,4.499685,3.233315,28.967146,4.953733,2.7154186,-0.2917111,-0.7564475,26.854532,1.3565968,5.354511,5.145061,8.372362,19.104927,5.408702,4.598811,0.8960656,-0.97771454,5.1172533,1.6532252,10.843572,7.643354,-0.544268,7.117705,-0.73836863,3.1796403,-1.5236778,0.8194767,2.4804041,-1.8900256,2.4710293
151.jpg,15.198827,0.7570477,5.410863,28.27284,26.373953,6.6191235,3.226818,8.863441,13.262651,10.694372,12.7732725,18.949785,5.0821276,37.823933,-2.6602416,-1.6630567,15.713959,12.28643,2.7297797,6.458692,15.595529,-2.5052328,16.488718,6.1659703,10.274772,2.218149,3.2604742,3.4450312,3.086575,3.4725282,0.44589844,1.4070706,4.8582277,-0.071895495,6.991312,-1.1676211,7.1446166,2.7260768,3.191548,2.0802894,2.6347601,9.150424,1.2270236,6.175612,-1.601459,2.595138,-0.4088616,-2.7474914,2.0441754
152.jpg,18.260418,3.0399525,10.730965,8.948641,8.975373,-0.18993524,31.388622,23.131521,9.23119,14.953704,5.5580773,32.202873,4.0314097,3.8962028,0.21078083,-3.6868448,6.543824,5.1342845,-1.0118558,5.2933273,10.329136,-0.40468118,5.3799944,0.9204613,-1.3229097,-4.60486,9.829437,4.427674,15.675966,0.20890924,3.3863592,2.6303577,1.0824764,-0.5400307,3.4952,2.630114,-0.6727487,-2.5082796,3.6373959,3.1720862,-0.0049963593,15.324591,2.3710766,2.8980906,2.6189666,-3.7161317,5.161848,4.0962124,2.75797
153.jpg,10.587219,13.658593,3.2171845,14.577699,29.911406,12.4014435,33.465927,10.393954,7.244905,7.1660256,-1.985826,-0.2640893,9.805947,14.921726,0.7446923,2.3811631,-3.861936,9.690351,5.759711,5.0133495,14.139955,9.415754,1.5741451,-1.8176844,3.555334,1.4349064,-1.44479,-0.03537298,7.764159,-2.7634063,5.3459687,4.247909,23.010063,3.3306916,2.3258762,-0.13736556,2.0176835,2.1226566,1.600872,6.0469656,2.3745763,3.985013,2.2051558,2.6985204,0.13056844,4.0531926,-0.078014,0.11824621,0.020321738
154.jpg,21.447927,7.530362,36.29256,4.678906,2.3376436,-3.611378,-0.0029556453,19.44854,15.907598,5.4480543,23.03284,32.26724,2.5819776,22.369978,10.025335,1.6958019,4.1581984,3.0566783,3.5543175,7.9459486,6.140951,-0.09835712,-1.0169501,7.14985,1.9056886,3.4038234,3.5582435,9.013827,9.025283,7.973741,5.626614,-4.9511886,4.3157325,-0.24813549,7.212504,3.6742926,4.8768487,5.9763837,-3.1703815,1.0329579,5.2649775,2.360056,16.991125,4.629788,22.860434,0.31729844,-0.616467,2.4363058,2.8433924
155.jpg,18.253754,23.996593,7.698846,5.1312175,28.519285,3.2355666,12.365642,12.901383,8.649927,1.9422024,9.136171,15.756254,6.4311094,16.962255,1.8834654,2.6500788,5.5548697,9.746475,8.100775,5.841704,4.905,-3.0425022,5.3348103,5.8185115,3.9615705,7.8302608,-1.3571057,4.143526,-3.5466213,-2.645663,-4.656732,4.58453,4.8802404,1.4217705,-1.8459678,0.8324616,-2.7920895,1.4426398,7.1903033,0.7150136,1.462559,10.380478,1.9102925,4.2598696,-3.231773,0.8904462,2.8267872,-1.2232244,2.3312614
156.jpg,3.622188,83.32367,2.4965737,2.2239041,4.317871,13.235964,0.29687145,0.7441622,0.37609246,2.8646798,6.3907213,4.446824,-2.3786128,3.4949162,3.510125,2.470577,2.3832545,2.248292,3.923871,3.9654388,0.83951724,-0.5535667,9.418731,2.500371,-2.5022042,1.2217185,-2.1942165,-0.13499352,0.06511593,0.9831001,5.041766,0.44758636,1.0380521,1.9926453,0.6682005,1.5956299,0.32142568,-2.970081,-1.832419,4.112567,-1.3869462,1.1939685,1.505721,-0.56966496,0.3879386,-1.8856738,-0.2448611,-0.5383269,-1.056342
157.jpg,7.1265435,8.860943,52.509968,5.8196864,-2.4078248,-0.5559926,7.2950373,2.1340451,0.9288525,21.951199,-0.4447985,9.020141,12.1202965,6.4904175,-1.5324405,11.352744,-0.48810506,11.761258,11.579927,0.34216437,27.962055,5.7516756,2.220628,1.2989278,8.101012,2.2072685,4.3321085,7.0053535,3.9804285,6.748716,0.9021582,2.1122444,4.5925946,3.3759549,6.8071656,0.53444153,5.369377,5.4070563,-0.15041986,7.942772,6.754825,-2.3292344,0.46808225,0.9419529,1.0453278,2.7472768,1.8409811,2.2942061,0.8814391
158.jpg,-0.013936125,12.094625,19.913027,7.587561,22.03108,26.219038,24.939295,3.5807154,10.62002,24.38479,16.261683,1.2589266,1.2630702,11.870606,-0.11458145,-0.99013376,6.4080296,7.030057,1.3618121,-4.696732,12.424657,2.4864736,0.4111964,4.2619133,6.158392,1.7202529,0.47941598,4.085206,4.3276324,-0.8708693,-1.6153187,-0.6749052,1.0994322,-3.5178206,-0.5782131,-6.301884,5.575712,0.88031626,5.314,2.3544912,3.9596,4.2502666,6.024102,11.315882,21.286491,2.839685,0.018149685,1.4901339,3.7913442
159.jpg,40.1889,-5.753389,-5.061096,5.9475203,29.212704,0.2646616,24.586819,24.171404,7.8450484,6.4843364,-0.52976495,8.209928,16.379318,3.9358158,5.3724604,-5.1377273,-2.9554222,11.584401,-1.6324255,-2.0556695,1.9828981,-3.2921348,4.7266574,-3.1775208,1.6503887,1.4948524,2.511051,0.3086354,4.4853,-1.0883521,2.54012,3.967232,-0.59085226,1.1065277,-5.166601,2.281596,3.9530065,-0.30025998,7.972202,0.16101342,4.411889,9.822826,9.805695,5.928903,0.29093558,5.0668845,7.298333,-2.1383677,6.060318
160.jpg,7.0289016,0.6323128,34.376007,1.5917625,9.999387,27.125055,24.709612,20.268574,-0.08433172,16.49942,6.9415627,21.559214,5.9802995,12.013045,0.7308026,0.12787357,2.138112,0.98066497,4.5933695,1.0467318,17.679,-1.7946872,-0.1602591,11.778632,5.7179236,-2.1922908,-1.159216,6.973102,9.69246,1.015772,6.0023537,1.6720355,1.9536927,1.4781013,10.90086,-3.6247082,0.42413658,6.4391656,8.179918,-0.07614204,3.4464955,14.750743,12.751717,5.065769,5.3931875,1.4817274,4.5977945,3.0996242,6.778287
161.jpg,19.339159,0.57505184,3.8179796,0.24204832,13.66059,3.7331057,18.13391,18.064463,7.123676,7.954139,0.4776217,11.416529,6.5521846,35.503216,2.865026,-0.9164926,6.5557547,11.402766,1.8467873,3.1166954,4.963131,5.4883404,0.992392,3.1307795,0.43385062,-0.5093988,3.491248,5.280632,7.926366,7.1267395,-3.0147092,3.6876197,0.26398227,0.35169432,6.5272427,1.5112672,3.1218708,4.7524123,-0.5753128,4.496805,5.9305663,13.915121,3.4997761,3.9002652,-0.3800248,1.0508908,4.618271,-0.76658916,3.6210299
162.jpg,20.546328,-2.1445434,15.051352,2.087927,28.31228,20.045311,45.743473,15.051103,34.843563,3.0872126,8.0290165,11.3074465,12.5527115,12.196311,4.074773,4.802027,2.4958491,5.4870524,0.8534735,8.467479,3.2089636,2.9031787,2.6624725,-4.764236,3.2507858,1.8748529,3.5211928,2.8924944,18.436796,1.6695459,4.253637,0.9973092,0.2168349,2.341078,-1.6207563,0.77904004,-1.1050881,2.80686,10.136998,2.9260035,0.6259174,13.237822,15.776631,11.905238,10.235701,1.0755028,-1.3804195,2.328862,4.5905957
163.jpg,14.869618,12.287387,-1.8864115,11.850258,6.654933,9.103783,27.103329,24.238205,3.6452696,14.859025,19.1944,7.6551394,5.4208493,43.02884,0.9639642,1.4604731,8.911923,11.460469,-2.2693343,2.4256911,9.216569,2.9615965,2.61007,3.111517,4.061744,-1.0897603,-0.5996979,5.417438,9.152816,-1.90598,-4.0989647,2.6519108,10.3019285,-1.1708194,-2.177687,0.721993,2.6220615,4.9772377,2.178247,-6.114561,0.8378625,6.7548485,1.0553812,0.03203936,7.1127663,-4.599191,-2.278657,-0.49454942,3.24338
164.jpg,43.107822,-5.0197005,1.3479593,11.684628,24.461117,3.8995047,22.996252,7.558696,14.652514,6.9886456,6.917528,16.41987,3.2860346,-0.5907071,6.235815,5.940074,16.779074,11.070833,6.428023,0.7040648,0.8910088,9.628339,-0.8546247,5.4999475,-3.2617688,-2.9338076,4.3827558,2.7777724,-1.2129655,-0.04856158,1.9490395,5.6338573,0.03502732,-2.822615,-1.2133112,4.2677383,-3.3845081,1.5105785,11.441573,-0.3718786,2.1719694,12.267197,8.485047,11.97474,3.2335274,3.2610106,3.7390509,6.653966,2.7637136
165.jpg,32.48805,-1.8222015,-2.4028296,9.578237,5.327859,-0.6116545,8.286241,50.271893,8.130386,3.5798695,2.844958,2.1795561,13.938384,18.62382,1.1661112,3.1855345,5.223113,6.130704,-3.01754,4.6672964,9.079779,2.9385428,3.9163105,2.2056637,-4.7483034,-0.93166476,9.914533,3.4402862,38.176735,-1.8852161,-6.291204,2.238207,2.2062905,2.2622104,2.204762,1.8682245,5.6231937,2.9853332,4.828896,11.913086,1.8703153,7.191589,4.298359,2.5190692,0.544679,0.18571448,5.6383314,1.2982932,3.0409205
166.jpg,0.94897634,17.461103,36.797695,5.9852333,-2.042183,65.45136,26.355556,2.669903,8.048301,5.4797454,-2.4039404,13.722815,2.1242208,2.3650508,7.870222,0.99154127,-2.9731302,-1.22355,1.4355719,1.9243698,7.982874,8.015732,-2.2732873,17.785818,2.927921,0.93191946,0.39804614,0.14072959,10.284889,1.7704118,12.007319,2.291017,6.751723,0.76175314,8.171342,-1.1083143,0.43905264,4.5328674,-0.22271937,2.696268,6.0809345,1.0068367,1.8522666,0.16276687,-1.2759812,3.411603,0.44774768,6.5965867,4.009493
167.jpg,31.271112,-5.5214977,5.803875,-4.156627,5.0713377,10.353125,32.272163,42.194084,-1.1168767,12.010869,0.09559917,7.1542234,23.595222,5.7234035,1.748794,9.691809,1.1186652,3.4991217,0.9685583,7.471719,8.029407,4.573056,4.430668,-3.0484169,9.017642,-0.85886383,3.5776277,2.7357383,0.07536043,0.6817686,0.92071164,5.857759,2.8813972,0.898895,-6.4068065,-0.47114342,-3.9258733,7.5413713,30.77617,-0.054083623,0.27824837,13.474718,7.3931513,-1.1427221,2.6333544,0.64361274,-2.7657628,-0.5244596,1.3386412
168.jpg,17.282349,28.409803,1.0291743,9.208984,36.861923,-1.3234473,1.112507,11.956948,20.791513,-0.28546566,6.6306076,18.770018,4.753365,7.6965427,4.3456426,-3.1051452,4.7823052,1.7329451,19.379858,2.9801579,28.90037,-2.5767684,7.5235353,7.5519614,-0.86247957,10.084001,2.5033216,1.3587356,4.2032375,-0.011977553,-0.91172606,4.396538,4.473412,1.479845,5.2321663,1.1158772,4.8047476,4.5043273,5.249705,1.2497725,-0.5680955,9.716764,-2.7106729,4.441259,-2.7202628,1.4804227,-1.2945625,0.55451214,-1.394702
169.jpg,7.0645013,1.606461,74.55471,5.87725,6.535329,2.2932198,9.098404,11.880724,5.4099174,9.255064,-3.1433654,10.687682,-2.6006567,11.207235,0.99600387,1.8328365,-1.4479022,0.03779214,0.86035144,6.433887,3.3455677,4.37022,-1.8022683,2.058159,1.1110061,1.1459053,3.9836035,-0.778088,3.5546563,-0.29915226,2.448398,2.1128292,15.45408,2.283111,-0.02164226,4.608832,1.9773617,2.9554677,-3.9274879,-0.2891235,8.490935,-2.209517,5.003425,-0.3058551,2.141144,0.51410896,-1.3576202,1.6180098,0.5537277
170.jpg,19.075966,-3.4413412,9.833385,10.426497,5.3813944,11.553018,32.892746,32.401028,8.477465,6.407384,-2.6085763,4.787831,4.2831836,-4.5631776,-6.3955793,1.7096896,7.200269,5.899292,-1.015339,4.289397,7.8005977,17.889664,-0.060491543,0.60385835,-1.4296223,-0.83494633,10.032966,-0.9677011,3.719221,-2.3623352,3.2650323,12.853517,4.246143,0.668579,2.7841554,-0.602797,-5.763367,4.848355,13.78839,2.7152503,-4.133176,6.261214,0.87353456,3.5334833,-3.0701258,1.1635642,3.998245,0.39241073,-1.1593727
171.jpg,26.363321,2.4332497,3.5302505,21.095661,8.244981,-0.020522252,0.048895437,-7.1626573,16.960257,11.913298,23.5816,44.830498,5.0302787,-8.033509,14.072743,-2.2653322,33.990093,6.11334,6.586185,-0.5038835,5.928654,10.427429,-0.113449804,23.305058,2.734962,3.79769,5.4525194,4.2325435,-0.9349307,6.0869803,11.706371,3.96633,-0.7968817,-1.3249819,5.354719,9.377367,2.7169013,15.34162,1.9862794,0.7976367,11.192376,1.629031,-1.131961,3.0996327,1.203787,-1.9311048,4.772208,10.670458,1.0006106
172.jpg,52.58681,6.261304,-1.4512191,11.398676,29.766542,3.6882162,8.722851,14.684556,18.447874,2.342967,15.583036,21.175915,12.400087,2.9427328,7.703847,3.6770284,13.8469515,7.55606,9.196409,-2.0625095,3.066824,-3.787028,2.1605625,1.6467569,-1.6125189,0.3803296,2.992401,0.7993039,-0.51173383,2.5575666,2.1887758,-1.3260844,-3.7452352,-5.444452,3.8550377,-1.1931173,-1.5735801,-4.226778,6.16205,-1.902758,0.79344976,5.393409,7.670983,12.640625,2.5481822,-3.346136,1.2720984,3.179266,0.11644028
173.jpg,6.448212,13.53094,9.352864,10.036373,35.319645,6.1425695,8.350456,10.48104,9.086678,10.116175,9.459981,7.2409115,5.217791,22.112638,5.3122993,-0.27994195,0.5340242,2.021898,10.539675,2.1179683,40.949764,-5.0699463,3.6995535,5.2977114,13.826196,3.3367937,0.6407868,3.3321447,1.6394207,2.4802372,3.1664379,3.0019376,2.3117616,3.5944011,-0.54906976,-1.099608,4.1956406,3.754714,5.2740054,-0.12903856,-3.1334538,10.952274,1.6946325,1.924982,2.28578,2.348127,1.9874014,-1.9412836,2.2835429
174.jpg,8.081608,-3.6369524,15.58529,5.011932,7.3948326,24.37082,39.172127,7.7429066,23.741804,-4.8529296,-4.426916,8.048761,5.945244,1.8083136,0.36849976,-0.87543577,2.6233234,9.244731,1.1938484,12.322381,3.438133,19.535097,2.2297728,0.011415407,-5.32092,2.3316226,11.000964,4.1399264,3.3873732,-3.9637434,7.9508996,10.28792,1.3219992,2.8968039,4.160158,-1.4370497,-10.405063,0.6370239,8.813532,31.215847,-2.7085757,3.6280043,2.8565989,-0.8756943,-2.33673,4.2889347,2.0582602,1.5215982,-2.116314
175.jpg,13.141293,8.261124,3.1017442,6.856832,17.836763,-3.8625717,5.8943377,12.6141205,9.052282,28.34151,4.7609205,17.521465,5.2741456,2.1125216,2.1569874,11.060751,4.5342526,14.420287,4.4544673,5.015131,6.7254705,-7.036759,-1.9767894,1.2590842,7.947301,6.978438,3.182922,5.251545,5.42628,3.8039544,-8.637014,-1.5152233,4.2472715,0.049262214,-1.1185197,4.2491107,5.8943114,6.770885,3.5627234,6.1476817,10.445764,3.476911,0.117635354,-3.672732,2.8783734,2.013931,2.856567,2.5911722,2.8517609
176.jpg,24.823101,3.2844234,6.9943247,-3.2365177,18.235283,4.8614,41.45723,13.287416,12.844878,13.610188,-3.0718338,-1.2554845,2.3227878,-0.17764112,6.045622,9.073848,4.8516726,4.4124265,2.9672306,8.118889,14.46147,13.711236,1.1116153,-4.8294344,5.883805,-2.2286935,10.295849,-5.047244,3.9894931,-4.0796638,-2.3982778,11.237916,1.4427251,3.3158495,-2.8204386,4.787411,-0.95671564,5.17161,23.161499,5.8973913,-1.0773853,15.515587,-1.0884619,3.7485492,1.8448031,3.121752,1.3840873,-0.90438855,1.5481598
177.jpg,17.572344,11.338883,0.8490329,12.324579,30.752956,1.0576535,4.4786143,18.044989,8.821843,14.056253,0.44807866,19.959293,13.735729,10.400743,-4.2363424,-1.4646705,3.3429651,4.493629,8.847592,-0.44724476,10.406026,-11.85528,-1.7224858,4.949362,5.9806337,5.8581376,0.055743895,3.3875062,3.0372927,-1.2272379,0.8147342,-3.1552017,-3.889248,-3.2066538,1.4962623,-4.7720284,6.3451395,3.4616356,7.7881136,0.20465814,2.4572175,11.698897,7.6886387,1.6392529,0.24398696,0.888945,1.7303817,-2.397942,1.4332987
178.jpg,17.587942,-3.3414524,14.059213,3.3070712,8.73071,4.5261254,42.85836,13.693722,16.494127,17.504276,-2.7353122,9.690644,1.1960078,3.789393,0.42285222,5.329385,4.271239,8.552282,-0.11704518,-3.624265,11.251846,22.047606,-1.2400659,-3.3573356,0.49983504,0.52246565,9.187964,-1.038029,3.1599832,0.012784451,-4.220602,11.316887,3.8321176,-2.6910791,0.51522183,-2.0450575,-1.7988374,2.232815,20.917118,2.1636107,-3.946148,10.396972,4.2968845,0.83542883,5.6327157,1.268078,-2.6246514,-2.2698271,-0.73223895
179.jpg,19.283218,7.0699825,29.267788,2.9092658,7.548711,21.518555,33.64482,18.293509,5.948773,3.30493,-0.67174995,2.3844242,1.6056147,8.832588,6.845848,-0.023460574,6.597659,0.98749197,2.349871,6.6630764,8.37692,6.789027,3.3157804,0.93366516,-1.174094,4.9584346,3.0597613,0.3043552,20.757895,4.8110204,3.236739,9.85552,8.025211,2.9837034,-4.5270257,7.879488,1.8832011,5.98503,3.1986496,3.1788442,2.4921093,14.031784,6.0316076,2.9620426,2.5933251,1.9736178,1.651055,1.5222284,2.8429632
180.jpg,32.04477,-2.6779783,5.4970036,6.697671,39.13026,9.487305,23.908598,12.60166,17.044352,4.6658792,10.307598,11.174396,5.104233,3.957427,-0.24729055,3.980184,12.226462,11.688524,5.2444177,3.8391058,3.8520792,7.119154,2.6786382,-3.6457994,8.194363,2.9602249,7.1085973,0.65597194,3.000291,-2.1104953,8.459686,10.923158,-2.4208152,-0.98440385,1.5555435,-0.9995143,3.5423994,-2.9313376,12.19191,2.291156,0.3978749,6.3928156,5.30266,5.4028444,-0.6788689,5.834875,-2.277236,-0.49809796,-1.7360955
181.jpg,26.854223,6.0306745,4.2974215,4.7329116,20.74729,3.780529,15.233496,23.596275,3.1309135,8.186502,7.5131497,13.347827,12.082541,1.0711412,8.012079,-1.2608976,6.1311193,6.9697337,5.939597,-0.5700212,18.493553,-3.8183517,-0.9381938,3.1187158,-1.3635955,5.2849693,-0.83558595,1.1264255,10.201451,1.3979177,5.5475926,10.960114,1.40244,4.5148616,8.498332,4.3561363,0.10581119,9.720535,14.274746,6.426267,1.852012,18.833738,3.5568123,5.7451468,2.7768486,0.26836228,6.8260765,0.52300197,7.859409
182.jpg,-2.3819685,6.4162707,68.09606,-0.61279285,5.7433376,8.534786,-2.4369571,9.811883,2.3555155,4.1180096,4.558951,4.100493,3.1290092,3.4624257,12.8949375,-2.2188923,-0.75604653,2.2605581,2.919372,-1.3963122,28.952688,3.7547092,1.3811048,-1.8986065,3.6822052,2.676402,-1.1372756,0.17464104,5.7767234,7.2304053,-2.0005643,4.4531765,-0.94949716,4.695614,15.23283,1.2013825,2.4087765,4.7910466,-0.77591753,1.1394483,2.301967,2.1245122,1.458222,1.6406184,4.0361605,1.6421669,4.030896,-0.11688182,1.3348488
183.jpg,39.165955,0.017812476,17.45235,6.442698,0.3034959,3.8389373,-2.6534274,36.648838,11.377401,-7.0375257,1.9131945,12.271086,7.208386,2.8953114,5.411002,-4.8607416,10.673451,0.16152793,2.699235,-1.1439976,11.8321705,4.396572,4.487604,5.63881,-5.772596,-1.0647496,24.153826,7.016594,30.734396,0.5100939,0.70762485,0.3754168,-4.108364,-1.2948503,10.0480795,4.5900173,1.755029,0.6500832,4.907931,10.218092,1.8694425,8.137785,-1.7532971,4.763598,1.3323609,3.2709355,2.2206404,2.9970193,2.565806
184.jpg,5.3570166,26.118076,7.3553333,3.2235608,7.253255,1.1940548,25.10733,16.338255,2.2396307,12.81534,10.934534,20.594572,1.1044916,12.093092,-4.970765,-5.958537,13.585995,8.430947,11.998753,3.7431498,1.5176064,2.3727534,-1.3238304,0.19323361,-1.3229035,2.3312714,-0.4365118,12.757087,7.9013133,-4.2830954,-0.5607463,4.9158754,-0.55232763,0.45934346,-2.1900463,3.534507,3.0474174,0.34979033,1.4898252,2.87802,1.5763508,12.708339,5.5973268,0.2751695,5.6103535,1.0371431,5.7305956,5.6904154,2.5665457
185.jpg,7.6149554,12.555655,18.479464,-2.8103662,23.233366,56.28768,34.135185,11.8413,7.1893916,4.3221126,8.417957,12.678846,0.71465755,5.553536,3.2466273,3.338329,3.6738067,5.4123163,-0.6538671,3.115743,10.402976,1.7339053,-1.1349773,11.486478,-0.3755635,0.6664819,-0.50045437,4.4107065,5.629988,0.97153026,3.255428,3.5280533,-1.799882,0.6835782,1.654021,-0.70348066,0.31328484,0.69018847,3.5789206,2.4930873,-0.21279106,9.074881,7.6343694,4.2620087,0.17674462,-1.536457,2.5866573,3.850203,3.793332
186.jpg,30.012941,4.0695267,-6.909584,-0.8387357,12.955772,3.8582087,21.656504,25.606382,-4.357785,5.6013985,7.355347,10.828794,14.766269,-2.2032843,7.8540177,4.42287,11.335244,11.275791,1.1857098,1.2867615,4.1437945,-1.7912023,3.3803535,-4.240759,1.3338057,1.4656507,0.8093554,-0.42675668,18.111128,1.4961002,1.4840697,6.2173324,-1.8189974,2.7224314,-1.2424837,6.9460773,-2.9576714,3.0703983,9.353286,3.1919188,0.65933836,13.551669,5.8686376,-0.21750423,4.7134457,-0.20208713,1.1159009,-1.3998322,2.3640733
187.jpg,23.770678,7.85167,4.650842,21.738468,25.878706,-1.5003313,-6.735102,52.36368,13.0522175,9.777496,-8.240527,3.7270021,12.985648,9.655272,2.9444182,-1.0272107,0.40323567,3.1992831,4.7035537,0.18730304,10.130714,0.8987945,2.9778287,5.8966823,6.31669,10.078282,5.4506397,2.0293665,-4.823793,1.3042291,0.5922909,2.1355362,6.6970124,1.7916895,-0.9674657,1.6267905,8.822541,0.66408855,-0.39525014,-2.5278766,2.038196,-0.8104824,5.1461143,-0.43927702,0.34921938,1.427861,-1.8768249,1.0032874,-0.62457967
188.jpg,16.434679,-0.58986616,5.396738,3.8959346,24.810566,21.329308,42.84342,32.576733,5.786583,2.009539,5.8939996,-0.9220165,-0.727773,16.75807,8.499215,2.7032773,6.6070476,12.707946,-2.790651,2.295239,-3.9654064,13.025225,2.5251937,2.0953271,1.8630342,7.9275756,-1.9740794,-5.1683755,2.647545,-0.124152005,3.2457914,16.704216,3.5868292,6.5225763,-0.69036204,8.094589,-1.6524802,3.659689,9.746646,1.0265414,1.2308856,3.6648228,1.1887087,-0.596004,-0.9055757,1.3978485,4.4157243,2.850106,1.2752261
189.jpg,11.726915,3.9694474,21.224606,4.870001,13.059918,8.233012,12.3875885,7.1637154,10.807124,18.496418,28.637707,12.476219,-0.956836,29.056273,13.701323,4.6224556,19.237146,2.5918932,4.898829,-2.9806652,2.2098582,7.8730083,13.65495,-2.263086,5.624498,0.44633654,0.7814497,4.646477,0.84938407,16.615755,2.7936327,6.5464177,0.62028307,-3.0697212,-2.747753,1.1766447,1.2580162,6.16544,2.9764116,-2.4225278,5.614356,9.3471365,9.229633,7.0434866,23.864342,1.4368038,6.107314,-3.9430149,0.58490074
190.jpg,18.523819,0.67223793,19.554918,7.8670373,11.573604,6.7173867,13.693255,25.46127,1.2990719,5.477891,2.4981542,7.851308,12.217571,28.628412,-1.3427691,2.2801814,1.5640035,8.223775,3.345048,-1.6490254,10.664673,5.8170705,-0.84063596,-0.8676214,0.35493883,-2.260263,1.1945086,8.383406,3.2309692,1.1938742,1.3525343,8.037464,5.861894,4.2379837,7.253039,1.6898814,-7.241073,1.9888037,4.4708133,-2.5638728,-0.106960535,16.43925,2.8358047,0.53678316,1.4230459,-3.1161127,5.469408,0.10148245,2.3758578
191.jpg,13.433598,10.87599,15.614968,25.82995,7.3817534,0.45040935,6.56898,8.718805,6.4299374,36.27618,4.1208057,15.961302,8.340524,5.376514,1.5694559,-0.27823332,-2.0207248,6.555149,9.111671,6.581953,0.27875686,-2.8316085,-1.2892517,3.067742,-0.12253947,3.6960537,7.4682884,10.677889,4.2096486,-0.19582258,-3.8905814,-1.671925,-2.7370062,-1.4604902,-0.61295384,5.939137,1.1563838,1.0078301,5.5310135,6.181862,6.7309966,9.685447,2.6147866,-3.8220897,2.1792374,5.956176,1.6700635,7.5889416,-0.43228766
192.jpg,22.546267,41.829117,8.384124,9.296858,45.08256,6.8314285,3.749117,8.104051,14.009331,5.211981,0.9508034,4.750423,6.279665,-1.1177915,3.4962018,6.4730167,2.7890909,6.288308,10.447988,-3.2023528,1.1931622,-2.2582815,-5.557996,7.13246,5.017714,5.840269,1.7923212,-0.92842066,3.7685773,2.6027958,4.6143003,4.1459527,2.866361,1.0117567,-0.09759213,-3.7179246,-3.2312505,4.9655223,5.703504,3.61973,-0.54261124,8.460707,-0.8000415,4.739069,0.9428423,0.23278432,2.5079336,2.670626,1.8059485
193.jpg,26.413124,4.9594975,-0.26539153,6.6310525,31.008875,10.175386,30.816618,14.153179,20.189453,3.5303705,11.289402,18.820557,3.7136369,2.6618314,-1.0438701,-4.739285,7.3059363,0.5864922,7.314511,1.6686687,3.6887956,6.6997075,5.7511125,-1.3523492,-2.5218003,1.688524,4.06386,2.5188665,5.0277276,-2.589345,9.964956,4.557784,-1.8492155,-0.14897622,1.807292,-0.11938037,2.620662,-1.823169,1.6261188,-2.8607662,1.3447304,11.141198,5.697897,4.1872497,6.6861944,3.7431808,3.885857,1.0436009,1.9899325
194.jpg,3.282498,-3.4408293,59.399517,-1.6820328,5.149344,30.699793,23.467115,2.624079,5.8965063,4.5265102,7.499973,3.07642,2.047025,3.3864486,-0.10784194,3.7054262,-2.5454183,-0.69535685,4.497344,10.728494,31.33556,2.3244386,2.8336153,-1.3178822,2.4210107,0.5267021,-0.87329316,1.9665073,15.297966,-6.8962755,3.1241293,1.7580993,-1.2801455,2.9335632,13.740614,2.5873847,-0.42142916,4.300149,2.020871,-2.8414152,-1.001254,1.3500022,1.0984404,-1.501021,0.94249684,1.0345632,3.1383467,0.286136,-1.164635
195.jpg,19.762085,2.7320635,13.056501,9.157198,13.619182,9.314389,33.662086,4.3637385,22.466427,23.06063,-0.42280313,19.002268,-1.0464534,-0.9750562,10.896926,0.2488046,4.5824075,0.05631894,4.763652,3.99066,10.076107,18.301985,1.034465,-2.5401142,2.64317,2.5378394,14.091516,0.49676216,7.2647834,0.75740993,6.69185,8.526766,6.8556695,-0.38467482,3.8249002,-5.229396,6.2947035,4.5154395,7.6512933,6.341971,2.3059568,12.864314,2.997225,5.126461,0.28695092,-0.69147515,2.1099467,-0.9923404,0.76760316
196.jpg,21.231348,5.407433,-1.1197637,2.479912,17.927858,-4.008528,20.383305,25.572714,8.674879,4.2960496,10.3331585,22.052061,14.254241,5.2362003,-4.0018215,-0.049387198,10.838701,11.571257,0.6018082,0.7012386,4.8605123,1.9021137,1.5636152,-0.9991283,2.8215926,6.9759398,11.818145,3.8502772,9.818808,-2.4945621,2.4262552,7.5197353,-1.7216008,-0.23828056,0.85963976,4.541794,7.2310643,4.8020616,2.477491,2.9950407,-0.49056226,10.999601,3.973798,3.1103692,-1.653362,0.8611156,4.139393,-1.8790498,1.1206869
197.jpg,21.771332,-1.9886844,17.73487,7.4837527,24.242002,0.4645205,16.999514,20.796148,15.7537565,19.676302,9.02669,18.729944,5.6112485,4.4090357,1.4763033,1.8740525,3.0795462,8.646475,0.032720342,1.0726395,20.744686,-3.6758318,4.379473,3.6741033,7.558399,2.3827665,2.929482,4.1988573,5.385537,4.006422,10.404451,5.570468,5.0014863,1.382384,-0.16750255,0.5934737,2.4920642,3.1575158,8.826158,-1.8987126,5.80198,12.530894,4.2120037,1.6235763,9.333177,0.5177799,-0.017346907,5.957724,7.3707128
198.jpg,-2.037299,4.186339,30.221302,17.968756,9.122697,10.777368,25.620409,6.688379,5.6926117,42.301716,14.706371,8.589791,-0.7571085,19.12829,13.715005,6.2402773,3.249586,5.111697,9.361715,-4.134767,9.659026,12.028215,2.8899956,-2.1620467,8.082968,-1.6940147,-0.30793622,9.013862,3.3220065,4.0686893,2.1971688,4.8942895,5.969907,1.5187865,-1.6833149,1.2401724,15.957143,3.4432054,6.36732,2.8468504,4.348344,-1.1411989,10.222839,4.4909163,31.454018,0.7185987,3.7368674,4.888564,3.8745756
199.jpg,13.638777,0.19096644,10.382316,-0.3949999,27.29581,29.944729,33.281597,20.711288,3.0396402,3.4193032,11.657698,11.664537,1.8761117,5.8952284,6.2915573,6.950316,3.2301314,3.3911388,-1.60213,4.3796353,2.3748162,-4.590853,3.5661736,12.741884,1.9122038,0.25625807,-6.1052427,-1.2248911,6.341979,4.387173,7.265149,4.694074,1.0785254,-0.3978936,4.613257,-3.1834497,-8.4489155,5.3905005,8.410056,0.118974224,0.7490619,5.7885847,7.6908293,1.9067165,1.1504818,-3.4372659,2.2374856,4.692417,4.2123823
