image,0,1,2,3,4,5,6,7,8,9,10,11,12,13,14,15,16,17,18,19,20,21,22,23,24,25,26,27,28,29,30,31,32,33,34,35,36,37,38,39,40,41,42,43,44,45,46,47,48
0.png,-0.83678436,20.765827,16.488514,-2.0483196,3.983985,9.507311,14.973782,8.065104,6.864639,16.014988,3.7425241,9.572312,6.6341243,3.133918,3.8048935,6.5673084,5.8488955,9.423779,10.822901,-4.0855446,14.056429,7.355991,-0.69149196,-3.0991495,36.546455,-0.25680774,6.340921,5.1993327,-1.4920007,-3.1448164,-0.7799852,-0.5739793,-0.80623806,-3.511443,10.472033,1.8075873,7.0668845,-1.3137387,5.792755,6.5191345,4.0908566,-0.8687557,-1.2752924,0.11261408,13.4818945,7.433217,1.840252,5.5763493,-1.3244035
1.png,16.6957,4.026792,8.396025,7.0405765,0.05408507,-4.166566,-5.616332,2.4034185,-0.25601202,11.230896,19.633303,11.460957,23.920021,28.361023,4.080252,0.49301627,3.13636,26.04805,2.6792328,2.1640136,-2.5140636,-6.785533,7.1520224,-3.1480155,0.28534484,-0.8314113,-1.5718148,1.0531945,-0.009273784,10.320528,-3.8590941,-3.5332513,-0.39313427,0.44316983,-1.4366593,-4.270368,-5.2806897,2.5045936,-0.5606626,1.8820271,3.536046,-2.018916,0.0010492979,-0.7634163,0.13417415,-3.3308156,-0.035513237,-1.6364117,-1.4921684
2.png,8.614353,1.9717921,-0.64141506,-0.1755884,7.4795513,6.7627287,7.3663244,14.822015,5.16683,10.045449,14.93361,7.967966,6.0377455,13.25594,4.4751687,1.4005105,11.4974785,25.1569,0.1659804,1.0903074,8.720578,2.1333885,2.6778054,2.5626767,3.3183832,5.6133714,6.773406,6.9409804,8.32757,4.884822,-0.69937724,-0.7797824,0.65891176,-3.609474,-1.6568415,13.428155,3.0433395,-7.1940875,-0.46553585,-1.1842922,-1.706011,7.110153,2.115176,-2.31153,2.6423516,1.7998306,5.3838124,-1.0425357,2.4959722
3.png,13.648075,9.427463,5.51351,3.1184363,8.297637,0.42314744,-1.2756183,9.052473,-5.5417275,1.0267562,19.041506,-2.0347934,19.23603,15.856012,22.544107,6.15044,8.83913,22.469069,-0.4616885,1.60619,6.983715,5.697504,11.836219,-1.8850154,5.7113566,-1.3103759,14.639271,11.1895485,6.5520105,6.5501056,-0.35077393,2.3472643,-2.793719,3.7683249,3.7880864,6.2969313,0.4233453,0.7245458,3.4111433,3.5951946,-3.441484,2.4927804,-0.6737931,3.441216,-0.104440466,4.0721254,2.7414517,1.910701,8.253504
4.png,10.6593685,10.200238,0.6349068,4.7140927,10.460901,3.4562595,4.8803678,6.69162,5.189296,1.5620403,7.7108793,17.727463,27.529537,-0.73183644,-1.4044683,-1.4283085,9.391067,22.295547,3.1890202,2.6043425,4.5962534,4.4957733,5.7995687,1.1590228,2.401676,8.510738,2.799427,5.9881687,7.3555574,2.6237607,0.89178383,2.747083,2.5000865,1.6854727,-0.10794836,3.9789903,0.29648226,1.5453007,-0.096696615,5.253095,-3.8253922,4.237538,2.3483877,-3.7476058,-0.6325988,-0.3264701,-0.38879988,-0.27302644,1.8033319
5.png,6.970668,9.897564,3.4946096,9.5359955,3.3744943,10.15352,6.151305,2.7268653,-3.082775,12.129177,12.919622,16.07502,11.790148,8.736561,3.9833486,2.2928295,4.4541554,23.702232,7.401253,-1.3974094,3.8343806,1.447582,5.507098,5.4030623,6.85975,1.5778117,3.310657,1.4838332,4.21457,5.200262,-1.3048519,-6.750888,0.17542355,-3.5973303,-0.31183568,1.0938953,-1.1024996,-4.7670007,7.193417,2.1166556,-2.73327,0.91657835,6.4601274,-3.6594684,10.217577,-5.4951777,1.6509585,4.2018304,2.2447999
6.png,7.815385,6.773162,2.340196,4.567019,12.751472,-4.9998746,6.431148,7.1559668,2.0853353,0.8448849,14.049296,1.3440444,22.556868,5.9541125,8.089388,4.3988433,4.660206,26.685534,-0.63410795,9.592299,10.883398,3.7108593,5.5808043,-7.1783743,1.2786506,4.767015,0.08448232,0.073045954,9.503806,0.80271363,6.228052,11.100313,4.4451127,11.705206,-5.2847733,7.9008794,-0.033628896,2.812477,0.713734,6.3191876,1.8774835,6.219517,-0.7444704,-2.2073216,0.6998695,2.112417,5.7626677,-0.87386084,1.2084483
7.png,2.9165463,3.9445565,13.076804,3.2187576,-2.778573,4.8795757,8.358615,1.0241961,4.332332,10.535317,9.862404,15.121005,7.0410967,7.125408,-2.4198165,2.7996306,6.7045302,17.27424,4.3341064,3.6105678,5.9395237,6.722752,6.0522738,-0.0036707148,13.19441,0.47591662,12.637088,2.4831202,1.1853906,-0.30517614,11.684201,3.9785407,4.421287,0.66763145,14.35577,1.4333024,4.584437,-1.5940256,-0.8533322,10.124715,10.782921,4.1988926,1.4644197,3.7069387,13.775804,23.873411,2.156619,-0.46151456,1.1995159
8.png,0.15186518,3.574672,17.500416,10.325907,2.9616036,14.744994,4.3007903,5.82566,3.833751,17.596966,0.29777253,10.445131,2.2485607,7.0983114,-1.3260272,-3.741036,5.07746,18.712776,-0.2679551,1.9343216,10.245836,3.8520553,3.0237236,-0.73024046,6.6809974,3.1126904,14.269231,2.9689848,0.34486538,0.98490995,6.087091,1.1394581,-2.3975317,-2.2478204,22.751167,3.6949,6.309682,-3.5572336,-1.1528322,8.513546,4.1080346,3.0521235,4.098248,4.72935,2.5742345,14.798902,7.005983,1.6381357,2.6267781
9.png,9.749473,1.3292894,36.373863,3.1816273,3.938853,0.25742397,0.07424427,7.024156,-7.5517597,6.7972302,10.07379,4.897466,11.998902,7.4492874,-4.0015807,0.006656535,7.03559,22.768158,0.65692526,-2.5509138,42.580517,1.8473886,-0.7491362,1.178032,4.3394513,-4.7224965,8.712703,2.3056831,12.659685,-0.7621419,0.33555236,3.1224654,0.9931861,0.577233,8.697542,1.9846394,-0.81248826,-0.2408173,4.1147265,1.0962242,-1.5844603,6.9208846,-2.8586428,1.1556832,1.4678733,1.8610258,2.580372,3.0877912,2.2844546
10.png,16.660503,2.531435,43.870403,6.3874426,3.068437,9.6168375,0.28089118,2.9307578,1.5272837,3.352248,13.412216,11.725188,9.060034,0.9280163,0.36249226,4.0462456,10.131984,23.56067,-0.25877604,3.9719865,7.984242,8.365957,4.967488,1.6363329,6.5439043,1.6566657,13.872343,3.4908042,4.044146,-0.57720447,6.501461,2.9321795,-4.668679,3.5041122,28.149323,10.097613,8.483039,4.946947,1.9892957,4.8528323,6.082689,-1.129,2.394325,4.665006,0.3995262,8.1325245,0.42158133,1.5722122,0.53075945
11.png,17.74154,2.245947,13.89878,4.5103416,2.8216295,-0.5947457,11.911008,6.7467203,3.68004,1.8636938,5.3119555,7.8123093,23.442965,7.794266,7.914354,2.4086163,2.5668318,20.306936,-1.4387634,2.4520059,9.247393,9.501837,4.3360434,1.9913297,4.13325,1.5072573,8.557649,11.2062845,10.565146,4.5268855,2.4508343,4.398151,0.5668951,4.2959614,9.669097,6.481796,6.1365204,-3.809999,1.1549224,20.435104,5.6475344,8.855148,-2.2683182,6.328434,-0.77908754,-0.83395296,5.495263,3.235156,0.28749156
12.png,18.249535,8.9302635,3.2887266,-3.7300055,0.3813466,-0.24361816,10.532151,4.1431723,1.3409555,8.330885,7.71043,4.614511,31.346184,7.954239,5.953569,2.0074754,1.4837728,23.280552,0.073223,0.6395502,6.416403,3.1015902,7.5419297,-5.418717,3.1967833,-3.8274057,1.6104238,4.6763816,1.5147315,0.7639177,3.4361262,-0.79786277,-0.46459362,0.8751942,-1.456954,7.680869,1.3617601,-5.8868537,8.504821,4.6422224,0.92428696,2.3277557,-0.48859027,1.0838002,1.9773014,1.5185869,1.2810366,3.4265034,1.123661
13.png,17.28602,17.281843,5.400713,7.2692723,9.682756,-1.1671176,5.492895,4.8464484,4.3153095,7.5989985,15.852809,0.36035478,22.58172,9.395368,2.9305775,0.45107237,11.497656,39.026367,1.2646619,-0.34603512,2.485497,0.99891794,2.4381776,0.833386,7.7675037,5.601869,-0.6613966,-0.0805106,0.048623607,2.94568,0.033128913,1.3114233,0.4120253,-0.34324285,-0.61646,6.3922634,2.2391903,-3.714415,-1.2323394,6.1763797,1.3938913,-1.617391,-0.93228555,2.0349913,4.204723,0.5515521,1.7085459,4.0729027,0.5352066
14.png,19.681078,12.581306,2.738542,10.303928,9.100571,2.826326,12.945197,6.4151673,4.392979,16.552464,5.0987964,13.3911085,7.6397953,2.0331004,-3.6738164,1.6153077,8.075903,20.254744,13.913242,2.0660372,0.9371352,3.1132932,1.2923152,-5.0822444,11.41969,-4.0103087,12.500323,0.5049577,-1.8019729,-4.598816,-1.1665577,2.3239038,-0.3551783,1.6103401,7.187973,3.0592105,4.2579985,-7.9075785,6.2202563,3.1042747,3.3868551,4.3324533,7.079856,2.2626002,3.7009683,7.0733576,1.9433757,1.5908312,-6.3786983
15.png,-2.69391,17.875656,24.413177,12.278259,5.924705,8.4867325,2.812137,6.2445574,4.0398283,28.588598,2.6101415,7.427121,10.839254,4.3814316,6.6298065,-5.1861854,4.9356823,10.768789,3.9321766,-3.0111797,9.367757,0.2450414,0.8917577,6.4781575,13.955066,2.0743804,9.769191,2.9547184,3.0630686,0.7140502,7.0706053,-0.29477906,-1.1980273,-2.4687488,8.088909,5.732662,3.0054278,-1.9829724,3.3442059,4.306441,4.443326,3.413077,6.155581,0.79486567,16.231092,11.556513,4.1569076,3.5127804,2.467723
16.png,10.195541,15.348916,1.8578651,5.7636685,0.59187293,9.011114,9.186251,9.308215,4.504365,14.263403,12.163194,0.2163522,19.20898,9.298584,3.6219385,6.2413716,10.853383,19.905912,-1.6600702,-3.0871582,5.943386,1.359169,1.1459515,5.9910927,7.339235,1.1805204,1.7832776,2.1321728,6.2963114,2.1863062,-2.4586563,0.19753882,-3.060099,-4.731748,-0.8659558,2.7382817,-2.1958728,-0.82570434,16.373455,3.8207192,1.4727215,0.53010017,4.419003,-2.5168006,2.9386387,-2.139625,-4.318907,1.7160499,-0.21011168
17.png,15.592076,1.2133516,-0.15658802,13.614969,6.3897877,-2.571492,5.716224,12.484961,8.253514,16.327398,6.942798,10.596444,19.055492,3.6173668,-2.6597981,-1.1593252,13.542736,20.845583,2.059945,4.058832,3.7822208,1.0619621,2.9737346,4.782502,3.568295,1.9196451,1.011521,-1.0382628,5.922168,4.491745,1.2780275,0.25707558,-1.545158,-2.8601243,-5.1253724,6.5406857,-0.5006009,-2.9224992,7.238234,3.325031,6.895677,8.111046,1.5550518,2.7328577,1.0546943,1.7011795,-0.82609665,3.1113162,5.054151
18.png,22.014631,13.06883,7.5758824,7.0929823,4.124755,7.5556264,5.8243937,9.401343,3.5216815,6.0613675,6.29109,-0.8477872,28.8773,6.975399,4.6149387,7.2410755,7.3586645,19.676752,-3.096297,-0.9714458,10.169088,2.4852166,5.045774,0.56970334,4.1288395,3.035902,0.10924716,-1.283693,3.3067794,7.638094,-0.68954957,2.3442097,3.2024555,-1.5161828,-0.9023088,5.9639893,-3.7441094,-2.6209307,14.152439,5.7227893,-0.2912397,0.92133015,-1.8568324,-1.0574775,-0.4878539,4.775871,0.23913616,5.5069675,-0.06587412
19.png,30.80206,5.311164,1.0419434,3.6733718,9.151551,-1.1484883,3.6381998,11.06121,2.9407232,2.624157,12.174227,5.9493227,27.224653,-1.3019258,12.19523,5.2068653,10.944131,17.069153,3.526438,3.0282035,8.039709,2.9028277,3.120982,1.8868275,7.55286,0.9731144,12.389118,8.0435095,13.370222,5.3804326,0.43666196,2.1228428,-1.9650962,1.6092235,2.4331887,6.7417583,2.1632063,11.860048,12.187227,4.4401383,1.0127048,13.7579975,-4.9046645,7.2347016,-3.9987416,-0.10133402,6.637639,0.7452013,8.226652
20.png,23.298798,5.123867,-3.1104367,2.745565,10.047548,-2.0672095,15.18704,14.582803,13.103014,10.782533,6.249167,14.6117525,6.1774755,2.7619069,-1.4035237,6.5645657,11.98733,23.249405,0.008911546,2.2174294,3.7116673,4.2053657,0.4486329,-1.5138266,5.2350903,3.069977,1.9304839,0.7685946,7.650623,0.14966038,1.892723,3.4410377,-3.0007026,-0.4682944,3.8298473,2.3690028,-0.90552753,8.509032,11.671821,4.5589767,-1.4127171,7.383497,0.85985845,2.035174,1.8536382,-3.9273992,0.8645486,0.3730187,8.060549
21.png,15.450173,4.1248074,-9.7159395,-1.9713234,14.432825,-2.5606356,-1.6620638,9.482364,-2.9164462,2.9289908,21.728497,4.9738927,23.178349,12.416964,19.12745,3.3835015,7.460708,30.966482,-1.9313653,2.0087416,0.5300099,-3.712457,1.5941904,4.2570667,7.7397456,-0.43451822,6.48798,11.064518,8.96401,5.63943,-3.0619814,-3.3266811,-2.344342,-0.90821034,-0.6205484,0.77984905,-0.34805956,0.6934354,5.4054394,6.4893284,-2.367679,7.6991386,-2.2547762,0.80349797,4.5090623,-0.59879756,2.349792,2.9008262,8.308443
22.png,15.346024,9.775307,8.298604,14.8682,-4.505562,4.403193,4.43452,13.117062,5.693697,19.678276,1.7883695,-1.5510037,9.043274,3.4844701,-5.4278636,5.632813,6.915037,17.241634,0.76802737,5.9904723,8.757946,1.2279009,4.7404757,5.7324095,3.000378,4.7033253,7.244521,1.6581371,2.5898213,-2.3318312,0.74643064,2.2620094,0.7287279,0.55758023,6.0350037,1.8019257,4.4111314,1.0267946,15.299788,3.3017461,4.842301,10.1424885,6.8520694,6.4178586,2.1688607,3.017211,-0.18495703,-1.5984882,2.9188578
23.png,9.889035,46.1687,-1.099873,10.134348,6.447025,13.101307,8.1593075,5.861602,-4.25743,7.387315,12.732697,4.4499965,5.665417,5.739649,3.0120914,4.271324,11.028381,9.261931,40.451138,2.3044312,6.9980845,7.078644,14.443021,3.618651,9.1506,4.047111,-0.8564787,2.125016,6.515474,1.4058802,2.353499,4.893699,8.601187,5.274986,-1.973119,4.7155595,-0.58433056,1.755328,5.6220474,5.6627555,-0.5736864,7.825604,-4.434167,0.0642864,-0.9037896,11.111609,3.9918249,2.02963,1.5006523
24.png,13.068891,4.253793,2.8681898,1.2740022,-2.6467369,2.2723114,13.29533,3.2649558,6.4859586,5.4436517,5.0841494,13.107775,6.839281,1.6640971,0.109608844,-2.9679968,12.678825,13.032111,7.5626316,3.5628603,5.4831047,8.247292,8.517934,-4.475213,7.480179,-2.3577187,5.854641,-4.0783353,-1.7399646,-1.2642075,2.7099688,-2.1834054,1.1874359,-3.2307637,9.787735,2.7356315,-1.3917989,1.7135713,4.372342,5.909327,4.8404737,6.5531383,3.2060702,0.26763588,-2.376079,31.387657,2.0734422,6.240181,1.2387955
25.png,5.182324,19.820913,3.335156,9.009207,13.528451,6.6306734,7.2564645,5.572644,7.4727325,20.037804,2.083788,10.700081,11.36571,8.769779,2.4384642,-2.7440202,3.2432277,12.741325,2.3944907,0.119311176,-0.29508618,1.8753061,5.5401435,-6.990704,6.803572,-1.8810891,-0.5939558,-0.49597424,8.945964,-4.0854325,8.299622,0.22818512,-0.63939095,1.2267182,-0.61399114,-4.6153436,4.7886996,1.6397018,0.12522303,1.3804928,5.8789306,6.55567,6.9530554,-0.14671175,22.178545,6.879516,8.1971245,-1.3040683,-3.6759064
26.png,16.084463,4.5595446,0.49052992,3.7240705,5.703793,1.9608415,9.904204,8.162718,-2.4917352,7.2010493,15.542056,0.39540184,20.065876,10.609268,4.4975157,2.0011735,8.64857,32.776825,-1.1777865,0.42173946,4.750001,7.7043867,2.9381304,2.0706396,7.892174,4.553387,4.9954753,4.5575933,8.663784,2.3664188,-3.1219444,5.6819735,0.8773295,0.9672994,-4.5918717,2.9685469,0.03548162,-4.9562974,4.8529496,15.532083,-1.4165359,3.1091125,-2.5390286,0.32128432,0.2879234,2.3307838,-2.108395,1.0464668,5.023035
27.png,13.215777,5.4752192,10.132221,9.782662,14.726494,1.3320259,6.219768,14.870699,3.867669,10.862758,7.308765,7.5401583,13.667841,18.014444,4.6091785,2.2287261,3.9409122,27.544922,-2.1013386,0.71876234,8.756586,5.023593,3.7276506,-0.80091494,5.632476,0.6076269,6.6973357,8.334338,12.377842,4.6576223,4.681431,8.57471,-0.7081345,2.0549421,9.342845,7.1574397,6.294028,-0.038672797,4.6474123,5.422255,9.412286,0.10585897,9.240308,0.8580245,2.4058378,6.8306117,3.4857635,4.2912374,-0.8501033
28.png,11.55468,0.35784793,13.46862,5.3387737,-1.0763079,-0.3554036,12.626894,20.437824,5.0327883,11.666939,7.3084702,10.3738575,5.8059444,5.7973137,-3.802695,3.502243,2.2292361,20.67299,-5.431709,-1.5233365,3.5021572,4.0212646,3.6715217,-2.8042135,0.798933,2.3024306,21.43486,1.1103243,3.5841856,-0.02944367,1.0358753,4.4690146,-4.3146157,0.08143075,5.868531,-0.59531856,8.109536,-1.7249752,0.15832129,8.361236,5.6777062,-1.1595919,0.8345569,3.4057503,3.0902643,-0.9990053,5.134758,1.9184321,0.28968695
29.png,-1.7993437,9.166315,7.89709,34.097515,7.3913403,4.50482,2.3554895,-2.545498,0.32714447,27.757141,22.416914,13.195835,5.2117643,3.3508956,-3.7917778,2.3215804,15.425253,16.828985,0.89573914,1.1857746,-3.842419,1.0380841,2.4458523,7.326465,2.8914304,0.75325316,6.4197435,0.36815032,7.3370824,3.3305519,3.6588047,1.2488663,-3.0252378,0.43268055,4.797313,-1.6539922,-2.894098,-2.7187102,1.3355691,0.8605307,2.7905288,0.1841824,0.36496493,3.4265232,9.359191,1.424244,-1.6775031,1.2228897,0.36095503
30.png,9.632242,3.7341912,15.536174,9.301289,2.7042887,4.7192974,2.77761,-6.504298,8.50175,19.782995,10.301512,1.6909778,16.945711,1.495282,-0.9156555,6.5833807,15.496273,19.49751,3.889756,8.774311,7.103268,2.134124,2.6015441,2.1119378,-0.9649625,3.0431564,1.639634,0.2473346,-3.0774205,10.127134,2.7056124,0.8020038,3.6884766,-0.99144197,2.8378832,7.783188,3.553491,-3.7204013,6.1697755,3.306008,6.009416,4.4010344,-1.7353282,0.8994423,0.9584526,-1.3442122,4.292387,4.025096,1.9927393
31.png,17.204456,1.8620703,3.9010532,-4.0486784,12.057299,6.0016446,5.7535768,4.368563,3.6451418,1.8527012,27.957859,17.544819,28.183395,6.2641473,14.89377,0.29560137,22.023445,31.127144,0.6765795,-3.2371237,3.9109402,4.3263903,1.0246649,-2.2020965,6.3680463,1.9416939,1.863461,5.150189,0.71811676,3.6586,3.5097487,2.5086432,2.3066113,2.4336803,3.2772746,6.5780864,0.75649637,2.0399582,1.2374365,-2.5286338,-2.1407816,2.5476184,3.824567,1.0356637,3.5544198,-2.8101966,5.913755,2.1023736,0.5755739
32.png,15.711414,9.103261,-2.2275317,-2.6958673,9.679601,8.651092,0.19928908,7.10048,-0.62916946,14.77583,27.104109,10.182582,17.045477,10.185441,17.525852,3.9207172,16.819122,24.157476,2.0064366,-3.7558026,7.1981153,-2.1678805,1.4092389,3.1164608,4.6842656,5.083422,10.222779,11.745943,4.695264,1.9311085,-0.21318924,-2.497362,0.16762224,-4.276024,3.1208992,10.538018,4.9448447,-0.28127766,-2.4915888,2.0872529,1.6738746,3.3054738,3.0520515,-2.222349,9.448329,-0.58556145,1.7948408,2.380882,0.90606344
33.png,-7.1370373,17.765057,17.297825,4.7720876,0.6613339,6.7562566,-2.3243372,1.2827936,5.943054,17.802788,18.217607,-3.0073836,8.846819,5.6331697,-5.8943057,3.071867,17.097542,15.610735,4.845944,1.2867693,4.880249,3.9270191,5.2807884,3.7147782,16.023521,1.5352068,13.462143,1.541022,2.7319353,-5.0285964,2.7793145,2.0880175,-2.107178,3.0194979,3.652166,3.32982,10.031528,-3.8221843,1.4802758,3.7497296,2.837832,3.2892838,2.146847,-1.6159319,13.696131,9.557358,-0.6054,-2.9214659,1.7093701
34.png,10.489483,4.592608,10.43426,6.2922134,5.2729645,7.3932,8.729024,11.737556,2.888645,5.5148168,18.194298,3.1526327,20.87069,11.655029,13.036439,8.878224,4.6413717,16.963419,0.18512471,1.95001,10.9569025,4.901317,5.3644204,-2.6600518,12.129831,-4.064365,2.6189818,4.207811,4.6388006,1.7305679,-1.506792,-0.55076444,2.8394482,2.9482353,4.4411874,1.2287025,-2.0781107,-6.26664,14.696845,11.247528,-4.518175,2.2506063,1.0967847,1.0596097,3.275501,-0.16014473,0.92073923,6.3554616,-1.2231561
35.png,14.860212,5.683576,10.021215,11.694194,4.222141,2.5040746,5.1447425,11.145006,-10.212855,26.744026,9.1421,4.591027,14.320702,15.572992,4.479811,2.5543797,1.8781619,10.572778,2.5884655,0.6569139,8.272573,5.0523477,6.5197444,8.696443,5.5168886,-5.045253,14.885333,4.93567,6.904184,4.708959,-6.2929587,-2.9213595,0.41217217,-4.511615,0.5000209,4.539535,-0.53583294,-5.4056187,0.7748049,6.5075903,5.285876,4.8138456,0.39873403,-6.5073266,9.71615,3.1211483,1.536424,1.9534502,-1.354477
36.png,7.338516,13.640958,27.001572,10.273581,-5.293272,7.2484107,-8.918436,5.62144,-3.1168253,5.724639,20.500242,20.491974,8.930916,3.641369,2.2953677,3.7231162,20.186338,19.778004,2.555833,0.42712706,31.986958,8.074018,3.346861,5.846128,3.0394228,-2.768431,12.427422,6.0288115,9.883417,5.3498096,4.8630214,8.827944,2.3888009,5.595416,19.443476,-0.7436171,4.8028374,3.542565,1.8204794,0.7971058,0.9323459,1.8386166,1.5179685,3.2823153,0.28998163,2.7540321,1.6803156,3.4851663,4.110008
37.png,11.030346,8.7465925,5.5608096,-4.727797,6.1779866,5.5082045,9.814523,9.665613,-3.2286808,6.3330984,15.730238,6.782104,13.4732065,2.0838194,-0.69102573,-3.5158024,15.707083,14.920655,3.638686,6.7247534,10.105342,8.418748,4.4105077,0.33373785,0.35491687,-2.6657624,12.856254,1.6274463,10.065529,-0.5203928,6.0511975,1.1960831,1.8864084,2.8232443,10.738264,5.9432125,4.1747184,0.9105277,4.2568417,2.0105517,1.5594012,7.057602,2.1001503,-2.2931027,1.6582005,3.8152018,-0.27833506,-2.2528982,0.39535713
38.png,10.648124,44.078068,-4.298551,6.815741,7.2347174,9.539041,-0.6427409,7.4343643,1.733052,10.862428,9.704833,13.68938,7.569187,4.133026,-0.78188807,5.855919,11.975457,17.97983,37.7994,6.101563,5.094365,-1.3291565,2.7454786,4.5324235,4.4704943,7.7770495,7.831779,9.232858,5.4019794,0.36488265,1.3304691,2.47058,-1.8810127,4.41161,0.31634042,1.3711466,-0.23401138,-1.7387252,-0.74060035,3.114345,0.67990834,7.080438,2.483481,4.403847,0.9175172,2.9452968,2.3838353,4.8819795,3.013477
39.png,2.2474406,11.958847,3.3766494,10.53729,5.9326844,12.485162,12.969758,13.189276,2.411416,6.887999,28.513443,10.95778,16.187262,27.502485,4.245507,0.08060978,10.97919,22.193274,-3.3709233,-1.7424248,7.1453943,2.2748709,8.603315,5.3863487,7.8458333,-0.62863415,3.3575609,1.3672494,12.716452,4.67894,0.9396339,1.4632287,3.746168,1.0648614,-0.355928,-3.8263552,3.7764285,-2.0231936,4.117934,6.7412443,1.1191627,2.6044405,-2.5179753,-2.8283114,5.7915196,0.26735216,-0.93285394,3.5811994,1.0423182
40.png,-0.5887404,12.097941,13.7207775,3.1427543,8.645628,10.541211,2.3877156,5.478886,2.3545918,2.9181786,23.633743,11.211081,11.694592,10.36451,2.9693198,2.0743473,14.407927,33.76041,-3.860032,-0.77076733,2.860246,-5.9396396,3.3941402,2.420068,3.5384793,-1.0834832,-3.8820333,-1.030676,2.3972173,6.0100574,1.653551,2.2482998,-2.686409,-0.37940416,-4.326851,-2.5158992,-0.3637841,-7.217758,-1.129259,3.3353767,4.1100373,-1.8079188,2.543988,-0.2343634,9.801353,0.8944737,1.5862644,-0.9159977,0.37593728
41.png,16.769491,-2.6388712,6.7767277,6.445606,4.78656,13.013071,7.4948936,7.142009,-1.0109968,-3.1333745,19.469568,8.651819,25.663706,5.090934,11.154406,8.573452,10.641246,27.720839,1.2177612,2.8737946,9.390581,3.7036664,7.1557903,4.2643833,4.1316032,-0.25685346,9.444273,7.75409,9.816311,11.359214,-1.3626052,6.4023404,-1.2857653,5.750292,0.6699657,3.6663353,-1.500337,-1.6643053,6.7484393,7.667344,-0.18396693,5.4453764,2.0988576,-2.0291917,-1.4517951,-0.21200013,-0.49822792,0.98962784,2.9687858
42.png,15.5529175,5.54492,2.1284928,10.465914,6.973779,6.531052,1.562741,15.10258,9.915216,0.99960333,12.502679,11.412521,16.347244,8.155772,7.560392,10.890571,15.519232,32.558,-1.3921934,2.8114164,1.8719475,5.783504,2.7890952,1.2334715,4.6456857,-3.8753498,-0.86404115,-0.07548696,-1.0429327,11.576676,8.648958,8.07894,-3.0219095,7.4450693,5.1432867,12.85495,-4.3552,-2.229008,11.946077,0.72504115,-6.3976264,4.7431154,5.3892317,1.8992554,1.0882121,1.8222177,1.7576442,0.94019586,1.4510738
43.png,15.799623,3.3689818,-1.8526088,5.865396,6.257914,4.3817816,9.012599,4.008413,-0.23353165,3.4778535,8.391216,8.181516,18.583874,7.6029644,11.141778,11.47759,4.362073,29.925505,1.4055488,-3.5614445,8.763054,2.0398655,1.870019,4.767548,2.8898363,-2.7928367,-3.4974217,-0.80057395,8.267033,10.851042,4.9302115,10.0282955,1.3610727,7.6432066,0.17375611,14.38126,-2.3130755,4.9013615,-1.4400061,-0.9661052,3.6399074,0.5061794,4.7619333,-5.6996336,0.28254575,3.9115126,5.2274747,6.118713,1.2908936
44.png,3.088457,56.313538,12.304427,4.177544,0.039169565,12.283086,5.6275477,5.897495,-3.6561756,13.409054,12.218584,6.58819,5.8382525,3.5969033,6.4417415,7.691817,11.249684,14.26749,9.337835,1.3107332,6.3554525,3.9020896,1.9693892,-4.5518227,7.223931,-1.7167121,0.26502493,-0.8292135,0.94073063,7.144212,1.3576832,0.16020173,2.7910225,4.720985,3.7711225,1.012732,0.11307467,-5.1130285,2.7041368,3.9270651,3.2632604,2.6086807,6.8716536,1.9597758,5.146077,1.3246815,1.51254,-0.43471363,0.1556742
45.png,32.930584,2.7563705,-0.14654435,-5.6573586,9.313115,1.2631856,-1.0967757,11.618441,-1.272828,-1.8993702,12.262087,13.162945,30.519772,3.9666085,24.730093,6.616864,9.787993,23.181053,2.3816803,1.0639036,2.161685,5.955243,-3.8803756,3.3049557,3.1624157,3.6159844,9.593697,8.473661,11.3305645,5.14431,4.000326,1.2467966,3.8760862,-0.5119429,0.085129775,5.3658204,-1.9056404,6.061455,2.2038958,1.9599835,-3.3541138,7.049734,-0.5852366,3.1683795,-1.2000481,0.017562602,2.9121664,3.2697155,6.673879
46.png,20.042717,7.3827043,2.6820192,-1.3016808,4.929597,-3.404326,14.473814,8.93124,-1.6455548,0.4399596,8.12987,8.158724,16.564114,4.6947756,9.707531,3.6871922,4.9774203,24.358875,-0.8678006,-3.3543751,8.244246,4.653871,10.345624,-0.5900446,5.1866336,2.399519,11.255706,8.613725,10.160332,5.685303,-5.46826,-0.103034474,-0.47027653,-2.3500583,-1.1276963,10.018083,-6.7446275,-5.2529225,2.2658634,12.387,-0.86416376,5.8639503,-3.0235057,1.5739895,4.747813,-0.055356883,-1.2470784,5.525549,2.6309469
47.png,-1.8493655,59.580917,1.6900638,0.20029436,2.0462112,9.879977,-1.2508496,4.4210067,-3.2019973,12.562736,19.304016,-1.7535918,7.0831566,8.531327,7.4692235,2.6937857,9.061969,22.374334,2.7052197,-1.7188907,5.2101707,0.90294087,-0.5409238,3.98105,9.416197,-6.448573,1.1967372,4.6300745,1.24718,3.010225,-2.2220623,-0.750148,-4.3319044,0.78645825,5.5979557,-0.12549236,2.618181,-4.5013824,6.2088633,2.393987,-2.0561843,3.31688,4.7595887,-0.68213964,6.5388746,2.7541783,-0.99833405,2.4868894,1.9770194
48.png,22.999279,4.590084,0.08241437,4.1465745,5.506402,-2.9915566,0.5321653,11.083795,-3.4198136,8.43292,21.958447,5.3308825,17.84934,2.7941682,11.35713,5.324756,13.152597,28.61563,5.9158325,4.5951977,5.568954,3.93808,4.0808783,-0.264183,1.5927994,2.290905,9.062108,3.4096293,5.996278,6.902345,-7.238411,-0.92904085,-0.5732501,0.17766747,0.48635936,9.706489,-0.9498088,-2.050429,1.8160417,2.8324473,-1.2724695,3.9195645,-2.460429,4.7288857,1.6812016,-2.3083766,0.2723374,2.3369622,1.7907623
49.png,12.727718,7.2458377,5.0365686,4.694427,8.837681,8.891499,5.3966775,6.793733,-4.7962484,15.221598,26.590406,17.637516,14.368781,13.240388,21.784847,5.467083,16.019205,18.652048,0.1544917,-3.7497714,3.3549747,1.6138557,5.00869,1.138212,4.1921377,3.3071592,9.65792,7.0870624,8.755281,7.0883512,4.5558147,0.1695429,0.77174026,0.3077045,4.221772,-1.0922208,3.1267192,7.035824,4.975294,1.5100461,0.16355887,5.0300674,2.7959888,-0.80522585,6.252056,0.41129804,7.5764246,2.0776403,4.2966375
50.png,26.708868,-3.0806444,-1.0913483,4.2766504,9.976555,0.53885114,10.165875,12.961671,3.3032813,3.5541368,10.151224,17.029705,16.183868,-3.9197094,12.801218,2.5978851,8.266304,25.476149,5.706831,-4.8044667,4.0917683,3.4290497,2.93356,-1.5886621,9.048463,-3.3444817,5.8849173,-0.4161789,4.8498087,6.468001,-0.2766698,0.5041985,-2.810419,2.2184105,6.198873,0.2997201,-3.2189422,5.2188077,7.577193,2.069203,0.86617863,2.3604124,0.09130724,9.110257,1.5799307,1.6754687,1.214162,2.644942,4.6118655
51.png,6.0815754,4.025564,12.515855,0.35465056,-0.14029332,8.261918,10.055102,6.5331244,-4.1593003,11.7685375,17.092628,5.476573,11.143615,8.203845,15.404029,6.197283,7.3193803,14.444181,4.7836423,2.4765477,1.1101351,9.427314,1.3115177,0.49900365,9.086798,-1.4308152,25.573656,0.34313983,2.9245224,7.7611866,1.2390003,7.6755495,0.8508705,2.280046,8.056798,5.6960964,-0.52899104,-1.1454234,-0.0685513,5.5426717,10.496929,9.425927,2.4346397,-0.8316217,1.2536886,7.759343,3.1435027,-3.8810923,-1.0652936
52.png,12.283519,3.9965243,13.415297,1.3885056,2.2007282,-0.19603358,11.895972,4.1805377,-1.6599424,11.67474,8.078182,0.56723326,7.980977,5.8803167,6.6672077,3.2283854,16.392685,26.639158,4.8800154,1.9865284,4.6287117,5.712907,-2.5003743,-3.9001133,5.54207,1.6997603,11.926148,4.5929112,11.308529,4.960396,-0.16353577,0.14589144,-1.8079821,0.7063355,12.184442,5.673118,9.474017,-1.4954258,3.813605,5.1305027,-1.540987,3.133466,0.30443826,4.1013284,-0.98701864,-3.447297,1.0269411,4.488565,4.03075
53.png,29.092125,-3.671943,15.692106,3.0780447,-3.1158104,23.615158,19.098818,32.992508,9.288687,7.7317977,2.8861492,3.962516,15.891941,0.22997396,-7.667372,5.6613603,15.180357,7.1874843,-1.8049664,-3.8603182,9.131297,7.820423,-1.0603461,4.051176,-1.2664173,-4.774943,4.38922,-1.2112402,4.28422,2.3450727,-0.0375472,-0.5043092,-1.9076362,-7.362049,-3.7344959,-1.5066782,-2.6692142,-0.5850982,15.4341755,0.48249713,-3.040405,2.436091,2.2665937,-3.1731076,-2.808469,-2.4173238,-0.5533683,1.9363645,-0.5330436
54.png,22.209078,4.6738634,-3.3447452,3.3074486,11.573993,3.3341348,11.77678,4.882956,-0.9740873,2.411347,17.574036,3.378633,18.076553,10.406857,16.04306,0.83089024,5.710415,21.923342,2.0949032,0.58845586,3.617082,-2.0703516,7.1753597,-2.644363,7.988064,1.8006533,0.2632345,6.254289,8.830287,5.681385,-0.86980295,-0.5653917,0.5137743,4.1851735,-5.004546,10.4527855,2.1798499,1.6553149,-2.3223853,6.9360576,0.9037107,6.9910517,2.584383,0.07228206,4.86672,-0.35807973,3.6640384,3.4409442,1.1141589
55.png,9.010659,11.532604,-2.0767732,-3.169063,-2.5565014,0.50249887,9.116143,13.685618,6.67769,-4.494813,30.227983,7.6946273,16.312328,10.342499,-9.466867,5.1351457,26.760033,19.585323,2.0053127,3.7091658,1.2280036,3.3771627,6.84949,1.1929932,4.0495386,-0.68377656,2.5745237,6.499595,5.1988254,-1.4614928,1.5713695,1.267363,-3.144136,-2.274448,-1.5816755,2.323433,2.4950278,-6.868799,5.04018,1.9538969,-3.808586,5.76939,-3.1789124,-3.9223168,14.990358,-2.2792833,-0.015041325,8.500488,-1.9304338
56.png,19.57239,-0.6782328,0.116195716,3.6142344,10.353139,1.2417736,8.425917,10.543389,0.04161289,5.713877,0.3722679,-4.041592,22.7603,15.057156,1.1154819,7.29346,0.77121466,33.885254,-3.6670744,3.605607,38.00463,0.7062208,-2.8408322,0.29553267,12.853686,-5.8676133,5.697472,6.471246,11.490588,4.2747126,3.33807,5.171352,-1.9633191,4.315305,-1.5352831,9.795869,-0.93180376,0.18409589,7.0259376,6.0240345,0.97583616,4.936238,1.3363513,5.482614,-0.4044925,3.922315,6.6927567,4.4533563,6.5202146
57.png,21.388514,1.6763773,0.90122986,-5.4803643,10.390025,0.26255092,0.11133663,8.812411,-4.5570283,11.190824,16.091806,11.139001,17.092876,1.0963091,2.7539914,5.009315,9.95236,31.978535,3.7079399,4.671119,11.81317,-2.7317126,-0.8920841,6.783198,10.833548,3.0046992,5.9718637,3.9311607,9.729513,-0.55487555,1.3484378,0.45151207,-2.631507,1.0836432,-0.52905136,6.837719,1.3108758,-3.4618921,3.6528661,2.417885,3.8235855,6.1948686,4.429498,-2.083519,3.5608485,3.8178287,0.22318968,1.8332409,-0.46989733
58.png,13.985269,42.00133,2.7088246,5.806922,15.356234,-1.4045908,0.565727,2.3529134,3.8989618,4.340023,9.712139,2.409101,15.588238,0.5287883,3.459635,1.1707217,18.957039,24.84171,26.859432,1.9267561,4.0864058,2.3760293,-3.9634964,2.5792725,8.179307,6.109453,-0.8764119,3.9008975,6.6415815,5.6616364,2.7135715,4.4820323,-1.1678978,4.2092123,-6.85914,8.795469,-1.1271119,-4.1292963,4.130251,4.3708887,4.236047,2.9037225,-1.6366019,5.062373,-2.27165,0.74386036,-0.8612121,5.4234686,2.9816563
59.png,8.956539,-4.9951086,13.146104,7.6659822,-2.6669436,-0.38377318,-0.56552684,17.677143,-2.5956516,36.515785,18.491653,5.8833895,16.402689,10.329355,-3.634787,6.132807,15.927771,13.592848,0.70591027,10.791438,1.9307083,2.223681,7.415107,-1.809905,9.330369,-1.4888418,6.8121376,-1.8126004,11.425076,0.48100114,9.385927,3.0751345,1.7377101,4.421769,4.946521,5.5153036,19.829054,-2.0494635,4.21408,4.4177866,5.764384,6.2803903,1.4863653,-0.084145926,1.6808497,16.694763,3.2257886,-4.040705,1.1278169
60.png,25.378603,-2.282517,23.309423,6.7855716,11.742489,-1.683192,-0.17166445,19.736898,-2.8513894,16.836906,3.8493543,2.8254857,18.602573,8.402185,3.523245,1.590041,2.2072618,19.984352,0.7940728,4.828723,8.63509,1.7347853,-1.7768023,-5.256062,0.6205515,0.5367427,13.508858,0.055446777,16.843122,13.41735,0.29405728,2.0190191,-4.423888,3.9354045,2.2623014,9.667117,-2.8586843,-3.1727762,6.81075,3.4518461,2.5998414,19.679352,9.763893,1.3652699,2.2804894,4.6545997,2.9033327,-4.8587604,6.7797513
61.png,17.13861,5.4413314,-3.1829655,2.3318446,-0.5619999,-3.3038285,4.647094,9.007784,1.3175297,7.544817,33.751125,3.5008624,17.453032,7.6861634,1.1957732,2.9219735,24.479258,28.429022,1.1111524,-0.4599046,-1.1054254,9.624543,8.3124,6.363602,7.8093567,0.92604345,2.682396,-2.940839,1.5911967,1.4890578,4.369548,7.6420293,0.72868615,3.242459,-2.151901,9.270777,3.6218553,1.093162,12.403515,9.631604,-2.5840473,4.0776525,-2.2905805,2.2575538,10.124336,-0.32142028,8.406407,7.2529793,0.83913875
62.png,7.1302176,12.239676,8.307694,1.2833565,14.184364,-0.9314295,-1.0723362,5.7683067,2.576508,12.3720455,17.728537,10.011764,18.295635,5.3495493,3.32985,0.6764182,13.947272,39.693745,-5.0352554,0.6410449,0.9608365,3.8024433,0.9068342,2.9433846,-3.5420187,3.1423872,2.9587495,7.8440995,-1.1391484,7.7618794,-0.21201167,6.257073,-0.6374296,0.62785095,-0.51212066,9.241896,-2.1121383,-4.9216175,3.9354966,-1.6962066,-2.399544,1.0225842,-0.77512336,-4.4473042,7.0037394,-1.2745131,7.7922134,7.3188,5.149813
63.png,-1.5092971,3.952776,13.393879,-0.94627905,2.5912437,8.745742,4.2315407,6.779667,-0.86919415,9.139553,14.608449,1.4097303,5.706502,0.94340444,9.171492,5.3573294,10.475214,17.648909,9.903763,0.6116178,6.103783,9.144767,4.8654003,-2.3512673,15.401686,1.7407603,20.750917,-4.292018,3.2864466,2.8148153,3.8709567,2.7784727,-1.576755,1.9969517,11.977303,5.8880424,-2.8039348,-3.8492947,1.6220257,10.805656,3.1573904,5.923772,3.2544267,-0.5136834,3.9087672,22.335428,2.53444,1.6687115,-0.3468793
64.png,25.652546,6.7889123,-1.308829,13.506882,7.424748,6.3451686,2.3293927,7.6109776,3.6891215,4.684597,20.20571,4.2368293,23.63127,3.6558166,2.3960423,-5.790503,23.175972,27.625122,-1.8472396,4.1344395,-3.1214397,8.618318,1.9604143,7.8801327,-0.12796131,4.87297,1.3171916,8.404975,6.360894,-0.23645009,6.5707884,11.688511,-1.9640197,8.608809,2.8413715,11.865311,8.9321165,3.854753,0.56526756,0.44159982,5.780064,10.074151,4.35904,-0.8388597,0.6826248,1.2701789,6.833197,4.4013734,1.2553418
65.png,10.626221,5.9814878,9.714589,6.016451,3.0598004,-0.90731215,-0.133073,10.604966,3.194175,14.697869,10.711522,9.525309,15.489944,31.460323,-7.863538,-1.8159347,7.5341883,17.104002,3.4454465,4.404578,8.100128,-2.281344,1.2679312,-2.868098,4.0594606,-1.102233,2.354659,0.46186844,6.51318,3.3644624,-0.22435412,-3.7891824,-2.362278,-3.376764,1.1561313,2.8017814,3.963787,-6.1584244,2.6479492,7.4452972,-1.8792437,2.2883532,4.846157,-1.3274953,3.7800174,-3.2281988,3.2397444,0.49517033,1.1230584
66.png,26.067108,53.14594,-2.3801453,6.835361,15.521664,5.7983203,-1.6540583,10.298331,-0.42290464,8.414282,-3.2197514,19.996101,7.1392717,1.9675331,3.924071,14.530296,7.617262,16.277668,15.852594,3.2398496,5.852993,-2.509389,-3.1262372,7.753293,7.7557845,3.4324918,5.4212594,3.1925275,2.1892312,-0.4847385,-1.3566389,1.1819711,0.42985338,6.0929008,2.4793434,-2.08752,7.4871645,1.8992494,-0.9196455,3.9716396,-0.64957005,3.112044,9.342797,1.6573746,-0.040382378,-2.5640852,4.837723,4.5895853,0.307416
67.png,11.678037,9.558426,-1.9177221,5.5437045,5.165316,-2.7832282,3.2479744,6.216229,3.7077181,5.9333377,9.570833,-1.4484804,31.75585,19.635157,4.345793,-4.7050877,9.614458,24.295858,-1.1611614,0.03354661,1.6196432,2.1105702,0.0021094456,0.18149526,6.89442,-0.2622212,4.900461,11.012591,-0.62513226,9.861437,-2.2699995,-3.7939143,-1.9179834,-2.1714897,-3.0079384,2.5884953,6.179852,-0.9635957,6.661903,4.6034822,-0.71906334,2.1527925,3.3327162,1.7197278,5.2765517,-0.88343817,0.80318934,4.157413,1.1933908
68.png,24.287281,7.0117006,10.48528,0.434809,4.4169383,-0.392548,1.9713136,21.104319,0.018167961,3.613288,9.811113,0.5607121,13.5384245,5.814045,2.1949525,7.099808,4.3182464,16.108343,7.0240364,3.665875,16.222403,-3.7527964,0.8812528,-0.86297,7.0474653,-1.8364568,5.732768,5.8692956,29.10173,-5.3526444,-1.4984776,-1.6698655,-8.837994,-2.246324,6.4372907,3.350503,5.2829247,-2.3151329,7.598837,10.616326,-1.5277457,5.906635,1.5987594,0.0023102388,2.6121151,2.0377107,3.66491,3.5790715,0.76462644
69.png,10.479664,8.054141,4.576965,-1.4099346,-0.35099053,10.587311,8.005863,6.8558125,6.3285937,9.84131,11.067478,6.576195,19.238373,5.7368937,-2.6047244,7.111841,4.1928105,30.215681,-1.6887076,1.6145252,5.8382115,-1.1400459,4.4001417,-1.6266435,4.064581,-2.3752193,-2.1517599,2.2418208,0.7238893,3.850129,-4.3568926,-2.5051754,-1.1523998,-0.15819119,-1.379385,1.3748652,2.0068104,-4.66008,6.956216,7.723485,-0.31139845,-2.464999,-2.0362747,-2.3639572,0.37096813,2.0517077,-3.4407914,1.7759036,-0.030990504
70.png,-1.6890486,63.76773,7.829979,1.2497504,-1.2729353,7.1719384,1.5124593,4.758035,-1.4367905,3.4024608,8.581395,0.42276663,10.791329,6.079132,3.4749136,4.875087,12.430194,11.35753,-0.25184992,1.5415572,4.866846,1.0613873,0.28616142,3.437597,5.2459216,-0.44705585,3.1590044,3.4176848,-1.02403,4.9495935,3.6082056,1.6505767,0.74055845,4.9917545,3.7576125,-1.0077742,0.7485161,-0.6477965,3.9945781,0.54766697,0.57140476,5.1844196,2.1232836,0.4917547,-0.19879648,1.129996,1.1588951,0.07685334,4.81541
71.png,17.463867,19.32555,3.0286915,-7.807477,5.8533087,13.37062,4.0618887,11.271108,3.1520963,8.955115,15.293071,2.464532,17.039232,3.6159177,13.080902,6.0983562,10.987021,22.091904,4.345283,-1.5077695,7.1354694,-2.7558227,4.4450936,0.81049985,5.4192543,-3.8568776,6.442748,5.649612,10.040983,4.726505,2.4922104,-4.5362515,-4.9769945,-1.1209134,-2.2160523,6.207257,1.6056731,2.7400959,6.761433,-0.48041493,-2.3881545,7.750755,2.4323804,3.506711,1.8334901,-0.59345233,3.0513737,3.8631835,2.744539
72.png,16.3205,4.484068,9.284771,6.5777206,1.9898776,-2.1973665,15.4065075,7.7830515,0.53855133,4.5703707,7.5354347,13.246311,23.620918,4.0648026,16.693092,3.6925175,-5.258382,22.9166,6.4014344,-1.7695414,12.535418,4.550086,3.277655,-4.3798203,2.7296681,0.61182624,6.2224293,5.0379643,8.195504,2.2632809,2.2388155,6.9758267,3.3717182,6.5765805,0.92993665,1.009582,-3.63065,-1.9348979,3.1909888,5.178873,1.0825146,3.1097791,2.3452349,-3.2593298,-4.2416134,10.588204,-2.7012966,-1.0794289,-0.28357244
73.png,26.598417,-2.4141529,6.3107977,2.9735086,6.1524887,4.120247,9.853576,8.559402,-4.3892345,7.868124,16.111874,13.380824,23.423967,5.685852,1.7762976,9.532319,12.958113,26.366497,3.3603709,5.7532115,4.5301147,2.3155456,2.0642648,2.0756316,8.391501,3.4145079,18.656523,17.266367,11.379469,1.0917528,-1.0146159,-1.0272131,-0.8640241,0.74036837,-2.3847575,3.052901,2.087252,-7.9780474,1.4800247,6.4760685,-1.9531786,4.0698347,2.3391504,1.8067181,5.4022417,5.0008154,3.699515,3.820333,6.5256386
74.png,6.224758,14.651583,5.2776537,1.1335527,13.138415,6.6807613,0.088921145,10.425023,5.2448225,11.752866,34.83167,4.6005683,11.924547,5.6244903,24.319855,1.4842513,12.616309,24.017265,3.4572594,-2.2811356,3.8969986,3.9764032,7.849443,5.289586,5.973895,4.0206428,2.5585778,5.98891,4.8676233,10.843418,-2.4157293,0.46027657,0.6476746,0.14043711,-4.4782615,5.9853044,-1.8603805,2.2707014,1.6372006,2.8061986,-0.5734696,6.3509727,0.68728167,-1.3752285,6.078954,-0.5592633,5.523296,4.1206803,7.7619777
75.png,8.074799,13.990519,3.095326,3.8707771,3.4463937,7.4044666,3.28748,2.8272843,4.2786207,8.708618,11.362691,3.335393,21.11493,6.5929837,2.2526786,4.855809,9.75266,36.402172,-1.9177433,-1.078763,2.249918,5.906833,3.1270247,6.084904,4.3092,4.41156,5.1581306,3.413058,-1.197967,6.4909286,0.09032935,3.6714933,-1.2376827,-0.6456739,-1.1396612,4.207251,5.027736,-5.9419265,7.0755825,8.293545,0.8497914,-0.28262338,-1.3479916,-0.19893502,-4.310248,2.3187888,4.1345835,6.395454,2.982875
76.png,-7.4878483,10.64724,5.830959,7.861213,10.616798,17.944891,7.122107,0.2768205,3.353672,11.384985,28.105629,10.31229,5.510865,8.875061,-0.91679794,-1.6413001,21.531898,21.591087,-3.0425742,3.4905174,-2.0467129,5.814078,9.576006,-4.2383146,7.3106923,1.4351094,5.368909,-5.651231,4.9866977,0.50816816,11.831834,3.012911,2.6571739,1.0015749,1.8273078,4.0056324,3.870407,2.0938528,-3.0465589,0.8566234,5.2753696,1.4428169,-5.2583275,1.0896386,10.90695,-0.2671443,0.9786,-0.9299552,-0.26064104
77.png,6.782829,3.2010822,2.1014447,2.2181745,-2.9107478,1.3605323,15.334752,23.696737,4.439251,14.374103,29.115686,11.413983,6.973162,12.711671,9.193279,0.99447256,17.879976,15.614557,4.5068393,-0.17609173,4.8058434,5.077556,-1.4636533,-5.0412927,2.917576,-3.9157465,-1.5696397,4.160742,3.6336236,0.82344747,7.7396026,4.9889574,-1.6955041,2.8921,0.94673914,1.7590712,4.405645,-1.2957051,7.104512,-0.8551233,2.1151807,5.4642377,4.427906,-1.985091,5.8817244,-1.4151022,7.9718843,3.9577193,2.989834
78.png,17.92114,-8.105807,8.405753,1.8919144,-1.380148,9.996069,13.857646,16.143507,-6.2369833,-0.0027755275,14.711702,0.46300012,21.07293,7.786789,7.354799,3.3917646,5.428277,15.428334,-3.330576,3.946503,6.1479416,8.052184,9.859811,-3.2446132,5.9291267,-1.5039003,3.7785246,6.5372286,12.479853,-4.132226,5.9374447,6.496827,5.0678363,3.5396225,-4.186587,-0.034213953,2.250456,-0.37530762,4.0537324,9.789141,3.1884189,0.96603614,-0.62446,1.269717,-5.151782,3.120323,3.4918065,-2.497579,0.022273883
79.png,7.085452,17.94404,6.2253056,4.071046,-2.2603924,6.0486584,4.183263,6.8762646,6.2599716,4.7241597,20.033371,3.255401,26.310047,6.7575746,20.007048,-0.4006881,12.882543,21.32685,4.6114454,0.6997128,1.1027155,10.891609,7.1003423,0.029712822,9.288081,-0.24253196,-2.2827897,-4.1307993,-1.8420733,14.481081,1.0496352,5.0121527,1.9564072,3.6642857,0.28041565,5.9311705,-4.321874,0.7274962,8.323028,3.2554588,1.8635405,1.5241029,-2.876764,-2.1351702,-3.788752,4.2240486,5.74691,2.0988762,4.644843
80.png,3.690817,23.172537,5.1925015,3.7516232,0.8912986,5.384092,11.470374,9.129993,-0.18833084,12.010856,18.01143,12.760511,6.4970703,8.967668,0.43777573,6.3095584,14.243226,22.003204,4.1034665,2.9484308,13.013164,-2.0470376,-0.8543404,3.7854097,8.043977,-2.4314203,1.0682176,6.277961,10.646525,0.39093718,-4.824335,-3.4000888,-3.5360649,-3.7860672,3.928587,2.2466462,-2.9313023,-3.9061494,2.2382722,5.6940136,-4.5641193,5.4858966,-2.3478756,-0.71900666,7.868307,-3.3610706,-1.0828441,5.4741707,2.2784314
81.png,10.35142,3.7635877,7.3162,-0.45090574,-5.0868945,1.8770374,10.045305,7.480623,-1.1605676,17.304104,23.996445,2.2103448,13.0717945,17.124048,5.785239,-0.68835604,6.875871,18.76903,3.7266738,8.850369,5.9705405,-1.7954662,11.514113,0.7476193,2.6428812,-3.108449,4.5985584,0.11060699,1.6463723,7.9407163,1.3732784,2.1315498,0.78899825,6.01974,0.17232671,8.587307,2.493445,-0.01288522,2.082226,5.7556777,12.983343,3.2992918,0.9936866,-6.799063,2.5185065,1.4829829,0.95538634,0.23811021,-2.4186687
82.png,-5.239184,20.426413,1.8325425,-8.138161,7.7065544,6.2250743,1.7422606,8.047702,-0.86355126,6.0415745,20.019228,0.5510131,26.077116,4.1502013,15.426977,-2.6440034,20.390472,27.378963,-0.43461677,2.1030905,0.6829017,3.211734,0.97228223,-6.0314546,3.6727288,6.342467,1.4628983,7.5747924,10.770494,3.499313,3.0432746,2.1187136,-4.3727145,3.4177258,-2.3249469,11.918262,0.5005018,0.37111682,6.812053,0.6113458,0.48644096,4.728876,1.2957222,4.024721,3.3143337,0.027304888,3.564648,-0.5548953,6.9525914
83.png,5.540163,10.767275,5.373184,-0.32193214,-1.2480072,3.856286,2.2243826,8.9874935,-2.3529918,6.918186,21.749765,-0.12316238,15.1779175,4.6218953,13.742551,-2.0559318,19.003891,25.239834,3.2453053,-2.6898286,5.368696,5.7688804,-2.1776161,3.6253507,9.9356365,1.9705292,9.906943,6.7784758,7.978388,5.81823,-2.2688017,-1.0133876,-3.9899998,-1.2049838,3.7440484,11.360888,-1.6049497,-0.9092167,3.2433822,1.0930421,-5.2546635,3.7355232,1.4646747,2.963597,4.3368745,3.0043337,-1.9895017,4.286589,4.77616
84.png,13.776748,-1.3340011,3.210004,3.1762254,12.363592,-0.64038384,12.068789,12.8432865,-4.2458253,13.991147,14.165528,-3.6550875,21.75996,4.763912,1.524963,0.35327953,12.500027,29.94249,2.6274185,-3.2442558,6.7765703,4.0753713,5.595524,-4.3609805,10.314484,-3.3130445,-0.22488368,2.825101,3.130146,-1.987254,6.254457,3.720725,-0.33547738,3.3845577,1.9035842,15.702024,0.9146316,-2.6653063,16.365036,6.328518,-0.6119316,7.4432282,7.3578877,2.8447351,3.6953225,12.918583,7.643321,3.0877142,2.8944228
85.png,14.0820265,8.356016,35.099556,-0.25347495,-1.3782336,0.7599895,1.2686375,2.7560043,-2.2188292,9.091197,4.378474,2.8357213,4.3029265,2.0334146,-9.038542,6.9472,13.385755,18.647116,-3.6090157,6.6347847,33.603798,8.479566,1.0728283,2.3661706,0.95463264,-3.3106241,17.796158,-0.99066746,9.316097,0.98322535,-4.9609222,1.8535174,-1.6402453,-2.9339488,16.267994,3.009639,2.6685994,-4.221693,0.31717157,5.0428576,2.2856038,5.904101,-3.6109486,0.44294977,-2.3759522,1.7167866,4.6542816,1.3889123,0.6241941
86.png,18.51645,14.172259,-2.5758638,4.6261644,4.0687947,9.276528,5.7505937,11.361444,0.7388265,7.5966253,10.233037,7.189659,12.4998455,26.349503,-2.3306596,-0.39820644,6.5666943,18.710817,12.76623,1.5658166,0.7933585,-0.18496485,-4.2378287,1.9564515,3.3482938,1.3535564,2.3837206,4.660488,8.292697,1.780096,-4.5973926,-6.6161103,-6.49892,-6.0122347,-4.911975,-0.49486756,2.2270238,-7.732252,5.367462,2.2085996,2.7190163,5.6100264,0.61795956,3.021297,1.2546524,-4.3998337,1.2902122,1.9041711,2.872773
87.png,17.603928,10.322215,0.97034585,5.6168094,15.929922,10.69768,3.3384886,7.811754,5.4587035,7.9836407,20.550764,2.6024606,34.060123,-2.9377766,-4.572109,2.0128927,21.565815,26.319773,3.3155038,-1.7285442,-1.1367943,4.4787827,5.2785454,-1.292079,4.871553,-4.0284142,2.2773337,-0.85630256,4.242472,0.5434642,0.8156503,2.0875602,4.4354124,1.8530436,1.3863416,4.304657,1.9961641,1.877048,0.6831281,0.21358347,-2.5976126,1.5332699,3.260744,0.9059408,3.74726,-0.9607522,2.609559,-0.13320577,-2.3480291
88.png,-0.9380894,5.6617193,20.909643,9.663772,0.7321393,-3.0874138,6.506826,7.3684583,-1.734701,20.061367,19.720453,5.0426702,7.6735115,12.323504,7.3499784,2.4535341,7.068786,23.879303,3.259147,1.4625294,10.104248,-0.19895062,4.9413586,4.0540605,2.4799664,-2.2397666,3.2584693,1.0121058,1.8854125,3.2137825,0.46044904,3.680091,2.4436307,2.8645244,0.63613856,16.56051,-2.750445,-3.3515997,5.8372626,3.3257325,10.839139,4.5897193,-0.124911174,-5.6660495,6.250045,2.2052548,-0.22067995,4.685655,1.2415601
89.png,9.035367,2.0325444,6.444862,6.656947,4.5165696,9.989773,11.349903,5.667327,4.4699025,12.908011,8.706304,-2.3271215,12.2711525,5.491183,2.1690679,-3.8107772,6.3780828,15.473893,6.676825,1.9158688,8.557912,6.1109824,5.1375957,-3.8701065,8.217568,1.3117226,9.250097,-2.1795819,7.625784,3.235568,-4.4930573,0.47978956,-2.2992916,1.9245589,-1.192958,3.9268548,15.736888,-5.8627086,5.4177804,12.021539,3.743416,8.059889,2.8264482,5.6127615,2.982755,-0.18367209,1.0434046,0.61229134,5.196615
90.png,17.422852,4.7925673,6.7619047,5.716242,3.5097904,1.9540492,10.394825,21.585535,-2.9209046,8.11887,20.821436,10.184755,16.855347,11.308849,8.917987,9.550618,12.880269,28.489214,0.43207616,-1.8647201,13.369215,-1.1670741,5.632279,-4.177413,6.305043,-2.7504618,3.624776,-2.0830696,11.740977,2.0740554,-2.9499195,7.740924,-3.0786252,2.6869667,0.5635203,2.6652305,3.2445521,-2.4680104,1.9221696,2.3036017,2.7484198,-1.555667,1.7219074,1.6175051,5.778513,1.9316388,2.3610215,0.4737636,1.7983315
91.png,18.646719,13.62279,0.40438044,1.2935913,5.6085014,5.868962,2.6609902,8.455677,3.9977887,1.7185545,7.5279803,10.413762,24.971601,4.540251,12.576869,4.1543617,7.083352,22.017199,-2.6576023,2.351132,7.335362,1.6490407,4.35554,3.9039114,4.4097214,2.2355597,12.467206,5.3831415,7.0703516,4.6947846,-3.256496,1.7708648,-1.3979892,0.7990191,-1.108121,4.0885406,7.047266,-3.062105,7.9940476,9.335237,-2.2422607,2.8946004,-0.81866777,-2.14159,0.8754108,-2.7345092,-0.14065453,5.508195,0.90593976
92.png,10.391123,37.80304,-0.0002396293,2.174737,4.4821687,18.35744,3.4992929,5.799418,1.113965,11.025403,12.876137,7.8454623,11.684279,7.8352084,14.262634,-0.2599771,9.129229,18.533192,18.709019,1.3927004,1.5655528,8.283702,-0.8067917,7.216095,7.662483,2.8071153,7.113836,7.6863394,2.7838533,8.514014,-1.3542484,4.2999716,-4.560472,2.4349618,-0.48650998,5.643212,-0.69910604,-3.498482,5.4777894,6.8661385,3.940342,3.8382823,6.8916507,3.3062668,0.6791635,0.8127398,2.704416,4.9298444,4.579379
93.png,11.093336,14.520994,0.17488831,5.118724,8.782376,1.68794,4.539414,7.163854,-4.1898613,18.561928,7.4554844,6.701411,4.974121,6.423755,5.1021447,0.28240085,3.3213556,20.329098,2.188092,-5.159199,5.5056157,1.811065,1.5434984,-2.7128856,6.386708,-4.5409694,15.099147,1.0738353,-0.26870042,1.3684633,-4.215144,-4.1764865,-1.6543425,-0.31982952,6.959781,3.1527839,-0.9923933,-4.6417823,3.9846034,6.5225387,-3.37539,-2.7629018,4.945255,-3.4220085,5.627507,2.7929628,-3.6327834,0.54313105,-1.8673211
94.png,1.9086692,17.01908,9.404031,-1.8268754,8.310845,13.313997,4.4299192,9.401472,2.5463648,10.620138,18.871305,-3.553849,22.373127,3.45809,7.22885,2.983494,12.241542,22.976389,2.8898091,-0.1682586,4.4616504,2.8177192,1.7852234,1.8284996,8.26859,5.2028637,3.1072128,-5.629184,4.4985538,5.643512,3.1910825,1.7156279,0.8706441,1.4278189,2.9812217,1.3676244,0.641641,5.0202065,8.741,2.8310304,2.385643,5.5400863,0.2971617,2.1437373,-0.574105,5.3839154,-0.78114027,0.2484895,3.6655908
95.png,19.793354,4.028698,4.8193536,-0.7153407,12.118399,7.5489616,9.268583,5.320832,-2.193515,4.290634,20.389986,10.690453,20.787092,7.7944436,18.1029,7.6346545,12.423308,26.949791,-2.2813818,2.9792469,4.3326774,1.2560127,7.7402854,1.3777332,0.02055047,2.6372275,8.727452,4.9677534,3.7569244,12.275993,4.2803597,0.8391345,1.6218742,-0.1499027,-2.4272532,5.8788567,-2.3024454,4.9461308,0.20088992,7.3911414,0.9299596,5.799184,2.159333,0.44780606,-1.678779,1.0720757,2.5338635,1.3817174,5.205656
96.png,6.376394,35.529274,-0.500024,8.827415,4.097609,5.9678864,2.8338199,5.6674623,-2.5974061,14.372677,18.95462,14.378968,4.08696,4.813313,-2.8500028,2.4622293,16.368649,18.970324,34.70618,2.1915994,7.4709415,-3.3261247,1.834384,8.976322,6.6747217,-0.74024594,2.1405644,2.8259828,8.877483,-4.0949364,0.37941152,3.929092,-4.3537626,2.179466,-0.33102334,2.5660634,5.864103,-0.3615382,2.8844352,4.374599,3.289824,5.13151,4.485646,-0.3684842,4.4915442,3.571435,1.7463688,4.5591607,-0.620416
97.png,7.734993,13.493427,-1.6016282,6.024547,3.8262687,6.6500545,8.336485,9.200765,-1.4241043,23.373217,10.573684,8.493449,1.2170331,13.350715,7.4981146,-0.08344897,3.677963,23.756721,12.325357,4.0200586,4.4982324,-0.17975768,5.037494,-1.2114607,8.474466,4.3420506,6.1520925,-0.0038991682,7.5692244,-2.143905,-2.7203522,0.47462466,-7.191436,2.5526025,2.881841,9.890432,11.256817,-8.475462,6.8209267,7.410413,3.5835311,1.4665351,3.9944708,-1.5905784,3.1169035,2.0983906,0.47217393,-0.44308725,0.21594092
98.png,21.981153,5.41121,-0.07912461,-4.0163817,13.804123,1.118919,8.253,10.817655,-2.5312948,0.46452582,7.6561937,1.2531486,35.186687,8.396354,2.0764694,3.702528,-1.8399898,30.296083,1.0341856,1.7856817,3.7757683,-2.0554166,0.53618234,-6.13566,3.5052524,1.512273,1.5023087,8.062994,-0.7708857,1.6934501,0.21889526,-4.7132025,-3.5922203,-0.583725,-0.24415496,5.435636,1.5042702,-4.068265,5.0064745,3.5570312,0.7509668,-1.7572727,1.0208409,-1.5682733,2.3296192,-2.0425603,-0.2746021,2.9038186,-1.045599
99.png,7.238922,5.6561975,5.767739,9.967866,11.47896,6.8692484,1.8672694,7.1884484,2.3399985,10.82294,21.360947,12.512959,21.94519,19.29792,19.758009,-0.67619103,13.920464,23.251852,-4.6763635,3.1021223,0.7944996,6.753955,3.4821014,0.016982015,-0.72208804,-0.26607215,6.994046,6.7970567,6.950157,5.5981464,12.8057,5.213507,1.3089733,3.5073054,2.149439,0.3913531,-3.3459582,1.764895,-3.3452497,4.2558184,1.5400541,2.3096735,-1.0474156,3.8789597,-2.0354464,-2.822741,4.4921427,1.3599223,8.638931
100.png,8.99265,9.757425,3.887773,6.301804,7.7271714,-2.3113117,4.0446,4.264094,-4.472886,19.970922,17.030746,4.2869897,6.1294374,8.655308,-2.035403,0.47401685,11.242679,19.043789,0.8136304,-1.6815686,0.09643696,0.8323662,5.3135476,9.1332855,14.167698,2.8135738,9.968103,6.751031,2.555146,-4.6638513,1.2467424,-1.2071918,-1.9502809,-4.6166215,3.6454268,7.3486886,8.108125,-11.202773,6.7352934,3.0096655,-2.432753,4.1109815,4.387678,-2.354073,8.194761,2.4378314,4.7153554,4.0332136,3.7580543
101.png,11.829288,8.530815,3.6277406,-1.3567377,6.329914,4.0287414,5.91965,13.879831,7.0862846,12.008869,13.951933,3.406167,23.01707,2.7294636,-4.581951,9.952878,10.468249,23.151905,-4.68091,3.2162201,6.651207,0.39967215,2.7206328,-0.94928145,4.0107393,1.7046478,5.689822,0.10041669,0.5640032,-1.6542379,2.8324234,4.1336737,2.853106,-0.43624657,0.33600163,2.3493426,-5.295987,0.520735,17.724714,5.5949554,1.6402112,-0.288061,2.4768102,-3.6021643,1.4076885,4.59869,-0.5857553,3.708368,0.060440786
102.png,23.764181,13.381571,1.3160335,-4.506785,13.161453,-2.0164194,-2.1987798,9.930684,3.3464253,0.13852957,17.315907,3.9230988,29.624563,0.6602284,14.46517,2.5509975,12.930545,23.23631,6.353083,0.31703693,4.523026,-3.763451,6.171677,-4.95026,2.2998993,5.0889063,7.518081,3.003904,1.1796672,4.31738,-0.8405895,0.6702096,-4.325782,1.9632252,1.7848089,3.6288488,-0.37729058,1.9109255,3.2064173,3.770448,-2.7516928,1.8182745,3.3127732,0.3397288,0.59600395,-0.5462775,1.3955995,0.5809838,2.3743982
103.png,6.0737762,12.082003,4.444659,0.31464425,6.191729,4.012649,-1.7309861,15.897034,-1.2319018,13.872562,27.494326,0.7877469,14.258546,12.0438795,17.859749,1.4152107,12.989598,21.409273,8.877533,-3.7080896,5.506378,-0.4885127,2.9819689,9.746077,11.779881,5.19133,7.1100445,7.168084,6.279665,14.07055,-8.635492,-1.5978389,-1.6776277,0.37033167,-3.6598592,7.2271876,0.4748311,4.457422,3.35164,4.5862865,-0.03527915,8.292396,-3.4597769,-0.34593976,4.100504,1.1296932,-0.85961837,3.09148,9.9927
104.png,11.657254,26.2961,5.9835954,9.41177,-0.34073788,7.1288013,6.583148,5.352567,13.489861,11.798404,7.604868,9.34297,7.950617,10.667332,-4.1353927,1.0758497,24.401163,10.581865,37.804337,0.19126423,6.3472047,8.968899,-1.1768967,0.66320264,6.1260633,2.3494358,2.5677757,8.743496,4.901037,-1.1385401,7.79869,3.9975443,-1.9855667,-4.4141264,2.6659076,3.7300124,2.5110304,-9.982458,5.0013394,3.8516865,-0.46197996,3.7833087,4.046602,1.5415301,2.2322562,3.220255,2.6041958,5.606803,3.8407288
105.png,11.508589,1.4504324,23.32316,28.030638,0.16976315,2.7074273,8.245025,5.0450335,4.7503333,37.391373,4.0355005,22.146065,10.975491,6.939876,-2.995029,14.2765465,4.8057737,12.316021,9.5875225,6.786693,5.3780956,4.9475718,1.484879,-4.783454,6.543565,3.3798428,8.495479,0.11419505,2.349237,2.4558334,3.1699228,2.7711887,1.2849811,3.155268,1.3003362,1.8287318,-1.026839,-5.3959618,8.383429,6.993625,3.1048825,2.4612017,4.418941,1.531467,5.149372,10.507237,1.597773,-1.0480908,-0.697185
106.png,22.51829,7.721859,0.81100094,4.753675,6.944483,0.88519454,-3.165529,19.956638,2.2618792,12.067457,14.160761,4.9665494,16.834044,8.286999,10.399096,8.732971,13.811128,42.690857,2.2480216,4.9137516,0.8975155,4.965146,3.310444,4.6039286,0.8012705,5.644666,5.419332,4.891348,0.51601064,10.570988,0.5877094,5.4515862,1.1530293,8.435834,-4.7463717,4.746765,1.3427899,-2.1159968,4.116781,7.219936,3.7559729,0.03428273,3.828486,6.122601,8.867814,1.9991796,-2.538803,7.716575,6.559953
107.png,1.2651775,9.028382,10.637661,16.827074,3.130801,3.9483864,1.1601815,7.615146,2.0429087,43.307793,4.1185193,3.0205178,6.5659256,1.1827109,-4.2735133,-3.7486687,-0.9114469,10.656735,11.22754,-4.9152265,5.671204,2.603429,3.9548867,15.49288,10.007779,-0.15211385,1.1830237,-4.0923386,1.460976,-0.5077983,-4.611452,-4.090526,-2.3487368,-0.77537054,-2.003821,2.7522705,9.894236,-5.1554165,3.2085161,2.8584,4.7401624,-3.0826128,0.85688347,-3.5460014,5.3470726,6.1924844,-2.753217,-2.1668673,-4.685632
108.png,2.3840938,15.401607,6.7644076,10.032587,10.544425,9.741512,7.0913076,-0.5858595,5.3215346,20.426672,12.809401,7.3630257,3.776,3.0347624,1.1566103,2.0674107,16.666994,18.93446,1.7850742,4.4462533,7.4157624,7.3631883,3.2689805,11.5752125,4.4647083,-2.2331452,1.4821492,0.91183895,5.232594,0.51667273,12.851036,3.7403226,3.004338,-4.3018637,5.277512,7.691323,8.404362,-1.2605878,-4.242402,4.611269,-1.810484,1.4377316,-0.71185774,-4.4528494,3.39318,-0.6371063,5.652931,0.40275374,0.15732703
109.png,19.335695,12.845551,3.6731563,3.1896195,5.9808145,7.9099073,10.525179,10.780447,3.5536761,3.9697447,2.833218,5.577368,13.979198,7.023497,3.4445245,7.210706,7.6687517,14.384601,-1.1426476,-1.5609946,6.8221717,7.840514,5.581197,-3.6675527,6.1640673,-0.7362409,4.7331085,0.7828814,-2.4098606,4.527934,4.0824437,0.9796967,-0.66560555,-2.961744,1.8041137,-2.1859794,-2.8078976,2.8143725,13.085456,1.5400307,-1.0788027,3.2495856,8.055515,3.7550564,3.3854837,2.7483304,1.6156207,3.106718,3.514801
110.png,10.597075,41.49428,3.3675544,-0.4960353,10.294192,14.475256,1.312414,12.540756,-6.841234,18.26192,10.855885,4.8259387,12.07393,1.9985706,12.645496,7.2892637,3.2058618,13.586135,11.367813,-7.217902,7.605624,-2.087025,2.2797487,-2.6465504,11.6636,-2.0264761,2.5889983,-0.54667443,-2.5797923,4.699217,-0.30557847,-2.5721598,-2.793855,0.9800911,5.6797223,2.2096994,0.6131497,-1.5568656,3.4778788,2.3240275,-0.25649127,-0.64436376,14.021483,-0.9170173,4.9309564,1.3688822,8.444115,3.3246045,2.9830494
111.png,5.262093,8.568459,3.9378352,7.7065563,8.06921,-1.6305989,8.775515,15.438133,-5.106423,19.072601,13.912615,5.448895,10.016957,14.798202,-6.2899323,3.7613556,-0.80044717,20.133558,-3.0756495,-3.6409671,11.997936,-5.356018,3.035656,2.4510574,11.310358,5.9355974,1.0074391,1.007103,9.747898,-4.360227,-0.25622025,-4.567619,-1.197722,-7.6476426,4.943996,-1.4021457,3.6654766,-4.9327183,5.190656,6.3591213,-1.2676463,-4.8870015,-0.44606337,-2.4189694,6.2912664,-1.0148641,-1.4722985,2.1836326,-1.6071663
112.png,12.642381,18.675955,-0.6868729,-0.9611554,10.027648,5.0139027,5.801619,8.536493,9.527538,13.648277,5.455905,2.4602988,20.069416,3.5572145,0.96351534,3.3895924,3.2847009,28.358751,-1.9086808,2.0895157,1.1865197,-1.8577132,1.1643542,0.60824424,3.4558825,2.7699358,3.214783,2.0034103,-1.0880749,-1.7449651,3.9013288,0.36646602,0.08060104,-0.73952043,1.8532163,7.3689,1.2810457,-5.5004196,12.718378,5.4111753,3.0015702,0.9861423,2.550667,-2.3562753,3.419904,3.9655426,1.3763446,6.9492393,-1.2395217
113.png,22.227823,1.7316995,1.1608068,9.163057,5.5162973,-0.7874615,2.6153715,21.162838,2.21527,1.5943278,5.8541923,1.447681,23.384794,6.722139,0.5806364,5.970839,3.5774767,17.087694,1.0180393,5.9481587,6.8064003,-2.164233,3.502688,-2.9909205,5.888577,-4.2300477,2.2856734,-0.56788176,23.318235,2.0834858,0.41078365,-1.1872066,0.7952704,0.3945941,5.4405446,-0.84493273,-1.2395438,-1.5137953,7.808306,6.504901,-1.2253418,3.8785794,-1.8017119,-3.3999925,-3.4466758,3.3393443,5.0441294,2.6893194,2.7294095
114.png,17.932333,-0.9325463,4.5429482,-3.0691903,10.239041,7.6975756,10.089549,29.43117,-2.682429,13.288312,14.151239,5.8961763,15.348488,11.624367,0.3958947,1.5765486,1.5594269,17.379272,-2.1870997,6.561853,-0.55163205,-4.7594028,6.1934767,-3.4130142,7.6014237,-1.6915609,-0.04315935,1.146607,10.243965,-2.2429614,-0.2555226,-3.7215333,1.9758884,-2.2228198,-1.5530274,4.032703,-2.8779387,-1.064391,6.6900177,6.092229,0.70372576,4.3451233,1.9331657,-1.962274,1.0474769,3.3908877,0.15875502,-3.1533036,0.1741156
115.png,13.449532,17.625807,5.5790057,7.337157,3.7034817,9.190828,3.2750063,5.182834,4.644489,11.443998,8.112803,10.678675,11.298524,5.1497793,-4.1468735,12.055256,17.52215,17.97484,36.37575,2.410947,7.268377,1.0118294,-0.13468294,8.479123,8.209064,12.050067,0.7551061,8.817786,9.131743,3.0302043,1.6270978,1.745225,-1.2128768,1.2470775,2.303676,9.341317,3.6664329,-3.0769455,0.64756143,9.479857,0.6405367,8.4556055,6.046409,5.1502423,6.0072503,5.364925,7.10179,3.0728438,7.6061687
116.png,11.328985,7.391662,1.9204346,29.72424,5.196724,3.1191607,5.242731,8.610384,-4.767886,24.357193,15.987974,-3.6070704,11.528346,13.295847,3.2202444,11.499141,8.430887,20.139847,2.5380754,5.0365524,8.097998,0.9887629,5.689286,1.5631851,16.813608,2.6910486,0.3966868,2.6629562,7.301078,2.8471656,0.9054346,2.9266694,3.5112598,5.087012,-4.0169406,15.79636,9.526436,-3.5291889,6.9588227,5.6408463,-3.360515,11.180391,5.557572,-5.286979,4.227857,1.4862057,1.9151773,-1.78691,0.7722683
117.png,14.074495,6.8129487,1.6385685,6.595388,15.862839,-0.94300246,12.624269,9.581013,13.865429,3.880886,2.7476134,11.297878,20.997923,1.0286027,3.0634139,2.7935302,8.046857,33.623253,-1.5025291,-3.4028656,-0.75801444,7.2174654,-4.086542,-1.5003309,7.8419776,-0.7240222,0.14116341,-2.0105784,6.9891996,5.4642677,-2.9146585,9.521415,0.41921368,4.038222,-4.432519,-4.1129775,-6.1999955,2.095491,7.9165072,20.612759,-1.1043388,1.9059215,-0.84215987,0.40175486,-6.141334,-0.25093788,4.160825,1.3317157,5.9652567
118.png,27.755283,-2.6811519,4.0144014,1.9225307,1.6495857,-0.24612682,18.408024,13.38324,-4.8499007,9.71648,8.247792,11.760312,14.344835,7.674955,14.555878,4.178395,5.3740153,25.695646,0.8252308,-2.1059337,16.793364,5.2086997,4.685104,0.63454276,3.6395795,-4.218953,4.50793,2.5939448,9.803014,14.107561,-7.670335,0.8642044,-1.7202271,1.5740333,-2.2602398,6.047458,-2.9328828,7.088464,5.7623887,5.969413,1.3771296,4.9781537,2.1398268,0.96055406,1.4798907,0.31578624,-2.6763258,1.3475271,3.292444
119.png,12.660119,3.585355,7.3444285,7.890795,0.11089286,1.4167004,6.349394,19.075054,3.8855388,7.390368,19.285908,9.82746,13.992781,6.2479835,15.232786,-1.1835369,3.421043,12.596679,2.9203365,2.02596,2.8235712,1.6083328,8.253351,-1.996893,2.9131036,0.033831876,5.9864616,2.393736,8.754967,3.606043,5.5700636,3.5156407,1.5143011,2.5986016,2.6547494,0.66339123,-0.6938431,-1.8879699,5.6939645,-2.1880982,4.373671,3.882775,3.9328654,2.5063992,4.836509,-1.9513108,2.1355524,5.1611156,2.9285674
120.png,-4.4745684,2.9541945,7.1839514,-0.90043247,4.9605703,11.672672,0.13311523,11.916143,-1.8716561,10.696877,25.09507,4.07485,20.00112,4.455814,5.9006157,-3.67436,20.22348,23.030148,-2.8759928,0.844801,2.5253177,8.257212,5.121898,0.13806452,4.8683476,-0.9831992,3.661134,-0.31227162,10.000509,1.2151011,13.790694,7.971403,4.107533,4.1811833,5.357498,7.4807415,2.4219797,-0.18876125,3.2263715,-0.027702563,-0.19261345,6.459991,2.728864,1.8402659,2.7289803,1.1564963,6.8976164,0.3546766,4.481073
121.png,14.255886,15.80081,3.0470061,2.84809,9.260199,6.750949,13.341991,6.7686,4.26352,5.4031634,12.849483,5.315402,19.74666,5.8630304,7.4247046,-0.79376113,9.699123,28.66371,-0.91671956,-2.1533322,8.647787,8.9278965,4.060062,-1.793823,3.542714,3.6078453,-1.956189,0.9341309,-2.30618,2.5363832,8.893117,7.2143307,5.756665,6.3052244,-0.96065587,4.1136136,5.2457542,-0.15248856,7.5728893,0.72224706,-3.4850106,0.016016606,1.0876805,3.8177,-2.120525,2.0283566,3.6416366,2.4081764,6.914646
122.png,15.542457,7.591524,2.5595593,5.063989,8.371998,4.2907634,4.922001,10.074873,3.9885573,11.2732525,11.434427,9.469883,33.20695,10.952518,13.086,-3.377254,19.406525,22.730818,-0.20761229,-4.024525,-0.46782866,4.4560018,-1.7057441,-4.7743015,8.962209,3.9381511,2.8757274,9.103609,1.4162868,1.8644584,5.758176,-1.4586593,0.6424488,-3.9675207,5.330461,7.2811685,4.2055855,-5.3014574,5.9321146,2.236987,2.7604413,2.8794196,0.70776874,4.7877626,-0.2084285,-1.3227218,7.6977105,3.2615564,0.738812
123.png,9.632812,16.815226,1.9203275,6.963241,10.222311,5.8220267,8.197942,15.001795,1.0954934,7.263164,4.6897097,0.453291,17.21032,-0.079477295,-5.6343327,4.2872643,13.993913,28.708189,0.2845562,-0.05380199,7.711146,3.6754296,-3.187335,1.9791,11.859242,5.3715734,6.0416856,5.9003143,0.6774103,-3.4567523,-5.631586,2.6641226,-6.8096085,3.1071317,1.5678132,4.9470477,-1.6345555,-6.785162,15.267897,2.8792143,-3.0973573,7.0433326,1.8845127,0.41111076,4.318756,0.15475857,-0.367837,6.6070876,2.0536315
124.png,6.924305,3.5141098,12.664324,4.353548,-1.1463948,12.412626,7.196551,12.599717,-5.102526,2.8489728,4.2362704,-1.6044471,26.647863,2.7609248,24.80867,1.4427098,7.9536877,22.439226,-2.7356255,2.5331008,10.991085,7.1831594,-0.22056979,-3.6280558,5.855194,1.2070696,-0.1635058,-0.11783969,20.88821,14.952807,2.862911,4.4092836,-0.12280047,5.2948074,10.043929,3.3921175,3.88114,-3.5964236,9.776354,4.286716,-2.018708,3.82412,-0.9138117,1.5613115,-9.655542,-5.7571545,1.3127271,3.5563781,4.3899
125.png,15.42698,8.373542,7.5377026,24.134935,-2.0569425,7.265325,-0.092421286,7.3780665,6.9590874,37.604473,1.8136368,9.210423,11.189053,4.631493,3.2302864,14.158429,7.954944,13.110714,-4.302664,-1.7763693,6.2081666,2.6421177,0.6475503,4.331952,2.76514,-2.6795912,4.0404644,6.7528963,2.9126606,1.7641097,3.3057623,-2.4417768,-1.8707205,1.3570695,3.9263568,4.346272,4.701463,0.052507736,18.251732,4.7164483,7.621532,3.6332734,5.030527,0.3272839,4.8650155,0.8296511,-0.567143,3.4165819,0.14595911
126.png,1.5135837,15.856117,4.9874406,5.161371,5.862543,8.509272,-1.8175383,4.4842577,0.5115084,5.1800275,25.466314,7.748007,16.147106,28.214783,20.779524,2.0566907,9.226721,14.635049,-3.1186516,3.5737867,5.8132124,-1.5915284,9.414446,4.7127466,3.300824,6.305597,1.381438,4.940348,7.537709,8.061206,2.152509,-0.39419228,4.182488,5.278133,6.3127913,-0.60758555,1.6897589,7.530362,1.4662477,4.3209896,-0.74234986,6.05741,1.4890835,1.6339477,1.1495184,-2.2610652,1.4492595,-0.8999644,6.290456
127.png,1.8743191,6.2092533,3.4729197,3.8928251,4.9963603,9.572337,8.119448,6.5966716,4.879635,12.3805,18.840096,4.596479,11.691909,5.9600043,1.6826015,1.3402066,10.778715,28.591269,3.106437,-0.53562915,3.7309148,3.3101904,5.101253,-0.5407719,12.708309,0.5653387,9.003245,4.738241,6.569358,6.8445625,1.454827,-5.300291,-0.4535501,1.536673,-1.7882651,8.415224,2.0038328,-2.6078308,12.286938,6.560714,0.71953255,4.2305655,0.9949504,1.5280908,5.926463,9.364364,4.636495,7.754359,4.9025655
128.png,18.56505,-2.8637445,14.559772,4.956897,5.813204,5.3378263,5.949328,13.841226,0.039381534,8.753073,25.622282,10.364598,10.948673,-1.1921177,-2.9806108,8.088015,11.468554,34.327408,8.321294,-1.0289207,7.4249477,6.4684176,3.5320787,2.8225281,6.2136593,-2.03748,7.222035,8.06302,5.3226256,-2.1718116,7.988739,6.521173,0.261652,0.5466663,6.767729,4.9511003,5.2734113,2.647247,3.831188,2.9180992,1.7651597,-2.6219227,4.648937,3.849373,-1.7581295,-0.70802915,2.7665946,-1.4191806,1.627772
129.png,10.77065,4.0809093,4.2942553,3.1031818,6.968783,9.454077,5.948764,14.241645,-5.5733733,8.496206,10.432929,12.711003,31.667477,3.4286633,5.6901226,3.587623,16.05242,23.266676,0.117324576,-1.8103402,7.1339617,-0.0040381216,0.04549478,-5.9686394,3.7431042,1.1218057,-0.26151043,-2.8268874,9.125825,8.197545,-3.7333026,3.006114,0.6985548,-0.12789029,1.1929084,1.551134,-1.3641257,5.28585,9.945611,8.10764,-1.584957,2.5658793,2.677348,-3.0805337,1.5334209,-2.289431,3.4891396,-1.8177797,2.5891316
130.png,5.0077677,5.4684105,4.5169673,10.5377655,-0.62706244,3.7540243,5.055541,-0.21553785,3.6495566,10.516938,11.85924,11.059355,14.578445,6.3201337,5.8988595,3.986154,14.075557,18.757837,0.43009073,5.018954,2.1325176,5.9187555,-0.46783563,2.5048761,6.809717,4.517774,4.1983085,13.197778,2.45172,6.3882003,-2.4712815,-2.292031,0.5801164,-1.5073702,-1.7343005,5.9792385,3.8934608,0.5940086,2.9972422,0.83854425,2.0890014,4.807603,1.811405,3.4960482,5.347983,-1.0786431,1.0471997,-1.7399292,5.106058
131.png,11.840032,27.468094,13.637421,10.0352,0.39047664,7.301593,1.0707896,11.015474,0.65049696,5.58937,3.023018,8.049559,6.516257,5.584895,-1.4597343,0.36218986,9.231564,19.147364,-0.15880522,-4.71753,38.322083,5.883847,3.5061977,1.9461548,4.2955136,-4.315416,2.8716912,-0.8687364,1.4584601,1.9908425,2.3866735,3.2342992,-2.043527,-2.3981595,16.973988,4.2032933,0.20390488,-3.7704983,7.5254536,3.2574859,0.31385776,1.5600721,4.9702973,-0.18074653,-4.618771,1.0753623,5.1599283,6.3617296,1.8734505
132.png,6.513953,10.328221,5.12104,7.217219,12.025706,5.3990254,1.5454397,3.5575297,1.349828,11.188543,13.421353,5.0394983,24.072918,4.03683,1.9056555,1.5032135,20.965406,43.64273,-0.972716,-5.8773375,0.461384,8.2800255,-3.8376718,3.2740188,7.4984884,11.527171,2.1066911,7.448055,4.7826366,6.644102,3.88556,8.508243,-4.5161133,0.21615201,-6.7653685,13.742425,6.5070944,-6.3975515,2.3196898,3.2042038,0.9128602,3.0464325,4.127229,1.9219179,3.91723,-0.10712966,2.8613608,6.801477,4.4341397
133.png,14.218703,7.617985,5.643898,3.1161876,9.729089,3.0475368,7.8520594,9.218954,0.24032186,7.3202624,21.821932,5.601035,25.126225,4.5058227,-1.808189,0.51093644,16.345234,42.590393,1.7089812,5.2155385,1.8329813,3.6531,5.0496445,4.154872,8.580377,5.1895976,9.931829,6.2728615,4.430644,-2.6658378,5.404434,1.6266525,0.32762253,1.1836588,-1.7745508,3.004138,5.4854746,-2.5227065,7.1542883,3.7406735,1.1609523,1.8566086,3.9426334,1.9363797,3.3294156,3.6927528,0.2211726,2.3174503,3.992308
134.png,11.377318,12.387455,6.0888863,4.5960593,8.013954,7.660492,3.806685,21.187132,-1.1811739,11.7254095,15.342855,6.9274864,15.986435,3.9060469,-1.214424,0.2706292,10.462342,20.857712,5.1026807,-4.301314,2.0112927,6.851636,17.737944,-2.0771153,3.842634,-2.807069,6.3593225,4.759851,5.6726055,2.2972374,1.5198408,6.182742,-2.0310261,-2.35242,1.8099144,7.5110617,-0.15553944,-2.6330714,1.3368665,2.967812,-5.426902,6.466076,7.1491914,-1.3341548,0.33127227,-1.5051957,3.6150527,-3.717547,3.3389933
135.png,-1.6831791,28.002115,7.249819,-0.2737959,6.3232064,4.8560467,5.947313,8.752066,-2.8618722,9.634769,26.517624,11.035594,3.568273,6.3325233,2.1152995,6.9126115,14.619343,19.54982,2.6753805,3.2519958,13.033943,-0.37884712,1.1052651,5.208546,2.0559127,-1.7804557,-2.9113352,11.789549,8.858454,3.1398098,0.83524656,1.7316934,0.26046002,-2.3709176,2.4851503,0.08510635,0.09677811,-5.157067,-0.85588115,-0.2826973,-0.71049994,3.7957697,0.89322346,-2.7917824,5.5808134,-4.8985662,3.2851796,3.404686,2.6043062
136.png,13.8030615,6.6571264,1.4487071,9.021182,11.769607,0.6643824,-6.8505073,8.875519,0.036999166,9.214073,36.28548,14.090336,20.60959,2.855754,22.454626,2.3390198,18.271738,16.207079,4.59656,3.0659332,1.914062,4.182016,7.904564,8.973839,4.5189266,4.7583194,4.431597,8.400506,8.797704,4.7734065,4.8032484,-1.7722452,5.55881,-0.04766565,1.4768999,1.2893212,-2.052935,0.6749823,-1.9829551,4.395814,0.67449343,4.517576,-3.1959164,0.7964086,7.804721,-0.8997313,5.050933,4.804022,4.246799
137.png,0.5188465,68.219185,3.7934415,-0.33606282,3.3556726,1.6521288,-1.8208586,1.523777,3.4031782,14.819935,8.01537,1.6386349,1.4018552,7.480465,13.909449,3.5129466,3.5363727,14.286997,0.12428276,-3.4080014,1.2387222,3.1425052,-1.7092843,4.1067657,4.956749,3.289906,2.2345684,2.6972578,0.80498827,9.196695,-0.81459,0.8848913,-1.807374,4.771415,1.0639882,0.600038,6.0552754,-2.222071,-0.48777553,-0.3237698,4.6574535,-1.0090169,5.5590353,3.2217107,3.9955926,0.496809,-1.9533172,5.9570947,2.6570325
138.png,20.469662,-2.5774326,6.060418,0.38860422,10.343298,2.8801572,8.26733,28.488207,-1.5191716,9.939148,17.253866,8.170487,17.022215,4.4932,1.3349565,2.348227,6.486686,20.261808,-1.2488326,7.2379203,2.6217797,-0.6292653,4.257304,1.820755,5.219503,-0.78416485,2.6582103,6.4360895,6.053008,-1.2515985,5.7408733,1.3000239,1.6540495,-1.7052422,1.4118619,11.138735,-0.96913296,-3.1967938,6.82164,4.45438,-1.2267767,8.5513735,2.868806,-1.7930796,0.6885192,1.8869121,3.9080317,-0.90431356,1.1354793
139.png,18.632559,10.901985,-8.697226,-1.3957034,10.404034,-0.37376556,10.1335125,7.289623,2.0443146,5.710536,22.590574,2.5533245,23.545849,4.948223,6.437153,1.3551174,11.593019,29.434553,-1.5153843,-1.7010236,2.5618558,-2.6713161,7.4582243,-1.6619354,2.2656512,-0.10897601,1.82065,1.6839203,0.9084223,4.94262,-2.6929417,-0.15071543,-2.2182384,-1.8676116,-3.9314005,8.535107,1.2256815,-6.66599,4.0324435,-1.9119594,-2.7097101,0.24829963,1.8088562,-4.115105,-0.4249736,1.5566401,1.524463,1.1312473,1.1309018
140.png,11.578742,-1.4181151,-3.2633588,0.29090363,6.3443646,2.0345716,8.033139,3.705954,0.008731615,0.3562632,16.34703,0.85883194,17.90975,0.28347304,8.9210615,-0.17602462,9.135664,31.315935,1.9700412,5.8863363,3.0428138,9.670074,4.78149,-3.8002598,2.8106322,1.2196257,10.633659,-0.13564509,6.713193,4.2832117,-0.31807497,5.2762756,0.64142317,5.5346217,-2.8553474,2.7841973,-2.0959773,-2.3488126,2.4819906,16.048931,-0.2948258,2.408061,-1.500136,-0.58175147,0.35194245,-0.2834728,-2.9878566,-1.8278532,2.744123
141.png,9.766258,11.307391,12.583311,3.5557938,8.930208,8.140746,5.518981,11.012011,3.9981022,8.286778,12.044172,11.191678,11.626194,3.6807604,-2.61712,3.7298098,11.763319,22.015135,4.9467363,0.4529017,0.46043107,4.9061446,6.220265,-0.13991389,3.5560482,1.9885504,11.313252,7.4636946,8.103373,5.40679,0.5254995,-5.6162176,5.194611,-6.0793953,2.4279768,8.317043,-3.4304726,-3.7381556,1.5190574,3.2310896,-6.641528,2.0165436,2.1068642,-1.9717492,3.3972933,1.0791281,4.3025084,0.47299805,1.3887458
142.png,18.133354,-6.06883,7.9527593,-1.5477306,-1.8779804,1.5957206,9.463867,12.303313,-2.913839,3.503941,10.088068,12.036862,28.228432,5.015014,15.829292,0.70253104,3.0260043,19.639513,4.25457,-1.5430984,22.92563,13.333909,4.050624,-1.5609232,3.8746595,0.047152862,9.378261,7.811251,12.312298,5.4771447,1.3975022,8.0016575,0.18243699,2.1380033,2.8244774,8.012085,3.131024,3.2531307,9.519093,13.76991,3.0803483,4.2875133,-2.316247,-0.14114082,-4.799223,-1.0428332,3.3101745,-0.88089967,-1.8175198
143.png,25.163862,5.63686,8.742678,13.162914,1.8213587,2.5876296,7.8651533,32.288246,-1.8077394,27.182579,11.586377,1.4535345,6.1559653,28.88006,-0.9635119,6.035725,2.749665,17.302607,0.47789413,-0.3002329,3.687423,1.5167867,3.052603,-0.6213584,2.0141134,0.810372,3.1207302,8.061746,9.257128,4.0766788,0.15981524,0.93455577,-5.0028358,-4.9464736,2.8170547,0.2818158,10.229501,-9.5512905,2.771075,2.0168047,-2.531477,-0.38741034,6.05819,0.9009875,-0.87465644,-4.7046347,2.4085975,3.319221,4.3097005
144.png,2.2701714,57.600815,1.5853696,7.1496634,5.423791,6.366638,-2.4114254,0.55651534,3.7014253,5.199718,26.340256,4.077255,4.90813,-3.0381832,6.9559755,10.429508,22.937904,15.339624,7.498696,0.80224305,-2.3413215,12.2890215,2.5807137,15.939032,10.19118,-2.8351638,0.49507973,1.146077,5.5723777,10.561487,7.047778,1.3840642,1.078327,3.782764,-2.9788704,7.495607,0.33827052,0.9214183,3.1831474,2.873363,-0.37226015,1.0682434,2.7856448,3.5817404,8.103776,4.401804,4.8725767,9.719418,3.0891623
145.png,18.140236,6.233332,4.8060145,4.8216476,8.0871,5.1419473,3.9186287,8.707226,7.971567,5.971141,7.4505224,29.107174,12.41426,4.312323,-2.3306851,2.1289864,12.193508,17.586704,3.9721,2.203305,9.095991,2.085966,5.305103,4.5588307,2.4779704,4.839219,5.349616,8.842863,6.6423497,4.4949136,3.728518,5.897149,2.1201897,2.8923686,1.8565636,-0.3668988,1.7310299,4.2683234,1.9263499,9.248373,4.491897,0.24266289,4.3977404,-2.7183225,4.0769534,0.47955215,4.8089657,0.31734613,2.0178974
146.png,4.050278,44.956078,2.1812825,1.3868032,2.7959325,6.6234818,10.126712,1.0971076,4.363403,10.190977,6.9224463,3.712587,7.2310143,10.282353,9.1786375,-1.1230942,10.625158,19.673801,30.89666,-0.40139136,2.021051,8.998258,-0.5520115,1.22888,9.473337,2.8932314,0.2534546,7.6399508,6.8306828,8.934055,-2.5417335,4.607881,0.7434466,2.3143167,-1.7993355,5.217004,0.9483451,-3.6338692,5.582606,5.6905055,-1.4999182,3.862724,2.9002483,-1.0326177,0.21179774,4.7485003,0.37257925,5.4786134,4.1790447
147.png,5.7948494,3.5806887,-0.8546645,12.748292,7.57351,5.699584,3.729802,13.779264,-3.8109417,14.4327345,29.656488,3.607874,8.906628,15.472229,13.330478,3.286954,19.112812,23.128458,6.0923634,5.2810764,9.985214,-0.34205782,3.2393463,0.51956874,7.865233,1.6705678,5.102748,1.2695727,14.736021,5.4071603,7.295403,-0.61919457,0.8186979,-0.504327,2.1985157,16.595716,0.43317625,-2.814766,-2.971315,0.06074513,1.0746683,6.178867,0.9536482,1.0139999,1.2460266,2.0666003,4.635802,2.1554637,3.7260606
148.png,17.17589,12.791448,2.2400434,1.744484,4.0704985,9.475663,7.69111,20.482115,-0.6246212,-0.063380994,12.808347,5.4152083,21.583788,3.0422046,3.4419947,3.5282507,16.522657,23.238945,-2.5950212,4.4358063,7.265766,5.1596923,10.944498,-2.1985247,1.205129,-3.4574528,7.511527,2.2346675,15.040602,6.4438953,3.088463,3.481441,-0.074559495,-1.576631,3.7363465,9.212837,-1.2624819,-2.5389867,3.7865586,2.7661095,-1.7530262,3.2247424,2.0978518,0.19028452,-1.7688364,0.39142323,-1.6445444,1.8273093,1.961855
149.png,12.470497,-1.6495358,12.621528,-0.99460167,5.426069,0.315095,2.7959154,12.207978,-9.078454,3.2826052,21.444525,8.424035,24.431265,5.8715143,6.8318787,1.7249323,6.251633,27.891687,-0.622192,-4.326748,35.801033,1.7229518,7.422528,2.8927195,2.4544857,-6.1018867,8.104503,6.789714,14.327753,2.9737267,-1.096095,4.471595,-7.2556605,-0.050976314,12.518093,3.1082218,-2.0588,0.032727376,5.787081,5.8247933,-5.1905503,6.220612,3.161747,0.13448587,1.7322705,3.435195,5.8780313,0.32377705,2.2260184
150.png,28.17668,9.383154,-2.1114562,8.494065,8.270927,-1.3786904,6.3259335,4.6194205,10.792234,7.976284,6.707533,28.302118,14.588326,9.478718,5.9716115,0.16630507,14.411834,29.642153,18.169561,2.52562,-2.4325914,5.4783897,-2.5652013,-4.6931367,6.2662897,11.90526,5.072834,8.900718,8.32334,1.2972256,-1.7695255,3.8350854,-3.7729602,0.8421406,-1.8333292,2.315677,7.662441,-5.680438,7.113796,5.265388,3.6202912,-2.0315583,-0.4707709,5.1861444,2.8578775,-1.5361196,-0.32962686,4.3321395,7.9585204
151.png,19.114382,10.5843725,0.12653069,-6.9604473,9.912701,4.443844,12.860301,3.5454605,7.0231276,1.7897066,13.879511,9.49696,19.446884,6.438491,-3.0845296,9.486202,13.792445,35.42364,3.0181694,9.4188385,3.46491,-1.773776,3.6964371,-1.7536756,1.6606593,4.1975794,8.109539,1.25651,5.1996903,-4.010857,-0.9158356,1.9456854,-0.94024074,-1.1519386,4.8628035,2.1628406,2.658376,-4.702041,1.1022875,3.5560832,0.5754929,-1.5139076,9.210094,-1.5716993,3.368854,3.5290825,-0.8262731,-2.7050505,-2.0908701
152.png,15.966114,12.224725,1.5639855,2.5929108,10.43255,10.742528,5.372908,10.99486,1.1572431,-1.8338714,7.588327,9.692013,21.036957,1.8518935,5.962284,5.403975,9.334896,18.217297,5.511465,-0.33553466,8.087769,6.526687,2.4915836,3.027414,12.85905,2.1305528,4.46141,-0.18537715,6.5294666,2.062416,1.6379774,2.3749907,-0.9658102,-0.14532328,7.219675,0.99135303,5.2855124,-2.8514335,9.570974,5.515295,2.69237,4.1976867,0.558603,1.2371072,-2.269421,-4.7056885,2.8910968,2.6789193,1.4997387
153.png,9.230906,0.7441253,-1.560136,-4.040832,5.435071,8.192389,4.5428133,12.2401285,-2.0666978,-0.25272807,15.043455,13.891035,12.940586,4.683598,11.073424,3.5696938,17.82874,28.78561,1.091974,2.125256,7.2275457,10.800544,1.3962518,5.179515,5.8014536,1.7452286,17.113894,8.447367,7.2567043,4.9581456,1.2115753,6.298521,0.35136378,5.6813116,2.0909362,5.826055,-0.3347868,1.522625,7.6913714,6.636445,3.7003047,6.5160933,3.7618988,3.134642,3.2812293,5.0189962,2.010619,2.5141182,5.625579
154.png,27.525604,5.309777,-1.2342536,-3.2867186,12.849182,4.3997803,2.9389675,7.8966975,1.2681128,0.30373624,6.8032446,3.5799005,41.21014,-1.1040919,6.6035247,-0.5766399,17.567314,28.856886,-3.2334282,-1.6998825,-2.0395963,-0.57986826,3.1157472,-5.5130863,5.5647693,6.07324,-0.11600955,3.95835,3.8527112,0.58271986,-0.72299707,1.7340455,0.93650186,0.3385659,0.2502188,6.0858264,-0.4481097,-2.307919,3.1667814,-0.9701431,-5.087617,-0.41328725,1.5266621,3.3608987,-0.5838452,-0.4495018,0.19305962,1.8553529,0.24593827
155.png,4.705808,17.667595,1.7198083,2.3304973,11.892297,8.465022,5.0499463,-2.716059,0.5909004,4.031127,26.237425,6.0950084,18.22152,5.9253983,13.248056,-1.9254681,16.65485,22.103184,7.801698,-0.7112497,2.8098583,-4.7076283,1.8366232,2.7111957,8.048413,2.3020022,1.5129513,2.1224172,3.0786161,1.7373986,-0.4050918,2.1170368,-0.07436173,4.9074984,-2.8613188,4.63247,4.7595983,0.97696596,1.2498232,0.018691666,-0.33916515,4.2995615,0.62491876,1.6028203,5.123964,-0.050249323,3.6296234,1.3542223,5.097533
156.png,25.424597,-4.31936,1.7872384,1.3232003,12.681834,6.5193815,17.199253,15.695235,9.914371,4.487997,10.7361,15.219869,14.303517,2.4363027,-5.216257,1.7625995,14.17181,20.071724,-1.730082,-2.1532242,0.9036233,11.469404,0.81255853,-1.1547369,3.843097,-3.7059498,6.2039604,2.7520955,3.1246326,-4.7678337,6.7869415,3.7157483,1.3012922,-1.7942551,7.570406,2.5196238,0.71809703,-3.2781847,9.220197,-1.6341369,-1.5453596,8.514202,10.744294,-1.1822239,3.0834935,3.8768094,4.4984255,4.883942,0.77497065
157.png,25.982948,0.71213937,3.0076864,-2.1846633,7.440023,-0.6592275,6.672398,4.337693,-0.7007432,9.150938,10.560414,4.169698,14.111126,5.1376686,10.859742,9.082822,12.251351,31.208103,-0.8696536,-1.5890588,2.438646,0.5883623,-3.4267642,-4.22075,8.670176,-2.6795447,3.4861255,2.9897053,3.4943132,6.21418,-6.9353027,3.888742,-3.911034,-0.6046746,-1.708198,4.970243,-0.64472985,-6.238613,4.2101054,2.406979,-6.2974615,5.369365,0.31363043,-3.740837,-4.113048,-2.170209,3.62281,1.5698869,1.7357032
158.png,8.694681,5.4171553,9.630049,0.24389704,5.18769,3.748421,0.83521754,13.251337,-3.0543935,14.001128,18.8801,5.8914003,20.944405,4.9529343,7.6437364,6.322275,9.804268,24.172867,4.872501,3.9596558,4.132688,0.10099597,2.840956,-2.2698433,12.281033,-1.1733036,10.177781,3.8369436,4.1428814,1.0383159,-6.400968,-2.9256475,-4.238294,-1.359103,-1.4591514,2.9383469,1.9829855,-4.298089,7.4820786,3.1835806,-0.7471486,2.959402,3.591503,2.1609638,2.4048645,-0.13005957,0.4095267,1.1255844,2.2399595
159.png,8.777942,5.2410655,6.278962,-0.76789707,5.903515,-0.4329824,6.912184,14.012848,-3.4669251,8.245661,20.212898,2.176897,20.400679,10.0458355,5.638577,0.5223034,9.886328,28.445848,-0.38851416,3.0309577,1.1630445,3.4132938,1.3289862,1.1098686,9.505269,-3.0451026,7.651215,9.386639,12.037351,6.067463,0.85116637,1.8728148,-1.6262263,3.011445,0.80490077,2.8873286,-3.5013442,2.2414546,7.9127593,8.369772,0.39545262,7.7221394,2.0341043,3.5518215,3.0234427,1.7085757,0.4928338,1.1356658,3.5622616
160.png,7.625279,11.738974,0.197348,5.2900114,15.265277,4.109018,1.8852445,7.5870605,-3.172759,11.45557,14.780155,4.840214,30.828623,8.103659,0.6346468,-1.081354,12.099285,28.937288,4.6582723,1.3743337,3.8473449,7.8807807,2.1390269,3.6057208,4.358039,5.777031,0.088038854,-0.25825018,3.308702,3.9530642,2.1162164,7.2990527,0.8827908,3.3533692,-3.2315664,4.212351,1.2939111,4.0299907,1.946836,-0.68447244,6.503296,4.6516733,0.8485708,2.5575924,2.6473985,-0.56100935,6.638736,0.09592846,1.8635526
161.png,7.5142345,12.720966,5.078339,3.313852,10.847452,37.279613,20.701307,9.907178,-0.21938719,8.491229,7.331697,1.6060896,17.934912,2.7125702,-0.5029044,1.4015938,9.209202,24.768803,-2.0800257,4.781332,1.6283814,8.779289,-4.8690014,-1.2160201,4.6718335,-3.5094163,7.0194592,-0.7272813,5.990487,-0.24178568,-0.35195237,6.035291,-2.367768,3.161762,-1.5028956,1.7581656,-0.74789566,-4.413533,8.059434,1.1876268,-1.6263261,3.6874366,3.773047,-0.120560244,1.2559958,-0.6671073,1.5201869,5.1844044,2.7296343
162.png,11.474353,10.430582,6.0975924,-0.5562963,6.790337,-5.632958,0.38270226,4.479627,-1.6103019,5.3264914,29.659294,5.8416886,18.027695,5.081997,11.187555,0.16802326,23.737415,28.513098,-0.4249566,-3.3835285,1.1904839,3.4661007,-6.5066257,5.661078,2.9896724,-0.1564107,4.947505,12.14191,4.6577444,1.8225898,2.986606,0.5731954,-3.3237114,-1.3964556,4.270514,16.440536,0.29612067,-3.6278896,7.0477366,-3.9678168,-6.6059723,7.5288815,0.84401107,3.3474944,1.4279498,2.3882143,6.316477,5.1477423,3.4348779
163.png,23.88518,3.8252778,-4.1233406,-0.09439215,6.3703985,-14.219422,-1.0139521,10.625177,-0.48194107,0.07497333,18.026382,3.3422637,19.055462,-3.4849021,23.470535,1.1355559,10.83027,29.04663,5.100349,1.053367,4.611528,5.4719543,2.1382933,-1.9056485,-1.2089126,3.5318472,9.649806,2.601369,2.2644396,7.516167,3.349913,0.9110661,-1.6363196,5.4210978,0.49896333,8.195835,-6.930074,-1.2653327,3.457015,4.9611115,0.12845975,3.735376,8.787084,3.9021454,3.1404567,5.1951237,-1.0054932,4.340856,4.6171365
164.png,11.976329,3.5193794,0.8947187,1.3651258,6.6666007,8.729384,7.228004,12.382042,2.9524207,11.265624,14.227594,8.808689,10.242638,12.16748,9.64061,5.9330482,12.621244,29.055077,6.023665,-0.06994857,8.77762,0.98357815,-3.9635646,5.0545197,9.786882,5.152965,-2.210091,1.2056676,3.9600744,10.305056,-2.4691744,3.4611025,-4.530042,2.1610935,-1.2152534,9.925016,-0.9600831,2.0996706,-1.3209419,2.3869605,-0.26695,3.8718648,3.8987994,-2.4060128,3.298364,2.3691819,0.45418862,-0.8366259,5.0513687
165.png,10.292965,4.575501,9.280785,9.280169,2.4079149,3.536319,3.1255121,9.623237,8.654401,25.852867,3.872784,4.3304043,17.21214,1.5476804,-6.2754655,0.49814135,3.618696,21.479664,0.92367196,5.7713675,7.295803,1.4408724,5.5039935,-5.4886312,3.7924676,8.377304,11.013034,-2.5089226,0.3670372,-5.029974,3.1340866,-1.7213773,1.2927516,-3.2664459,3.5228121,1.8362582,4.7307487,-0.9454094,8.651635,8.326992,8.555689,0.08008145,5.9762235,0.90763634,2.1134996,4.1357017,2.2080655,1.1676903,1.0381188
166.png,6.959022,17.858839,5.7522945,11.212948,-1.6275127,5.2533903,5.3590856,5.9483366,3.4588046,26.343859,18.232359,3.0951078,6.974537,4.6018233,31.490746,-3.4838386,8.302482,19.474808,4.4964423,2.7131453,3.009251,12.80016,3.7076306,-6.3359647,7.4110537,6.9871807,1.522592,3.9650843,14.01635,9.537341,-6.605798,3.90937,-0.9372031,4.444694,1.7006701,2.9117265,6.1932487,3.4883928,1.434064,5.4702067,4.9023366,2.5912085,-3.565035,2.5515695,6.2584653,0.5103785,-0.26953876,1.7899711,4.0658913
167.png,18.67264,1.0630816,9.918241,5.401899,0.11586137,5.981785,9.691819,11.589112,2.0970545,5.8096943,5.416217,17.366877,20.123089,4.6823378,0.16718595,4.4005938,7.280918,21.815569,-1.3891814,-0.3623632,11.7568035,-1.7859385,8.095349,0.5763499,-0.79983455,2.2115245,5.230885,3.066076,6.2246757,1.4220433,-1.1140183,2.4615269,2.9680617,-3.532692,5.268015,-0.22744405,-1.6629379,-1.9560579,10.769061,1.5995042,3.1598866,3.6693938,5.3761396,-1.1229361,-1.5490065,0.4462611,-0.6553031,4.9451566,0.27401987
168.png,4.603521,16.281479,6.1885486,11.095586,7.716769,8.342578,8.221165,-0.42849687,2.3582983,15.032172,14.029795,-1.7512344,9.096791,7.8226438,7.208664,13.6605625,15.341271,20.039064,8.291862,4.079632,12.836519,4.8857093,4.230324,3.01398,15.285749,5.3847713,1.2976422,2.0980082,3.3440347,7.6449676,8.633186,3.129612,3.5762773,3.9723153,-3.5122066,8.63489,2.006048,1.1373888,2.0104282,5.4533734,-0.46214843,-0.2556691,0.46042037,0.83077794,8.361833,4.795043,3.024951,6.9496117,0.73435026
169.png,11.8201885,3.1145785,1.4716889,13.324627,11.070787,7.045216,6.2729135,0.07018358,8.329085,12.527359,7.6811075,14.45156,15.172547,7.2027335,-0.35969663,7.043433,6.1481857,37.00976,1.1602383,4.266015,4.7665844,1.9301629,4.5939393,5.308508,3.105464,2.8422832,1.872366,-0.64512587,0.23085412,2.5185304,0.39532948,7.9634233,5.073932,4.3781514,-1.0172784,4.2288585,-2.784548,-0.8416023,5.4373846,5.9096665,2.818799,-2.3644009,4.0492425,-1.4336637,4.4914885,4.262282,-0.049686432,3.670428,3.7249713
170.png,13.746855,5.581231,2.5987155,3.676267,14.921765,-0.16338956,-2.7325602,12.335478,2.2225335,12.222368,16.35871,-0.7904541,19.038311,4.7620697,19.901184,-1.3183684,2.2604,24.919289,7.7940793,-4.0409145,-0.54816496,2.2721064,3.740512,2.9730542,4.359915,3.79187,3.033423,-1.1631929,2.4876385,17.255291,-4.264597,-1.3420696,-1.2758945,1.8167652,-3.8709738,8.088359,-7.7266917,4.1610665,1.3572637,3.4295936,-0.54765064,6.7146854,1.8226835,-0.5479112,-1.5621129,3.8864303,0.9496277,3.9346821,3.6912177
171.png,0.8000011,8.943788,8.936157,10.880475,0.26146975,4.85469,6.1930456,12.344323,3.4327724,21.253307,14.739974,16.463959,10.931613,9.071883,17.47673,-0.70824754,4.5781794,17.947542,2.2847764,-5.1066694,3.2384627,3.4794345,13.238567,-4.699346,3.8481991,-0.42960587,5.57373,4.421406,4.3047724,13.348254,0.1453614,0.58915496,-0.3454011,-0.27062866,-2.2633255,8.492519,-2.9541786,2.3589,3.881302,1.2663231,-0.80816436,3.7663877,5.304431,-1.9073125,13.728529,2.1184404,2.896813,1.6090248,3.924897
172.png,-1.7822018,49.292744,11.237396,-1.7075179,5.9173326,6.628369,-3.3583431,0.48190957,0.56357616,13.077057,7.9099565,-0.52277094,6.510268,7.14199,-4.5882444,-2.99718,6.3446984,23.976202,0.587589,1.4098519,3.6186836,3.757967,0.7208855,-4.034405,3.2860138,-2.2067823,1.0332137,2.0918255,-2.0536494,-4.726683,0.10751244,1.6808176,-1.1145304,2.943978,1.1008626,1.0280418,-1.4820931,-4.7012153,5.141864,-1.2490194,1.4801457,3.6155086,8.070395,2.3220718,2.4166236,2.4343603,0.9265736,-1.8579684,-1.1539664
173.png,16.95045,1.8734807,1.3042383,1.7142438,13.695521,-0.13700518,3.3673682,9.141864,-0.16012453,-1.5755488,10.596325,10.37718,33.163605,4.9594665,14.676226,-0.5207683,5.191259,32.618916,0.8784895,-0.31574956,8.380326,1.2243636,4.0185294,3.5117686,5.526328,3.3992753,5.459727,5.7001557,12.0081,7.199278,2.84496,4.1230855,1.2317777,5.055507,-0.5455589,11.9646225,2.3862858,-3.6305726,3.6960547,7.8658686,0.61492175,5.863362,0.015342515,4.0020785,-1.4610157,2.177045,4.6691923,4.6588564,4.210046
174.png,11.793349,2.6786926,9.038026,1.8122909,1.6392012,6.8880944,9.404559,18.254812,-3.413758,-8.282547,10.12232,0.3558144,17.091347,7.0195503,4.932827,6.7985783,10.708601,20.594362,-3.9419837,-2.4475641,3.689789,9.141946,2.5219197,1.372986,1.4087785,1.3447944,2.5611508,2.6162639,17.241724,-0.585184,9.537051,8.694367,0.04123398,4.3847914,5.345288,7.3491564,-1.7690328,-0.54499173,9.043425,13.702671,-3.2046027,4.9187407,-1.866699,10.111972,-2.260517,-1.4517742,7.9646387,5.4965315,5.982551
175.png,14.850399,38.66043,2.3878527,6.5355816,14.00538,2.8462794,1.6430696,1.3406472,5.058245,6.7431355,11.318753,10.184478,5.20584,5.041018,1.0768552,1.5290012,26.650875,15.653065,38.078384,-0.0898052,6.118264,4.614361,-1.0482616,1.9220093,2.6596038,3.4004583,5.6254706,9.512017,6.5425963,-3.8199499,0.6620404,2.6835973,0.34431553,-2.4051573,-1.9267923,-1.761795,0.83429927,-4.3266954,-0.15981588,4.597093,2.682289,3.9889784,0.27784324,3.3333962,1.6532815,3.4408922,0.86834294,5.8055205,0.6903996
176.png,11.629343,5.498656,0.59576344,-3.887795,10.899892,7.3910193,0.45225465,8.138723,-0.719564,3.9516277,7.9714375,11.980033,11.213795,9.809851,12.5458765,3.8664587,-0.40824994,15.302237,6.348835,5.1861415,1.2607185,-1.1221858,3.8822944,0.69485503,2.6215668,0.34615397,3.5580873,8.381644,16.187197,8.500165,6.9549007,7.1186438,1.8295481,5.751276,11.308891,0.9794141,3.766662,4.925577,-0.5295802,4.3743567,3.5340652,3.0428805,5.3494105,-3.6873991,-3.3463159,3.7033029,6.5100713,0.03623683,5.4226966
177.png,19.300102,10.040383,-0.78820735,4.960388,14.24605,13.767466,3.966605,17.12344,4.9806733,4.907968,11.478572,7.334827,23.704493,8.849768,3.3432956,2.556406,12.840989,27.349937,20.916609,4.725542,-1.0705296,3.1942003,2.9762776,-0.8405184,7.8961835,5.8991046,4.1951632,5.7447467,6.3581715,3.0733538,4.1764483,5.5444236,2.66911,5.6456184,0.5575333,-1.2720964,1.552763,4.426641,6.848882,8.020836,0.3317684,4.8314466,5.726513,-1.444695,-1.8081834,6.877981,3.930352,-3.448049,3.0069907
178.png,22.908487,2.6827703,-1.4343494,6.275943,8.17936,-3.731047,8.312023,1.7912656,-5.3454256,16.030983,10.875181,17.959278,20.312422,8.051813,8.791246,4.3946257,11.047283,31.886185,0.7556336,-1.1933188,6.530558,2.3422618,8.049456,-4.868907,4.4224844,1.4886692,13.321405,3.2775476,7.0451274,4.552944,-1.0486804,-1.1231451,-1.1892687,-2.7536666,1.4402636,3.5379887,3.3899367,-3.2088063,6.9156313,10.2748165,2.012131,-1.273819,-1.3100985,2.5736916,3.3260353,-0.28756076,3.798475,3.5545225,0.44349143
179.png,3.3081532,14.795033,6.2851453,7.33051,2.527586,8.989131,10.194792,4.511168,4.0141163,19.15847,3.1980627,0.019982923,3.0994508,6.19366,-0.18406017,-1.5072757,1.6224549,16.467209,6.7879243,0.21954161,10.779844,3.1679676,5.080227,-4.6394,8.68087,-4.463741,5.461361,2.0294127,-2.9420857,2.3398323,-8.034412,-5.693816,1.5934712,0.7526611,2.2244253,2.8905478,-4.323683,-6.9898167,10.3048115,4.214405,-9.7315855,4.3899817,2.4545186,-3.2065182,1.2230325,11.072402,-2.7234972,-2.2853758,-0.5979619
180.png,18.468613,-0.9231342,1.638243,6.8925643,13.335186,7.1408615,20.956604,10.57485,-1.2128993,7.2088203,8.552434,15.165859,18.61727,12.850791,2.9944713,0.8679055,8.748932,25.951725,-0.4529398,-0.11514872,9.508319,10.969617,1.9895453,0.07166742,1.5107608,-2.174613,1.5887195,5.642993,11.108779,0.11517359,-2.5684483,6.160282,7.2825894,1.3427441,-0.09442596,1.7736068,-1.7340169,3.9299011,-0.6555922,0.9028319,0.21671616,10.571064,-0.53958094,-1.2742386,-2.65758,-2.269415,0.9985964,0.14051832,2.9470115
181.png,12.395005,24.277685,1.4627895,3.3487778,6.13745,2.908013,3.1551018,2.086807,-2.3826766,20.283176,7.247194,0.1500411,19.575142,0.36135972,5.674496,0.77076715,4.7992997,29.384762,3.3285413,-0.18842947,-1.6266681,1.2036437,3.2977839,1.156209,3.1723838,-3.0794013,6.774979,-0.639966,4.0314956,1.3247739,-6.110827,-2.2163422,-5.1969185,3.021937,-1.5199587,5.7361164,1.7037902,-8.45767,5.014361,5.598486,-3.989478,0.56633,7.6473737,-2.1929395,0.3802716,2.7793632,-0.29624814,-0.5095043,-3.0969963
182.png,32.26348,2.415382,-2.334166,8.344193,1.6207205,10.303386,0.8976031,2.426511,4.186597,3.1900861,28.776228,1.2299504,16.86602,6.664606,-3.4714036,25.55038,20.304996,28.440384,4.0008354,20.023766,4.0246744,-0.5354532,2.026039,4.6937914,5.2411485,7.750246,7.562004,15.88224,6.8175597,5.8388524,4.944821,-0.13094442,5.3927975,5.297352,0.9233184,13.39772,1.4543092,-2.2920675,2.5546381,2.419588,6.717139,5.1055865,5.056147,0.42535308,1.1203191,2.9401813,1.8186793,3.317703,4.7235703
183.png,-10.913698,11.652946,12.340833,6.8732543,7.7874465,13.558781,4.9473195,-1.634857,-0.019447878,14.624624,28.392094,5.393162,6.5013027,7.215929,1.0956094,-0.383575,20.603857,21.413826,-0.7325053,3.6713142,0.19900534,7.363652,11.28615,-0.014834106,6.7682424,4.9695153,3.2740333,-6.1704016,4.597641,3.4637048,10.654021,3.4964774,3.6639814,2.5613542,2.5486088,6.576082,5.828581,3.4595842,-3.1030035,1.6436849,5.538024,0.94309646,-7.012762,0.40071285,10.039342,0.775765,0.55463576,-1.3688345,1.0838463
184.png,10.7070265,5.5170355,-1.2920291,2.490875,5.9515977,19.186026,9.468258,11.558123,-1.4944248,3.8577466,14.494179,11.030477,24.548182,10.412841,7.919578,0.32465625,14.002352,28.751278,-3.844916,1.3306901,4.8385367,8.386996,3.375699,1.1919463,2.5856516,2.495637,-0.91111064,3.629754,17.750818,6.312696,4.7271094,7.9243345,2.6309154,1.1623933,-1.2026528,4.0402107,-2.8764758,1.0145215,4.0274014,1.0285529,-3.5949974,4.7541156,4.8659854,4.1808424,-2.7273886,-4.189956,3.8700871,0.4544221,4.4623733
185.png,0.7337616,9.2832155,13.470279,1.6453028,8.314924,8.901452,3.7332563,0.9554794,4.1013107,25.822147,17.29343,5.635601,14.206812,8.5961685,-0.021822052,5.7113466,7.9399743,31.522375,3.9083443,-0.065928325,4.8028936,0.11616219,2.0282571,4.0632153,6.325022,5.1581216,3.0873542,3.239166,-0.94390756,5.2674093,4.409853,0.77465636,1.360519,3.5947063,1.2272894,12.851506,4.8576026,-2.762291,3.7397645,1.1674529,8.494885,2.467661,7.4225373,0.67645556,7.6140485,3.6599538,-0.5204467,0.41079688,1.23084
186.png,17.29204,8.776227,2.3804107,10.545054,8.745949,6.0766554,4.838265,7.5730934,3.1930134,9.654681,9.818934,3.610688,23.448639,0.08759917,0.9620075,3.6075804,16.885096,28.404411,-0.6147287,-2.1697903,7.5964956,4.6522264,2.7666688,6.8004503,8.37493,1.9894663,2.1751082,0.9532808,-1.4642452,2.0430586,-2.3295958,4.561509,-1.6086966,1.6153117,-4.816419,6.935076,-1.569377,-0.3720054,15.3941555,2.8687599,-3.9925282,7.8550353,0.69418156,4.225779,3.5639002,0.6865036,1.4943706,6.0254493,4.799876
187.png,7.2221904,4.9410505,1.9116206,2.5225916,8.698431,7.24298,2.3159366,0.25457796,4.827815,7.9714775,23.612299,13.389915,9.635477,10.492228,0.3913899,6.045924,14.889749,34.31346,-2.0409608,4.636499,1.7369297,-2.4900212,4.406683,-1.3257031,3.6845696,-2.962709,7.3417706,3.1953664,3.788834,4.8501554,-1.0890033,-0.12015058,-5.312615,1.0300344,5.0625544,4.799685,-1.5566214,2.0455499,-0.18732455,2.2842863,-2.8710837,1.9965887,2.242804,-0.5783285,9.703271,-1.925496,1.0832816,1.9752015,1.2398746
188.png,26.638165,1.6302963,1.2101583,0.44218144,2.8790817,3.020345,12.3091955,50.861404,1.1066108,4.711203,5.1237254,6.164506,23.374876,1.3873907,7.7885485,1.006229,4.9267316,16.463371,-2.4817748,-2.8597984,4.1097856,3.2439058,2.4971898,1.9146274,3.2067668,1.2308007,2.667505,3.8527749,-1.9970258,2.8046548,0.077698566,-0.33696726,-1.0816519,0.9390621,1.6841325,6.6038527,3.6021285,-0.25751346,4.9256315,2.6302462,1.6071353,0.84461606,5.5485435,-1.2304363,5.139172,-1.6620483,3.023376,7.315192,0.4521562
189.png,8.951505,11.944452,4.124923,3.7452166,9.918435,12.684224,-1.0345477,7.2715163,5.974065,14.369132,40.705948,3.422822,14.812011,7.3118234,23.935646,3.3477004,16.802494,25.882833,3.0740485,0.35758185,-1.8921361,-0.6440954,11.973006,6.405995,8.465494,3.16476,-2.0202117,4.169123,6.799491,11.259336,0.7072945,-2.8625069,0.1921099,3.6340964,-6.1445155,1.5674772,2.4988937,6.016649,2.0455618,-0.36099803,-3.3065042,4.6300836,1.2871841,0.3830465,3.3244371,-2.2800987,5.9208283,-0.536622,5.9434905
190.png,14.529255,36.289005,-4.4823036,19.790731,8.783604,8.516713,5.594734,7.327558,2.1748872,4.799227,10.70469,17.946419,11.030149,-1.6770743,3.972441,16.428125,21.208794,17.869862,1.8709272,1.3100823,1.4209001,9.00493,-1.2706099,5.237865,6.2677913,2.8708272,8.837075,5.398299,7.9056168,4.4721885,2.9048035,9.527889,6.0304775,5.753079,-2.243457,9.053462,-2.3752666,-1.7908413,2.7130115,0.43381566,-2.7225935,7.072918,3.3312716,-0.661146,3.732841,-3.3891044,6.7563477,8.503177,3.86523
191.png,6.025036,5.529794,8.423045,17.33039,11.098873,3.319131,0.16812235,-0.59240264,3.8485188,19.40709,6.490425,2.9296029,16.786505,14.2672,-5.110925,5.2116947,13.910188,21.389011,4.077221,7.2586575,3.1338654,7.7453246,3.2561462,6.08649,7.380623,7.965929,3.9755754,7.2752013,3.6287382,-3.206281,10.99188,4.2254386,0.20320415,5.405478,1.5005834,10.301455,3.3015952,-1.8665645,2.231308,2.51828,0.4555679,6.083738,12.373436,0.23917738,11.025407,2.2130797,9.177921,1.1809762,0.31591117
192.png,6.4390683,10.948796,9.384205,6.698984,3.288328,6.2893734,14.443874,12.023733,1.6795067,16.15581,9.477913,7.477368,9.057229,7.8807025,4.4354925,4.3855324,6.2559185,13.482396,-2.5606372,5.0540338,8.098635,2.6599686,5.2841945,-1.7005354,5.4590554,-0.57987386,6.1641536,-0.80681705,15.153739,5.8334665,-2.170976,-0.18853098,3.165685,1.4045211,0.32155198,5.920648,5.61559,3.0427394,2.7222826,10.283977,5.2151637,5.02644,0.6804671,-1.1753951,5.8062053,0.71667826,1.2396717,-3.8578432,6.5731974
193.png,9.879108,40.017883,2.8118584,4.036683,10.025405,0.7334974,-1.1336869,4.1262097,-4.0639205,8.2415695,8.50889,2.8879247,27.508598,1.4145815,-1.832306,1.6472988,9.60914,22.271206,8.121425,-6.961915,-2.3743114,7.208574,0.32952783,4.9447274,13.527565,-2.82632,-0.009333622,0.72263414,-0.31431368,7.4201746,-1.1235253,4.97159,7.4034505,3.9268904,-1.7173502,3.6177795,0.118732035,0.9918059,8.45238,-0.8072404,-1.1420705,5.166383,4.6633644,2.3610036,2.7528825,9.174045,2.8923612,5.6971493,3.9136443
194.png,22.218214,0.47585988,0.33441037,1.9831074,8.637349,-2.523574,2.7256775,13.763369,3.9942987,12.29478,12.378144,11.140769,20.224457,4.504783,27.080744,1.7394956,7.2055326,23.49723,-0.44248736,-0.15101042,9.704456,-4.5064964,2.4071927,1.267669,9.017565,-0.41231886,6.0790496,6.296455,5.0348854,3.313897,1.157316,-2.3763463,-0.04600093,0.051202346,2.5756075,0.92001015,0.5782323,-1.0675406,3.0966856,1.7539163,-3.2030292,5.126257,0.1824759,1.5966141,0.337885,-4.55031,4.5704885,3.0348225,5.387375
195.png,8.513011,0.14735824,51.91524,1.9729912,-10.055958,-0.057280995,1.2113616,1.8904872,0.39514992,15.85044,8.458599,4.7237988,10.593652,4.1768847,2.6581988,2.0835626,3.1755672,12.850599,4.491871,6.1373363,14.088864,-3.4591646,0.6975961,1.4106112,3.7835212,0.26470026,10.094103,-2.62963,14.286802,2.401409,-3.314417,-0.89402694,-3.1894279,3.9659367,2.2904248,3.0522723,6.2860265,-1.6396774,0.19936246,5.8945484,14.429079,3.3487887,-2.6002896,1.1246674,2.946531,5.1501107,0.38650241,1.8755466,-0.38401884
196.png,31.737862,49.76065,-10.429268,2.3759727,19.136957,1.6588651,-3.823471,4.120681,0.46650767,1.295333,6.676585,16.806501,-3.7971714,1.4781975,17.35176,15.864719,12.166308,13.443515,15.155327,8.810373,2.26871,-4.903125,-1.6009417,8.353993,7.4558296,4.636555,-1.7543719,-2.1457505,5.5753465,5.9567256,3.8431163,4.1785207,2.9637034,10.937678,1.6851224,3.8509476,1.0569426,0.6373174,-2.310526,1.5383025,2.8398073,6.4398193,6.7825003,8.041316,4.95291,1.0004889,5.7395816,6.2130322,3.1003883
197.png,11.501161,0.9075789,3.6710746,2.8977227,3.7895322,-0.45442554,0.1286596,21.536333,-0.3039995,11.313113,5.933721,6.714903,22.067257,5.6071873,0.85463154,2.234362,2.5961215,13.457348,3.4701817,6.9746733,7.024104,2.1221235,0.9439738,0.35223728,4.0253234,2.7885647,2.8087482,3.8604877,12.688562,7.9556346,0.35288668,-4.6898837,-0.30969837,-2.5159338,3.8283982,3.8238802,-3.3868716,4.9564877,7.444308,7.958926,-0.83123165,7.0014343,4.325869,-1.8789828,0.9380335,-0.43493393,2.9849968,-4.8139067,3.0874584
198.png,6.3997,7.355077,4.4198966,-3.754747,13.683605,8.467164,3.6729145,3.8149588,2.8445308,8.222734,29.194519,8.849282,18.819294,7.2387347,27.480003,1.5181525,13.001564,25.54535,3.820671,-1.378709,3.4515784,-0.15074997,3.499157,3.1938393,9.346699,2.0269227,6.9036117,5.2039027,5.4026113,8.559579,0.6579682,-0.5994964,-0.7570657,5.270281,0.62894917,7.5358534,7.4034586,3.8294926,-0.06504897,2.4682062,4.0263352,6.127236,-0.69304657,1.9639533,4.215119,-0.58355814,3.9969218,3.001619,7.7676954
199.png,4.038607,12.185877,8.445813,3.7085652,-0.38411504,6.984876,10.127068,8.992529,-5.851658,8.86961,8.062605,3.9337544,17.979538,0.50209975,-1.0691487,-1.0581448,8.07038,23.302847,5.502233,7.8763866,26.83202,6.4485335,1.4108617,-6.7414002,7.599011,1.1644081,15.687485,1.2899971,10.3652115,1.5891324,-1.764422,4.031509,-0.611053,1.7364439,2.9879787,0.54832834,2.2514133,-7.008349,5.971465,16.091175,-0.7434299,6.264211,-5.201058,-4.6952553,-0.37874794,-0.49050227,0.17636307,0.8214403,-1.2758218
