image,0,1,2,3,4,5,6,7,8,9,10,11,12,13,14,15,16,17,18,19,20,21,22,23,24,25,26,27,28,29,30,31,32,33,34,35,36,37,38,39,40,41,42,43,44,45,46,47,48
0.jpg,0.35398287,-1.2433177,31.784885,10.261408,19.775087,8.156931,9.519137,-3.7813134,5.7965736,22.156391,26.163265,18.45008,0.7132708,9.891051,1.854839,1.0342568,4.260714,20.80757,7.54553,2.1164432,1.4512889,-10.806619,3.2438014,8.520574,0.99292684,0.7828122,0.34967047,4.8448215,0.5280379,2.2750263,-2.7758524,-0.8756947,0.030551292,-0.6488867,-0.19536875,3.0598698,-0.30158395,-0.23550689,-2.7469747,5.0365047,3.1264868,6.2020698,9.010718,5.865338,24.545668,5.6237917,3.5089633,4.8663044,0.85381514
1.jpg,5.5852485,7.473776,24.551891,14.779133,2.1648498,8.277808,3.2544777,26.62049,-2.812376,24.776571,10.17885,11.016152,5.6095786,14.97274,5.434573,11.442605,-3.2485173,7.048129,7.3447957,-1.0815234,6.983713,-1.2512399,17.130339,-0.13447623,0.117112786,4.1657915,7.807276,0.5783798,9.63966,12.709056,-6.446936,1.7554442,0.07474385,3.5603724,7.7647367,0.34895417,5.4202394,3.8961344,2.546601,10.155462,3.8305073,3.6142032,0.4009337,-0.5099293,9.881522,-2.610465,-0.10759346,-2.1031,-0.577914
2.jpg,-0.88527685,3.8880646,22.132769,28.321032,4.8701158,5.4154,13.168514,11.811692,4.0599327,28.99694,11.779855,10.748085,1.082783,20.213562,4.4115143,2.3787658,0.7600594,6.487736,1.0099018,6.275353,4.772981,-3.7926211,0.21114908,0.82848036,5.478679,1.6828723,-2.109724,3.6396842,4.081582,0.5207676,-3.645011,-5.2691965,4.6904206,-0.20653522,-0.74753964,0.86953044,4.434903,3.6844783,-0.72648,5.8179955,1.1047497,5.502411,6.5113196,7.9703374,15.920445,4.8827195,4.7070384,3.475792,4.99153
3.jpg,1.7848836,18.43802,20.148026,9.090244,-3.1470551,9.461031,12.846806,17.737484,-0.82932425,13.703236,20.131298,7.0770144,7.894887,17.58756,9.913306,-0.15874338,6.062483,9.416943,7.7585416,1.9899726,9.905825,-0.43480957,3.2879963,-3.9410818,2.5952823,3.3237405,-0.6027159,3.710174,11.317751,8.428404,-2.58575,-3.8874128,2.7129638,-0.70645714,4.6722436,1.7796516,-3.6901376,1.3186554,-2.696775,5.7055807,2.5568361,2.528866,1.0729132,1.6432729,12.666997,2.2129977,-3.2874093,0.22140141,0.34669155
4.jpg,11.918057,5.77847,10.967201,9.290064,7.378083,0.9409857,9.169972,-3.6742191,6.787695,22.62114,24.057987,10.07872,6.918429,48.673542,11.996815,1.2937552,4.7903204,10.176518,4.143653,0.16953927,1.6921676,-8.954084,4.2378435,-2.1304698,-0.18745027,-2.855559,-2.8247218,4.319463,7.4910903,14.601835,1.061332,1.6297258,3.808689,0.91389084,1.909355,-5.067415,3.3169575,0.47742677,0.37296712,1.4030019,2.910661,4.994967,3.3902507,1.4319817,15.245992,-1.9952159,8.8587265,1.8652211,0.26304984
5.jpg,-9.710511,28.80544,31.569752,12.2389145,1.2708323,35.762383,6.1753883,-3.6621788,2.5270169,32.531666,16.549284,14.328173,-0.97176266,3.0548325,-4.4536724,3.9438095,9.202701,5.1213403,14.685861,-1.3047434,4.8400292,-5.0476055,0.99193025,9.897712,-1.0761951,-0.98492473,-1.6442133,4.3506346,7.2398686,5.088542,5.815832,-5.308643,-2.7534995,-3.649744,3.0613413,-4.820436,2.1219895,0.7263517,-0.41514066,-0.76434034,4.819012,7.350715,5.916549,6.0931215,20.104784,-1.5866175,6.5230303,3.463775,1.6871727
6.jpg,2.0756521,7.854568,15.84034,19.893728,16.48816,9.407522,5.4691825,1.9109358,10.274296,26.199501,8.584049,23.514162,-7.251198,0.8221628,-0.3060176,8.271343,-2.1380303,1.0580142,7.9187856,7.2461734,-1.0304914,2.625738,1.8747654,16.1522,11.921229,0.1854741,6.4706697,3.8331788,1.0122348,-0.97695935,1.9556073,2.0604956,9.397437,2.0709205,2.4628992,-5.2476587,7.469715,4.641181,-4.7614784,2.9843938,2.8874986,0.5009297,6.3257465,-1.8315539,6.849342,12.466335,4.2309523,4.070096,-0.74265265
7.jpg,7.3983235,0.93598217,11.09046,21.061598,1.3238648,-4.7029567,9.675256,16.207237,7.089994,31.953558,11.412993,28.621996,2.9650156,6.3158197,1.9138916,4.275778,1.9530969,12.570686,5.7612553,8.735478,3.737949,1.6428847,-1.2416612,1.8873161,0.45621306,6.6588097,6.6197248,6.796294,11.197622,0.5477831,-3.965088,0.48770466,-0.8157844,1.5324798,2.2461255,3.4764874,-0.7361433,-0.7490717,-2.4231021,5.746137,3.0557272,6.517341,3.2673516,0.17229074,6.689522,5.471227,6.0198355,-0.1656971,2.0493054
8.jpg,13.610746,6.1004505,-4.888893,11.662472,14.0947075,8.957126,8.317845,3.6911943,1.2357314,9.850791,28.983614,16.913208,4.0608025,10.096229,5.560276,2.4487922,2.4911828,18.99325,15.082334,12.95299,4.709095,-3.110113,11.066051,2.7906823,4.673893,8.519212,-0.97381884,-0.33375314,8.198992,3.557757,0.36576843,10.901831,6.8127675,9.515642,-7.234579,-2.553319,2.4443681,2.796103,-2.0273395,1.4087824,1.2892596,4.7093253,-5.859999,2.8790102,1.0274489,-2.7882602,-1.997811,0.014810776,6.875021
9.jpg,5.9891295,6.463366,16.196682,32.394337,7.399314,4.204381,5.5356717,6.85829,9.568773,42.01872,10.192492,25.354967,-2.4636512,4.2156763,6.791567,-3.8008173,2.8993435,3.4081948,5.8829784,6.06169,4.513336,1.3172852,3.9792976,13.469829,9.9779825,6.7455916,-0.3852319,7.6092854,3.5480878,6.917079,3.1948395,0.44310334,-2.5953484,-0.5962003,0.91861105,-0.42936075,12.337972,-0.7510531,0.6788889,3.1677265,6.7007647,5.554499,2.5767112,3.2991788,2.4789972,-2.1979253,2.523819,1.6450733,5.0013185
10.jpg,7.191095,-5.090021,4.397344,6.36718,1.2960252,5.082679,17.647476,14.623783,15.994853,1.0180771,12.902074,16.970993,0.86589104,3.919531,14.023377,5.4163103,-5.115011,3.6092134,7.003579,10.296591,36.897587,5.0349283,4.1192737,-0.44325256,1.1279836,5.290975,7.3274226,4.9642997,19.050795,9.92215,-1.4294541,0.67936146,2.1257787,3.7355947,6.1518097,7.976158,-5.1325793,2.9005587,-1.6020447,3.6998677,2.2778506,12.715043,-2.23476,8.526608,2.3013725,7.54077,1.171152,4.3998175,4.527208
11.jpg,18.182373,1.5209272,11.000785,5.6562095,19.860872,12.897377,24.073936,11.522984,39.305176,7.886093,10.145833,21.833897,1.3614104,7.5340257,0.93832964,-1.0410013,8.022947,10.146475,1.2815505,4.453595,14.786665,3.1795337,0.26740086,4.1278634,2.996175,6.496914,6.3039994,4.2093134,3.5660603,0.783593,1.8223743,8.5483675,4.95318,6.2940516,3.3796017,-0.16041324,3.4584432,14.024117,12.728042,4.6099133,2.0900798,14.438714,1.1018336,7.461876,2.4885921,3.1728268,2.6989653,1.0503443,2.7942636
12.jpg,3.7527947,-1.4647198,53.83879,20.01976,2.8805978,8.270462,3.0330625,5.9819417,4.1351185,17.277668,13.124712,8.105091,5.1831207,2.7131479,1.2526183,1.8072655,-4.5761304,10.608235,2.8280659,1.3074766,2.2194078,1.8369248,5.3370953,1.8276843,3.0502117,-0.6469173,8.050315,5.831386,25.075098,0.4973578,4.15356,1.064983,1.7575165,7.8016586,9.295651,-3.894484,6.951004,2.339705,-0.42899978,0.53567487,3.5928807,5.271342,8.441097,6.878143,-0.07365406,6.0715785,5.4630423,-0.9571951,4.681321
13.jpg,2.3152287,2.4938314,28.866613,15.436048,11.085042,-3.8994308,2.3991666,1.3110933,8.977503,38.8197,10.465502,18.720291,6.2193255,0.88116294,3.2800417,2.091658,-0.37368387,27.498049,-0.57277626,-4.362142,-2.824399,1.0828688,8.080385,7.118008,5.1724663,4.6908016,0.2064038,6.541236,5.8617992,3.060183,7.1222506,4.6419306,0.57141,1.1474606,-2.503913,-1.9193165,6.489779,-1.7981148,0.93447846,-1.1070936,13.101053,1.6247339,6.2201176,2.854047,7.227777,5.650195,1.6877158,7.5759506,6.3318944
14.jpg,19.23041,2.4083185,11.244723,4.8061395,7.8580084,5.362443,29.44991,15.264543,14.729723,6.0462155,12.333085,33.148743,-2.2101011,-3.0496936,2.0186799,2.090823,9.491628,12.5870285,2.369445,3.6771946,10.084399,5.93167,4.7481627,1.2069331,2.0442832,-1.2190493,7.0379415,1.2792525,15.39814,-2.4319258,2.1633513,1.0375983,6.364601,-0.42542097,7.0632176,-4.64048,-0.8977034,0.3876348,0.48316476,-0.3793397,-1.0015289,10.898917,4.347918,4.3633723,6.9731383,1.7377694,1.8139156,2.7958598,1.3019413
15.jpg,16.008774,2.2593744,11.547824,1.4340016,7.340546,16.165037,33.28288,11.582571,24.213823,4.9256773,11.979512,17.908266,-0.12122765,-1.2905524,6.0818496,4.10454,4.2613983,14.498287,3.6650553,4.067234,-0.56291485,8.9256,2.203172,-2.602364,2.6897278,-1.4868186,5.877855,2.251186,5.69626,-0.20270869,1.694264,3.8213484,3.2650504,1.6861207,0.29585314,1.6022112,-0.05975347,0.13418147,1.017988,6.1146903,1.1013529,7.603072,-0.37260836,3.811627,4.8408303,4.0997744,0.24269833,3.770558,3.090537
16.jpg,1.6071644,-0.55293006,14.354086,4.1506596,2.72163,26.54873,36.778893,9.854645,24.215055,1.7140105,15.64178,16.58949,-3.95749,7.3883,5.1511765,0.039643794,-1.9619985,7.833086,4.64881,10.358325,16.431038,5.9700413,4.7453837,0.052350853,4.3642325,-0.7785939,0.02832478,4.4489107,10.352296,-1.7361442,1.4432732,1.5376546,6.0127206,4.2118716,3.5636842,-0.9269123,-4.874508,1.6284094,-0.014501787,5.7169647,-0.54161626,11.771921,-2.4030974,3.420905,1.4609243,2.2941177,-2.163471,4.7421074,1.5859909
17.jpg,8.935671,5.895501,8.540863,-4.6929173,1.3508011,16.040451,2.904003,18.919973,4.9391456,-7.7255783,27.904118,8.267229,16.983728,6.327597,23.011824,0.014670193,12.38873,15.477151,5.160304,0.47893524,1.3695365,2.3653624,7.372296,-0.44540745,4.5828223,3.987829,4.278034,7.6586843,8.841295,9.278438,7.656545,10.096481,3.4883716,4.1017547,0.45654196,1.9494613,-4.8432612,2.5414302,9.288258,-0.7414126,0.15039183,6.2937565,2.8163567,3.4556427,-3.0355136,0.8925145,2.4251082,1.2486687,8.520679
18.jpg,17.775034,-0.17735963,6.059312,8.873669,6.0030856,8.288184,2.888214,17.08294,10.5529375,0.9528801,22.336653,14.0179205,18.489937,11.531213,4.767913,2.1808612,5.8637805,15.88733,6.9199295,-0.7721425,2.8542004,2.4071918,13.598249,1.8931829,2.8375363,5.8164434,3.9956305,6.162586,7.5242176,12.172716,4.0703726,9.284652,8.131708,3.4121816,-2.4515352,-2.8174229,1.7090374,3.2833562,10.545832,0.58478713,-0.9677523,8.490992,10.907121,10.809508,-1.2875656,3.6460452,1.7455266,-1.3010274,5.940575
19.jpg,11.730977,2.2822862,6.8501363,28.54462,-1.2344549,-3.2808032,-5.529678,6.2410874,-3.6203082,25.519108,26.633041,14.7023735,7.229479,10.904178,20.740982,0.6877068,-1.8885719,7.2627134,12.364825,6.9266148,10.991532,-2.3281188,4.5023575,9.329939,3.0346627,7.1222024,-1.8840849,12.809506,16.331436,2.997371,-1.4734395,5.93723,1.1897132,4.988762,-0.98276734,-2.5763109,7.8640723,4.1659,-2.0901394,0.0055944547,1.732968,2.5501575,1.4555331,5.4146667,-1.839443,-0.057970267,4.4794693,-0.45999187,8.378701
20.jpg,-13.725053,11.287781,33.74187,10.531649,4.9639835,17.60761,9.051907,4.574398,3.1882777,32.861362,7.3222528,22.480646,3.7334554,0.2727897,6.928538,-2.6949384,-7.6931133,4.9816074,5.5382056,-2.5775845,11.654233,-2.0304523,-2.865734,8.716268,7.781528,-0.48858795,-0.5896623,5.3921423,8.800498,2.3656592,6.260372,1.8312188,-0.23911837,2.1254678,4.3503423,2.521751,5.524256,-2.250361,3.4647698,-0.1694765,5.9918604,3.0052729,7.2224216,3.5007267,7.8160667,2.0902612,3.404931,4.735067,4.7116213
21.jpg,-6.5000324,-2.3059402,14.578497,13.997783,4.9951105,6.9691973,14.895819,17.761583,9.531909,24.700888,19.720312,32.71904,11.708513,8.586896,8.5816145,3.564594,5.029101,16.170218,3.2236311,0.5553486,3.5023115,-1.8227134,8.148878,3.3326328,3.3128037,1.8738604,4.532343,8.811591,17.041258,9.742868,-0.9129281,-4.088585,-1.2202345,1.246051,-0.69742155,-0.7069069,0.41554672,6.497094,2.4506195,4.461826,7.9500494,9.420035,5.682062,2.8173833,5.3316817,11.7109375,-0.8720616,3.3314931,3.2695725
22.jpg,10.789206,-6.959048,13.174136,-0.102869794,2.4775603,15.308592,22.085806,21.746042,8.018886,-1.3097386,19.456955,16.431314,4.5079513,3.786309,2.315165,2.619343,7.5055003,8.1486225,4.2319937,2.7499943,15.2195635,8.599915,-0.8423034,2.406513,0.7539855,-6.418091,2.5536902,8.139905,8.581187,5.634633,5.988832,10.605142,7.279089,1.0579997,-1.3386008,-2.6322982,-10.105169,-0.5572338,8.26797,-2.784074,-5.8843718,11.09735,-0.5464902,4.9193697,1.1064587,-2.5602605,4.8123813,2.9773512,5.2115126
23.jpg,9.254484,1.5373317,5.258578,6.514026,3.348288,4.102969,7.728814,17.343508,13.512367,13.014719,19.884584,28.08271,-1.2846373,4.801237,-1.587918,2.818442,23.328056,19.495956,-3.4461365,7.1091676,8.305644,13.749907,3.2498121,2.5330923,-1.01773,1.350861,17.43001,15.58617,8.141534,5.962865,2.0378642,3.654058,-1.4096789,-0.9232341,3.0524426,0.74841154,-0.083038025,-3.8310423,4.8052354,2.0731564,0.25618058,7.462717,-1.052556,0.36345026,1.713361,1.5447676,0.5593224,3.525298,4.6714892
24.jpg,12.609995,7.568781,22.66325,22.345802,13.631992,-7.130143,-3.3682532,6.717385,6.3645363,33.312054,10.439335,38.160015,1.6022222,-3.0307817,4.8957715,2.9143941,1.7678006,8.028286,13.546538,-4.365203,9.082402,-2.9758427,4.3719664,13.274217,4.723437,9.316087,1.6042031,9.875658,0.77329564,2.7424405,-0.57416904,-4.2871146,1.2663153,-5.9735494,1.2137345,2.3145816,-0.16709995,0.9555979,-3.2022967,4.398515,8.35045,4.934493,5.918168,-0.3792419,5.972942,2.34431,2.3507037,5.2662134,0.059203804
25.jpg,12.691296,2.4435906,-0.7898253,8.969763,6.621775,2.3279634,21.010803,10.977851,10.916874,-5.4390693,32.035748,35.358204,4.602159,8.530713,11.720012,-2.120869,13.372217,16.305756,6.2877097,4.8063593,7.2312846,9.973235,9.104155,3.5578067,-0.75599617,1.3479415,2.4862046,5.515557,11.786222,4.578407,8.609184,11.841305,9.009926,9.199179,-0.5029639,4.7341967,2.9766653,2.1578577,2.9884336,3.6703575,-0.23053624,13.385765,3.6574357,8.161242,7.665809,3.5381038,3.8209643,5.2269797,8.375949
26.jpg,5.126281,-0.22328906,14.638174,-0.82246196,9.487019,25.19552,28.392616,18.53384,18.858545,-1.2297266,20.779509,14.389567,0.83409333,3.4753864,0.033688266,0.99393797,10.374971,13.88602,-1.747027,3.09078,2.8428295,11.629716,5.9284515,3.0208402,1.371608,-1.9501374,2.675649,7.0815454,1.993733,5.401405,8.3986435,12.26929,-0.09700763,4.329066,-3.0559711,3.4030538,-7.0893035,-1.5295056,5.773863,-2.532148,-1.9461694,10.8734045,0.5951097,7.50878,2.9076228,3.1226225,0.29950607,6.3797035,5.214733
27.jpg,20.277088,1.5818642,-3.005565,2.1198583,1.8653011,-4.387922,18.524986,10.577046,7.912287,-7.159467,32.202724,33.432133,4.9436398,5.1914663,18.883085,-0.51734245,7.8637576,9.858494,6.217009,8.556511,2.7800171,2.5437207,9.7231865,5.440636,-3.700538,-1.4975545,3.6344469,10.148472,11.745621,5.8071265,3.4685597,8.540989,4.117605,4.107764,0.35622376,-0.18361215,-2.6662166,2.2011056,1.9042912,2.1311643,-2.6648934,10.025447,1.996252,0.18772241,3.0730677,-0.34963265,0.14253715,3.5585132,3.4305186
28.jpg,7.8135195,3.886781,15.337935,19.861069,10.6086645,4.914918,7.106539,3.1625965,7.991021,29.13419,25.868542,24.765419,-3.6006472,3.9688687,7.254546,-0.7183231,3.225779,7.573685,6.42788,0.50458467,0.3184584,-0.91567224,8.908898,8.579752,1.9602364,4.4834533,2.5319717,6.925039,4.4104743,-1.4776074,5.6897755,1.3068019,-3.2292457,1.5056441,-1.3467673,0.13899617,2.0174668,-0.57213235,-2.3196507,-1.886083,8.400714,6.842976,8.330637,5.6495385,20.856285,5.27861,2.2104714,4.374491,5.741672
29.jpg,16.536606,5.606709,1.8557051,11.157381,17.688883,9.385185,31.880035,12.366629,15.045126,-1.7987572,12.278412,22.200426,0.3055378,9.545075,5.760537,1.9798647,8.714269,9.128198,0.32760048,1.8993464,16.823175,11.99211,5.3876987,1.549041,4.8583517,-2.4798532,4.7918105,5.7077117,3.3829088,-3.0343666,3.0355442,5.051474,13.2576685,0.34491596,2.2139134,-2.1093285,-1.5446801,1.0165412,-2.2823927,0.12989101,-1.2407385,9.117935,4.9142833,8.4055,5.0217924,0.2677094,1.2081017,5.1181993,3.787883
30.jpg,4.586114,18.332777,20.125393,-0.111432746,12.182776,13.800594,6.6612864,1.18581,3.9278731,16.676315,10.780005,32.156788,0.06480869,-4.825284,1.5049379,1.7069228,2.42699,17.41447,21.683437,7.4880695,1.6090059,1.6037045,-3.1234334,5.435883,-1.932602,5.2568154,-0.52819633,5.768942,8.276466,-3.6866875,3.2545328,5.154588,5.645862,2.5541968,3.310093,-2.226433,-2.539261,-4.3823967,-5.646292,-1.2179872,-1.8724844,2.1706696,5.0013757,-0.94272995,5.8306103,2.609288,4.6872263,1.84462,-0.98696816
31.jpg,16.641006,6.762976,-8.73106,12.805841,6.444579,3.981873,4.86352,10.264709,12.2406435,6.5914936,23.878017,23.7083,10.419411,12.821543,-2.400385,0.1638609,23.113426,23.74701,21.664867,5.1079683,3.427663,7.103032,4.707267,1.4736016,1.7306488,5.1401854,15.019361,8.930675,5.030897,2.2117543,0.6505551,3.2167473,2.72991,0.5669557,-3.7516556,0.19125101,2.7485797,-1.0478588,2.9734104,8.641349,-0.42044464,5.75528,4.4349904,4.479484,3.4324958,7.3785095,-1.1073527,3.4012039,3.03942
32.jpg,-5.2179804,-9.014956,37.64163,14.140466,8.157116,26.707682,18.567905,1.7804552,12.682981,25.083912,14.917408,19.097609,-2.7596955,6.3851795,7.0769844,0.008633174,-2.5967753,3.13433,0.7278518,6.6260233,-2.712711,0.543587,-2.5594587,13.035483,-0.029931206,2.9451413,1.9345634,8.97872,6.4990544,1.0266502,4.322802,-0.32095033,0.74242383,-0.9854467,-1.0291953,-2.600363,-6.8594785,-0.8846922,-5.316255,-0.46268123,4.0876675,6.9478264,10.933054,5.640398,4.9875183,3.7093022,4.823875,5.013056,3.107348
33.jpg,32.65212,6.226843,-8.765425,12.037167,19.744652,-2.7920728,6.704574,19.865013,13.081587,0.14491388,27.918365,29.932858,4.089349,3.8305755,18.579561,-2.8138247,1.4844463,12.35392,10.063732,6.56498,1.7359552,-3.4275796,14.970608,6.3431077,2.248316,1.2706511,4.596874,5.7324038,7.811256,4.6056175,3.4267604,4.5523443,1.5426868,6.909609,-0.5249616,-5.7070026,6.9632263,-2.201636,0.56265527,0.28663352,3.2100008,7.0783525,7.6945543,11.9717655,8.11797,0.47538298,1.0047364,4.7747173,10.145285
34.jpg,9.351233,-1.5202227,20.80386,4.2654004,5.754741,7.7417045,23.905338,26.244513,10.422218,9.069643,9.42331,11.228438,-0.12106104,6.774268,-0.88213223,4.1229463,5.9195266,15.113282,8.117119,6.310271,13.784066,11.291585,-1.1990511,-1.2979182,5.516889,-8.412322,2.917818,5.174626,6.420789,-2.4095397,7.5455384,9.0656805,-0.22392915,3.2932904,7.5280547,5.4725237,1.3717054,2.0726664,2.4590328,1.6285954,0.62782055,2.7268069,6.14783,1.0402384,0.7968163,2.5103357,2.5873928,-0.841378,0.27293676
35.jpg,11.592835,-8.376522,12.89821,13.567078,11.334668,7.210649,12.857416,11.225608,1.4987895,7.822892,17.191542,11.41963,12.148635,9.221,12.252171,1.2247481,-4.4171257,17.992607,10.341616,0.94755423,38.197838,-0.07107891,3.421651,-0.898094,2.988491,-2.9875274,0.2017904,2.6701615,20.363176,4.5808372,-0.7561563,5.329198,4.6281457,6.199162,5.274082,-4.4738045,-2.464608,6.84695,-2.0864706,-1.1030624,-1.5319775,6.359643,2.986305,6.2319794,-0.38939938,0.8238284,2.4921727,-3.5230834,1.2713466
36.jpg,1.1879513,3.9978988,19.954844,11.361046,16.369204,10.965182,7.7144794,8.984418,13.186164,12.43617,17.089567,20.904367,13.596712,1.3023059,4.8591585,3.8598702,-4.9754696,19.147943,6.768881,6.680792,10.060782,0.35226718,-1.5944471,3.4443471,7.778705,-1.8704603,1.157451,8.9692135,12.790784,3.7575126,7.298936,6.3725986,10.12631,9.493409,3.44822,-2.1518111,-3.1556115,7.3203564,6.2300415,3.4379735,4.360459,7.387367,3.5765543,3.8366585,-1.1534965,1.116454,3.0359585,-0.44833454,3.1473637
37.jpg,17.134432,11.704451,5.168396,1.558126,7.3978753,9.179764,21.749258,27.446806,6.1874824,7.269886,11.88837,17.905321,-0.14559776,-2.468549,10.041031,-0.663277,10.588943,8.487232,3.1494915,0.4866599,2.1810575,6.6887593,0.6012496,0.06838385,-0.48596078,0.46836463,0.4107386,7.7874436,8.870218,9.370446,0.67700595,4.010512,-1.3383564,-0.31881538,-5.467757,1.092664,-6.764932,-0.99829715,1.1649939,2.3406448,-0.30685794,6.235497,-1.5784202,-0.5002393,5.820314,2.1231673,3.6191099,6.9393487,2.9413295
38.jpg,17.593332,4.0715528,3.3083785,0.18753828,5.304453,-2.062023,16.722143,20.23252,12.315119,4.3370156,11.792481,21.778515,1.9248854,0.338928,0.53887236,2.8697505,11.644936,8.550951,7.695594,6.4623685,47.18668,3.2381938,3.9330893,5.612388,2.2572925,-0.75679594,6.07664,10.714534,20.326956,1.4886799,-0.74573827,2.609869,0.6753927,-1.1406491,2.9020112,0.61469275,-3.7966475,-3.9396122,3.2153296,4.4731236,-2.6531112,12.500329,-1.5412694,1.4887897,4.051899,-1.8127844,0.85152966,2.2635286,3.3063748
39.jpg,1.4535688,-1.3959838,14.866281,7.284735,8.794492,21.916292,30.970516,12.926869,16.055754,20.52706,9.628774,22.360321,0.41699904,5.4461117,4.8126807,0.03505885,-1.7490338,6.153213,1.7015653,3.0241442,5.472931,1.6112381,-1.1379685,1.7937876,3.5882597,2.760613,3.9662294,3.1222012,15.317212,3.3646982,-3.428505,-0.8036161,-0.2876497,0.63272554,-2.4959705,-3.3895254,0.7684217,5.729534,-0.89792526,3.2364435,-1.6172597,8.438228,7.8481183,2.5114012,6.375759,1.7276889,-0.30050856,-2.286074,2.885125
40.jpg,8.292049,3.4621038,11.436912,3.2121413,1.8384053,5.573904,26.397314,31.35815,16.955843,11.171788,13.275475,30.09002,0.7206675,-0.916111,6.049484,0.68636256,5.0208254,6.5549836,4.818477,-0.2150423,3.8501017,8.208718,-0.28204137,0.531232,-1.3115221,-0.96616334,7.0875897,8.337763,7.4889855,3.0614562,1.9014803,-0.22960156,-0.7973617,-1.5701778,1.6051724,1.8032353,-2.9037821,-1.2861855,0.25511533,4.0204425,2.1723156,11.348459,4.822542,2.8488808,10.249786,2.9247448,2.2928057,4.579926,1.4690379
41.jpg,22.433472,4.6470966,10.489641,21.428507,2.6385224,-1.3061857,3.0182128,9.59076,5.831083,25.141542,41.60285,34.797104,4.3956814,17.257236,13.660565,-3.80644,14.327738,5.7755995,9.55331,0.18023401,7.6229997,-4.5233073,7.8680334,6.702909,-0.7703135,-0.7838536,0.6627775,8.299804,10.341083,9.835357,-3.295838,-1.8329434,1.9935164,-1.242308,-0.07380804,-4.67903,8.470845,-3.9620128,-3.4555573,-4.4099035,3.6539652,6.1046305,5.844454,8.48993,13.510297,-1.8937185,2.3929005,-0.20752457,5.8680115
42.jpg,12.755675,2.0500998,63.826626,6.13699,6.7611337,6.240009,4.8116884,10.944137,4.146228,-1.3251197,11.067069,4.30857,3.7073545,8.240705,2.1514797,3.9458764,11.261723,7.2353415,3.2851167,1.0169526,23.456041,2.8498945,2.7554517,5.7729034,4.279399,-1.2043028,3.989019,3.38714,18.615486,1.8297493,4.740307,5.614616,6.944337,3.1839342,3.1106088,0.18231533,1.3185505,-0.25709075,1.3606933,-2.7923014,2.101975,0.9628847,4.9029603,3.200154,2.1514506,2.1132746,5.4419,5.788085,1.2675807
43.jpg,-3.5207934,30.245975,62.0979,2.9448428,-1.3358452,10.6459055,2.4872274,-1.0867875,-0.44040176,5.2630877,9.091824,4.719223,0.9104654,2.8890767,1.3025677,0.6876524,-1.2560967,2.430584,4.228885,0.09012996,6.7847548,3.7670531,5.164292,2.3328853,2.0745099,-5.2398443,0.7871572,0.1507517,11.562476,4.898756,5.438797,0.57149076,11.510517,6.929819,7.811226,-0.3029062,8.722784,-0.14013834,-1.8696319,1.3708792,1.5535159,2.7594004,2.539802,6.9275723,3.8960555,0.22541909,5.1892843,2.3265207,2.564642
44.jpg,13.202119,2.0631325,58.584534,10.562391,1.8912293,-2.9757812,-3.3567443,9.991746,3.3522897,6.129019,15.469601,6.1301837,2.3633265,2.9014118,0.2785826,-0.97935414,9.554816,11.8523035,3.940422,0.7435921,19.7938,-0.37981173,0.9085564,3.378075,0.2897639,2.2446287,2.0582023,3.20482,17.80769,2.267803,-0.026369095,0.7412319,4.6142435,-0.2301123,6.0240064,3.088376,5.2831736,-3.7674448,1.1623328,-7.6203213,0.5888351,4.144731,5.3224998,4.0895395,-0.27193204,1.1484184,-0.98430645,0.12759148,0.9483837
45.jpg,11.682857,4.9391766,12.304848,8.732928,8.935654,17.200472,32.025486,12.025353,11.204724,15.188358,11.421571,32.348736,1.033417,-0.0923309,5.1942253,0.7361358,4.5517497,4.7722826,7.3616223,-1.1751987,20.716602,7.8726635,2.6214552,9.244744,1.835224,3.6597617,4.5383344,8.564838,18.436216,5.344201,-1.1963927,-0.3960969,2.527163,-4.356041,4.575637,-0.15133107,-0.91711354,2.2115953,-1.1985632,-1.4391727,-0.08943416,12.704481,4.478767,4.130675,4.5777135,1.6103644,1.8903147,2.6967716,3.9062777
46.jpg,8.849607,-8.544596,12.128597,9.337045,14.508224,16.205847,24.397022,8.956429,-1.2321932,11.549444,22.403456,25.455778,-0.20763221,7.2927895,3.8229313,1.6418344,0.94249004,7.1294956,6.0054617,6.2385,20.028013,-6.047429,4.9476647,8.275782,2.8646579,-0.7724457,-1.0819868,8.816291,12.407545,-0.05286452,-5.410614,2.430051,-2.5000446,-1.1754665,-5.404634,-4.4673223,-6.1396985,-6.090103,-0.4588463,-0.24832897,-3.930429,8.555166,5.335099,0.8240799,4.167898,-0.4269543,2.6977592,2.2945936,2.9109995
47.jpg,10.510798,-5.1272016,23.812675,-1.3861512,7.1939907,16.430832,22.21784,4.104013,16.012526,-0.5176071,10.719241,2.1062376,3.2406821,-0.349985,-3.3736665,-1.8441951,12.091948,9.741557,2.4092138,14.846865,11.546093,7.816549,0.41543767,2.4029918,-2.4083903,-1.3378674,4.0865364,8.972837,6.9506593,1.3494554,3.1242998,6.1488094,-4.0657835,0.5032145,0.671242,1.900408,-11.01458,0.60120875,1.7547235,4.6671605,-3.619682,12.956412,-0.2878598,0.91487354,-1.2922267,-1.4334191,7.340627,3.7380197,0.47495458
48.jpg,16.20829,3.174173,3.6655579,15.29866,16.89271,3.2280266,14.155751,10.844076,7.0374937,3.5976052,19.843079,15.35528,6.4378424,3.0843365,2.5810366,-4.8929663,13.743059,21.289059,6.457941,2.8563132,2.008049,13.183783,2.926494,-0.018788502,-1.198799,1.0251793,1.6300954,1.5105706,9.489529,2.4056582,13.975975,15.589532,12.297731,7.735391,-1.2342004,2.5277371,-2.4685402,3.2156084,3.8240564,1.3341318,-2.5747192,9.853889,-1.2941293,6.093354,-0.23738798,-0.41313088,4.703202,3.1841762,-0.24987943
49.jpg,4.363697,25.521088,4.237225,10.768512,11.937212,2.1691642,4.6049137,-0.54790306,5.8206635,29.562706,9.656663,12.815521,10.064297,-0.18984228,11.863809,4.4656563,-2.0989902,38.499947,7.7883234,-1.1172451,-0.8668026,3.8825922,-0.7743951,4.2567444,11.376453,10.861766,5.443699,7.195429,4.824741,-0.23920512,5.2919297,0.4201292,-3.7105222,9.752497,-2.9555361,4.455843,8.339109,1.7715981,-0.8269297,7.674903,9.060391,0.5525266,5.1000743,8.002875,8.0024185,8.537223,0.3381107,6.2147846,4.964707
50.jpg,23.088871,-0.7872913,5.9328313,13.660538,11.4824295,18.841995,28.56137,13.495409,7.660364,3.6700115,23.588629,5.6062703,10.235843,7.5555534,10.479792,-1.6369736,2.8199115,0.8962249,5.7828536,12.498572,5.1476464,3.0863304,10.377425,8.979212,5.1884303,-6.4413943,0.76694727,1.2758691,14.036015,-3.798622,18.464365,4.798435,-1.3256626,5.9147353,3.300995,13.099516,4.4906507,12.774813,2.6286907,-5.148622,-1.6544825,14.210934,9.665045,10.427922,9.255987,0.45976415,10.527791,7.6268053,3.912164
51.jpg,2.93904,3.412478,27.205452,3.9504275,3.309717,37.913284,31.620392,6.500449,12.271017,4.015342,1.5847017,7.141858,11.547139,8.657748,11.737734,-5.7446218,2.3465374,4.4255095,-4.571099,5.855928,2.8796942,10.662493,-0.61659384,11.833331,0.5140473,-0.75893635,1.3720558,-0.15626521,19.028763,14.533046,13.108584,5.6633773,0.9153639,4.676647,4.2428346,4.2923126,-0.39926943,13.24853,2.5124204,2.3307397,3.240682,9.741849,7.2200603,11.722876,0.2611084,0.5347569,3.3735247,4.732113,6.9967175
52.jpg,6.9689364,10.642903,-1.2073891,7.4561224,8.655066,-1.0019585,4.1505213,6.079908,1.3308493,16.094963,32.573013,37.127506,6.380479,7.808912,11.597029,1.5654469,5.375677,13.028028,12.480487,4.293777,1.3310568,2.1007943,5.6823606,7.478791,0.03957562,2.1721783,-0.36738542,19.246252,8.496725,5.096512,5.9224243,10.387152,2.9161289,2.422238,-3.604341,1.8757999,2.266714,-1.2436322,-2.735803,-3.6957448,13.987547,3.4763894,0.88362575,2.1175985,4.673668,0.7070733,-0.31615248,0.8896884,0.9234811
53.jpg,10.589138,5.1470532,8.44201,14.342031,29.98264,41.253124,20.169687,5.040146,11.989802,4.122939,4.903216,2.8535616,4.15327,6.0234504,1.5327889,1.5361911,-5.388422,0.04333239,0.941859,2.5796483,3.3013425,2.393358,5.0812607,6.3754187,2.1940908,2.48512,-0.68250996,0.5897683,-2.3087323,1.5768504,16.873077,6.2541156,4.267262,4.022514,-0.46912682,-3.1028118,5.1827273,2.887091,-1.7422185,0.062297285,2.3034492,2.12041,14.561614,6.1820927,2.7357314,0.70185715,3.0061057,0.27453798,-0.78704584
54.jpg,23.369379,12.954031,-0.77739817,5.5400753,11.819919,0.8897679,7.3707914,9.670877,18.164305,3.427304,19.647179,30.025356,7.8213534,10.585684,13.040376,3.105516,5.2441635,14.953438,7.830433,-4.264165,-1.6261462,3.9796286,7.303344,-0.12928984,3.9831421,4.1134014,6.7355485,6.3811064,11.57162,9.102802,4.016552,4.521098,-2.8658934,2.3041937,-3.5794892,3.5804675,10.092996,-10.222031,4.2130604,-1.0438164,3.9063315,1.3795418,8.607274,8.458395,9.067912,3.8200579,2.4901583,4.558507,8.172318
55.jpg,4.6876855,-5.372583,12.197376,3.5026379,5.2005396,-5.686763,3.0936544,4.6304283,5.7055182,9.923986,19.314552,22.548613,11.36806,-0.10065164,7.039538,0.10081306,-2.2171454,16.35004,-0.846221,-2.277324,-0.67130864,-1.3316276,2.870378,2.8854575,-0.7610675,-1.3868068,-2.9867446,11.94963,9.236357,5.9378147,0.10232106,3.0486963,-1.3521072,0.121801764,-0.46367672,-0.6649976,-0.0066217035,-1.7264297,5.7539062,-0.43221387,0.17611924,4.9200535,4.674083,0.7795006,1.890265,0.31398782,0.40745363,-2.3377054,2.3940787
56.jpg,9.314205,-2.1732404,13.350405,12.957346,7.064925,4.078281,2.7909245,5.446879,12.06841,9.140179,16.691008,21.64744,10.688532,7.4046483,6.606388,0.5304582,-1.041819,14.397563,6.4668417,1.0000514,5.4814005,2.33174,10.000422,-0.548579,-0.055032037,4.0459714,-1.6456343,11.842375,11.862223,7.0007267,8.213051,6.813912,2.4892488,2.9545083,2.5152311,2.127223,0.08303728,-2.217238,0.7719835,-0.60582256,8.912071,5.9362807,3.0565023,10.515405,-2.35298,3.2693834,9.082462,1.0673062,8.181133
57.jpg,7.5493684,10.027406,6.746263,4.126473,6.2641025,17.319674,15.107211,3.8130033,5.7781944,16.046677,14.255678,22.759125,0.9300573,0.123740174,1.9715937,3.6520607,-4.2852,22.496435,-1.8368207,3.6909986,5.415019,2.5394216,6.720478,11.402122,0.68202,-0.64912003,16.922853,4.010037,9.5001545,-4.6812797,2.9673479,8.059327,2.9986925,6.52198,-0.4257841,-3.5688531,10.920995,-4.981401,0.021378137,5.535411,3.146476,3.1849515,0.6523825,-0.2040363,2.0003483,0.45575574,-2.1190965,7.600578,0.55209845
58.jpg,7.306596,-2.0173273,20.649342,3.1177275,3.2261248,5.608629,12.706633,9.9592495,5.7583427,4.926016,27.832663,12.530409,11.934326,11.3283825,1.4306347,2.8806853,7.7703505,19.238167,2.0485854,1.0332365,4.738131,3.8381557,0.6087659,-1.1216687,4.3933344,-4.2020993,0.99567485,5.387895,11.72462,4.585119,6.480393,9.947658,-2.1103241,5.428108,-3.096767,0.0054571778,-1.7080029,0.8991243,7.987202,1.2467564,-1.4895562,10.098044,4.177486,5.0465355,5.642258,2.4554462,3.3396945,-0.032593217,5.609006
59.jpg,5.3408012,-2.836132,15.2872,-0.63927174,0.43753743,33.198917,36.66017,20.919449,12.206555,-0.52849764,16.750515,18.697233,-5.566921,4.140674,5.181406,-0.86538476,4.1496525,0.2648188,1.4097234,9.377076,-0.20490345,11.065117,2.3245182,0.6332375,-2.3361933,-0.3663307,-0.13508992,2.894427,1.0187658,-3.251525,8.265705,5.6318073,2.0297558,1.969748,-0.5704026,2.1368916,-8.951033,1.955278,-1.2268639,0.5542637,1.6077734,5.0725656,-1.6916826,1.3793839,2.2481394,0.9537221,5.911365,6.593167,-2.7838082
60.jpg,-0.7830938,1.170129,17.992899,-1.6395919,16.151888,2.0695748,15.725674,8.429963,19.92679,23.275555,15.766448,25.825417,6.097398,2.6300862,-1.057717,0.78090924,8.519835,14.791666,-2.531992,-1.73406,11.260731,4.5177298,3.6247745,1.0461967,9.483872,1.8871565,8.068635,4.3390036,10.841099,6.005459,4.0973544,9.1649685,1.2112615,2.326506,-0.6863908,-2.3986862,6.288519,-0.5750603,7.44306,-1.0397168,8.354437,7.008975,2.7969272,0.015856838,2.465038,3.015368,-0.95649016,3.9320953,4.4337463
61.jpg,6.613574,5.3017406,13.094293,3.534358,-0.53192043,-0.61131406,9.39685,11.492303,10.898507,18.409245,15.567716,21.094799,6.5529056,-4.2754674,0.69725484,0.84795374,10.4506645,14.7763815,-5.0587754,-1.3393774,4.1554675,9.592357,3.7038062,-1.1172215,-1.1535261,-0.012674462,28.016748,4.523865,2.1813238,2.3397083,2.1253657,5.6648364,2.785125,-1.7504678,-1.0177428,-4.141034,-0.89873725,-0.4257137,4.412172,11.919029,1.3407177,-0.0118283555,0.40119615,-4.3186917,4.2473745,2.0845616,-1.7731812,0.81433195,2.9726458
62.jpg,5.8780336,3.0383658,8.594487,5.546662,6.5983453,13.331861,15.2792635,4.126338,18.193617,12.5864315,10.588641,24.959791,1.9537771,3.4434114,2.1798146,5.5419726,1.2389863,11.490202,-3.1732366,-0.1725806,-2.598524,3.9744303,5.060907,0.47165477,-2.9901364,0.70849824,10.0672035,7.2841973,3.1373494,6.608877,-3.113572,-0.11347872,1.8788453,-1.25447,-0.12678206,4.10078,-2.0001621,-2.1682763,1.4177531,-3.159576,0.4025448,5.3401985,5.123418,-0.09282082,2.3264706,6.6476183,-0.093641736,2.4927816,3.3996754
63.jpg,2.2632284,6.521765,12.926671,-3.2041852,-2.4132037,28.575287,19.369474,12.682223,8.94305,5.061116,14.2200365,16.96648,7.333416,1.8617173,-1.953513,3.9842446,2.8744607,13.323848,3.3869483,-0.37746263,7.870833,9.790683,-2.7340648,-0.4469787,0.77244776,-1.0689805,4.9741836,7.4662523,9.57917,0.968856,1.9125223,8.084245,2.767196,-1.4257314,-2.9465747,-3.081245,-5.169898,-6.3897834,4.80483,-0.48746866,-2.280039,4.115697,0.8700718,2.6706057,3.9406219,-0.6799759,-0.6721986,1.5136899,4.240118
64.jpg,11.316356,-1.4472082,20.04148,1.9440023,13.761938,2.9421244,2.1929634,10.1109915,14.68522,21.756401,9.28303,33.898308,9.422913,6.9479733,7.3331356,2.1427076,-2.377977,19.517921,0.14164913,5.3106017,3.847454,-1.1949797,2.305804,6.192385,2.0611231,6.940558,2.2141616,12.155418,6.358446,3.0670495,2.6367276,-6.2841287,-4.3316736,-1.19425,1.3472733,-1.9067293,0.42666197,-1.5165888,0.40813527,-4.5719767,2.931948,0.5380556,11.423634,3.82372,4.2528486,4.5144367,1.1094998,3.0744152,1.5705997
65.jpg,5.8891635,6.241288,5.6868052,20.290743,0.93038267,-1.4104552,12.242152,3.4983463,15.591017,24.75074,6.928894,33.326363,-1.2360444,3.5799384,7.243408,2.336484,8.305014,9.139154,-3.4541566,5.0992107,0.07776492,13.121679,4.985481,2.0314412,0.29777357,-0.2676419,16.799297,9.18752,7.25213,6.766939,6.867025,0.89693016,3.7198913,0.31470862,-1.2131292,1.0089451,1.9687165,-2.7723048,4.305447,1.5930485,10.424474,7.9599576,4.218483,5.1290364,5.2080393,3.6611273,2.5245295,3.4429257,4.9892273
66.jpg,-2.3724017,-1.5412668,34.890312,10.469807,7.915045,7.983944,-2.0232844,6.070286,4.644613,27.797886,5.9878693,28.61068,1.0907102,2.009428,9.192975,-1.6337447,-4.159458,3.4916387,0.31080246,-0.7609315,8.721212,4.14492,3.982345,14.783618,4.144085,0.76860803,4.4714017,13.911602,11.493578,8.425936,7.4295564,1.9293878,-0.30562523,-0.1796768,2.1556876,3.442296,1.5584071,-2.1633506,-0.7121906,-1.6166879,20.901876,2.3163848,6.2106194,2.7139983,9.265501,5.222258,2.3324876,8.391808,4.6110163
67.jpg,3.342043,4.162637,7.6323824,12.266515,5.6412315,-2.3375785,10.044481,-0.048568565,16.806044,18.470766,16.836935,38.100372,-5.475666,6.114513,2.2345386,19.35687,10.0885725,10.906144,-1.6692832,10.839254,-0.08522829,7.867384,10.079641,4.83115,8.817964,5.0498137,3.890095,14.054322,8.466108,5.6791553,7.4593225,1.3649853,-1.3248347,4.057043,5.0899253,-3.658564,2.3979228,0.57880235,2.7878842,6.613621,13.162938,9.548206,9.015368,1.6221652,4.8723187,10.157661,2.6488316,4.4321795,4.1921268
68.jpg,6.51589,5.194749,16.418478,14.095679,7.1798487,-2.4134145,6.1401567,0.089595184,17.343182,15.61803,10.104063,38.31661,3.423722,3.933378,3.2916074,8.289935,0.9367974,27.10541,-2.9330163,2.4031925,1.4091281,6.4675903,10.137311,3.2033567,-3.7950256,4.133691,6.2444334,12.190035,9.463883,1.2884239,7.588074,1.8584427,2.905198,5.158677,3.513274,-0.0051986426,2.3051953,-1.0348523,1.340008,3.4481063,8.799322,5.184217,5.975091,4.747164,9.025967,6.8258057,1.3625747,5.3959346,2.6812773
69.jpg,27.331194,-5.6303487,-6.2608495,0.55725324,28.621784,-1.3879795,8.568635,4.735639,20.654118,-0.22430523,17.429565,41.637016,7.503993,2.0223622,0.6805089,0.15822285,21.295557,30.289137,-2.9213374,4.5280895,2.3209698,5.1020327,5.1443906,1.1895846,-6.0165153,0.4917541,4.390167,10.304635,2.4320478,-2.5822496,4.2511773,-0.34108567,-1.0006214,-1.0695041,7.394163,1.3398323,-3.8128834,-0.20412603,1.956811,-0.39282706,0.330369,5.2645044,8.855879,7.372041,6.953788,2.0362804,3.503406,3.8669639,1.8471483
70.jpg,19.969795,0.33698142,6.4230943,9.2638,19.49904,-3.4448643,8.526437,11.668169,21.905685,16.316015,7.069413,26.493353,0.7392026,4.9382315,1.4663538,8.07701,0.8165094,15.164192,3.6921659,3.0936887,5.385735,-0.13633147,10.921741,-1.5294162,4.8340693,2.2864342,5.550256,8.525305,5.7257023,-0.14408976,2.5938756,-1.8752999,-4.464088,1.1480216,1.4491019,0.7541153,9.057691,-4.3875084,5.071914,1.6007596,4.1686125,10.5666275,9.646591,5.930401,4.155742,7.8616815,0.7051042,2.8810792,2.5312648
71.jpg,16.022274,-3.5612986,11.34001,17.497635,6.8053117,10.6921625,27.444494,10.008857,8.199083,15.035447,10.477128,14.063732,-0.6073659,6.649089,0.6223962,3.2466724,-3.0207932,14.287967,2.8934596,11.208199,5.4602757,7.3237734,3.4621148,-0.76539993,-0.6743454,0.762024,-0.77623606,2.4066033,0.5021574,-1.6933087,0.44368786,11.190217,6.508451,4.3967915,-2.908926,-3.708844,-2.4823077,1.3675828,-0.001402921,4.2533975,2.3901925,2.1503623,3.1104743,4.0435953,-2.4942622,0.7158951,5.375301,0.8532382,0.41852352
72.jpg,17.783278,-1.0118843,-1.8406576,5.6762233,9.980937,5.865314,1.996987,10.366864,8.099815,1.8278029,21.570805,7.560379,28.457714,5.607853,13.645538,3.377864,4.0042624,35.71192,3.8332767,1.6749073,-1.1430526,-0.60318875,18.464058,2.3005319,6.890636,2.4549258,1.1375281,5.9966993,13.584622,5.00975,3.189028,16.864708,3.369416,10.324153,-3.00011,-1.5087512,2.965961,0.09314544,6.6898403,2.6726007,0.96543676,5.5299115,5.284678,5.911016,-1.8919948,-2.2200055,3.0874503,1.997469,3.3489914
73.jpg,32.554653,-0.09686202,9.47756,1.9987824,0.49157393,-1.4715637,9.357991,7.429114,14.358224,14.780656,11.581765,14.061143,12.620357,11.623075,1.1922781,11.162289,8.724793,25.02398,2.5084405,9.980674,-2.5953605,-1.3912368,12.108655,0.51032984,-1.4484606,4.3513136,7.624717,19.149,3.0895524,5.7028775,2.9695487,6.113385,0.09169476,1.7318642,-5.9974008,10.236527,6.2029247,-1.2612962,7.216688,-3.653674,3.8337722,6.562915,9.799907,4.672615,1.1181546,-3.0403044,2.4856942,0.8533832,4.0947733
74.jpg,33.93735,0.9881557,-2.7316961,-4.9204426,7.6291375,1.9394481,3.3051386,10.269974,7.367445,-6.8368464,12.143048,10.1074915,20.093908,10.861519,28.361761,1.7175393,2.5791512,10.843167,11.201759,9.446668,4.1223674,1.9525734,4.368857,1.3380868,5.389525,8.554053,0.1415425,3.9074547,9.4067335,10.030329,4.610815,13.8707695,3.2391,9.209259,-3.307885,4.1999264,-0.34216318,4.0151467,5.0544553,1.8776033,2.4170182,6.894824,0.36114502,5.107483,-5.6232853,1.5859919,6.128726,-0.74356544,8.088945
75.jpg,0.224269,-2.695226,19.165035,11.513883,2.2390258,22.517632,27.628242,11.13695,11.250232,22.548693,20.095036,17.52609,-2.4174385,5.10893,9.738038,3.6880453,-2.7780597,6.6595488,2.9155889,2.3211024,14.739607,6.7133956,5.9012656,11.006782,3.8322668,4.553194,0.76670814,8.19079,11.875482,5.980395,-1.7219481,2.4402728,-2.1164415,-1.0645567,-6.055777,-2.4985254,-5.149521,-1.7382292,-2.6603208,1.0568148,10.023044,6.8207517,2.8302681,6.2468014,7.28033,3.9961596,-0.4227954,3.7264733,5.088115
76.jpg,10.089515,-0.078015566,20.390594,12.672655,-2.8192964,7.2298026,19.731192,8.900231,11.374097,16.059868,10.830465,14.769634,-0.0898527,-2.6331563,7.2344913,5.3444505,8.101423,8.639474,0.3495968,2.895403,-3.1290784,9.517869,17.091648,1.0135597,-2.6847563,4.201571,4.44075,2.4989038,-0.029655267,5.531104,3.1068423,2.7999525,0.49290174,-0.53393316,-0.49344933,4.041957,-3.526614,-5.1518664,6.845176,5.3266797,0.1764642,5.6194015,7.234355,5.7426267,0.2628925,6.0500703,-0.044987164,4.865129,1.9217358
77.jpg,14.265192,46.64789,6.3956933,-2.0779855,9.839657,23.721514,4.295845,-0.37010795,10.970741,-4.410494,13.571598,10.00768,0.95430195,-0.9083099,9.033312,1.0535903,9.482889,5.763492,25.637848,-2.885418,-2.0749574,9.293148,2.8552303,2.121138,0.7673297,5.568572,3.2194614,3.7558935,-3.5882263,13.729732,0.48781344,1.2841707,-0.3214097,3.974535,-4.43287,2.893261,-5.7992234,-8.1650715,-0.6170933,-3.9789681,-1.4855019,4.2582936,1.0508407,13.5393505,7.7535167,5.404161,-1.1812292,6.343215,3.6714506
78.jpg,18.39669,-7.679093,19.16205,26.555124,13.77635,3.4199114,4.176569,1.3264629,10.25137,37.817783,11.664937,24.892536,-3.687389,10.2034235,8.876177,8.08117,0.2744524,5.5676317,13.676304,7.477407,0.60077095,-2.985649,-0.76763535,4.4652333,-2.0230062,9.067954,4.9879003,16.761225,2.597756,2.2247386,0.6615447,2.4563284,-4.294342,-3.127357,0.75017023,2.5996537,0.91049224,-7.0300803,-0.32454455,4.9672985,5.6220655,0.05723117,9.460905,2.5176,2.7377095,8.826073,0.9313257,2.75414,4.1354365
79.jpg,-1.2512301,14.9646845,13.549486,11.600139,14.946255,30.172316,4.0989537,-5.7827144,7.9036474,24.848228,17.55988,19.912062,-0.9183933,2.8911092,1.4764074,1.4832566,2.3157175,11.422303,18.970917,6.571933,0.9573238,-2.291245,3.6366005,12.944553,2.3349268,10.036289,3.4128995,8.335327,2.2805018,4.0379157,5.2843127,0.96736777,0.6378075,2.9588656,-1.8507997,-2.4140368,1.6229265,-4.0750394,1.0227919,-1.6557057,7.918457,6.2226043,5.6381226,10.714148,4.907426,6.9518895,-1.4336007,3.2712042,3.2300863
80.jpg,10.205613,5.3015614,11.325634,13.052875,3.8141434,6.5298,-0.03754897,9.514493,-0.01959952,14.920129,24.529488,18.258566,8.387928,-0.40497798,9.631448,1.8552955,6.726037,2.61898,6.076401,3.4452996,8.60698,0.68618023,16.673454,-0.23161219,-1.8149648,-2.1055474,4.875101,7.003752,11.103326,4.043237,9.11894,1.1479157,2.3428779,1.7271124,10.313532,-1.4332013,4.30773,8.878995,-1.6124179,3.3069916,7.47317,4.134756,-0.7271425,0.98041856,-3.156315,0.7049815,4.1390104,-4.627806,0.97238785
81.jpg,-2.7811522,5.2031684,32.705807,22.742575,3.3082936,8.074271,2.6521368,8.587413,3.2014258,30.043865,18.062534,25.298515,0.522963,-5.1106553,13.010806,2.0555537,-2.573612,7.4557633,4.7992244,-4.2776556,5.0811768,4.2786307,6.0099945,7.1209507,2.5984206,6.204173,4.476307,4.7520113,3.2764583,3.1153843,5.2143793,0.41777813,8.166827,0.03708834,2.5344615,1.1657879,-4.6253977,0.33844525,1.0286385,4.7966104,17.692835,2.160287,3.3203714,6.880967,7.063646,3.8628557,4.666691,3.9973338,5.513019
82.jpg,-1.3304417,-1.3186923,52.632584,5.2303143,0.28063002,3.082368,4.3593206,7.5025983,0.8790266,17.458887,7.323731,29.59792,1.7719779,-1.3103433,-4.624415,-1.5877466,-6.290751,6.9129186,2.8308165,-4.6157956,5.1602817,0.45007524,-4.9768524,4.308487,3.692738,-2.202538,2.642643,6.171528,8.098659,0.19245687,0.6475363,-1.3331064,-0.8012174,-1.5756754,10.457532,-0.8631451,6.3473873,0.55923665,3.1032836,-2.828566,0.3044582,4.8578777,7.3789487,-2.7778194,6.3647294,-1.5265197,-0.48065817,0.2229183,1.1253679
83.jpg,12.863736,-2.3784602,47.435528,18.46756,1.7071806,-0.7801902,2.9684315,10.386093,0.35068327,20.110664,2.9258232,24.843098,-2.3322444,6.115106,4.744525,1.9024879,-5.9371357,3.3410344,6.270217,10.143241,6.6611385,-1.2845621,-0.5963254,10.783675,1.5671693,8.215493,3.7244928,5.466895,6.060264,-1.3124653,0.6602362,-0.040738005,8.73834,1.7598721,5.484161,3.4319184,3.723497,-2.6057487,-2.2098951,1.7931429,0.48895684,3.137348,7.186409,6.643171,1.135235,-0.31228977,3.2979057,3.366187,1.3946487
84.jpg,6.336998,6.806466,10.160196,43.898724,5.9870434,3.7685547,4.770822,6.0228705,3.8345988,29.242224,13.308043,28.758991,-2.873067,6.3821106,3.2601285,-2.9295602,-3.261222,2.9533086,10.804286,7.858266,4.0442443,1.04424,10.617087,15.833737,-1.9169759,13.987754,-2.3721304,0.37051985,6.821526,-0.47194344,-0.32069907,3.3495665,4.08171,-0.36102676,2.7633526,0.63549805,6.0321374,-2.841199,-4.264375,2.0981493,-0.5755797,2.7940474,8.385601,3.7021444,-0.9581655,-3.4122572,2.5305285,0.7233605,0.5479475
85.jpg,-8.877327,10.895287,22.985577,19.03054,7.4398146,-0.70464367,-11.671119,3.1372592,-4.464033,31.827194,15.705809,30.21573,7.3982773,5.559624,8.642796,-0.90203667,-0.053905882,1.2400182,9.800764,0.06249724,14.065491,-2.3658385,3.3654583,19.124966,8.215051,2.418954,2.488825,10.887039,5.0345078,6.7806063,3.8062627,-1.0002861,7.5712385,0.6380336,4.0660677,-6.023382,8.376126,2.7821178,-4.0881543,-1.689401,5.7142487,1.7073544,7.350432,3.6492496,3.2159681,2.2685583,2.577541,2.3264859,2.719309
86.jpg,14.074162,11.0099535,5.7766423,12.986233,4.600574,2.9136896,0.53803957,8.599203,-3.27533,26.285744,10.30221,21.56681,7.338991,-0.45529464,6.253955,5.59325,-3.2531817,13.11862,8.864542,-0.9923817,9.192849,5.63796,15.027006,15.406743,0.30625924,2.740224,6.682381,9.500653,2.8334715,5.3737674,-1.3231305,2.4039245,3.271985,2.6154966,-0.9096091,3.1168897,5.9570403,-2.9716752,-1.5446697,7.480837,-2.2637577,0.018083723,7.269141,4.1678457,3.8956935,3.2000117,3.733566,1.5097016,1.3830673
87.jpg,3.3834445,14.184126,23.139317,21.08588,9.716551,18.424248,8.002895,1.0825138,2.6159163,17.854803,18.763735,24.064962,3.0455356,7.4468694,8.564127,-2.3964698,4.906534,11.246075,7.8755674,1.5940895,15.17606,6.650179,0.7730816,9.713386,3.0481238,9.542978,3.5142674,5.3140903,15.645595,6.070624,12.585026,5.657736,7.5969753,1.823714,6.2096725,4.8096905,5.8524876,-1.0372673,-2.0932682,1.6920514,5.8929105,3.297798,2.461901,7.3951902,6.5360966,3.1464605,3.7555563,3.9382477,1.9968009
88.jpg,15.603815,5.8412395,13.35463,33.91558,6.800834,-1.2379171,2.7082925,7.586299,-3.896659,30.364471,15.132387,40.435875,1.8503834,2.06598,4.472494,-1.9365526,7.004074,11.028608,8.913498,2.0414097,3.9434378,0.53527844,6.5874233,15.558156,1.12408,11.728608,0.8020293,0.28439122,9.121199,1.4197476,5.5565915,7.5537033,5.6600914,0.79631877,2.214862,-1.514809,4.4627905,1.9886934,-2.9321036,3.1681802,2.5663004,4.260997,7.1996994,3.1656091,-1.47674,-2.4887435,4.76025,1.0528624,0.26434883
89.jpg,2.1107082,3.9978127,26.970842,28.776577,2.3203764,-4.1296296,11.453673,14.530399,6.3879805,36.132587,13.216707,26.67477,0.49662125,-1.5932276,7.8471293,0.24209991,5.42206,1.39808,21.011683,0.69692767,7.359192,-2.5166798,6.8871284,11.418702,6.6013703,4.7938185,2.5377822,7.3790803,2.0301704,3.1893506,-1.1162966,-4.1849837,1.051387,-1.2732111,0.9294129,6.352594,0.334418,-1.9777747,7.6691604,4.347767,1.8738991,5.7070217,7.5860014,6.1611443,4.6942673,2.589663,2.4476216,5.360056,2.9572177
90.jpg,27.919033,-9.471371,12.287994,3.9787703,10.6995535,2.170111,2.8929336,12.923746,4.2449126,7.676608,13.381557,16.739815,8.955712,0.8020088,-2.093611,9.179174,3.7643354,16.442532,11.439443,9.925446,4.658078,-2.658754,2.6691551,5.3821034,6.363723,-3.33406,4.088791,5.576852,5.930367,1.4201558,3.9455984,5.5578175,6.6514955,5.0523562,3.481098,6.225074,2.5916963,-1.4467993,6.400013,-6.8820944,-2.823074,7.89373,9.521295,4.5402064,1.6912944,3.4655418,2.2848706,-0.25644317,1.151804
91.jpg,4.5861063,8.095883,14.823088,10.9179,13.870684,33.88374,32.998573,6.7196736,9.702155,9.542295,25.868841,15.241283,-0.97602,4.8899965,0.8903421,1.117511,6.3540382,11.781265,4.1781306,1.140833,0.91643083,6.3955603,15.591534,12.45989,-0.8944051,-1.090292,-0.71568084,-0.20749214,12.258149,2.2151604,13.070093,6.6679144,3.1702988,-1.0142326,4.0038457,-2.061834,-1.7783273,-1.089169,1.0923574,4.661859,-1.9605312,7.730303,1.5827309,4.7282486,4.896108,-2.4347544,1.9617282,5.82251,-0.16751793
92.jpg,5.397448,-2.430637,20.197449,2.063526,6.9479017,33.38587,35.46206,6.9785,20.469336,3.085794,17.576311,24.074194,3.9118602,6.97261,3.60359,2.7691352,-2.3945513,9.121099,6.2080727,4.0579777,6.042849,2.7700858,3.5634491,3.1332097,-2.916537,1.7671824,4.542412,3.2378085,15.760114,-0.9742425,9.405894,3.3470182,3.6743772,0.7864045,2.1587842,1.2351608,0.17424542,5.294636,-0.037705503,2.6144516,-1.6876044,7.9681754,6.393601,4.5628014,2.9967363,-0.122963324,2.108402,3.3397627,-0.3090808
93.jpg,-0.9004292,12.29277,21.895664,12.432915,2.297097,41.842587,29.265875,8.126309,14.498284,8.330215,8.773608,15.638746,2.7127612,6.079695,2.6994667,2.907997,0.6632417,7.1258054,3.6097786,0.30148718,1.7960966,11.081981,1.3509463,3.2909942,-1.940017,0.36086497,-1.6299751,6.221922,13.494793,4.0952373,8.133318,3.3918056,0.85647887,-0.7858129,0.17144503,-2.806764,-1.9108043,1.3093818,-0.36784783,0.03316095,-3.2605262,2.439392,0.9707756,3.645853,-0.9872155,-1.3169973,0.89351225,2.1065526,-1.687389
94.jpg,13.135198,0.99174607,21.36248,6.9781213,10.9986515,35.63697,31.312061,-0.1829925,17.181988,9.226932,9.319749,11.341417,0.7958629,6.99832,0.12284608,3.227661,-0.8182834,13.03268,4.929242,13.00811,10.7649555,8.954821,2.2411304,6.7052526,-5.2034993,1.0171173,1.2589778,3.9962025,10.4979725,0.00030696392,11.807234,8.06777,2.3650932,4.234024,2.0484183,1.8398209,1.3917817,3.0564313,-2.4115052,-0.28453198,1.1191149,3.8029406,2.9453447,5.06291,-1.3016516,-2.4783888,1.814878,4.64126,-2.700837
95.jpg,2.7181487,9.665222,15.284223,7.700164,7.4211345,34.067455,30.826008,6.8460984,12.224431,-0.9935023,17.505417,25.05337,1.4817891,8.136908,2.598107,0.35610107,-2.2760212,15.102008,7.244198,3.3628254,10.125117,2.8537676,-0.65822136,6.271566,-2.4666924,3.3824809,-1.9734755,5.578851,19.976017,2.0657637,7.5906315,3.673646,5.971884,1.5671996,-0.7767489,3.1383798,-0.036618393,-0.6591982,-4.3555336,-0.87623227,-4.1134486,9.504953,2.3721535,4.9874673,4.185648,-0.07825419,2.8646846,3.8248792,1.3459675
96.jpg,5.105607,3.4009814,19.8292,20.213177,1.9773213,0.91714394,-4.160253,-0.7985511,7.8346334,32.693184,18.415741,25.45737,2.7386682,2.7804692,0.93505925,9.585034,-1.8621243,10.255812,5.79276,3.02509,1.4196776,-3.631789,0.3243085,14.987668,8.291451,4.3904343,5.668285,12.368081,2.0071056,1.2189461,7.464944,-6.893477,-3.5067458,1.0694711,3.1051912,9.023441,8.333757,-1.1820991,-2.2160664,3.7387788,10.4014015,0.9650601,6.722249,4.3499246,19.121656,9.107353,0.45636255,6.8451524,1.8685818
97.jpg,3.7795126,60.504765,2.4750803,3.008883,3.1488366,32.554783,1.9608057,-1.3144717,9.014713,2.0101085,15.269759,5.7209587,5.9482803,-0.59052306,10.671793,-1.1092424,9.334586,9.569077,6.1074095,-3.025983,-3.038372,4.8842134,13.399728,4.2591877,0.5411339,0.54530793,1.2926494,-0.54511356,-1.099159,19.277124,1.8772979,-6.3813167,-1.1576993,1.6818093,-1.120212,-0.67778826,-2.9621792,0.21176301,-3.8438134,-6.35501,-1.9304723,0.5115723,2.0550485,6.982675,3.6362712,1.5694324,-3.3202176,0.24780491,0.98694384
98.jpg,-1.4407569,10.637127,18.75416,8.930961,2.3900523,32.19364,27.890566,-1.0049691,13.762954,5.150489,13.960393,14.553756,-2.7394862,5.7151713,2.821052,0.39854163,-5.056484,3.9296336,4.298856,6.6378675,1.7699764,4.800189,2.5753605,7.443097,-2.71096,2.0403986,1.5777769,3.3678532,15.3474865,4.6444016,1.3774859,4.2964087,4.9128175,3.6279984,-1.69503,0.46647605,-4.1085796,6.5350304,-4.75915,2.325068,0.9473625,10.984147,0.39522257,4.7592154,1.734075,0.26987138,-3.2681153,1.7471131,-0.8667534
99.jpg,11.933253,-0.24898897,7.3703794,13.944787,15.729098,-2.5194116,10.689675,10.937648,17.410568,24.236887,17.067837,32.65733,10.024346,-3.866968,5.763778,1.8034524,7.193958,17.784866,7.0058627,-4.5140376,2.6206505,2.8797748,8.461684,0.41734362,2.3381526,2.8514595,3.9109476,1.9464409,-2.2222855,2.7253647,0.5256529,-2.5579052,3.1300228,-1.5087163,-0.049549457,0.9966231,4.9480176,2.5542126,2.5670817,0.7513756,10.440439,4.5206976,6.2526436,5.021051,17.30683,10.854048,-1.5666537,4.6469383,2.7677603
100.jpg,10.771151,1.3593084,12.709825,10.0779085,6.6378117,7.229564,13.681618,11.731464,19.683706,27.76047,8.394177,24.309292,6.467105,-0.7141097,0.17551543,7.371646,4.5505114,4.74178,3.0595548,-1.3459898,3.179819,1.9086976,0.6382935,5.084224,10.353764,7.3314133,8.771233,6.575011,1.631823,1.0294901,2.1742609,-3.6817148,-3.880004,-1.8511415,2.2288375,4.6895394,12.051079,1.685725,2.2452204,-0.5420146,10.969051,7.737176,10.099183,3.5297103,15.885532,18.934233,2.1239667,5.964252,2.3521922
101.jpg,6.829622,20.068445,12.228069,-0.7870002,15.162025,40.09778,4.8737125,-3.6172218,9.750681,-3.6579947,15.381411,20.00308,-1.2735305,-2.1719148,6.0835323,-0.47937408,13.655433,4.8270435,14.662123,3.018009,3.6621406,4.2999163,3.8847573,34.610023,5.929625,8.875975,2.5463796,6.2026,-1.7780231,6.266701,9.703343,0.38481903,8.191373,1.3483526,1.1037209,2.8278117,1.582809,1.1467395,0.08229017,-2.6294982,6.3857684,3.1168928,-0.2775655,5.7360435,0.03191,6.866607,2.1354299,12.407043,1.5204529
102.jpg,8.995854,-6.994776,25.767124,11.562018,-0.4215503,14.928012,25.585573,26.50376,16.725054,24.63206,8.767631,24.725098,-4.2515783,6.9137497,5.1632934,2.5055575,-0.51781636,5.171106,0.6597276,-2.5848918,5.8877068,2.0599184,3.5082374,4.617047,2.8106148,0.3409951,5.8683777,3.933756,1.9211792,1.1775304,-1.6008464,-0.6539236,-2.5644596,-3.3368125,-0.48889917,4.9066076,2.9135852,0.6045321,-3.0687783,-0.54022706,1.9102179,5.216308,5.933924,2.4467523,7.309789,5.4763255,3.3352098,3.3430946,1.7143035
103.jpg,2.2131984,18.850569,21.639622,13.606456,15.7357,2.8899894,5.6025753,4.1824446,10.595393,28.717482,16.401281,20.00262,2.4470158,-8.778578,7.3996015,6.6501603,1.9082029,-0.2830526,11.883045,-9.117651,2.9304605,-0.8639185,6.4167156,5.3439045,12.022478,3.508117,9.727346,5.286561,0.11860095,5.3851237,4.7503686,-3.097457,1.4213207,-2.5380437,1.337784,0.28380826,8.3903055,1.5555952,1.4489348,0.34718102,8.343295,7.6331825,6.249056,3.1779356,25.295464,9.381786,2.3664632,5.3285046,3.6796172
104.jpg,9.556847,53.505737,5.003399,0.081525184,7.2852106,28.28525,3.3449569,2.3682377,10.123105,-0.9939339,16.292894,19.691116,-0.7012882,-3.9467156,7.657876,7.3383017,15.617958,2.546033,7.9238734,0.50367385,17.36071,6.996955,3.8525243,8.085403,-0.41761276,4.2009735,1.9077467,6.552597,1.3824068,12.741809,1.9182388,0.4927217,-2.8500087,-0.29975522,10.852594,-4.0643773,-1.125132,-0.5580237,0.6905261,-0.13585678,2.2549884,6.3675036,2.6067224,5.3160105,-2.8546154,2.9719188,2.567968,5.5787764,2.4565923
105.jpg,17.176277,14.689042,1.1798775,10.1782675,17.007582,31.378456,5.069629,3.915682,5.613292,4.0939918,25.893911,36.535206,3.0214798,-2.0281875,3.8189244,1.5708022,10.149603,8.4624405,13.1039095,-0.41952115,5.6459255,0.5885003,7.4133024,36.130093,10.651821,3.861191,2.8067245,4.416115,6.2656193,7.765165,4.186105,-2.15778,8.392608,-0.030898489,-0.6599337,-5.8622646,4.90666,4.4014664,1.0657622,-0.17053616,4.0944586,5.994682,-0.42593703,8.349684,3.8840222,0.4330837,0.12948425,10.940764,2.7901802
106.jpg,0.5908491,-2.215672,24.320442,10.042951,2.921782,23.869987,32.136776,11.1545725,14.249751,26.561106,6.726024,24.06586,-5.057699,2.218092,0.7422406,-0.74370366,-1.773848,6.8357563,0.28019828,-1.0078638,4.990196,6.3106136,-4.0259256,9.389446,4.1299605,2.4369714,5.867543,7.2361298,7.8846684,-0.5857969,-4.1268563,0.32305086,-1.3680676,-4.7760124,-2.0441196,4.5267515,-0.6566678,-1.9142936,-1.7011513,-0.28994846,1.7107557,7.2281585,3.834302,0.39017108,5.9556794,4.067914,4.9959,3.5308805,0.72362816
107.jpg,25.739607,5.5011706,-3.474246,-0.1983758,3.3067398,7.3012376,4.370393,12.00545,0.652978,-6.36029,27.68583,12.973605,12.977378,2.8434355,18.060541,1.5445379,15.046861,7.8571916,5.998696,2.0562487,-1.9454482,4.9136887,7.6577396,2.8075757,4.4810643,2.0653043,3.4355254,11.069642,6.2075033,3.2404244,5.035088,9.2940445,4.4675922,0.9454741,-7.268633,-0.48717415,-1.753781,-5.2180843,8.500628,-0.5327162,-4.8517118,9.047786,-1.3352439,2.8383636,2.7976892,1.3996961,3.1292207,4.357125,9.336497
108.jpg,38.34821,-0.2327731,-0.47214124,-1.7766192,8.266955,10.263166,6.4915953,14.060102,13.903379,-3.4428682,13.509642,12.07418,20.753843,-3.6707587,19.888638,2.4146607,7.9456816,11.516549,8.893749,6.817105,0.76655793,3.9885588,-0.7470356,5.0772624,6.223237,5.1241302,6.1373086,7.2403126,6.117429,6.091188,4.307405,12.071976,2.2901416,4.917496,-5.4918213,-1.8594341,2.4497633,0.95208997,8.220309,3.3653483,-0.20173407,7.900922,0.89878756,6.0378146,-2.6341934,1.2694107,5.727775,1.8354468,9.073762
109.jpg,7.87795,13.577545,12.425336,8.148607,9.523301,7.309213,8.376202,2.8370068,10.90012,28.08913,17.76071,16.587975,-1.8956767,1.7321523,8.873391,-3.5336456,-0.51591766,10.087959,5.683332,-6.039271,-0.28695074,4.3010573,5.64109,7.6479726,0.77111226,2.12331,0.89679563,0.08076609,5.6225038,7.5277486,-3.5198736,-0.8997325,0.46634755,1.1465769,-0.02260143,-1.1218464,5.986528,-0.5392227,-3.2813761,-1.2321551,7.404048,2.5768983,1.4890943,5.990916,25.016558,-0.49884814,-1.6596034,4.64531,2.6978915
110.jpg,1.5696287,1.2374564,25.86183,7.9187555,0.84394085,21.16832,6.7074103,4.7412405,5.164549,26.138863,13.525857,19.428675,0.290812,0.66078126,10.230107,-1.168322,-3.6037235,7.6963925,4.6086354,-7.5688167,-2.820505,3.834243,-2.7456672,12.0358715,-0.0020972919,2.0520096,-3.2312405,4.298122,4.5676546,6.759975,2.3035486,1.0234625,-4.1607957,-2.2467046,-0.29195306,-4.4410925,-4.640771,-0.4569497,-0.32111508,-1.1102586,14.240313,-0.12129517,6.0017366,5.379799,13.386456,-3.1473331,0.051373336,0.024621096,3.7490647
111.jpg,3.528824,1.5806566,24.63741,24.290075,14.915281,2.8981998,5.574553,4.6597457,15.048498,35.801895,9.132426,20.3607,-4.7017984,2.831526,4.1114154,-5.7225666,3.1567655,10.809274,2.2336094,-5.1110945,2.433178,2.2425587,1.544063,7.3131027,5.0795937,7.062361,1.8831061,4.5187144,4.6387763,2.8079174,-1.6246144,2.1765888,-1.820891,-0.72485244,-3.9455645,1.2775248,4.5086513,-8.629606,3.5793104,-1.6293213,5.8881936,5.1162324,8.392021,5.8398647,11.664068,5.9433503,-1.9408137,3.9850764,3.617978
112.jpg,9.909376,-2.7956865,19.68219,13.116256,6.0661473,0.39841527,3.8961701,7.806228,5.059752,31.816986,11.370708,12.990443,3.983514,9.941268,7.7577815,3.0691113,-5.5750384,15.738975,-1.0255828,-6.1966515,3.947901,1.1525365,5.703278,0.014282763,10.031882,3.430238,3.5094686,5.350726,-1.5106483,0.97818524,8.412043,4.137395,0.040265314,7.047274,4.833452,-0.035384625,22.039587,-2.1314595,3.2731972,0.70527923,12.248685,0.05208589,13.18388,10.489373,9.49128,4.760509,2.533466,2.1483903,5.361407
113.jpg,7.6772504,0.8455139,10.250168,22.384388,13.317037,-0.3358166,4.680212,4.6938624,4.9962564,35.604744,9.600589,28.70201,4.2307725,4.6012154,-1.5746392,4.197117,1.8186398,16.169054,3.334177,-1.7774383,1.9765453,1.6589711,4.469734,1.8797159,1.8319447,8.336429,4.75683,4.0245614,5.218183,-1.7595172,2.164309,-0.087154,6.912185,0.24981764,-2.533627,-1.6283097,6.0911746,1.6914464,4.0268245,1.7912982,11.809323,2.8275099,5.517737,1.3561927,6.5212803,6.331101,0.24217167,1.6762233,-0.7138094
114.jpg,22.887001,7.939429,-0.28212982,6.860631,17.087511,-3.490016,-2.5563283,-3.3856907,6.248129,26.971388,13.364204,25.715626,2.7399178,8.44953,41.41809,1.0626078,7.3535337,15.895586,5.993621,3.6408663,1.4156455,0.86840856,-4.0577087,13.3619995,8.835506,14.041214,-1.423646,4.0537267,2.0890388,14.483799,-2.7810912,2.2665544,0.92318374,5.771545,-2.4048786,0.99070483,0.9362111,4.361684,-7.115069,1.6439023,19.51955,-4.5012174,2.237879,8.180995,7.2337403,3.6005046,6.10324,5.322001,9.012056
115.jpg,18.938614,3.2971833,7.298976,0.37799442,15.174397,8.027712,9.708376,1.8340163,5.895391,30.828732,9.96832,19.647493,7.2855325,1.3538017,31.046667,-1.5685458,0.8133464,14.789236,0.4059251,-4.825951,3.2704663,-0.32921854,0.78169906,11.518672,10.429804,7.834093,0.86444104,1.5521523,3.879183,5.140893,3.0061991,2.809228,1.2919402,0.49466527,1.0067741,4.531536,2.7027624,3.2304995,-7.79669,-0.2795633,22.451073,-2.0180683,3.834463,6.9594784,9.484336,2.446723,12.59595,5.7519817,6.3832707
116.jpg,14.351553,1.6986665,0.7730659,4.4984016,13.419439,-0.46032673,-0.23249239,1.6646128,7.688202,29.833502,18.88033,28.976896,11.083051,2.3969152,33.74992,-0.7180242,9.432821,19.22866,1.6536566,-0.7438076,0.21727765,6.0854554,-2.4367027,10.679907,5.8100505,8.014194,1.6130071,6.2267847,3.9959915,9.050651,8.151902,15.064281,-1.3086563,7.7673883,1.9189116,-1.0518476,0.1280888,8.645203,-2.5794566,2.765844,21.68507,0.10782099,-0.46164188,5.9658394,8.864701,1.410152,10.298321,5.8721566,9.156053
117.jpg,10.152784,14.236088,-3.573086,13.928249,20.2886,-3.1477199,10.2433605,3.9542787,23.86418,5.460123,22.417252,8.239608,6.6250167,1.5535438,6.7357445,-0.12925528,16.278088,13.77331,6.8041096,1.942585,-2.6948354,11.0576725,14.701967,-1.1185143,4.356046,5.034352,0.66909254,4.8407946,3.0255892,0.2319109,14.368151,20.25235,-3.9032273,7.901857,-2.5598567,4.290527,-0.62258595,3.3099897,6.56438,6.81303,4.450748,8.221021,1.5185071,4.8528852,0.3136171,2.4629705,7.597196,2.490043,4.783615
118.jpg,23.254595,11.762195,-8.225703,6.0497813,8.206951,-1.6433932,3.7681117,2.1130593,9.456634,5.714853,16.705116,12.535214,1.1700414,4.002222,-3.0810173,-3.7437525,22.857819,16.707388,28.899727,0.29111654,13.376067,11.564777,3.4052358,2.101914,6.2591567,7.1925497,5.290905,5.4853954,1.8555567,4.4443173,-1.9076619,13.952621,6.2302446,5.4286876,-2.9882867,0.95658123,3.9360173,2.6135466,-1.4242988,-2.660016,-1.2813723,6.8826265,-0.06202245,9.758969,3.884607,6.1567388,4.0128717,2.900355,5.6110764
119.jpg,5.528981,-1.3696873,9.3758135,16.78183,18.18493,-4.450967,10.335528,2.4393022,9.303582,12.362461,23.609354,9.587682,6.145631,2.9983137,3.5631757,-5.76857,15.760979,18.959858,5.6922903,5.9627757,10.882512,5.464647,14.566734,-2.5476727,3.6147513,4.910498,6.375794,0.23852988,7.837265,-2.8428469,12.075864,23.625103,-0.13939571,11.133122,-0.55130476,4.3544054,2.9074323,-1.0627909,1.1560017,0.08886941,5.4342,8.055954,0.78444666,8.942252,2.5134113,1.7865665,8.748425,4.1925797,2.6144245
120.jpg,4.0007167,0.6038255,19.551323,1.5368984,0.54213387,29.193792,31.07634,12.120814,17.59353,-1.5596837,9.0515375,8.907675,-7.942292,4.330164,-0.80757785,1.5960853,1.5946865,1.7644075,-1.1637334,10.707786,10.370508,8.038921,1.2547499,1.1592654,-5.0805507,0.82951915,0.115066275,5.765941,5.7329307,-2.898615,6.119414,7.8374357,2.334878,2.7845514,0.45540994,1.477036,-11.15259,-2.0319872,-1.779053,2.520577,-2.8186274,9.453307,-0.047469884,3.7373164,0.101595834,1.160054,5.9288783,4.646106,0.5471695
121.jpg,12.117836,0.55058706,20.618519,25.039751,8.305547,1.8784722,3.041292,0.1533241,4.8664436,37.146957,8.109035,26.786533,-0.31104648,-0.41764876,4.98377,2.8411536,-1.1279488,7.143835,6.272618,0.7880459,0.6861586,-1.8544693,14.05648,7.5996294,2.2894561,5.2142677,10.021262,2.424412,1.5080376,-3.363037,-0.9108616,-0.5373653,2.2593088,0.6956223,-5.911722,-0.5411419,3.4102745,-1.9823955,-6.5936184,3.7112155,12.718685,-0.51109177,0.4789666,3.1813085,13.957823,2.6346319,-0.28699777,0.6064578,1.6947161
122.jpg,9.024064,-1.9686282,17.36913,22.480862,7.5820804,-0.6777886,1.8804114,7.1998367,5.356934,35.943584,11.601977,43.37489,6.203191,-8.249584,9.578312,-2.1436493,0.7375912,5.21978,9.476302,1.5190676,2.3372078,-1.0985084,-0.2692951,21.878723,7.0524364,9.900804,2.3673024,7.731354,2.7162678,-2.3124044,-1.3483453,0.23273747,10.085088,-0.2560421,-5.23325,-2.7806375,2.495749,2.20909,-4.0683637,0.5984498,10.415136,3.2314842,5.4191723,1.0556062,5.4594994,-0.5336086,3.550966,2.5383558,1.2747256
123.jpg,4.397323,-2.5469158,27.046417,22.852173,8.21358,7.3296933,5.2237844,7.6257358,3.5684223,30.027756,11.002934,35.05042,-0.4219165,-2.9549289,5.8993654,-2.8265991,-0.5378353,3.0297987,7.7718644,-2.4856708,1.3340728,-2.7280211,-1.5300804,20.08443,7.10556,8.517666,0.8581981,2.9467854,6.1204233,-4.8620586,-0.036425702,-0.8873724,7.7975826,-3.357562,-3.9511282,-4.3357067,1.1040306,2.740059,-5.322074,2.4825308,6.891007,0.95641166,5.668051,1.2744918,6.101878,1.4892907,3.1720545,5.0359287,2.1165395
124.jpg,8.5455475,1.227665,26.466019,7.676007,8.228392,1.7387576,-2.8609698,-1.4804754,0.49119675,30.982283,9.588301,29.53845,-3.0319102,-2.0332384,10.415132,-1.1187521,-4.881591,-1.0832107,10.319442,-5.2228236,3.7965803,-6.2553167,2.1745005,13.286875,8.051168,13.0545635,0.56869984,5.6755986,2.764544,-0.46306536,-3.5301068,-3.0339584,3.6014397,-2.5632915,-5.105733,2.4345973,4.4526463,-0.23766471,-9.680518,2.164961,20.068623,0.39624918,3.1406083,2.1874804,20.97305,0.40372795,4.8735776,2.4445307,4.371991
125.jpg,11.42395,0.15423885,14.349026,29.900677,9.01069,2.0345416,5.065379,6.704635,3.35605,26.329762,4.547818,35.74449,5.09314,-4.3014355,11.142806,-0.91582984,-0.7492069,-1.8329647,7.051558,-3.6905224,3.6823213,3.9133,3.8911269,12.778467,6.17455,3.9755185,5.3948216,2.645142,3.0363932,-1.8468369,-5.1673408,1.2743677,13.854727,-0.5485561,-1.8414252,-3.3696392,3.985232,4.5892806,-1.2251009,4.674281,4.3234253,1.3663626,6.2233424,0.20657387,5.0237694,-1.4476246,4.174775,1.024862,1.7264605
126.jpg,13.173633,1.2191477,26.541164,18.699005,5.6508064,2.577053,0.7590361,-0.86907315,-4.0569987,37.151737,6.6703453,31.138996,-1.8783771,-6.457244,7.066317,3.2288544,-2.1015315,0.77274114,8.645477,-3.9950416,0.14919358,-1.4992737,-2.3901632,12.00165,2.9637988,14.164493,2.451014,6.4346766,1.5876032,-5.175947,-2.6732779,-1.9492093,3.2986388,-3.2457008,-2.0599725,1.7152832,1.9819667,-0.6095596,-4.402885,4.939259,8.979505,1.6970661,2.7500763,-0.23458469,8.289442,0.1603838,4.099779,2.522193,1.9519948
127.jpg,8.425608,3.035496,17.869076,30.87306,6.7967467,3.9472303,3.0229063,8.028032,-2.240786,30.731672,12.405939,40.537098,2.7712967,-1.5313125,7.5876265,-0.90242606,-2.1384752,2.2571952,7.561247,-3.0759537,0.48111948,-4.1471086,19.754202,15.806145,7.0665307,7.7604,-0.33192205,4.2096233,4.937409,-1.2827914,-5.050593,-2.7745283,4.295234,-3.6726408,0.301169,0.51856434,3.319744,2.6193545,-5.7980533,3.930689,5.293826,2.057324,7.779389,-1.033033,6.4468527,-0.29412174,2.4635499,1.6134417,0.45969543
128.jpg,6.831003,3.4578822,18.721563,16.640408,10.937026,4.209232,3.7329488,7.0979915,3.9138331,27.947075,13.6331005,33.441704,-3.6784139,2.6813223,11.656372,-1.7475318,2.0543997,-2.1029763,10.989269,-3.087371,8.512002,-2.96096,3.0188818,13.514031,6.0322657,8.824972,1.9816697,4.863108,-1.5375699,2.3677487,-1.7097341,-3.3304803,7.485338,-2.772937,-7.8391767,-0.20312294,8.387741,2.3552015,-7.0612764,-0.68427396,11.6103325,2.5463815,3.8366146,2.8774512,23.869577,-1.4176855,3.4871943,4.651001,3.549474
129.jpg,8.828768,-0.68041205,16.602755,17.032688,15.267968,0.9372734,6.446751,7.195212,5.3752394,21.673471,4.6683483,26.761223,1.2733462,-0.6135325,1.7967578,-2.0755615,-0.42341706,0.21209252,5.56219,-1.3596587,6.8536325,-0.9381508,3.2152839,2.2265112,4.770754,5.4105306,7.956514,7.9618998,0.4617909,-3.8156762,-5.1471944,-0.60033816,-0.9657856,-2.646977,-5.5231614,-0.20933868,6.277515,-2.1782317,-2.403838,2.7361388,1.7416298,4.6058545,10.971809,0.7040696,14.540381,-0.038043037,2.808522,1.9015255,1.0652483
130.jpg,-0.7359071,2.908056,26.175667,10.313524,7.5046697,12.669094,2.8489494,1.6687348,0.3781802,30.89254,13.497162,29.382902,2.0745444,-7.7793903,2.6994882,-1.9090543,-2.7221248,-2.394327,5.8090677,-7.354171,2.5647466,-5.1335754,5.3423443,22.663181,8.945787,7.86122,0.8910775,2.015202,5.63642,-0.9537613,-0.9527676,-2.7567134,4.4312596,-2.3307865,-3.1364946,-4.3848386,9.917853,1.237006,-3.7534788,2.1673987,12.167264,3.408977,6.886576,4.2851768,24.707253,-0.2519782,3.3051927,6.2499413,2.0643067
131.jpg,-8.578224,11.263863,19.994652,4.4733343,1.3168281,16.199757,24.159414,2.8096323,17.725586,5.836174,13.007203,14.294971,1.6831264,-1.0297753,2.707945,-2.931969,3.24785,7.854402,3.2450585,7.487224,5.346651,7.2651052,14.022517,5.5460596,4.5906787,6.921781,5.7084117,6.9304614,19.149946,6.4498158,2.692633,4.8476267,8.830772,4.376964,-1.1200776,-1.1023903,4.3816786,6.476708,3.2295942,15.007999,3.6947713,8.371797,2.7718291,3.6096222,0.67240214,6.0481668,-2.720641,-0.37837076,4.703039
132.jpg,8.592008,4.504899,19.165493,0.5281468,17.158655,9.823555,28.367966,7.1241574,19.429174,6.559772,12.146111,26.590887,-0.8538856,10.12202,5.763886,2.9669774,4.2205024,-0.21269155,14.482411,5.155035,20.158989,4.521791,3.5542715,1.1783824,14.743596,2.0221736,8.247563,7.899687,6.929105,3.1172786,6.305994,3.3003979,3.369536,3.2409866,8.080144,-1.265113,7.062308,-1.0005299,0.04999675,4.600651,1.8798842,13.695349,4.442085,5.9269123,3.933201,5.941324,2.658677,4.2805195,4.6237926
133.jpg,9.517819,12.406436,13.422002,11.530848,15.276202,-1.5816222,7.7688704,12.859586,11.410865,18.917015,18.296373,37.83976,5.295258,-4.4869795,6.8680973,1.2268443,0.5085705,9.652168,4.18387,-3.2801893,6.162749,-1.6620752,4.488571,5.69639,2.5441046,1.6411606,6.887351,8.325829,8.495625,-1.1598314,4.891613,-1.8318444,-1.2487547,-1.2308167,-5.107814,1.1549568,-2.1500225,1.2593329,4.6044745,-0.57846004,3.7085528,5.4783487,3.93389,-0.82608515,15.827386,-2.3507729,1.7162892,5.4571447,-0.71264875
134.jpg,8.257995,7.7839165,20.846233,5.733699,5.0506806,10.902499,14.476369,7.637038,6.5069475,25.334215,11.711662,41.672165,3.6802127,6.0690236,7.906789,3.3993912,-0.33205965,11.317041,6.5178504,0.84663135,7.7375054,-0.20441724,-0.5918153,6.3383713,-1.2105087,2.7506537,5.3170943,9.929734,5.518911,2.1713912,-0.22086743,-6.072946,0.6884621,-5.4949694,6.1032176,-0.703257,-3.9342694,2.3583734,-1.1911795,-3.5576656,5.805196,0.691156,7.468657,-1.426253,17.22154,1.4356059,0.6156746,2.9359372,-1.9947147
135.jpg,-11.128118,2.4980438,23.6991,22.532606,7.978051,2.164573,6.595116,-0.24872729,7.1041822,40.176388,7.934256,18.645037,3.1733246,-0.22054008,9.859305,-3.9333708,-5.784579,4.991176,5.0620937,-0.0011933967,9.419653,4.7218833,5.4374814,12.125329,12.124902,7.3763957,4.2483554,11.068818,6.4618936,5.9519963,2.3490682,2.1060715,2.978035,2.8004158,-5.775781,8.808697,2.7469368,-0.17137672,-0.1597479,2.4911754,20.04974,6.4713135,-0.4559512,9.032413,12.993013,7.3499365,1.7155772,7.399946,7.5148425
136.jpg,-7.875787,-3.054666,24.16877,3.4131832,8.535959,33.695786,30.132494,12.691632,14.348808,13.5741,10.021669,17.866745,1.7306027,8.735373,2.6601994,3.6197846,-0.19778618,5.913466,0.5523696,3.6196668,12.831795,4.617704,-0.46342635,0.9530688,3.3673127,2.5317347,3.3089523,10.879848,15.753306,1.1807432,-0.9054346,0.5681965,-1.6966643,0.831764,-2.2445292,0.575172,-0.109094895,-1.6552262,-2.4276774,-0.7732577,-1.0738351,9.426138,6.5857306,5.772995,8.054842,2.5999575,-0.42896327,1.8004384,5.4758687
137.jpg,1.7208288,-2.4265628,36.67827,7.2984514,0.3140131,13.16544,28.739082,29.804157,16.797112,10.907622,9.346092,21.192764,-2.3340297,3.247916,4.714604,-2.4839354,1.7200131,3.7621844,4.0590515,-1.5674279,4.5725403,7.6645308,-4.360201,0.62083834,3.645991,-2.0184553,6.0609117,2.1018333,10.8651495,2.7835467,-1.2710296,-0.81911105,1.4440278,-1.4487439,-6.602662,4.621563,-3.433074,0.67100877,-3.0561118,2.2142408,0.58437705,8.420445,3.556445,3.0202873,7.682272,3.8048766,-1.4137205,2.3604686,1.2753
138.jpg,17.248226,39.28808,-1.9939913,-2.2225494,8.95514,2.7838292,3.7996366,1.0091698,11.81778,5.471998,10.875621,16.936703,7.345177,-0.048379414,6.594499,8.107854,19.34955,7.840656,25.83534,3.5108573,6.794376,16.115217,3.6672518,7.629159,8.07245,5.847124,7.642109,2.8064787,-1.7337095,16.00787,-2.3060935,0.756781,10.458274,4.3098354,0.54725546,2.2671123,4.308615,1.6557088,1.7113501,4.2583013,-3.789811,1.7048855,0.6100677,5.3019156,14.631883,7.242571,-0.13413802,6.812951,6.720417
139.jpg,20.616854,1.4857391,16.235117,11.095463,10.19335,5.6594057,23.272362,18.880138,0.69769526,31.132105,-1.5387503,14.966684,5.577122,-2.615346,-6.77611,-0.82048064,10.4898615,18.581078,-4.7358165,2.5471284,5.563374,10.082583,-1.1831231,-0.6818932,5.4246583,1.0941852,5.193685,2.4790864,6.3682003,2.5928602,-1.1400691,5.45856,-1.947404,2.384183,-0.34817097,5.278037,4.318851,1.9658384,9.126108,-1.3904356,3.7979565,8.52958,5.915152,7.1536026,2.7974467,7.283966,-1.1583827,2.3932087,3.0370803
140.jpg,33.025986,-0.46066138,8.607084,5.706019,23.516129,-2.9158733,14.555573,20.59475,7.757154,27.892405,5.2947664,14.304566,15.561408,3.014863,-4.391651,0.20156652,6.952475,20.41245,-6.152048,6.3266754,3.0591946,2.6387177,2.2103872,3.2530453,8.888569,1.4440649,3.1049063,-1.0602478,5.5364075,0.5421943,0.104908645,1.3311725,8.617032,1.687582,3.164021,0.020519085,6.175041,3.7916262,6.275764,-2.6321442,4.128016,9.915822,7.9264483,5.107005,9.939219,3.4651015,4.230514,2.918821,1.6193701
141.jpg,24.66253,4.297074,16.330606,25.369335,7.4536943,-5.315691,26.023663,1.222431,4.4451084,37.794388,-1.6170088,21.13412,2.0203526,-9.153576,2.8239355,1.6610645,2.7997613,10.798019,-5.115763,5.210205,0.33982393,14.937535,2.221993,-0.9178165,1.8680967,-3.2731287,17.43591,-3.949276,5.749024,0.23512645,5.718953,6.865467,14.4079,6.1227727,-1.1261141,10.421536,5.1196704,1.0186516,6.317969,3.1701214,9.9939995,5.926558,3.0981553,3.7228818,8.416692,8.88595,4.528284,4.1888824,0.10137823
142.jpg,11.163659,4.617935,16.72928,28.82088,13.346783,-3.9464812,22.419285,17.651588,8.128505,38.01261,6.4313555,12.231501,-2.4839864,10.6800165,-7.3928194,-2.4837513,12.40307,6.623978,-1.740504,12.6347885,8.736228,9.846613,3.7546017,4.719611,7.0301456,2.9313548,7.6276207,0.54871094,4.6113143,2.7769442,10.304013,8.422142,17.993645,9.816985,9.986518,8.826683,13.098457,5.4742894,1.804019,-0.49701044,10.4758835,7.0339127,5.9948773,8.682641,9.618822,8.6015625,5.62319,7.878335,1.683454
143.jpg,8.911157,-1.491085,34.907257,11.692912,19.323883,14.445954,29.848545,12.045985,12.395067,33.411755,5.0075316,18.254532,-1.028871,8.317049,-8.159279,-3.2596362,-1.6749883,6.3766255,-2.139707,9.314954,7.135431,3.2842536,0.0143773155,12.588164,1.5891953,5.768248,4.468619,-2.6863992,6.7410545,-1.0696822,7.686541,3.2387414,14.829011,6.3392773,8.9435835,0.04759077,12.084109,6.199349,0.22699702,2.2358005,10.695102,4.537811,11.791549,8.019648,7.5601683,5.1858954,3.9850614,4.2955375,-1.8703997
144.jpg,6.9761457,41.71409,10.919471,-9.932419,4.4938016,20.368559,1.2620251,-2.6276965,7.3161325,-6.6244364,5.3176246,10.642904,-1.2954509,-2.864902,18.062855,3.1092014,4.367253,1.7143093,18.866335,-3.3675096,2.4623675,5.8445745,1.2987068,6.75816,5.782714,4.2437367,0.59611446,8.2352295,-0.99244714,12.845776,-1.3057576,2.1132202,4.359476,3.5836828,-1.3738837,0.76727504,-1.5607642,-2.0376449,2.6808455,-1.0368353,-2.946958,5.324981,4.0777235,5.451185,0.8789685,2.4624865,1.1824002,5.795044,7.721657
145.jpg,7.3715234,2.806417,31.080664,23.862896,6.0158114,6.8853593,8.879715,7.3228583,5.2064137,37.753727,6.5825596,32.02147,-0.14699213,-6.008485,3.7733977,-1.6088347,-1.7042452,3.9813056,7.285051,-10.27903,1.578622,4.084781,-0.81285155,15.762758,3.8212373,4.3167486,0.57951975,4.599909,6.1884775,-1.8891765,1.295354,1.6377658,4.791255,-2.903602,-0.574268,1.5834014,0.68072623,-0.3389425,-3.3838995,-1.8736856,9.021611,5.375143,6.5589166,3.2294116,7.8533673,3.9950218,1.5078678,3.8756926,1.7942746
146.jpg,2.6746037,-13.378173,24.573221,-2.5298495,7.088758,28.2539,28.624338,8.149488,22.261105,4.241965,11.994816,8.012493,-4.020089,10.88164,2.5692024,3.3239913,1.4627156,1.1016657,-2.0453858,9.083525,-0.82233083,0.63281125,1.5431188,-0.83199346,-1.0423603,-1.1691335,0.34419158,2.7333717,5.5194244,3.1898751,1.3343304,3.6669345,-5.21442,2.6216521,-4.275427,0.386017,0.62542015,-1.3378415,-2.6060212,1.6169664,-2.9114013,10.16114,6.5155907,-1.8379182,-0.75307834,-0.06270984,2.9527457,1.4745817,1.4536189
147.jpg,9.792913,-5.173587,33.10061,13.242264,15.0173855,0.18608627,10.287215,2.0991802,16.669348,24.799982,7.291451,20.757278,1.0138049,-3.692101,-0.8411565,3.448781,-3.3873358,7.7380733,3.0285091,1.3822258,0.92593676,0.2377267,0.38116163,2.9975538,6.8321476,-0.1771091,1.7414361,8.965047,-1.8201804,2.5053856,-2.0900288,1.8459458,-2.330304,-0.18335888,-2.1651201,1.3198936,-0.22299857,-6.64925,3.7813854,-2.0378647,0.6353435,6.9316683,7.0946217,2.1924474,1.7729621,3.7697356,0.9934245,5.0941687,0.72477514
148.jpg,5.4845443,2.9110215,21.183636,26.91883,6.8536706,7.0354233,3.167279,-0.6685457,7.9179673,41.392216,13.26091,26.17743,-2.2933948,0.50575304,1.1852355,1.1820512,-2.928976,8.539447,4.4337826,-1.901479,-4.2516017,-4.5671487,1.1368814,13.380918,6.426464,10.801969,-1.9936509,7.3196115,0.28473437,-1.8548585,2.0961535,-1.6864042,1.06209,-3.6342053,-1.9519459,0.15417524,4.7272625,-3.8258553,-1.4326961,-1.3421266,10.276151,-0.6423212,6.607852,2.425494,3.8730621,5.0264363,1.4649513,4.175497,2.2603054
149.jpg,4.94354,46.786312,10.533376,-1.1597861,-0.46212468,27.19279,16.858778,0.3427523,16.517508,-1.4969369,10.89072,11.293383,1.4698975,-3.403594,6.366278,1.09398,24.098087,4.5700226,4.08734,-5.548129,1.8567595,19.204363,6.6958523,2.502447,-1.8587772,-0.4703524,5.670302,2.3096435,0.6007135,21.86994,2.833828,1.7101904,-2.031621,-2.3734148,3.1081607,2.6230316,-6.2052174,-1.3449045,1.774241,-0.9746378,-2.981934,6.1148577,2.691933,6.4429736,1.5389597,2.4755957,-0.8323617,5.9286413,3.7088552
150.jpg,14.446788,13.43455,6.890025,8.221266,9.855027,33.183197,7.449655,-0.2278164,7.5740447,1.6980261,22.95446,19.812471,1.6605396,-4.606566,12.225107,1.4651569,12.270666,2.7205744,16.251404,-1.0473973,-0.17445187,8.348539,4.791858,32.413025,8.13052,6.0474644,4.7765384,7.1920834,0.7135261,10.393017,9.660874,2.616527,7.236665,1.9953089,-1.6150653,0.6046691,1.3189881,2.8293502,-0.5865686,1.7164173,5.937342,3.489322,-2.477304,7.33162,1.7158545,3.23985,2.1187177,11.929184,3.8029678
151.jpg,-4.333644,42.928978,11.795981,-2.065858,-0.93190455,32.222713,12.53078,0.7518247,17.16971,1.086924,8.616932,9.567153,2.1794343,-2.552841,3.1961844,1.84302,16.674892,0.69810134,7.3085165,-1.3750385,0.011774781,19.545807,4.6328197,6.6686535,-1.8842714,0.97322816,3.4811604,2.7989662,-2.21262,16.026302,7.0488043,3.723367,0.94566166,0.39513972,4.205311,-3.9772437,-0.38884565,3.3148487,1.6511122,0.46218967,-1.8486947,5.914714,2.992183,5.4270062,-0.365787,2.2282887,1.8635057,3.8726573,1.8702302
152.jpg,21.289167,34.51642,4.577665,15.861319,9.800609,6.0241055,-0.052153785,5.6343555,6.548569,9.892829,13.205825,43.032635,-1.0965366,-2.5834563,9.179256,4.86786,6.728405,1.257994,29.682743,1.3586667,2.7342362,2.116549,4.836476,9.75881,3.7810297,4.85715,2.2290924,5.8406253,2.751208,10.98261,3.2397003,-2.6604311,3.5698824,2.7872498,-0.08852361,-1.515138,0.44138235,2.0264692,-3.209191,0.62902087,11.138335,4.9588785,7.39153,8.140299,4.127875,4.3368926,-0.7993857,4.84436,0.5787909
153.jpg,19.491585,-2.7691488,-3.603581,8.455677,40.0174,-0.46061137,12.679434,12.552682,22.115227,-4.7751837,19.85416,20.12115,-0.3041573,7.844068,-2.359628,-1.5798241,5.852798,18.584824,6.7398615,0.3928533,5.1545677,-0.6941585,3.5395787,-1.2732608,3.0341623,0.3293056,1.2845927,5.3687057,5.3417153,1.3756151,4.332664,10.463846,-0.72930187,4.916173,0.059681945,0.65528864,0.9478268,-5.448098,2.0813005,2.995446,-4.3242083,10.436492,1.6701815,8.544146,8.608694,2.4965973,-0.99844813,3.2954857,2.3458393
154.jpg,-3.5464923,-1.5859581,23.336527,-3.0820825,8.433641,34.152035,37.138737,10.471571,22.286716,9.782796,10.523359,14.515214,-4.5379357,5.4862995,5.3236794,2.5087063,0.241963,5.4565372,2.8848042,4.884938,10.8486595,7.285698,1.0661095,0.32627565,7.0258274,0.8092122,1.5804582,4.035609,11.009218,6.5282745,-1.1818943,1.9523044,-0.7407307,1.075913,-1.1089998,5.42481,-0.18986808,-3.886509,-2.2372003,0.96311533,1.9304367,7.657086,2.4947968,3.3116653,5.797651,2.6996844,-1.8776801,3.2379441,2.2542279
155.jpg,8.465605,-4.358327,15.261686,4.017896,5.4602914,5.7082696,24.660799,12.65969,19.231644,12.069701,6.170974,24.42504,-6.1552706,3.3580825,-1.103653,4.4055395,2.0430207,12.358401,-6.1774826,-1.0840999,1.1486708,15.815452,4.54282,1.6615307,-0.74007744,-1.7997454,13.772445,6.146627,0.01975149,5.8537827,-0.57890797,0.8048571,-0.9277894,-3.1501315,6.8527274,-0.54365796,-3.3594542,2.0617769,1.5494244,-0.8730013,4.1076183,6.278308,4.861976,5.548168,3.6651042,7.330884,0.51307136,5.9251637,0.40833402
156.jpg,4.634095,2.3641677,5.7793145,10.6650505,7.1087337,6.6353097,19.002748,17.033161,13.568847,21.154985,12.181701,28.718483,5.5320067,5.991426,-1.9236128,-0.20024684,5.0864787,16.862661,2.9750686,3.0340395,9.014589,10.239399,2.9492059,-1.6428945,6.003796,2.1446865,4.221037,8.071915,4.923508,1.6776819,0.5580473,-1.141048,0.85956526,-2.781913,2.5951102,-3.3260682,1.5113283,1.3035244,3.105416,-1.6564432,3.7107148,4.2043185,3.8032103,1.1705065,3.5049732,3.2614357,-2.047815,2.0585032,-0.31511822
157.jpg,9.723947,-2.6041152,16.245821,10.35202,4.0895715,-2.4248362,16.560299,14.85858,12.084264,18.698,13.576362,30.944723,-0.9405045,-1.5758767,0.85617274,-2.2555492,9.460642,11.979796,-0.32956097,0.52252483,8.037632,4.4386864,3.9961033,-4.9153986,1.78691,-3.0290086,17.965342,8.220544,0.6224899,-3.148539,0.8777554,-0.8201781,0.07990021,-6.0852675,-0.3715949,-3.9126992,-0.7489629,-5.0341926,3.6492445,-2.6762207,-1.284168,2.7297404,4.573153,0.73250914,7.6524487,-2.6969504,1.1214422,0.8719128,-0.8856058
158.jpg,-1.3115675,-2.261226,40.01348,6.933427,7.304965,14.04401,13.067905,2.6800838,15.157247,28.759748,1.7905233,16.949923,-0.57265276,6.850138,0.08524037,0.9324681,1.837439,6.591288,3.7478697,-1.3674897,14.924108,0.35915795,-5.6816125,6.198075,3.3565288,1.3809624,1.5782334,6.453081,4.899424,5.6828866,-4.340176,-4.278265,-7.7988,-6.0838184,6.7025423,-4.2656474,3.6140695,-1.5807558,0.45465073,-3.104594,0.43855625,1.2432655,7.4927254,-1.1146927,3.929001,1.575471,-3.9525661,0.2767048,1.1932858
159.jpg,15.10406,-0.46337792,23.595339,16.20695,7.2333465,-0.28206632,5.0176096,1.1504605,4.5838017,24.617012,15.524144,33.6422,9.504305,-1.3239384,16.462229,2.8267484,4.7196674,24.573246,5.3697834,-9.710809,-4.063707,4.80874,5.544635,2.0693092,-0.110908575,10.070475,4.2016044,6.9033623,7.273041,2.9617975,7.131092,2.4396226,2.308901,-0.12758672,1.0037293,2.339592,4.4669194,7.2085395,-1.8342208,3.4769151,17.293623,1.4703109,4.044815,7.157883,7.4374905,9.816569,4.5707693,4.349811,5.2419887
160.jpg,19.553366,45.46112,0.9507701,5.888051,9.060277,13.190179,0.6062971,3.578786,10.03831,2.0307803,17.120256,11.233921,2.5287483,4.0661225,0.48996368,1.6644309,11.543905,5.382033,34.663723,8.578795,6.20855,-0.20222203,4.7012486,-4.3262577,7.1685524,5.0225573,5.4683857,3.2926972,-0.8992056,-2.7789655,7.151571,3.7698836,-5.0676675,5.3135386,6.346263,-0.31492886,8.909503,2.9265919,2.062659,4.5516853,1.7997712,5.8737507,-0.66025454,9.023567,-2.9312882,1.7586142,0.5668791,0.37942702,3.9808235
161.jpg,17.603354,-2.6401548,0.48951516,3.4479837,5.0937724,7.7712126,19.821646,19.961527,6.3025074,-6.016038,27.954384,19.365318,3.8543484,1.7019198,11.373216,5.0594554,4.9871182,5.7579427,2.853824,6.4930053,3.2332618,1.2897515,15.88055,-1.7752113,-0.15946515,2.0185335,2.5211442,9.189218,7.515119,2.7096627,3.1603754,7.67274,2.495816,4.0050054,-1.2947416,3.9891057,-5.8916707,-0.3008634,2.9208734,-0.3385851,-3.0105453,14.563502,3.790798,6.026737,4.2695017,1.8550102,3.6553576,1.237156,6.7671957
162.jpg,-4.230483,7.654536,28.835052,15.23048,1.0167571,11.846571,5.5492773,3.5481162,1.2664523,33.208023,15.481448,27.948988,4.116095,-2.598854,10.106878,0.8799523,1.7432269,2.8769078,12.886635,-1.032692,6.3303394,6.3675723,4.887271,15.39125,6.805397,6.3651004,0.18469077,6.862493,7.542669,0.88425165,-0.2807551,-1.3225745,4.7361865,-3.5654976,4.3733764,-1.3140247,0.5645717,-4.550133,-2.0261045,1.7846471,14.106406,2.7202582,7.289514,5.5821934,4.1204557,6.0999002,0.60582644,4.3039303,2.2243793
163.jpg,4.8068266,3.1389897,16.87283,36.02276,7.6132865,6.7733946,0.55774635,2.7017798,0.1310235,36.921494,9.126015,28.599804,0.33911717,-3.6797028,12.713143,-2.838726,-7.0739107,-2.3215196,3.7016704,-0.5553365,-0.31819308,2.0383863,5.961787,23.050943,6.4944773,10.658736,-0.32364148,7.7033887,4.6864877,5.941463,0.44441298,0.15983582,8.82517,2.0102174,-0.07242067,-0.6636955,7.272254,1.1445273,-0.4694433,3.0863132,7.3492794,8.174995,9.933126,3.842367,3.1125367,3.145375,3.0639637,1.2076163,4.6143045
164.jpg,-1.1065588,-0.98053086,24.971603,3.5887692,2.6165788,21.108765,28.373714,12.362024,6.197995,-0.34308556,15.784778,6.89486,-0.8511192,5.4486356,-1.8443711,-0.23996681,0.08836807,-1.228917,4.7719607,9.453835,14.073489,13.541271,1.0408441,2.0246172,3.2461834,-2.9329464,-0.22681463,5.429432,4.3058643,-4.710517,7.5889835,4.244136,20.521906,3.7353642,-2.0464017,0.80252624,-10.216847,5.544418,-2.117913,-2.4332614,-0.20166151,6.956985,-1.6550273,2.795752,4.3096876,3.5627763,4.8678236,4.1162143,-0.88583004
165.jpg,16.809792,11.840721,11.885281,-0.07085889,10.646427,11.503269,17.475983,8.882194,12.191223,12.550638,14.4426,22.953678,9.016156,-1.6012602,0.06555915,4.161494,8.4979725,14.037967,2.7984755,-7.219456,13.473873,5.6985455,15.078407,-3.339417,4.3932147,-4.15555,15.076571,10.027456,6.253943,2.2548497,1.656067,-2.6607888,-2.8528013,-5.0037327,11.667798,-7.3924026,0.6393145,-1.2425747,8.658976,7.4210873,-2.9548573,6.912377,6.7182193,11.266022,4.6652145,3.0520134,2.7297952,-0.073113665,1.2606585
166.jpg,2.3700244,15.703914,18.291832,18.20368,8.162794,-1.0806617,5.6626616,7.4216194,3.6685445,38.234688,8.698748,17.935308,5.3099337,0.4652204,9.567018,-2.3549697,-2.1800485,7.522717,7.313356,-5.4761753,3.9816446,2.3779397,6.9283338,2.2723148,8.483894,7.8642287,5.9320707,4.379675,4.0055466,3.5313082,2.9316258,-4.0876493,2.3349676,-2.3207037,0.77008057,1.7233737,6.872622,1.0411563,0.81489897,2.7096565,16.735664,3.8263955,6.1350517,5.4450383,22.447851,8.548022,2.5647733,3.9926898,7.0138187
167.jpg,9.742412,-5.2857833,19.05949,9.746523,25.21251,2.04735,3.2449932,3.7978404,17.921616,26.81695,5.799646,13.38298,7.823898,1.6258733,0.30635613,2.5879562,-2.9533606,22.611097,3.2027237,4.936393,-3.255951,-4.0327096,-1.3838109,8.575077,4.5887265,6.689085,1.8922778,7.6766214,-2.6151636,-1.3861499,6.8607106,-1.3368242,5.8114657,4.58935,-4.0990496,0.5656259,4.416821,1.1860447,-1.8494688,2.012176,7.3092074,-1.0536206,13.412213,7.7347145,8.288405,9.882118,1.961166,4.209937,-0.17050812
168.jpg,-3.6609795,3.5162206,29.37531,24.505953,1.2812158,24.274174,13.220544,-8.892864,1.3799126,20.781473,12.87605,7.2064204,0.272224,-4.1095138,7.5892954,5.81909,3.2439444,17.664331,4.8060274,0.7275735,0.118108466,10.294178,-3.2737114,13.630584,5.8708725,4.8458176,-0.95778817,10.462044,4.490008,4.3144393,7.711583,1.0771809,0.00879392,3.5074408,-2.0666876,6.919203,-5.9454613,4.12056,-0.2289726,2.3995795,6.9561524,3.8146186,4.961253,6.2943234,8.692188,12.617638,3.938826,10.308953,4.9096293
169.jpg,10.723968,3.8178124,2.347156,8.095794,4.808466,6.6980867,27.145142,26.97374,12.154291,1.7784681,22.07376,14.7130785,-4.677368,2.875314,0.21548998,1.3796958,6.617535,7.00116,4.1304817,9.741435,0.5633604,11.535197,6.1709723,-1.1459355,-0.48838863,-1.3771346,4.3501525,7.6232934,2.4775596,1.8755697,7.452821,6.8792553,4.5661507,6.377722,-1.9256595,4.283707,-7.250395,-0.9587996,1.5624443,5.664023,-1.4469633,10.748068,1.4776415,0.60508645,5.7245784,3.0990717,7.004054,6.52605,1.0398258
170.jpg,0.9946158,6.884927,22.773415,6.889412,4.2385955,19.050356,31.695974,13.076327,7.38221,2.9921541,17.12854,12.03355,-4.4729977,6.101345,3.5975058,-1.1049507,5.3998623,7.28775,3.1918347,4.6991906,16.221006,11.912776,1.1400324,-0.12448095,0.26995367,-4.269962,1.993037,8.15526,5.2208943,-0.61492825,4.9518833,4.5191503,7.9571476,5.309718,-1.466226,4.609374,-9.9522915,0.30965358,-2.1277604,-1.6582943,-1.0398662,11.1168375,2.9744337,3.3522985,6.3013806,3.2731607,5.4372387,4.2464914,1.1225376
171.jpg,-8.162566,-6.558842,19.488447,-0.15454255,5.6058445,30.953545,30.115757,4.020789,16.66879,-0.64945215,21.797329,14.589423,-2.5699027,7.3310523,0.5470263,2.3785331,6.854826,6.826663,1.0842116,9.568598,17.91638,7.351649,1.8204331,2.4151504,2.508048,-0.22397554,-0.52346885,7.848146,12.737192,-0.20408072,10.104873,3.728626,1.0520704,3.3068066,-2.3814878,7.343296,-4.1005564,-3.2250748,1.8998789,3.5393608,0.7944973,12.482559,1.4535536,7.9149575,4.315331,3.1339839,2.8895483,5.7231264,3.5452633
172.jpg,4.273394,3.188156,6.3640537,8.808243,-1.0959399,4.6031575,18.726698,14.813479,11.728005,6.887575,20.261602,12.889491,-6.526722,8.843624,-0.9687722,1.5160313,6.044239,8.271601,0.570136,6.2615304,35.598034,12.136314,1.5546374,3.8405244,0.31783843,-0.1644867,2.1982725,7.773165,11.357627,3.339342,1.6146965,4.522738,4.776292,3.4936116,0.02502529,5.7735696,-2.198955,0.19989945,-2.2049177,-4.04545,-1.760076,12.842343,-4.910983,6.4245963,6.796499,2.321848,6.050646,4.1781545,4.4414306
173.jpg,-2.22174,-1.9958103,21.423862,8.254314,9.806224,25.874063,24.445864,0.39843518,10.087617,22.445518,15.608746,15.600143,-7.3641834,4.2691526,2.0201538,1.3958609,1.8519285,5.130173,5.431773,5.4824767,2.0407584,0.8368682,3.605365,13.615692,2.7797377,-0.11202488,-0.5301792,8.752491,2.3126826,3.325586,-3.3059006,-1.5790448,3.1503756,0.27981642,-3.8918986,2.667875,1.5107192,-0.68013567,-3.097424,3.3429227,0.98309684,9.646414,5.0529423,7.5091667,5.7365947,2.8034549,7.1862936,6.3553276,3.0762093
174.jpg,4.753427,-0.46925908,16.016308,2.210518,5.441495,11.566896,28.331932,10.702541,14.338432,0.9333335,14.607474,13.544427,-10.850697,6.26717,4.606551,-4.630182,3.9952822,2.2746615,5.2205353,3.0219533,18.851122,4.6865916,-1.834839,3.5997503,2.1229079,-3.1844556,0.8020553,6.872178,7.350657,1.8155195,4.722744,2.3845956,2.6751916,2.9134135,-0.08107866,9.371574,-9.305016,4.4285645,-2.4546876,1.6927369,0.07782411,16.132296,-0.05602017,-0.6039705,5.1464157,2.121315,3.4954991,6.872633,0.43092066
175.jpg,-9.542027,4.0849876,26.396496,3.5795376,7.917978,32.32138,27.188564,10.077676,17.006575,20.515554,9.724172,21.338358,-0.37242174,4.2775383,-1.7285155,1.7008841,-0.65271044,8.155281,0.1249467,0.7496139,3.9513237,2.307062,-5.097776,8.47718,3.0185704,3.862091,7.815911,6.018338,10.736335,2.1425347,1.7377212,-0.07130783,-0.75190437,0.35073516,2.8446178,-2.913513,5.91742,0.37756854,-1.7065704,2.802564,2.809524,10.173646,10.275602,5.0689144,8.247278,1.2111726,2.424226,3.104966,2.6138735
176.jpg,13.622512,9.446724,8.995416,7.7287955,9.444682,9.168718,19.897837,8.248946,9.341916,1.4911475,15.843342,30.583923,7.983736,6.011278,12.9490185,1.7437949,-0.3772336,14.335853,15.58071,5.331026,5.5385637,2.503053,5.3327537,2.457718,7.4912014,0.5431308,1.7475079,4.803086,9.747696,-1.7551903,8.707535,3.3307657,16.626413,5.530712,0.67573935,-6.329114,-2.741201,-2.8061237,-0.7385554,7.11574,1.5415812,0.31086767,3.4203105,0.81044036,4.053879,4.2359853,1.9001279,5.1991673,2.4772553
177.jpg,3.5291672,12.796086,19.988277,-4.12936,4.7456965,54.950886,19.057327,4.293655,8.953321,-2.354448,15.017235,13.537439,5.211777,1.990563,5.235901,2.499064,3.5523744,9.576886,9.168397,3.992914,10.611321,4.8359256,1.8150721,21.613401,6.5980167,5.4019213,4.1812096,1.9433753,9.501984,1.8636816,3.5195134,3.2305684,5.2496924,-0.38027456,4.3375897,-0.88760126,3.194719,-0.14788876,0.2036701,-0.68887347,3.5983212,2.0905545,3.7243326,6.245237,-1.1802039,5.7613,-3.323231,7.1927176,5.712693
178.jpg,7.0433974,73.183044,4.610858,2.6083925,4.9268956,5.8342648,-1.7121781,-4.97669,11.119384,-1.9855406,11.125441,12.274283,0.48032123,-3.4957669,6.152805,0.95479655,20.634417,2.474712,4.9069676,2.0753508,-2.7441278,6.8227215,1.8423326,4.862541,-0.01747203,-1.2219136,2.4798236,3.9440055,-0.95680374,2.8787374,3.5654187,2.3528435,0.7564669,1.078554,2.3362465,-1.0568768,-0.24466515,-3.6417718,-0.8405444,-1.1634333,-0.10171216,3.0834994,1.7552655,3.2954361,1.6447756,-0.6176753,0.21420643,6.3575797,1.3808519
179.jpg,14.326002,-3.6944344,12.426268,4.996848,0.9309736,18.634815,32.95131,12.628208,17.332918,6.1665187,9.015226,16.739876,2.3175144,-3.021133,-6.2348475,0.6691371,1.158604,2.6731005,2.0995755,4.063083,13.865428,8.257358,2.0521386,1.5714824,2.750969,-4.8304806,4.5433183,2.1823673,8.7777605,-2.3276572,-2.1769667,1.5238849,0.8273946,-1.837354,-1.1339891,-2.7789004,-4.3402796,1.8634286,4.062294,0.43663132,-4.741375,7.8565,1.5322378,0.057867914,1.7207302,-0.49577448,1.1304376,1.4540457,1.5298288
180.jpg,-6.201006,-5.4677734,31.138065,20.553654,3.9548945,23.560768,18.035637,12.8670025,11.5138235,25.803175,5.555816,16.495596,2.2720625,3.6511774,6.364462,0.9104194,-1.22353,-0.9268744,1.2709962,-2.6097913,6.372652,6.061013,-4.7019496,18.296059,3.879046,3.33165,7.879565,11.066914,6.8346796,6.2652082,1.1663951,3.086858,7.061895,0.26452783,-1.4003413,-4.3914905,1.6445756,1.8752042,1.814436,2.3737466,6.009595,7.522884,13.275279,7.5532207,4.366443,4.100654,5.5350432,5.7718644,5.7102222
181.jpg,-3.0019827,2.063301,17.150928,7.052659,5.2759213,22.790558,31.345623,6.9352984,10.010997,0.7605654,9.510091,9.228098,-6.2990785,1.201107,4.5822644,0.13999616,2.469692,5.797314,1.5617408,6.7492833,10.29394,6.954594,-2.7287114,-1.9514587,2.988161,0.68635607,-0.6856971,2.1649334,18.8775,-1.2792828,-2.339222,4.939247,9.549561,6.73835,-6.3796535,2.4937563,-3.8407142,4.305253,-1.9157339,0.5702371,0.046825666,12.3718605,-0.20045908,2.8644779,2.6339667,3.0673466,-2.6250272,0.18193796,0.38814378
182.jpg,4.9226923,1.1370803,11.341388,3.4016938,11.860319,31.384806,38.61531,16.438839,24.03208,4.4748516,8.867617,15.307055,-5.0917306,12.280334,2.8193603,-4.2934394,3.5809762,12.022006,5.023441,8.180825,6.2188096,5.5656595,2.6550267,-1.4189336,2.0336487,0.5975649,0.83511025,5.807698,7.438627,-2.2935781,0.1135489,2.8848317,1.5744637,3.007944,-2.4054458,1.892064,-0.7559495,-1.6896628,-4.17681,0.08251965,2.2395725,6.8318787,-0.39284545,0.60806924,2.329619,4.198739,-0.6905086,2.7995691,1.9230769
183.jpg,10.337508,3.896717,-3.3540277,8.316718,7.072242,8.576121,4.2626925,24.777885,12.565343,11.948017,5.0691733,9.373364,5.3436375,1.3776283,3.8303316,-0.24464726,-3.2716546,8.975222,-1.5713887,6.6247783,6.1738787,-3.4090931,10.915574,2.5422466,-1.5607113,-1.9418707,3.6352355,11.06715,3.0438502,-0.634931,-1.0028845,-2.2380545,-0.5482007,2.8726869,-5.8620768,-6.240441,4.0273795,0.83593976,0.9960332,2.3050067,0.869878,2.4308813,5.290726,3.0180411,4.3723063,0.6794645,-2.665573,-4.1200285,3.4134521
184.jpg,3.603353,-1.8717415,16.927443,14.940083,6.4994755,17.109737,26.069351,6.7418337,14.1690645,20.409687,6.941214,21.241137,2.4348755,4.382966,2.6194677,6.9830565,2.9446487,12.8209095,1.7625304,6.957309,8.469278,4.2029767,3.5388908,0.4964246,2.0519824,0.791067,12.507359,8.522175,9.768542,-0.48704106,-0.7890012,1.3717275,0.5315062,1.3434349,0.04760595,4.2014213,-0.9524652,-1.810104,2.5729895,5.445875,3.2652385,5.004087,1.5704591,-0.8565361,4.5514903,14.287594,2.0076227,7.5231256,3.2123766
185.jpg,9.024857,-0.44715965,11.22929,19.240517,1.4882857,9.190451,17.411575,6.3020363,7.3286266,32.438175,8.43471,29.483086,7.4934273,0.27854955,3.973535,-3.425506,-2.6237803,9.6517,3.1000712,6.465371,4.7988896,4.2592545,-0.8021835,14.182586,1.0517063,4.3931646,7.0193796,2.9043515,3.6462574,-1.5241028,-0.723209,0.99934685,2.4162424,3.4810207,-0.7453447,3.561951,2.4997003,1.8041443,0.08592922,0.7994468,5.9830523,6.2995663,4.62543,0.8262878,7.689961,10.731319,0.8485755,2.237542,3.128761
186.jpg,6.1681247,0.8801982,2.836305,23.359255,1.5302246,4.999701,19.561295,7.697189,17.881752,15.646842,5.940174,19.26952,-2.2007508,-5.579334,0.19419126,-0.2711364,11.814664,10.329328,0.21571107,7.1056285,5.1905723,18.3698,6.8721185,-2.5498478,-3.3501759,-3.5266004,28.056631,5.432763,3.3821876,-2.446128,5.2048864,5.6971965,18.480408,3.9841883,-1.0569725,3.4603736,0.3688206,1.8868878,4.4045506,1.0334486,-3.5704103,5.9307175,0.9255916,0.64602095,4.7008038,7.3014812,2.5071144,1.6995281,2.3863924
187.jpg,0.11531673,10.753235,16.598831,14.91481,5.955135,8.18617,20.622,9.965463,12.006664,25.67654,14.320747,29.470161,-0.2679728,6.598037,-0.9703111,6.1517854,4.645092,10.390507,2.6243963,7.938692,10.713913,1.4755735,5.5301514,4.372671,6.0984354,2.3952243,5.406966,4.7095175,15.072599,4.59015,3.1818442,-2.7378802,2.7507014,0.3080989,4.1043997,1.9090725,8.4602785,1.1266847,-0.17768545,1.189599,2.4005442,7.4613123,0.49897695,2.662017,4.5724516,6.671927,-2.2616954,0.2185374,2.1437857
188.jpg,19.079548,0.53588843,-3.2213032,9.873493,12.786648,8.919738,1.2516221,13.239668,16.637669,-1.6761962,23.54806,12.147503,15.278059,1.9219972,2.8627553,3.7346482,8.316083,21.212278,10.83268,-3.705414,1.1714567,5.150472,9.720705,4.5728846,2.4423935,9.220384,2.189251,3.0889096,4.5421014,-0.27291882,7.9032793,18.60143,3.9527946,5.3427825,-5.920471,-3.5681262,-0.46617398,8.086193,8.122392,3.6341116,-0.3400877,6.154286,1.8387341,6.7282186,-1.3509022,-1.986743,3.3529108,1.0644978,4.4584856
189.jpg,-3.9323356,2.6990583,41.19701,9.653795,3.2165904,18.004704,7.520376,-2.1841238,6.005867,18.841618,15.908435,26.874062,3.3983634,5.0751987,1.0115192,-1.7024566,-1.282588,6.84522,3.9368548,1.9894779,3.4393601,-4.3307695,3.796624,14.521444,0.81399596,8.917507,0.8685872,6.640151,10.710945,-1.6749482,5.961131,1.5749027,-2.5060863,1.5560195,3.6968522,-0.21323799,5.794772,1.2504528,-0.6064987,4.5079556,9.707935,4.6583967,2.3122895,4.9632063,4.0927267,2.034428,0.21889117,6.393572,1.9541981
190.jpg,7.418938,-0.49349037,11.154849,22.090399,12.35581,-0.24064146,5.312031,-1.7820958,6.778709,27.29752,9.068724,18.135538,4.645883,-3.0633028,7.46198,3.4674497,1.0102094,14.644961,8.442196,2.3912623,-0.91321373,6.131839,2.7380817,0.8423749,0.07084217,14.068836,8.784242,13.204692,-0.14702818,3.8014014,2.2599046,4.739303,3.9804556,4.999285,-5.3520255,7.8893313,-5.430473,-5.2932286,-0.97268295,7.1634955,11.300616,6.9236526,-0.93480235,6.917698,3.8596125,8.471905,3.4537175,4.088952,4.6252437
191.jpg,22.436296,-0.5877398,-3.799157,2.1817453,9.147156,20.538288,3.6412048,9.668759,5.5405726,-0.38651818,21.781584,19.23797,12.640616,11.479785,1.6279198,2.033193,4.6603293,14.596537,10.7106905,8.551325,7.7492304,-5.538003,1.8921368,4.452675,5.16308,4.0509844,-1.9142554,2.7149563,12.068704,0.4616161,3.3385932,2.5917187,2.3607557,3.8767283,-5.2127028,0.8459312,-0.399933,4.816809,4.2622747,-1.5687985,1.3568472,7.528597,3.7741997,6.3458533,1.2883321,1.9987,2.0134606,-1.2721558,8.376256
192.jpg,1.9591082,7.9332056,74.859604,5.078892,2.208506,3.957538,-0.6736231,5.055202,7.026186,14.791579,3.1091766,11.874153,2.4641116,1.0851287,0.49648452,-0.14944366,-1.379881,3.063782,3.2429807,0.7448662,9.041073,-1.1648223,-0.34864295,0.9498477,-0.522024,8.399041,7.278072,4.39036,16.280699,3.0045195,-3.0636117,-2.2690494,-2.6324816,0.713926,1.9602033,-1.6422931,10.586887,-1.0706725,-3.387808,2.7834213,5.434358,2.7025082,0.12303674,5.3714113,3.6314979,0.16021244,-0.8999361,0.5406007,3.2066658
193.jpg,14.259106,-6.6583686,64.22659,0.8715797,4.159378,5.0689516,2.8946795,8.274022,8.04213,4.6914477,10.200055,18.837013,2.646309,3.5482757,4.7139025,-0.34724995,5.9756804,6.0831666,4.2690988,5.0756006,11.77939,-3.662247,-0.36349836,1.624203,-0.9916069,6.270703,5.649038,7.416438,19.622412,2.579359,-4.4317427,-1.5736008,-1.3633274,1.018864,6.1189537,1.6095184,4.1676087,-3.1330764,-3.8475626,2.347687,1.9680083,7.0321836,2.6065516,4.03653,1.9297682,-0.27220425,1.1057522,2.671024,1.3159431
194.jpg,1.2999451,3.7969842,69.20136,17.268862,7.7972593,-2.224542,2.5174599,1.2166579,3.6553447,19.759268,4.585005,9.849669,-0.90046626,7.763374,4.381711,1.7298926,-4.899225,3.3877225,3.1306326,-3.3601859,-0.8255137,2.1419477,1.7808061,-1.5376105,4.6648464,2.6180542,3.2599568,4.4347005,2.6818533,5.001977,-4.3793774,-1.4778951,8.375029,0.4265936,-4.3927803,0.16880967,4.683432,-6.7387795,0.19572265,0.3827456,1.4094796,4.2951164,4.5896597,2.6082265,7.3970904,0.15076427,1.0176015,0.86539316,1.0103029
195.jpg,5.885651,15.53129,8.349577,-3.678651,10.353752,35.74445,8.86356,-8.444225,8.758383,-7.391196,20.312696,20.497963,-2.4792776,-3.1161363,9.65787,1.827877,2.0151794,1.7443169,22.290789,5.8692684,7.4688935,5.118032,4.739981,27.967516,2.5139637,6.926927,-2.667126,5.3591285,0.57610005,8.146059,6.8180537,3.3141959,7.2190194,2.8453104,-5.766902,-1.5532773,-5.5816865,1.2643003,1.5862213,4.4641504,3.9422777,3.3840132,-0.69862795,7.150902,2.061947,3.2065108,0.28484854,9.937264,5.383883
196.jpg,-3.0657146,4.2992373,15.437491,-2.6857727,6.6291795,14.730728,19.675068,16.100662,2.8104465,0.2055806,36.96464,13.269673,-3.097663,-0.47849452,5.8021836,0.95407915,16.421276,12.970826,7.1072407,2.8713863,-1.9183964,5.8972354,1.2555507,9.443029,1.6150674,-1.2177387,-0.33140364,7.382976,9.011805,-1.3681126,6.8817945,14.252085,-1.9302139,4.616291,-1.1021881,-1.104985,-7.105998,4.362562,3.0599344,5.0862885,0.14893991,9.415863,1.0734007,2.4323678,6.372364,1.3612034,5.5524035,6.2185183,1.6596447
197.jpg,2.081976,-2.6617632,37.59532,4.5358763,2.6912642,16.491701,28.33232,8.604962,9.499693,20.905245,7.3868217,27.102352,0.8725809,-0.28189728,2.919185,1.1658505,6.438045,13.240184,-1.5799112,-4.091834,10.772234,6.436124,-8.303663,5.587024,1.0469749,-2.410295,2.8313882,4.736175,7.694358,4.1345387,-0.5209997,0.6360345,-4.3612437,-6.1884837,5.6598477,-2.7745092,-5.108167,-0.3394261,1.4099609,-3.189651,-0.64796156,2.624135,10.026409,2.9741173,9.09238,-0.20017587,-0.77834,2.3270533,2.3597343
198.jpg,-3.2260664,8.713279,14.960286,9.171848,10.804465,40.199574,18.909395,5.823219,1.8473586,11.444196,23.431011,20.73923,0.4913274,2.4268522,2.2132206,-6.392042,11.384217,5.669408,4.0206594,1.5725368,0.14924127,9.2170105,8.540455,22.189873,4.5749583,0.54146254,-1.0901662,0.6366137,1.9760602,4.1110883,9.657279,10.581379,1.5468063,2.5236812,4.4500446,-0.61514604,3.9997368,9.339006,0.039479487,4.4459662,5.519496,6.503813,3.2596092,7.291132,2.2400692,0.04237414,6.982891,5.1630855,1.2762431
199.jpg,16.21767,6.1343455,0.9727117,0.37401807,9.961135,15.456501,0.5450461,9.064661,-0.48542356,5.9575005,30.293633,11.811141,13.349298,-5.611739,15.084992,2.9414988,13.516758,29.645655,4.3141155,4.16097,-3.8894706,5.3115573,13.191412,15.976517,3.0051234,5.7837234,0.40442163,2.6675766,4.608284,11.203403,12.0099325,9.008034,2.1984584,6.400416,1.499849,1.0578904,4.184677,5.78185,1.1911722,0.03195135,7.79824,4.6911707,5.8877187,6.225796,-3.0969784,0.18224576,1.2613945,3.020705,4.3327827
200.jpg,4.590783,0.24085492,3.761461,9.210616,11.816208,1.1906998,8.713918,7.632563,10.259644,6.3720336,36.892246,28.856293,5.4138293,3.6573305,3.7697613,1.4545232,15.596544,17.342047,8.085955,2.7896285,7.536842,2.111545,12.527783,-0.9845818,1.8976882,7.2391486,0.1830293,3.1599567,8.266677,2.01629,6.649114,10.457542,4.644108,2.7682912,2.8831189,-4.948248,0.27814853,-3.8333633,4.1017585,2.7796848,-0.4940143,3.7136815,-3.5195038,3.4292598,7.721012,0.42156228,-0.70567346,5.274593,3.2768111
