image,0,1,2,3,4,5,6,7,8,9,10,11,12,13,14,15,16,17,18,19,20,21,22,23,24,25,26,27,28,29,30,31,32,33,34,35,36,37,38,39,40,41,42,43,44,45,46,47,48
aardvark_01b.jpg,2.4303532,7.219368,86.533356,-1.4188756,2.507844,3.2050736,3.1117861,3.0710256,5.1699553,6.80516,-0.7699534,0.9764704,2.5813012,2.4996097,2.0937412,1.2613816,0.71683174,2.9220176,0.30225673,-0.21386388,2.8858442,2.7828736,-0.5704117,-0.4502052,0.021977443,-1.4862733,1.1050317,-1.4840579,1.3122383,2.6418839,-2.0940213,0.9713199,1.3471736,1.3977593,4.4447618,1.3451598,3.2784848,2.1414309,3.0691748,-0.74109066,0.037793815,1.6802046,2.042003,1.4314873,5.0971184,-1.4153061,-1.2238858,-0.41150013,1.6592106
abacus_01b.jpg,45.56857,6.8519173,0.57252234,10.393619,19.398293,1.59065,1.338908,2.3117433,27.266323,1.551145,6.9001346,18.828625,27.717447,3.306765,11.765086,5.96995,20.992943,17.83394,-0.20779651,12.663465,2.0745716,3.9433935,3.439345,-3.457684,-1.2640791,2.733489,7.122705,5.1108527,-1.6438093,9.253626,8.141034,-0.3873927,3.0214982,3.5413072,2.505363,1.486718,2.2797086,3.162349,4.5516863,0.3454659,-0.3805777,2.5285878,2.1448958,4.4471107,-0.58296335,5.0019217,6.3835783,2.0597079,2.7951438
accordion_01b.jpg,26.691944,4.6193137,5.47408,5.3318152,9.811142,3.0541034,1.079946,9.36407,10.133272,11.7590885,8.106012,22.304115,25.89621,13.696975,6.236302,0.7622128,9.313236,18.655464,-1.0295624,7.060179,-0.2839554,2.0419266,-1.3217603,-0.31358573,-3.6133006,7.527265,1.3635092,51.80062,0.8004341,-2.6088524,8.862906,11.523909,1.3254218,1.2509888,2.6249876,1.0820966,1.8994193,-5.3292975,2.2485156,0.3741513,2.842631,0.5224999,9.131309,0.9647809,4.3429875,-1.7958112,10.403023,5.5490723,2.6160488
acorn_01b.jpg,13.240925,39.892406,26.025442,3.2641253,1.8460846,35.581036,10.784631,0.6256667,30.63373,1.115416,-4.3396974,5.8701406,1.9287895,5.5040503,10.9557905,6.4596825,10.896111,4.3566594,0.93406457,-1.8989062,3.315919,21.225239,2.3748555,8.807266,0.53521943,6.1107183,2.710934,4.5504117,2.216784,27.247704,6.694212,1.318604,1.9632962,-0.71468586,8.871362,0.6975675,0.15282743,2.332481,1.3104485,2.296167,0.93604505,-1.7618326,5.3884873,-0.021915324,2.4722762,2.0573986,3.7745368,4.804986,7.37317
air_conditioner_01b.jpg,38.279633,0.25501233,-4.5977826,5.859708,46.299267,3.9268754,13.658895,10.40051,5.6155314,2.8725848,4.280041,3.0697482,41.020752,2.7816095,5.1300297,4.3530927,3.299413,2.0919898,5.3223605,2.899905,7.0414767,-2.9091675,4.567087,4.508234,10.908487,0.7537855,0.9591434,4.5639596,2.5715585,-1.4967047,2.2260525,6.5306225,9.027528,5.8843393,-2.9120572,-3.5970411,1.8251065,3.963191,16.969929,10.382762,2.4885511,6.6087627,2.9200273,1.1627555,5.826246,3.2099507,8.693034,2.71525,2.1998265
air_mattress_01b.jpg,18.302282,5.792169,0.8259512,23.28821,51.01381,-0.4760819,4.023951,7.2610593,14.196033,1.2265018,9.181644,5.2264123,8.275974,25.436872,1.9528255,3.7363656,0.08923542,6.564669,4.074993,4.076986,7.5459337,-3.5437622,9.642452,2.189643,11.106909,14.584644,7.0495687,7.9171906,-0.062244106,4.19229,4.2872944,9.723641,2.4344797,6.5803595,1.099472,-0.4938893,4.800334,0.1397139,7.4723063,5.4887123,2.8650157,6.1468534,8.239013,5.4384236,4.446716,5.36796,2.434982,1.7589092,3.657614
air_pump_01s.jpg,49.012314,-1.5184171,-3.2519321,-3.166843,5.184692,6.6068625,14.728682,26.28099,2.4196417,-4.9263706,1.8649913,-4.218746,7.23507,14.314374,4.2974925,16.336447,0.18511318,5.218668,7.9367228,17.749245,5.7856994,1.868562,8.610497,-3.0619082,6.433708,5.788177,8.528784,2.5378067,1.3282905,6.893341,1.9336985,3.1866853,4.4792504,3.7063832,-1.5108136,4.682958,-1.3689673,-0.58949643,14.895177,12.351504,1.0621091,4.172485,4.912179,2.5883105,-2.7719,4.5643415,1.8938608,-0.63785344,4.1487556
airbag_01b.jpg,31.42236,2.1775608,5.3304205,13.271613,13.990937,1.1765428,0.16059913,52.748657,9.073689,6.167401,-1.8758606,-5.332588,15.72455,0.8524297,12.157588,7.2614856,2.6140702,5.8546805,0.35613394,2.2054706,3.0580363,5.844296,2.029528,2.8866892,8.470316,8.059234,11.499564,4.2759404,-0.67940485,4.299352,4.6009293,7.108119,10.782268,9.259638,5.596944,6.783162,5.5350924,4.9601345,7.1468964,1.8475026,5.8273716,2.9977903,4.9465494,4.0585494,3.1023993,5.910765,2.7963395,6.303679,2.7533963
airboat_01s.jpg,19.65653,1.3858218,10.821905,6.0932713,12.1164665,15.987669,14.111733,47.242104,5.7568893,4.9250717,6.7511687,2.0901527,7.149545,18.061798,-3.8827114,0.25495067,-2.0989525,0.04827641,3.4299314,5.0375795,49.234207,0.9289995,2.9967992,0.13443065,0.16269442,2.652704,5.9699035,2.4622734,13.152121,-4.2125225,2.464328,3.3398283,-0.036230404,0.08896813,10.367056,-2.0426943,5.654797,3.2363303,6.749956,1.632297,-0.38260874,5.3289948,12.642807,3.3743598,0.6376054,2.1909046,4.500443,-1.7225438,2.094019
aircraft_carrier_01b.jpg,36.391758,-1.4476705,-0.21806127,3.0089211,11.458741,-1.0690583,6.85431,50.309467,9.678637,-0.53331274,-0.21017697,1.8978449,12.169047,5.7835326,-1.2641516,2.8188574,6.5267334,9.506724,2.357959,4.0418496,46.062435,1.6482154,3.125514,0.7926613,0.33055046,-0.30015874,12.412444,-0.19578728,15.021526,-3.048973,-2.5012958,3.5233643,-1.6251719,-1.1532688,2.952908,3.500106,1.075543,-0.2126229,7.1284204,0.53577864,-4.691682,6.012591,1.333006,3.303241,5.2316008,-0.45967036,2.5570278,4.3705854,-2.6147861
airplane_01b.jpg,28.582832,2.7193108,9.654385,8.128825,2.5532632,2.229191,4.8908505,56.85674,-0.68290883,1.518897,2.7701855,-0.28873548,11.328008,14.897595,5.718076,4.7090607,3.9683208,1.9992154,1.9271562,1.3107771,16.136448,-0.10559391,-1.5242536,2.8378065,1.6350571,1.7978861,8.916882,4.041307,46.800274,-3.3785245,-2.290056,3.8780353,1.1461941,3.7026982,6.214427,-2.8820074,8.456199,2.0642118,-0.04457268,6.0466676,1.4894092,7.3256583,7.055106,1.4917325,4.113714,3.7794404,3.0905514,-0.09897859,2.1062384
album_01s.jpg,10.785672,4.752412,6.020317,11.67136,26.218996,15.241438,9.025422,3.3807306,6.5846534,13.410953,17.414528,15.154561,11.067436,4.4612083,7.990229,0.7545704,11.119296,43.987804,0.0024108216,3.0213726,0.09288415,3.0390835,6.6369987,11.433193,2.363624,7.8358984,7.568672,4.1797833,5.055072,-1.2579184,1.8359298,4.589022,4.3738103,2.8667064,0.59260994,2.7756908,5.101226,1.7340878,4.568036,1.7479897,3.2980423,-2.3078637,2.3186622,3.6741405,7.4475503,5.1860023,-0.63338965,9.0794735,2.1715362
alligator_01b.jpg,5.470121,1.3814243,75.776024,1.9439312,0.22263378,9.762887,7.1371307,1.803917,1.8959942,6.172065,2.804551,-0.977166,-1.5285774,0.9804277,-1.0665777,3.7572815,4.302532,1.9797556,2.4816911,4.7089686,28.632671,5.2377777,-0.53459656,-3.379064,-1.7285682,0.87288964,4.0654397,-0.25467798,6.235031,0.41925013,0.26666,4.042527,1.4155163,2.005306,17.258623,2.2000232,1.5582147,2.3756664,-1.3458693,0.24751425,-1.0479059,-1.4734573,2.200708,-2.3137767,2.8412297,-0.47505534,4.9602075,0.564974,0.010681897
almond_01b.jpg,-1.2803183,65.52992,14.956596,3.1369436,-1.5224037,28.765526,1.9080751,-0.6257291,20.675482,3.1067643,3.277815,5.794514,1.3465011,1.9736726,-0.06795782,-1.1882912,27.469906,3.112219,1.4399141,0.4213104,0.13122758,15.2970495,0.58001536,4.19447,-0.106910706,0.26886362,1.1602994,0.9750152,0.2795788,15.46967,4.046953,3.441474,-0.03562069,-1.0860716,0.73522586,-1.5114369,4.7549915,2.7829394,0.32437313,-0.009921566,0.8368022,1.0512978,1.9587053,-1.8938588,-2.1022964,0.7684017,3.7933297,3.3507247,3.7607868
aloe_01b.jpg,0.9628516,24.327677,23.895002,2.9986215,6.2805943,69.084854,14.441877,5.444921,6.3128376,3.1225448,3.6430619,7.452672,6.457384,1.7213441,3.323336,3.2583342,5.486711,1.8228713,3.3654592,7.8193913,6.9130435,7.6286197,2.129278,7.8508444,11.3302965,2.3344657,2.5380292,3.0410457,3.8171806,1.9121721,10.746603,3.4274802,2.7885432,4.0488625,11.555704,-2.4502044,8.128688,2.1390986,2.2500648,2.1850562,0.8660285,0.81282675,2.691894,0.34258392,3.0365956,3.450131,3.8387244,3.217133,4.175715
alpaca_01b.jpg,3.5537333,7.1340084,80.9435,7.2175236,4.039033,9.580422,4.1685863,10.1268635,2.098012,6.306109,6.009866,4.45824,2.6012092,6.2417626,2.1266098,1.7975556,7.1208963,-0.07044077,4.092346,2.5896614,4.310081,1.3569491,2.5952182,2.2463953,-1.0712242,1.903976,2.5597346,1.3847681,4.1541395,2.3899448,-0.79961514,0.79954636,6.8820066,-3.5352376,-2.5131032,0.59694463,-1.6579847,0.3459056,-1.4380397,0.9746979,3.605289,0.99735206,2.1924832,2.4814878,3.80411,-1.3606172,-2.3059263,2.684219,-0.00019837171
altar_01b.jpg,23.823906,8.1423025,-0.10358896,6.8769946,33.915703,8.082855,9.457084,8.372639,25.551268,-2.2458189,5.8159785,42.591194,3.0959773,-1.4634646,-0.26786345,-1.7932435,9.16528,17.065384,10.235332,3.8767047,-1.051722,0.73082775,2.9688876,13.063757,0.39600432,10.037732,3.9638371,13.614255,3.3379822,-1.4639997,0.030710828,2.1923347,3.280727,4.0703087,-2.344893,-0.073760495,0.09449236,3.0935845,0.16975184,6.5453386,0.32447335,9.704305,4.4201503,5.917011,3.781212,3.2230859,4.3959947,4.423993,1.8854886
aluminum_foil_01b.jpg,41.838123,32.0482,-0.5822153,17.505997,12.105015,-3.7764602,-0.86284524,3.869411,0.36014467,1.0901968,4.187399,2.9551606,8.56335,-0.18551275,12.700552,8.619124,2.9955783,16.150156,4.50025,10.507828,0.21291095,6.531972,8.7430315,-2.3000147,7.461255,1.6449422,-0.94832397,0.65589726,3.952249,-0.6158609,14.325188,23.028812,6.496053,22.704832,2.2794838,0.84990656,4.4415083,15.909558,8.763711,9.282424,6.5667925,3.759814,-2.0501463,0.942437,1.6044583,3.8183622,3.8714063,-0.77388287,5.840148
amber_01b.jpg,20.182436,13.710466,9.593656,2.2921436,-4.0664797,9.955636,11.560705,1.588178,16.174036,4.598247,6.079781,23.445139,-2.2320423,2.1356795,8.625655,9.739881,8.533196,1.2913564,9.040455,-0.47518232,5.482941,27.599129,-0.58364177,10.099051,0.73101354,4.826087,2.5370545,1.7342594,4.724665,13.175048,6.8864474,6.363556,-5.4150596,4.931032,19.57293,-1.4616313,4.799266,35.43286,-0.30545154,10.288734,5.416258,-1.3676528,0.19269603,-1.5050303,3.716775,2.2735813,0.93664414,5.2011147,2.9045587
ambulance_01b.jpg,23.575815,2.283339,1.4718603,1.1243688,9.087218,-0.47941393,12.544012,63.489784,1.1949223,8.109054,6.032393,10.853718,15.053985,3.340839,-1.0284343,1.5721064,4.0035834,9.969646,0.114575356,2.9719014,3.2195218,-1.762699,21.669401,1.5245364,4.9784875,-0.8578355,11.540778,1.1909908,2.855903,0.14630762,-0.83483803,5.5737214,1.376063,5.4782414,-3.9700956,1.7225279,0.711145,2.0046647,7.6320305,11.619461,4.6101785,6.277874,8.207171,4.1711617,6.5986075,13.850221,-0.053322084,0.009140745,2.5984497
amplifier_01s.jpg,49.399876,-1.3712084,-5.1055183,10.688515,13.12432,-5.2658186,1.1151072,18.524712,6.8617663,3.4534237,7.207366,9.258446,42.44027,12.891799,6.5082006,1.6372695,5.292949,6.716777,2.6498063,0.90457535,-3.1352942,0.7805391,5.7393856,0.22920129,-0.42963427,9.076479,5.6139216,38.63497,0.80921257,0.26821196,3.5909102,2.903708,-2.905164,-2.275604,0.4490175,2.5831654,1.3519003,-2.140289,7.698486,5.605035,6.2615743,1.4558051,2.4729507,3.4243298,3.0130992,3.6143098,8.256705,2.073598,3.934364
anchor_01b.jpg,45.532738,0.2966539,1.4217975,-1.5168049,4.0063767,7.0070148,32.921062,16.136269,7.875409,2.7335315,4.836531,15.239527,-0.035632588,7.4073935,4.537682,9.90625,2.3977368,1.4517531,3.6218307,8.884962,48.22142,2.6288989,2.1807592,3.2861824,1.236402,3.5955205,6.7947135,4.2926183,16.869434,3.3356628,0.62401724,-0.18657723,0.39704767,-5.3104343,5.3813195,16.623777,4.87571,1.0158771,3.5535202,-1.7296116,-0.16418733,8.043881,3.948681,0.39408234,5.370005,2.6423836,1.2611045,1.991177,1.6773417
ankle_01b.jpg,7.479878,3.1783216,24.738737,20.154848,7.63036,0.623265,3.9589663,2.4823816,14.051292,55.4238,-0.8350295,1.8759005,4.257681,20.283062,-1.6439594,3.73369,0.73562825,7.143677,1.1462524,8.170456,3.2672193,0.8589331,2.904429,-2.944332,10.47161,2.8296425,-2.4618921,2.1834667,2.0086777,1.7390947,1.985695,2.154241,1.393653,5.459683,2.6954987,6.0322943,39.49977,-2.6559298,6.7232885,0.25875774,8.443204,6.576456,2.6562304,2.5245502,4.334763,5.761644,1.1749429,-1.7762382,3.8231206
anklet_01b.jpg,16.02006,4.8143106,10.512034,31.485998,-1.5772171,15.810757,3.3417351,-1.3117993,13.962795,34.34094,10.657281,12.374098,-2.52107,9.63694,12.916045,1.2070559,8.356736,1.4923489,0.5913425,6.9222155,6.4668283,7.1124554,3.5515919,24.683527,11.121003,6.729415,5.9852324,-2.9984896,-0.64896274,2.2586138,7.4545956,-1.6221309,-2.8837984,4.0086694,0.20287204,27.864098,39.1159,-1.6455505,0.057115033,1.5534475,14.99151,3.1319168,3.139674,0.57846904,3.2905908,2.4159572,1.7162943,8.520493,1.0667583
ant_01b.jpg,13.298014,-5.170681,57.397385,-3.423936,-0.6258738,25.7815,2.11092,8.769249,0.7411722,4.3345876,4.3529224,0.8969095,2.4825602,6.6007166,2.2144852,6.1041803,2.8236368,-1.1755881,7.0256433,-0.6097953,11.433787,5.6655216,5.3858137,-2.5450876,2.1048982,1.0881344,-2.834691,-0.6357645,5.1802287,7.9610696,4.8671103,-2.3620431,-3.557486,-3.1518881,34.774155,-2.6776328,4.787511,3.1953425,5.750051,-2.8926737,-1.6410047,1.2378726,8.790208,4.4723673,-0.7089333,-3.8977585,4.3019753,-4.577502,0.99765694
anteater_01b.jpg,5.7321324,-0.35697123,86.522545,-0.01996709,3.9196029,7.2383933,2.7318287,3.3517911,3.8798563,2.783374,0.11987458,1.2323011,-0.36575952,3.5189292,-0.035298336,0.35233107,-1.0093796,1.9066225,-0.39594287,1.2663196,0.46514827,1.3566835,0.39843306,-2.6563056,-1.562573,3.3693328,0.49370342,-0.19830829,3.572262,0.7671572,-0.83306867,0.8143377,0.98711795,-1.6525289,8.241705,0.047630817,3.8705523,-0.8148665,0.62831795,0.77521664,0.08407985,-0.005737692,2.870122,0.7185256,4.4644284,-0.32540476,0.19140095,2.6384122,1.1149734
antelope_01b.jpg,1.0188807,7.063373,83.63724,1.6810026,2.2620049,7.9778686,2.499149,2.3032093,9.579734,2.783814,-1.0444561,1.2727326,2.4182682,2.6807873,4.643487,0.36383247,-2.449735,-0.73944867,1.1231303,3.9104867,3.6170847,0.778792,5.0545444,0.6793873,-1.0397854,-2.4922776,4.8409467,2.5696213,5.1097336,0.6044727,0.32432342,0.5230845,-2.1813805,1.1892436,1.1150218,0.6712178,-0.16711788,3.2421987,0.51988864,0.91484225,-0.21202073,-0.4902212,3.0660486,1.0884961,-0.5239174,0.15991163,-1.7569877,1.9895706,1.5198121
antenna_01b.jpg,43.881077,3.3215024,9.141607,1.4924886,17.233276,12.79628,25.64325,8.396412,2.8886652,5.293332,1.4571443,5.943949,26.58621,6.9400535,5.4230986,7.2394714,1.7154742,6.7404284,-2.5606282,17.98719,4.8202653,-1.5529312,-2.9496691,5.132757,-2.3950505,1.6934406,1.0146943,6.258257,32.8806,-2.1377637,6.7620025,4.579121,1.9559611,7.7175884,-0.9068005,8.242752,3.049259,4.436457,2.761737,1.3590051,0.68327934,23.904545,7.076682,1.3984256,-1.3484757,-2.9990633,6.4941287,-4.325331,0.91962516
anvil_01b.jpg,66.028984,3.6785455,2.1463451,-0.67958784,1.7770287,6.7636175,25.53337,7.860242,23.106691,-5.2791214,0.79631454,15.057163,-1.1993176,2.4278111,4.989346,29.86499,3.144521,1.6531959,3.6241374,-0.54637605,-1.6960796,8.42838,7.836045,3.104579,-2.027691,1.4100944,14.057469,1.0406249,3.1539266,8.152054,-2.7849007,0.70829445,-2.9778037,-4.5516977,-3.3779397,0.66480917,-0.095385686,4.172663,7.677081,1.8238289,-0.49026424,1.4406946,2.8529997,2.0511143,3.313995,-0.38869652,0.0055857003,0.63717926,2.7040691
appetizer_01b.jpg,1.879289,77.81908,4.8547974,2.7348518,2.4200041,-2.3814056,0.8651316,2.6653059,2.757595,4.9236484,5.3648934,4.509021,0.61634386,1.1404228,6.740166,-0.31394398,9.485934,-2.001258,4.639143,10.330948,-2.4195437,2.9661005,5.928671,4.34044,1.6226218,1.8317114,1.6257011,1.3981733,1.565939,3.6681201,2.0183973,1.468239,-1.4821358,4.553341,1.0267026,1.8404708,3.4891984,1.6478274,0.324418,5.9422493,-1.1363934,5.8614254,1.8301133,-1.7296381,3.6700785,0.37136638,4.1574974,1.6515248,-0.6209331
apple_01b.jpg,5.024782,68.31392,10.8831835,0.41108197,0.9556651,24.980202,-1.535359,0.53208244,5.4476075,8.218133,5.2355194,-0.6174192,7.632535,3.512486,16.39267,1.771097,-1.7939982,7.207722,8.757132,-0.052789785,1.2086504,5.3520045,13.6339855,3.8731,0.82157093,5.5770507,1.6418487,3.8929172,2.476031,25.642178,-4.589297,-4.12262,1.895396,5.960079,3.6030598,4.7658367,-1.2602458,4.6965055,-1.1250565,0.54657346,2.3587446,0.70355266,3.6683068,2.6661901,3.7829638,3.0643144,-4.0734396,-2.2244346,4.270803
apple_tree_01b.jpg,9.540182,44.59647,26.271751,-1.4698346,5.0281525,49.68363,27.383291,6.940353,14.273268,-0.8194771,3.0826087,3.4010627,2.0174248,-1.1006745,4.2250814,0.05535446,7.7593575,-1.1253493,5.7886734,-0.4885707,0.29509765,7.822375,8.428695,3.2532718,-7.841249,-4.167165,3.253238,2.4078906,5.7302036,12.155408,5.194481,-1.5081538,-0.077968955,-3.8382373,2.5174906,4.982452,-7.1343555,-0.4566627,0.4292821,-3.848215,-2.6538231,6.5572166,7.9488306,3.74583,0.57737494,-1.132006,-0.32959247,0.45207256,-1.6814795
applesauce_01b.jpg,5.4926248,78.77676,4.508551,1.0627421,5.9889765,4.8096223,1.7236717,-1.7465591,4.732983,2.144209,-0.73467124,0.8429017,1.8176434,3.8850877,16.488665,2.2823668,0.06540161,0.2939325,17.146284,-1.2242024,3.8961902,7.503657,-1.1163436,0.25307074,2.1537497,1.5607986,1.1043158,3.4012935,-1.8167678,7.4606924,0.6283932,1.1902742,3.0239418,3.501916,0.06863372,0.9919042,0.3081684,1.1731201,-0.7110605,1.1277272,0.36939755,0.36231625,0.90015334,2.0884042,2.8301103,1.3866351,0.64515054,-0.15654546,1.8120848
apron_01b.jpg,27.75116,29.5421,1.7338501,55.803764,18.097157,3.8517728,-0.95016587,0.90758085,-0.024451315,17.814974,5.2166853,4.2609134,6.983263,10.427774,3.0706818,12.996594,1.5496377,9.190963,10.698392,-2.1340113,1.5973617,0.037805595,-0.6804721,1.443097,1.7308013,14.11355,5.085077,1.7309921,0.9533289,0.23386706,-0.06608525,5.902296,1.7062213,6.975846,0.9466118,4.1060953,3.7328992,0.57721215,6.911732,5.905565,2.3256555,0.9916911,1.875119,5.4497294,1.942163,-1.8552333,4.4790096,3.205812,1.3208678
aquarium_01b.jpg,1.5548614,11.050031,36.45488,0.6360788,22.199919,29.517246,8.369175,8.479105,8.732037,1.8888274,12.526953,3.26582,7.151037,15.875195,3.4063835,-3.2056608,5.7184744,3.9654293,8.575299,5.4006786,43.191402,6.5713816,0.4731875,3.609413,-2.6227143,2.610936,6.6369,5.5327134,-0.3897878,-0.82859325,7.476835,2.8288703,-2.388767,0.828794,20.920528,-1.3101127,-0.5335268,4.429328,4.728468,5.3404174,-0.88829565,5.7221417,5.7914634,6.607518,4.2059803,2.3648472,3.539968,3.6341424,0.4099015
arch_01b.jpg,35.968464,4.168392,2.3568158,-2.9221437,11.590299,1.8045061,29.67459,25.82167,3.165546,5.6908445,-0.65547025,14.086919,4.964057,2.5475159,16.052734,1.6816348,-1.6242183,7.281837,1.7274354,9.39782,10.296427,-1.0495265,-1.3039718,1.899514,-0.37858114,0.5886247,8.666242,4.8440986,27.884432,2.8355308,-0.7323302,0.9171963,-0.4670993,6.707758,0.3269654,15.177237,-1.6902361,2.357681,8.791582,2.849282,-0.71603113,23.460226,4.850475,3.023607,3.5084865,-1.7327431,2.7232654,0.20490333,7.80254
arm_01b.jpg,1.7298347,10.361678,22.595839,13.8972,5.6063676,2.7025812,2.7953844,1.5338544,14.521411,54.0276,9.993641,-0.7658547,-2.2247543,7.382382,-2.4514098,1.9061453,10.002213,5.520402,-1.242324,10.129239,6.693031,5.540087,-0.0302854,1.603902,12.261178,6.618984,6.127946,4.200586,4.477782,1.9855161,3.32928,2.187742,8.760574,1.8086026,6.0688696,-0.14205518,34.222424,-1.3889904,3.897528,5.22414,7.311478,4.5311074,-3.919851,2.114477,3.5997677,4.055768,1.4965608,2.7063808,3.72069
armor_01b.jpg,52.547855,-0.8632731,16.682098,25.328367,1.5529137,-2.2786348,6.6200247,8.872743,-0.37636048,29.066404,1.5814457,25.189526,-0.18461384,4.993017,-0.5856466,5.639125,5.473151,2.4767644,5.4346147,2.2114503,1.0242547,4.912085,1.0349205,-1.9633482,-7.277062,-1.4720978,29.331436,4.779938,3.7845387,-2.5472605,3.908878,1.1264384,5.989631,0.70043176,3.6456802,-3.3647788,5.7046914,4.5990653,2.2479851,1.4053364,0.40693972,6.362543,4.236333,2.1453884,5.2845044,1.494566,7.447153,-2.8284578,-3.5594344
arrow_01b.jpg,35.610554,0.2858975,8.024681,4.798223,6.5155454,8.511641,11.391949,3.0803668,13.937169,2.7703757,16.06151,9.066277,5.9176507,8.481223,3.588514,27.997822,20.343975,6.177118,0.8368535,41.148117,5.5874615,4.058197,1.4662998,0.77183926,3.0951674,-3.8764548,28.75664,5.3292403,9.283602,0.4338715,15.156441,3.0943897,1.9461095,9.992656,6.7315726,4.926817,1.643507,4.222932,-0.22589341,4.949991,2.5252545,9.13377,1.7013226,3.9845154,0.0002895482,9.11966,2.8225513,0.6970803,-0.67553616
artichoke_01b.jpg,1.354544,56.52234,22.321424,1.0215547,-2.0121655,65.97347,7.824356,1.6679991,3.8036733,5.7992315,-1.9513035,7.857252,3.2175639,-1.866493,5.2421646,1.2994186,1.2821141,-1.4940195,4.4599195,1.0861037,2.4607918,4.4554124,3.3822558,7.2923465,-1.4104402,2.4562593,1.0597494,1.2198223,2.5782747,8.6569805,5.522945,-0.77190435,-0.08274308,-0.7706939,5.2147584,-4.958607,1.0040922,2.0128853,0.06170394,1.1861923,2.178377,-0.5815668,4.078111,-0.6021781,-1.8334676,-1.2697775,0.8196066,1.5871034,3.4488485
arugula_01b.jpg,2.3292816,60.36415,17.51545,-2.1744468,0.69807243,60.246777,5.9320645,2.3141043,-0.66156256,4.2525845,-0.022616051,0.41677076,-1.6323752,8.369895,6.661993,4.1828055,1.2673801,-0.15594643,2.7892578,3.3291414,4.3609667,3.6244261,2.5889857,3.2411523,1.0489606,-0.15968317,-1.504054,4.1278505,4.008282,5.041051,8.316505,0.8246427,3.2645066,2.3762274,1.0236261,0.5136187,-1.4671687,0.51698387,-1.2090766,0.3814092,0.7230193,1.813804,4.2503767,1.2345443,-0.15751757,0.51702493,4.3190947,-1.3490891,2.7401626
ashtray_01s.jpg,31.682697,16.041475,4.5067506,-0.31322575,-1.7018602,-3.5145311,7.5065894,4.707124,1.9737827,1.8974198,1.4803482,2.2649412,2.087714,3.4222941,21.060926,6.620716,4.547605,3.2071366,22.148434,19.057209,0.028712582,14.06823,-0.3971161,1.685714,10.634086,14.105646,27.002039,5.3865004,1.5568573,-0.2336368,-0.101742804,2.926244,0.3519237,9.090056,0.14720485,-0.05573323,3.8600333,1.296764,5.4203863,30.840088,3.5094414,-4.3253074,1.5417832,9.961899,-2.8447652,9.959744,-0.6749733,2.1523895,7.265609
asparagus_01b.jpg,1.9093064,56.90864,14.078704,2.934924,6.7202435,59.76033,6.7162113,4.873861,9.175779,-2.948056,3.5961986,5.0506196,0.4913932,0.9724526,-1.1042655,3.1530454,13.495485,3.110457,0.8959014,19.513659,4.0207634,2.3786368,3.3327713,3.343989,1.7718185,1.4854684,2.5888577,3.0241556,0.75235236,2.8688345,7.2271414,0.094380885,0.37839547,1.0782934,0.5642059,4.7336807,2.77256,-4.3453097,1.2570188,4.551874,2.8107188,2.6439595,2.2592313,0.3130124,0.8395875,-2.7814026,2.5617733,2.1224873,0.20632856
avocado_01b.jpg,3.58019,68.81227,16.881546,3.0709898,0.38649645,39.826588,0.5531253,0.13545734,4.909927,-0.55978525,5.9071436,4.9338894,4.1008496,1.3560864,11.138352,-0.7440072,14.004543,2.9402533,1.1002573,0.13263334,-0.09916583,14.886037,6.2104564,2.4798014,-1.4991435,9.955667,1.6882405,0.09935014,-0.39083958,25.870928,3.195018,0.58343875,1.3334752,1.4265463,-1.1657642,0.38058153,0.44631463,0.6263649,1.0009552,3.5646498,1.9170115,1.2830209,3.0373406,2.0775452,-0.6553219,-0.7797306,-0.045778416,-0.027592272,3.3761125
awning_01b.jpg,13.960295,16.993258,-0.96319216,22.507017,33.03464,3.6301777,17.19359,3.172812,11.509611,7.3413687,18.230045,13.367079,2.298758,1.7258677,0.11740653,0.3561134,9.561011,4.2412033,8.800958,11.596092,0.68954283,-2.294884,21.998806,6.6184597,2.3754075,2.1682377,-7.9939237,2.11774,8.105849,0.48866263,9.158968,15.823359,4.2725587,10.968533,-0.21791542,2.4423254,-0.92280436,5.3010125,2.4819531,-4.058403,3.1157234,17.533178,4.0485754,6.267591,0.43952438,-2.6212578,8.745974,6.3190184,6.762185
axe_01b.jpg,44.79924,6.452764,7.2417607,4.1155744,6.4617763,11.1121435,34.070442,4.1367135,42.424026,3.0298102,-3.1882682,-0.29834387,-1.0150956,8.10114,-0.8204914,43.011654,2.9603534,-0.1043898,-0.6965971,9.387437,1.7385734,13.1749,1.8080249,1.0630875,2.1849627,-0.6904556,21.217388,2.9264803,2.3589063,4.322957,2.2428424,4.3179827,5.071115,-0.77881664,-2.0402088,2.1537786,6.338229,1.745412,12.518127,10.192005,1.0340796,-0.18881178,0.13326788,3.3376105,4.3869653,1.9717495,1.8892938,8.289703,1.4878701
baby_01b.jpg,-2.0868022,6.157698,32.06856,28.423426,16.468464,-0.58204925,2.1329854,-0.6772626,3.0964692,46.5083,11.979699,10.106365,3.9232268,2.436522,5.340627,-0.91731066,-5.147284,3.4216132,1.8360801,-8.418726,3.7225769,-4.7889247,2.3803844,4.471045,10.249928,2.467029,-1.5284804,2.1338928,6.937341,2.8130746,0.6316932,-0.62432474,3.1654034,-2.3286705,3.9065313,0.15462525,7.7678823,4.42112,0.10785833,-0.216005,4.2363043,-0.41059926,3.70785,-2.7800708,29.162077,-0.3070752,4.4201255,4.2808404,1.2443413
backdrop_01b.jpg,21.458612,-4.295343,3.63581,27.486217,35.60225,12.6729145,14.080174,2.8556707,17.230627,12.535803,1.0883504,9.848972,12.015173,9.193618,-0.045891665,2.1600823,-1.9865798,13.081314,0.6164373,8.045632,-0.6153841,11.316802,0.93513036,4.7965717,-3.3455603,13.630811,2.8183575,11.072496,2.695456,-2.2881386,7.487128,17.096075,1.6202078,9.936123,0.77770025,3.0964694,6.0314527,-0.062530205,5.7296762,7.536523,2.9542234,13.830081,9.651692,5.211408,0.13200063,-4.000176,6.7597203,2.0596204,0.7438669
backgammon_01b.jpg,21.405163,9.963516,5.5447283,2.5392962,20.951052,-0.079380535,-1.5239487,1.4290031,20.076815,-1.8978696,16.83472,22.492107,10.417927,35.367317,5.8633327,6.4569874,24.3511,22.915386,5.219383,13.409276,3.0241966,1.7955799,1.282317,6.8792048,-0.24509859,13.537306,7.535516,10.791261,1.8956664,4.143581,-3.386365,9.740353,0.46285763,2.0099013,2.186966,1.2217417,3.602208,1.385827,-2.8942547,4.6601706,3.74775,3.213472,-0.9037178,6.1445765,2.7290006,3.0317447,3.680455,4.2144785,4.2118216
backpack_01b.jpg,17.272459,-2.9824,22.250484,47.920017,3.475786,11.225315,17.396078,30.706474,6.1449585,24.106268,10.384755,2.7935586,6.124411,29.719534,-0.9880145,2.0662827,5.82342,7.337896,2.9517207,0.0061257277,5.044386,3.5604742,3.3410928,3.7203777,1.4170712,3.431154,11.798802,6.386279,8.204915,5.088594,4.028363,-1.2993032,3.2151449,-0.69790554,1.0509218,5.2314577,3.5804958,0.9777259,2.8581977,6.455647,8.837112,0.6229129,8.479355,11.738195,1.1545143,9.039271,-2.5610912,3.952273,3.5532794
backscratcher_01b.jpg,31.6259,26.728016,-2.9304261,3.1029873,19.691692,6.479781,9.705866,7.0018826,24.400604,0.5080303,4.891078,-0.33903107,-0.17194255,14.960051,5.320322,38.031742,5.361178,9.923637,-0.6110769,30.032114,3.6179018,-2.600439,-1.8100468,-0.5739246,14.087727,1.3412578,8.249757,8.666635,5.190436,0.20546438,7.881035,4.6912656,-0.24317437,13.055449,5.7110224,11.197955,8.01232,-1.7129965,3.59312,-0.9291447,2.285577,9.901664,4.336846,-1.8708205,6.8423824,0.8264851,8.762043,3.731411,1.1836324
bacon_01b.jpg,6.433552,74.29874,19.970366,-1.7412354,4.060897,-1.9927025,-0.39661294,2.9044504,2.7447746,1.756842,3.8839414,-7.9606066,4.338671,-1.7718796,-2.121968,3.3166149,8.20463,5.63912,1.4406985,8.867153,-1.2981485,3.2056165,2.1944637,0.6812152,1.0956053,0.6596339,6.7310944,2.1341615,1.1835611,-4.402926,5.197233,5.2244368,-1.8036168,5.8126645,-4.074285,3.8485072,1.8403758,0.28222582,4.323326,10.236009,-0.8399634,4.413142,0.73674667,-2.842794,-0.21498163,0.4992615,5.5310583,-0.6535666,-3.1245127
badge_01b.jpg,37.600277,0.6698223,2.243025,22.17311,5.626069,3.5022757,0.30021426,6.873034,8.638275,5.8466578,14.618248,27.622515,2.5249765,2.3852649,12.160156,0.34293234,26.749775,11.548868,-1.9085546,1.0056065,6.1477795,5.8657565,0.6159304,17.467,1.4492992,2.1223843,25.558916,3.239831,5.846122,5.800001,3.2492943,4.227633,1.3527138,1.4417325,5.441568,4.6982517,7.712171,4.1831765,1.8603679,6.4611344,6.70741,4.2283115,-1.7813746,0.5858786,2.6734893,3.348279,-0.11051893,8.251771,2.1836123
badger_01b.jpg,1.4073608,1.5059841,87.90716,3.6129131,-0.022203662,8.601338,5.0725794,2.9377599,1.7563481,4.7335424,2.1069162,-0.6269485,0.34544504,2.0325437,2.9490595,1.1534684,1.9259297,0.7454524,0.5500326,-1.8667777,0.29447562,2.5154185,2.4116342,2.0096307,2.6710165,1.2791511,4.0518956,0.12314291,3.165767,0.4712307,0.7955011,1.3662876,6.577941,0.28690827,1.6225291,1.4166385,-1.198474,0.22273101,1.430859,-0.22072704,2.8889222,-0.57159674,-0.78570145,0.81922543,4.5162706,2.1844187,2.8865113,2.9054766,2.6159458
bag_01b.jpg,26.993212,4.2524977,3.9159055,55.77572,15.630436,2.3921423,4.588549,25.569609,8.880182,9.970482,16.337778,5.8632255,4.288367,8.882496,1.6314521,4.701305,5.234064,10.302923,3.833403,-2.3014278,0.3248412,1.016461,12.5210285,9.706965,3.7255428,1.2485043,2.455634,6.100311,-0.4605675,7.366015,6.099734,6.6052566,1.5431215,3.8536646,-1.6249455,12.025646,2.4656918,-6.631454,0.3475843,-3.4425187,0.48665935,0.016570557,4.1918383,9.244917,5.004911,-0.83385754,1.8148011,12.872073,2.9479556
bagel_01s.jpg,3.5315309,75.84636,9.791728,3.0544455,3.1107328,4.4313684,-0.3494868,-0.5841401,7.8343077,7.000342,3.2438748,3.417821,-2.5959356,3.3716116,22.098074,-3.3593462,4.8471622,-1.9163814,6.404671,1.627416,2.0902705,4.0756397,1.7077764,4.1446075,6.045872,2.9543417,0.7932469,2.306357,1.2469094,9.59056,2.946527,-1.4957432,3.3664255,2.4935548,3.4478254,7.0899963,3.008477,1.1888806,-0.8096501,-0.11199787,2.528207,1.104396,1.1481944,1.9149952,2.402054,-0.544706,-0.9172991,4.1795797,2.74087
bagpipe_01b.jpg,26.564714,5.916204,5.366825,25.031462,4.2040644,5.385793,5.0649343,3.197203,14.974898,5.4465523,9.941233,22.46248,9.640997,16.537046,6.6308336,10.298517,4.1356883,-1.9897475,3.9239998,20.913012,2.52157,0.22776556,16.258774,6.351515,6.5680995,8.856683,7.601262,47.891705,4.393493,-2.202589,4.366468,2.4072902,6.943304,3.849529,1.4854345,11.1083555,2.1452832,-0.08753855,-0.042829104,7.1874566,1.8788904,4.835303,0.9114332,3.4699922,8.907891,4.172864,2.0777235,9.610698,5.333133
baklava_01s.jpg,3.3651536,77.87193,6.911669,4.3176236,4.387933,3.9104075,0.18184185,-0.80687886,3.7510626,3.61377,0.63117087,9.571407,0.28888714,-2.1146116,-1.3910581,2.6554742,1.0202636,1.0680318,5.555373,5.6538143,-0.6650834,1.8173076,0.8794285,1.575084,2.8165207,0.31315526,1.4002169,4.417581,0.41100988,-0.29620013,3.1584508,0.40095484,0.31125063,1.8389884,0.3755302,-2.7924576,3.190063,0.518949,2.6119528,1.3185691,-0.60759324,-1.6792268,0.6447925,-0.3435818,0.55230874,-0.28306627,-2.811793,0.78750324,0.9534836
balance_beam_01b.jpg,26.584915,5.398399,5.747549,10.235473,28.28401,1.2184193,12.292481,11.093364,16.836872,1.7228454,10.306535,-2.5872736,2.9848433,46.98332,5.905084,6.343933,1.9716495,9.213354,-3.1597462,10.135717,0.4572491,1.4006151,10.572867,1.6268218,2.5518842,-1.1428429,1.6307775,-0.79475474,3.6405907,3.1300254,4.2521725,10.480586,3.4200697,5.8258004,1.9181905,0.7621778,0.57416487,0.9960229,8.872249,0.44510868,0.5158801,15.97729,9.186537,0.501299,0.08849846,4.3657374,2.148087,-1.3082684,0.5768953
ball_01b.jpg,2.9082432,1.5424862,15.28205,8.149006,4.198201,36.067852,24.23031,5.5289087,2.9924762,4.9450383,29.99585,2.2101614,2.9359229,32.574894,26.884493,5.208192,3.924238,8.055186,5.0711384,4.5272737,3.1021235,3.9749703,23.328434,11.802487,2.233709,2.8832924,-3.5368166,2.3726337,9.220373,33.987392,2.464919,9.838484,6.901428,6.4461207,1.2664516,-0.73502994,-3.4970489,6.2704854,-1.7623283,2.7127404,1.3841575,3.10191,5.228396,5.3563924,9.335243,3.600622,-3.233862,2.8594866,5.123597
balloon_01b.jpg,8.563523,11.90926,-3.987214,20.23745,14.287545,7.251791,6.80032,6.7160063,1.4431907,6.1208687,45.231205,17.39765,4.9381866,14.30468,10.93345,-1.4025081,18.722769,17.892557,9.965852,14.833795,1.8570969,-0.22366345,11.109192,14.421156,1.5298223,8.563769,0.08019358,2.4723964,19.804892,22.630127,3.2504017,4.4805346,11.406834,8.890163,-1.6787648,-1.8627717,-4.5993547,14.581999,-4.1065555,5.307818,1.939748,3.279806,0.076105535,4.007747,9.232562,1.9459642,-3.2187324,-1.5135541,3.1612732
ballot_box_01b.jpg,15.780669,5.392287,2.3098133,5.6004405,23.487953,-4.433664,0.9094502,0.6491524,5.194678,21.037931,7.4780636,10.190599,14.808373,3.6817312,-1.782928,11.255347,3.6994119,39.23097,3.5221486,9.098031,2.8824382,-1.6824514,2.659575,7.6008396,8.176491,7.6781483,5.6073895,8.316785,-0.6811696,-0.55208105,2.63471,4.744009,17.407482,14.905803,-1.6921076,-0.39797866,9.589984,4.823432,-1.2154158,-0.46166298,1.107037,0.30041495,4.4356866,8.195232,-1.3371606,2.0980508,2.1557763,0.71204525,6.392027
bamboo_01b.jpg,4.471833,18.244152,18.363432,3.6654074,8.995869,44.23523,20.828,-3.2176576,38.16577,-3.1029422,9.707415,7.3936334,0.6763756,5.565347,-2.9660158,4.42117,17.973806,6.7070065,0.6971513,32.635784,4.618888,7.100111,1.7676493,-0.079464026,1.9370759,2.814912,-0.79805124,5.677234,2.1183658,3.9114528,18.183376,9.648615,3.5410821,8.343663,7.7420273,0.051094126,-0.6903503,2.3299885,3.119257,4.017388,-3.5232096,4.1026487,0.21989979,-0.32724723,-4.498054,-1.7287403,1.5625427,2.5217402,3.088635
banana_01b.jpg,1.040299,60.234528,17.749046,4.002119,1.1982256,26.894468,-4.338114,-0.79556245,1.063442,11.865083,11.166996,-4.3738627,4.1679387,8.290958,5.100387,4.720247,-0.26695946,6.2377596,6.4484777,4.2478285,4.068827,-1.176758,3.1587965,6.4918985,4.4972224,3.3162658,0.81012267,5.6855726,1.3867381,12.347069,-1.7372959,-1.1915882,3.2324314,2.022728,5.2363276,3.0981812,6.74774,-0.56716466,-3.26825,-1.6103551,0.31000972,1.9661751,0.57655877,-4.1933193,5.2381063,-0.5568427,-2.283833,-1.566206,3.7546911
banana_peel_01b.jpg,4.2802415,60.43624,10.726263,2.9236372,-2.692408,25.080856,2.5594673,1.4809391,10.343789,0.92145073,2.838206,-0.58233905,2.1985557,8.9079895,-1.6511447,7.668873,4.6839476,3.6488094,1.3096087,5.91075,2.1969695,4.1286364,2.3229833,1.831995,5.421684,1.0895203,5.1343107,3.4949985,-0.68245596,11.098366,-0.9489104,1.8589954,-2.0297515,1.4294448,10.216017,5.7545266,7.651581,-1.9718103,0.59781855,0.28505856,-0.8556436,3.0669,-0.65851426,-1.2139474,-0.9231493,-0.3058841,0.47152573,-1.5438256,1.8174007
banana_split_01b.jpg,0.49879262,73.01514,7.1460223,3.5842056,2.399644,3.2680292,1.2031177,2.1221623,1.5589489,2.8697457,17.893959,3.9861329,3.105991,4.0369325,6.4247904,3.8870926,1.9107882,1.0163596,9.134487,1.50341,7.454528,1.0053287,4.463341,5.900602,4.5323753,-1.1750948,-0.34291586,1.0559876,5.045936,5.1470504,2.572928,2.1194105,4.3737307,0.9968478,6.178153,0.9172503,2.2091453,0.8107093,1.5019231,1.3215641,1.4731023,1.2575358,5.075694,-3.164795,6.3539147,0.15913546,-2.2102258,-1.0544584,-0.67862886
bandage_01b.jpg,9.372387,2.3213084,4.4096484,12.424046,4.56353,-0.85765177,1.3719115,-0.76068145,5.9971905,27.068192,1.7738428,2.5419743,7.2061834,6.054925,5.7872334,13.516435,-3.1705067,20.867369,5.8914275,9.630403,-2.8482044,6.282686,6.526097,6.0144553,17.544378,2.1640348,8.204614,-0.07338021,3.1244464,-6.647092,2.8013642,18.736074,2.5983605,19.982065,7.627408,1.1839443,25.090149,6.956052,3.274947,1.7981105,2.053223,6.0682354,3.9964027,2.892571,-3.0444875,20.505217,0.5762969,-1.2017516,0.93484765
bandanna_01b.jpg,17.985586,5.6467323,0.39058524,62.53993,11.931265,4.925757,5.9465556,6.8340592,5.9778132,11.164483,25.783857,12.276149,-1.93564,5.314142,3.507109,-0.72558415,12.670792,6.9623985,2.3452911,4.4129524,-0.21062586,1.8953536,19.414959,16.309456,3.4588437,2.593047,7.45021,2.0800245,5.7676377,1.4249734,5.81542,6.307256,6.719159,4.834384,0.35305563,12.516367,1.7702736,-0.48648465,0.33392134,-0.8357929,4.7244396,2.8698354,0.32013032,2.044042,8.048826,-0.92150605,2.0692744,7.4494915,-0.41312832
banjo_01s.jpg,41.12488,1.7220758,7.9203615,5.572407,6.028965,5.3744445,4.756337,2.143982,20.073397,-1.7028686,3.9793088,18.835001,16.364685,11.486068,25.462103,12.566765,-0.43813708,6.863181,1.0634681,15.927105,-2.4468255,-1.5781797,2.6994772,5.858605,3.9311652,1.7558713,5.955913,48.695324,4.985142,0.87826896,8.92873,6.368257,4.806208,10.226404,1.7623498,14.619437,-0.25172347,8.132803,0.7818513,-2.2423844,3.3287868,8.70755,2.559331,2.44563,-0.7154505,2.6796725,9.42976,5.0085144,3.1613986
bank_01b.jpg,29.861025,19.02853,2.2094553,11.198479,19.051771,-4.0232263,1.938399,7.1692376,4.8986397,0.2930956,22.936186,19.021008,7.3175974,6.9605083,14.237966,1.5101657,20.613832,25.601181,28.98513,6.627439,2.7739074,-0.47741094,5.281777,5.7590833,10.627913,6.8739867,-2.110549,2.6713192,0.61206853,2.6843154,-0.24361001,3.2169712,4.781481,9.70314,-0.6797388,0.7607231,5.06027,-5.305673,-0.05869451,5.828395,0.90204215,0.4802336,2.4650426,18.41885,8.875778,4.066611,-0.23452239,7.667703,10.0070305
banner_01b.jpg,10.790481,5.138691,2.6658428,19.839024,3.6493115,5.9113355,23.37871,17.210358,2.8614917,-0.7753609,10.565303,24.415829,5.8803377,6.020869,2.011453,3.9672022,2.3526037,33.35232,1.1887889,1.6321712,1.2617164,3.0916197,22.016104,5.7194786,-0.899758,-1.263145,8.662689,3.4009364,10.429896,3.232809,-0.85833716,9.101178,4.373715,11.159575,1.1591086,1.2542913,3.5896058,0.5280197,7.0770874,0.8317111,-1.2878212,3.735353,0.9072719,5.511724,-0.9800298,1.9284375,0.28645247,3.2795303,3.4942784
barbed_wire_01b.jpg,39.73349,-0.6900471,22.761816,5.3985553,3.4853332,29.992283,39.13998,6.517449,8.142385,3.378716,1.5053294,6.694194,-2.099609,5.093623,-3.7549555,5.71041,6.167432,4.1257305,-0.6517222,6.062632,0.7254052,7.3894167,-1.4238484,3.1599262,-4.3245034,-5.905771,13.372536,-1.4499778,3.9430332,-4.405872,19.956764,5.9918585,-1.3735318,-0.5702501,2.5640893,17.006618,1.327245,-1.793566,1.94344,-1.7908804,-2.2235343,8.517436,4.4831886,4.0912986,2.9981515,3.5355954,9.209555,4.4123507,-3.2224696
barbell_01s.jpg,49.073887,0.69354475,1.9670321,3.6106408,4.7054396,1.8645976,5.721416,14.654689,7.925713,14.542678,7.087192,3.130738,3.8421848,36.397484,23.877468,13.07925,2.8559406,8.363172,-0.78848696,9.357376,-3.3109636,2.402984,2.3455608,-1.7857895,4.3930073,2.0847714,7.535789,8.87916,0.12426749,6.053995,-0.9135539,-1.68642,-2.6522055,1.8186646,0.40072316,5.464299,5.4485216,3.8072028,5.3790865,5.436273,-0.9625526,3.2882333,3.6612167,0.934373,-3.9594877,5.1163254,1.3896319,-1.9575152,-1.6277392
barcode_01b.jpg,24.577936,8.626309,1.885124,10.341352,15.088275,4.463975,4.828854,1.1266598,4.216858,8.005338,6.180905,1.8625203,29.356518,-1.2339247,3.4480937,1.9030921,16.077587,29.609415,7.585837,10.516951,-2.0409179,11.980175,-0.775072,0.013617426,2.7368064,3.3366718,-2.2063909,-0.37329116,3.1032932,1.537225,10.241214,12.345119,-2.4447827,11.0495205,3.2121294,6.3947177,-0.6606602,5.1976924,4.708964,2.9190702,-0.55579394,7.9008064,4.525214,7.7229857,3.1672854,1.135931,8.738365,-0.029311888,5.0942693
bark_01s.jpg,14.42829,7.671589,24.82933,4.230616,4.3934913,34.54661,31.666454,0.9103717,36.771793,6.0092807,-0.052477792,3.6638837,1.5067327,1.932316,2.3037982,1.3343184,13.476493,6.1685963,-1.0270563,8.53967,-3.5163562,24.140694,0.6747564,-0.5873984,-5.4462028,3.977163,2.7534785,4.435351,5.485965,-0.8221774,8.057202,14.476413,2.9465322,6.327875,3.4145694,3.3894567,5.135212,4.521935,0.105464645,3.3613687,-1.9581754,4.1969147,-1.3180056,1.1249853,-1.3446767,-3.107858,5.7857285,0.5375523,2.410477
barnacle_01s.jpg,9.222761,20.282469,22.724358,-0.08583073,2.4781747,12.278722,10.299211,3.304445,1.7811117,-0.6198961,4.1119742,-1.6295704,-0.5320511,-5.237542,13.683451,-1.1614047,33.516266,2.3525875,0.663693,-1.33952,27.676079,35.95897,-0.16324879,10.54109,4.2308736,-0.99857634,0.72134334,0.029402785,2.9439425,14.7012,10.248305,7.069145,9.138621,-3.1328075,26.192146,3.5944142,3.7752435,7.2628536,2.476535,1.7049402,1.1884421,-2.4364712,0.19310397,-0.7739528,-3.0292797,2.6990712,0.7593758,3.3841968,2.3260098
barrel_01b.jpg,28.96941,27.793163,4.3009167,4.4949937,15.123608,11.252055,6.889665,9.423123,38.289997,3.4717336,8.957438,16.37331,1.0775951,4.592601,16.116558,-0.556868,20.998798,-0.21909215,35.01608,5.021762,8.505905,0.9167088,5.225487,-0.8265961,6.3022943,8.063196,7.2866006,7.3139787,0.032618828,7.1532326,1.8610675,0.33769104,2.3603423,-1.631051,0.84091425,-2.7965796,3.0459661,-0.75658363,6.560296,2.2115016,1.3886117,0.46110228,-0.17611367,12.51946,-2.7095063,-2.2836418,1.0831509,7.6152697,7.0034633
barrette_01b.jpg,20.40512,9.547182,8.776806,27.44092,0.46773934,5.3759856,-0.19504726,3.1253154,6.0247126,30.410093,6.275402,17.47177,0.73476535,0.7688065,10.466116,11.852783,3.6777992,-4.5221877,1.6399682,14.242244,2.297464,4.3267527,-0.79452956,24.624933,8.015156,8.819823,4.273879,0.5314727,5.0506563,0.17871939,24.184725,3.4874618,4.718436,4.3884735,4.8772736,14.5181875,12.894803,14.141692,1.3105696,4.208606,27.45694,3.5521548,1.9295421,-1.1578557,3.5520136,0.14993688,6.2004075,4.0718393,3.1375728
baseball_01b.jpg,27.235592,4.763832,-2.9459157,14.400556,1.3234255,8.591231,17.557714,5.4356337,13.210114,-0.7979259,5.9019976,11.800006,6.296816,49.1748,23.391716,8.658646,4.027691,7.9078717,-2.263636,8.8687,6.0230846,7.61891,11.923455,3.2464068,1.3965871,4.046333,1.2944024,1.7648507,5.2511163,28.804445,-3.905497,1.6728328,10.293321,4.981699,2.4316106,2.8617,4.5951734,6.36356,0.365248,-0.6105394,1.1754702,2.5564373,1.8144332,0.106415614,-4.507506,-0.3976244,1.2889786,0.61139727,2.172155
baseball_bat_01b.jpg,28.76004,4.2807927,3.3830783,7.478445,8.857195,1.8991597,11.756558,3.6054924,38.627106,2.0796819,6.188389,8.5823965,-3.6918797,37.046566,2.0024908,30.653923,8.701507,4.7617373,5.4531426,34.384853,4.6404505,1.6422827,2.2041388,1.6396407,6.7537704,10.110694,17.73016,15.0451975,3.564159,6.1762357,0.72544587,-0.58741885,4.418079,6.0073214,-0.3043645,-2.9066637,7.1848245,1.7231475,3.0608983,6.0695953,4.4464917,5.407251,2.9910343,1.8480052,2.1632285,-1.3479486,0.46753472,2.1990314,4.1043563
baseball_glove_01b.jpg,25.64592,12.457031,5.321388,32.493134,0.84594476,2.8663673,8.034657,6.260639,15.210499,0.81548375,4.7423635,7.4588647,3.3597517,56.65124,6.481061,4.1128006,5.47374,6.9154105,2.254249,0.6692838,1.9850657,3.3681855,9.660043,7.4636617,0.15633106,4.9613757,9.671405,9.014943,5.0133934,14.43927,-0.37833825,1.4299035,4.617382,1.1565816,3.199175,5.713421,16.42283,2.4043946,3.3399868,2.614326,1.9831883,5.935433,3.7144735,3.5167494,-0.022840267,0.74959993,3.3869739,5.315675,1.6866707
basil_01b.jpg,-0.13096538,40.696747,22.136702,-2.176492,4.796586,76.083664,11.6035185,3.3871193,1.7932974,1.1312271,0.29533288,1.804761,0.19665146,3.2874997,1.4085875,5.1521935,1.6464041,-0.14445232,4.6037617,3.2626226,1.076283,5.131796,0.59055537,4.516823,3.010488,1.8994335,-0.2761878,3.6845007,3.1398647,2.5334387,10.064206,3.0447998,1.5411172,1.0106885,5.257986,0.42813534,2.417988,-1.8391496,2.4157035,1.7373823,2.4353583,2.9630392,5.2261214,1.3070697,-0.33154273,-0.84045845,3.3511133,3.2757196,1.3516318
basket_01b.jpg,26.125475,19.67123,10.757741,19.284388,17.560066,20.688107,11.665741,5.5689173,39.36152,-2.4181004,4.749514,21.699163,0.6180568,10.3863735,12.362333,0.24623144,16.21558,3.1083565,4.645405,9.279628,-2.0648959,2.5691874,1.4482036,11.208447,-0.5597032,-0.86155283,-1.6801212,4.2009015,3.1063728,14.763914,29.374493,5.8101697,2.880761,8.088866,1.9497216,8.868454,2.2482724,-0.06728675,5.481202,-1.0875906,5.1635995,7.964467,15.478012,19.16018,5.783408,0.29682997,15.073858,18.824673,7.8067713
basketball_01b.jpg,22.018757,6.386668,2.2444158,10.569832,2.8862276,0.6122117,3.4478679,6.642908,12.95059,3.889066,14.226305,0.28993356,3.8560205,55.670166,34.84537,-1.013485,1.6639689,2.838754,3.9621572,1.8286198,4.6538534,5.36446,11.746285,7.9913564,0.841959,2.8128016,4.561726,8.828541,9.373325,35.87766,2.5183861,0.22187874,0.42123297,2.699727,3.4241128,4.6129465,6.4017115,4.660193,-1.6125647,2.2821488,4.5200734,4.2752132,4.436383,3.2032204,1.7450256,2.9642034,7.0863037,2.290149,6.575047
basketball_hoop_01b.jpg,30.821854,6.498088,-3.6441765,1.7564933,9.120924,3.5580084,14.751079,1.7491918,8.615319,4.737586,6.5529594,2.613943,2.191331,48.62173,27.989132,-2.6058357,-3.548672,0.32660842,6.624893,8.96266,1.9187299,-3.6135356,1.753306,-2.8854117,-4.1393385,-3.7331336,-0.10841563,4.8019934,15.007311,17.299477,11.714398,7.6889753,2.7942464,9.434849,4.1224947,11.106391,2.5274823,6.163727,-1.3066051,-1.3227032,5.156346,17.00182,8.554759,4.5197315,-0.16158912,-0.51004606,14.186865,3.31437,5.0920987
bassinet_01b.jpg,21.694166,8.831079,8.84411,32.10938,44.637684,-0.5491864,4.457571,9.689655,13.391635,7.045298,2.168117,15.1044,2.5929592,3.3159192,10.474143,-2.3010716,0.90706015,0.10018042,2.8889155,-4.001536,-0.58766437,2.357875,0.01750195,8.236931,16.237188,-0.76791906,2.4950554,5.732869,2.5782864,3.752466,7.1975827,1.199239,10.448686,7.622186,-1.7252223,4.9984126,6.05554,1.8437691,1.2069612,-1.2561536,-1.4537642,7.2949185,20.196041,10.704077,34.65039,5.8709006,6.4411893,8.348342,4.6311517
bassoon_01b.jpg,37.58055,1.9830594,-1.563643,2.039495,5.0579367,1.1062078,7.208248,6.796784,12.790139,8.680817,10.30323,24.813244,9.381604,18.249943,-1.0940108,18.658676,4.520731,4.834055,4.7793694,32.25613,-0.5011194,-0.5630046,6.889286,8.354126,5.2942376,8.821323,5.225113,53.273815,5.953369,-1.5795108,1.6235329,0.6506016,1.361425,-0.7375173,8.148699,4.294369,-1.3950948,0.6604351,2.0137455,7.508237,0.86568296,12.993974,7.499376,-0.8106454,0.4137474,3.9126732,0.39688638,2.8968518,5.045839
bat1_01b.jpg,10.769965,1.4686378,54.462875,26.11085,7.6538467,-0.3311506,5.554638,3.2793925,8.268149,11.162206,-1.5817798,-1.8070098,-0.78217316,4.498695,-2.2214808,4.787431,-2.2550085,7.1088076,-3.4588485,-3.856575,4.198288,9.033192,6.406866,4.033078,4.313623,3.3310905,10.840921,2.3821647,11.759773,9.344916,1.1752075,5.6965613,1.3990285,2.996509,14.876181,6.146015,2.364245,3.121479,3.2260969,2.468788,4.677839,0.7167397,-1.3946673,-3.4014611,2.6716504,6.7332463,0.78107285,2.462152,5.4209166
bat2_01b.jpg,20.479246,4.582803,-3.8551204,14.603782,1.9521188,8.296938,15.083782,3.1055007,20.628899,3.7390292,12.569739,9.335312,8.769177,47.589176,2.9065585,19.822805,8.170167,6.582169,6.5166078,27.725187,8.6181965,3.3766992,13.13818,3.7874494,1.8765022,7.741186,12.141503,7.1700425,7.401233,15.394208,-3.883648,1.644753,4.014297,3.1021292,1.3650203,-3.3477778,2.6839747,-2.5513191,-1.4206197,8.457635,1.483066,5.6444073,-4.129306,1.0913076,-0.6025816,0.7998354,-1.5522252,0.48341277,1.3725936
bathmat_01b.jpg,14.322556,-5.3000507,1.5872631,28.618855,43.956387,13.944246,10.131736,-0.34389487,9.096964,4.316644,7.945416,3.8920634,4.23659,8.499413,-2.4617453,5.0091305,3.4479136,13.556152,8.415131,2.5165048,13.3393135,9.879969,2.1404073,3.2444735,27.05236,6.520473,-1.8016706,2.4088252,3.5410018,-4.1263304,8.460934,24.099762,2.7275567,11.750186,4.0669603,-1.3955996,5.6512465,1.4782643,3.5420053,3.236112,0.49383473,4.1358128,5.1940556,0.27437174,0.56199384,-0.06772056,11.36189,2.8526995,1.5844498
bathrobe_01b.jpg,9.2007885,8.61981,6.5983973,59.56902,33.950977,2.7252443,-0.28351808,3.5459957,6.319724,27.56232,-1.3378482,13.456289,4.4628954,-0.56846684,5.1635585,3.061921,-0.8800997,3.6628585,10.867243,-0.19105561,7.3895054,1.0369216,3.3567417,9.360977,24.827423,8.509931,1.4929116,-2.079208,3.1125064,2.537925,-0.6635194,5.075507,21.439306,9.1961975,-0.2756329,-0.089972466,5.2455273,6.6610627,2.4661171,1.8976417,1.9562669,0.60090196,1.859708,0.79855376,1.289187,5.586703,1.4287847,4.152015,3.543624
bathtub_01b.jpg,22.908648,9.105768,4.6005855,16.805168,53.85071,1.2445705,3.4932084,11.212422,13.490184,11.3713455,-3.5781686,3.1175125,4.116128,-0.633209,9.625323,0.92884165,-2.6119363,-2.5370889,19.262432,-2.6347795,28.45283,-1.3127245,2.244492,4.95791,32.048817,3.2477598,-1.8246498,4.865511,0.3773127,2.6300251,-0.10021515,1.7417874,10.449946,4.481344,2.677743,-3.3217936,9.195756,2.0706465,6.1036067,-2.5155733,-0.4015421,2.7743194,4.3671618,5.6393056,4.241171,4.1075974,5.990035,2.9863446,4.2557
baton1_01s.jpg,46.850418,-2.4106045,-0.073016435,1.0735544,10.977867,-3.8914654,-0.18485412,0.91954553,9.877952,17.730703,0.667852,12.194765,8.808313,9.573628,5.17505,33.007683,1.1152685,11.045393,3.70967,29.136473,0.21516177,-3.020823,0.18943623,2.731059,1.6065184,7.7800884,-0.32016924,27.693853,8.05413,3.7299666,3.0814674,4.690705,4.0380163,9.289986,3.81016,5.2647095,3.9863243,5.763263,0.4583152,6.6853366,0.08230766,7.2436867,3.2623827,-4.5946317,-4.711796,1.7083645,5.2742915,1.8040985,2.1961327
baton2_01s.jpg,43.987976,5.775062,1.99821,16.055073,2.8357546,3.8666327,9.128872,6.190071,17.485313,5.10827,6.0222807,3.1366818,8.178436,15.657913,2.8039682,38.19797,6.6658707,4.2498384,-0.3836833,39.098038,4.789617,-1.030111,3.6240768,3.7184324,8.497377,11.32169,25.662474,11.669022,-0.48093158,3.4994495,0.77753353,-1.0128893,1.3645593,6.6916995,-1.60621,7.9145074,0.15739901,-0.65942883,0.6145381,5.598738,1.2976944,5.180554,6.2880373,-2.7490478,5.5097275,6.423126,0.75352067,2.5479865,4.6018815
baton3_01s.jpg,41.021435,-1.9144197,3.575325,10.367666,7.9182706,-3.3374457,8.085712,12.766391,14.461306,6.5233307,14.728141,12.19928,4.2045336,26.54089,-0.61483353,25.877956,17.532589,6.521302,0.001878012,43.947674,8.638339,3.2314262,6.1395507,6.921195,6.2286043,5.6148195,7.109812,24.119997,0.07476807,4.182319,6.5721116,3.5127766,5.208087,8.220224,2.653237,9.423034,-3.577031,1.6467478,0.9717382,-0.627057,0.18519014,9.621878,10.495997,-1.4501702,1.5951596,7.722856,0.94074506,0.70125526,1.2343585
baton4_01b.jpg,38.714146,4.450718,6.838457,2.3967729,2.7902076,4.3876085,12.787011,0.67478085,9.812145,21.987194,4.1819987,6.536676,-5.58712,38.415154,10.459356,26.159065,-1.5546206,7.657585,5.5116663,26.21062,7.4436297,-4.3582234,0.39740562,0.38998425,7.206945,4.897722,4.560691,15.05153,4.7728605,3.7446113,4.389012,5.6124806,0.06361846,2.9862592,2.930904,2.7050166,7.0265636,2.950207,-0.18447782,4.9868083,-2.900521,6.55026,2.968816,-3.9423022,3.6888242,-1.2334013,2.7165732,1.8249764,7.8099885
batter_01b.jpg,11.085216,75.55147,7.6410913,2.8828077,5.1037073,4.3076053,2.0351946,-3.6689303,1.8220278,6.235937,6.712274,3.8837109,1.542939,0.07551201,16.924442,11.923114,2.9079556,-1.4044458,15.513581,1.821119,2.9690616,5.304189,-1.00537,3.619576,7.880784,-0.16104542,2.223901,4.8280706,2.3055794,3.1756122,5.918323,1.2117574,3.988621,3.848054,3.1935544,0.82960075,4.897532,2.4631405,4.041378,2.2278235,3.2483838,-0.097809546,0.5177326,1.3395936,1.0270368,-0.17911428,4.4928055,2.2645247,-0.59904826
battery_01b.jpg,49.450855,0.24032718,1.7677646,4.6536474,3.3905587,-3.8115523,0.22371328,13.048069,-0.12066383,6.062917,7.315608,3.157272,37.308353,6.0250454,5.613678,8.73868,-2.4124424,19.279905,9.164328,3.4703977,-3.2577157,2.2693825,5.8989787,-1.6026784,6.252307,12.21703,2.3013036,3.9989412,1.1751578,4.50361,-1.0878913,4.0329227,-1.2494621,5.3484287,-0.23031956,2.2609034,-0.5679728,6.195335,10.66441,11.959322,-0.11000484,-1.1971377,-0.40828848,1.4111332,-0.28064066,6.2005944,1.1758865,-0.5260705,5.2407002
bazooka_01b.jpg,34.46937,0.8760456,13.326862,6.587925,-1.892072,-3.3177488,9.283964,16.45177,6.712152,38.79055,0.53182125,4.0237756,13.283041,8.267702,5.43637,15.635788,-1.7333703,-5.4549813,3.5613976,18.258663,0.9264451,0.94625056,-1.0000196,5.315159,5.2880883,5.521347,39.62722,19.170591,12.894758,2.2612593,0.41708905,-2.1471496,-2.687417,-2.5951748,-1.4571396,-3.251554,4.8641086,2.77163,7.359436,12.594756,8.0065565,6.8557515,3.6279626,-0.13782454,6.23911,3.537272,-0.16033305,0.6568439,4.9236445
beachball_01b.jpg,16.61198,5.254372,14.445412,8.443509,-0.5693292,11.831551,21.039244,7.3212256,11.652144,6.141449,37.604385,0.5730109,2.5437326,40.11511,37.15564,5.0917993,9.423787,4.829577,3.3971376,5.020095,22.594194,2.132553,13.675869,-2.6934943,4.751717,-2.9019709,0.15081502,4.5535297,10.557766,32.01856,2.411149,3.2145042,3.9804406,4.4346967,0.523898,7.4984183,-3.1335273,0.15882048,5.5986094,3.0763407,1.3685157,2.890271,0.6515225,3.6191359,10.994719,4.2019496,-1.9159079,0.024845824,4.880559
bead_01b.jpg,12.806596,28.18763,5.670455,10.568413,-2.067614,22.489983,-1.9772719,-4.024767,20.446102,0.25964808,22.662657,11.7419,4.698123,10.042366,15.809578,0.24551488,45.631454,4.009012,1.3823941,6.2991934,2.018526,24.33699,10.93757,15.621578,1.4209353,7.7003016,4.7756004,4.0353804,1.6866822,23.841867,4.2602053,1.1448536,3.6711707,-2.2206976,6.4074697,11.61414,1.4657081,8.720746,2.1122196,1.0607656,4.008748,-0.22040027,-4.2178826,3.0603707,1.129433,6.7737193,1.0113369,10.542916,5.707849
beaker_01b.jpg,32.231308,11.05684,1.0172135,10.866347,11.171145,4.0421753,1.0536054,-0.6398602,2.2218769,3.6932867,7.2128735,12.434579,17.999672,3.0745018,7.0609436,7.845137,-0.7933517,-2.0550733,45.478302,5.7313294,7.340754,2.9573808,8.274907,0.67370236,15.554966,11.102752,0.41205007,3.9094896,3.212163,-4.640808,0.7287241,4.5197253,7.2884283,8.488037,3.7683635,-7.338325,6.69841,19.228817,5.8071723,11.709786,7.9297514,1.8499624,-2.5331588,0.12988803,1.2629857,15.881865,0.94593185,-1.9471247,4.8442183
bean_01b.jpg,-0.91767347,70.57084,7.2899923,0.096364036,1.9919991,39.990807,0.82349217,2.454037,0.32725877,0.666463,14.744155,1.3594507,1.8846436,1.3254223,7.922725,-0.3596518,21.50762,2.8773363,4.7922587,0.4471779,0.12320699,13.895936,0.77675813,3.308277,2.5305784,-1.076703,0.35005474,0.36193168,-0.8563092,4.69202,0.37930006,-0.85177606,-3.3001223,-1.2833012,3.0693376,-0.14826441,0.30547586,-1.0409608,1.1477473,-0.41251126,-0.7670221,0.5126571,1.3413393,1.7458794,1.3286514,0.6448266,1.1101165,0.12541232,0.1202574
beanbag_01b.jpg,6.003651,11.254233,7.5821257,30.952984,32.285965,-0.50905263,4.093916,-2.9225154,10.446613,8.900593,13.016571,12.296018,-3.783167,17.062723,23.253983,0.2138176,4.262088,6.5490613,6.831102,-2.3484862,2.5769007,6.0089455,2.2916133,20.707954,8.502851,7.7175117,2.0150716,2.579983,1.8866334,22.802402,5.8538823,7.6553636,13.940367,6.377352,-4.2662325,0.6745002,3.0277762,3.7197247,-1.2656033,1.4242475,7.621944,4.2623386,10.960253,7.387414,14.74141,4.079197,-1.2452068,12.041052,8.92793
beanie_01b.jpg,0.77837205,7.4675074,20.995098,51.553787,8.253405,0.9452315,1.0165162,3.9444268,1.0746528,48.21757,16.613918,4.6289005,-0.05658595,10.213162,6.5146737,5.2211156,2.5772202,0.12320932,1.5365409,2.66082,7.209314,1.6046748,2.0581496,10.562059,9.800674,5.5251,5.463668,3.706379,1.6317744,6.181892,14.92545,4.876475,5.0541425,3.9877744,1.1925135,6.3411264,3.6868296,0.1298714,3.017753,2.1623242,24.908556,0.1753238,1.1693546,1.8220639,9.220145,2.6625228,7.2757616,12.219552,7.2283983
bear_01b.jpg,-1.22333,4.948155,87.570755,5.3422966,-1.9904156,7.3084636,5.9591694,4.7115326,9.370626,5.86267,0.28004116,1.3002112,-0.7002595,1.6046375,-0.7660734,0.59768665,-0.32247528,-0.77224106,-0.7334655,-4.292788,3.2275596,4.1283026,0.14216477,2.0388916,-0.22795163,-2.188505,3.6393352,0.31276459,1.6151987,-0.5635058,2.6944273,1.5757484,3.2313938,-1.2874622,3.1121438,-0.69716805,2.3806345,2.7545383,3.0013447,-3.677514,1.6839318,0.0900656,0.9314351,2.8800929,4.74329,-0.13445984,-0.031248666,2.5766516,0.35491997
beard_01b.jpg,4.2118893,8.619835,31.283754,16.684576,0.12992099,5.036183,2.4064407,1.2844139,10.310995,51.669163,4.787118,5.907601,5.1627026,2.2317271,3.2238193,9.115229,2.5588806,-2.4866626,5.5016065,0.90155256,0.9636588,4.4891205,-1.3233742,6.466697,7.5422006,11.771221,2.436192,-0.58131385,1.5985082,2.277511,13.909635,4.8697963,1.3572625,-1.6528417,2.2471368,6.7405305,10.1326885,2.1199334,1.4149046,3.7866607,31.048376,-0.39985803,1.4192462,0.057701394,5.675354,4.2573147,2.8683734,0.5255345,-0.89422613
beaver_01b.jpg,-5.9286556,8.341842,84.93179,-0.52658653,-1.544606,7.020448,5.526225,2.4069598,10.845073,3.4739938,-0.43134615,-1.4327904,-0.70240295,-1.1965464,1.4515446,4.731033,0.36981758,-5.2720094,2.3690133,1.2444453,17.66197,5.4111257,-0.4390134,1.0110964,6.4948616,0.606415,0.63943434,-0.8389728,3.832739,2.127349,3.5200148,1.4568545,5.374106,-0.35346484,6.0313272,-0.54953,-0.63153005,0.28151926,2.1190119,1.027321,1.2038642,-0.785078,-1.3243674,-0.91154456,1.9624163,0.3736766,-0.73550904,2.8034475,-0.14544763
bed_01b.jpg,12.39171,8.378561,0.32672304,29.894928,55.81668,0.7502576,4.433895,5.228602,13.689889,7.5879188,3.287624,9.880016,9.842025,9.918473,1.1628661,0.9458549,-1.4495926,4.369379,4.987934,0.9618707,7.8127475,-4.9812517,2.0126553,6.584622,12.2569065,9.987814,0.38761315,1.85086,3.1643887,0.96083695,0.9198903,7.0617228,11.416988,4.2091074,3.260985,-0.2135886,2.7398672,9.302339,5.106432,2.3958154,2.8893535,5.6892495,6.255653,1.604243,4.1176777,3.8091905,0.6065619,3.819073,1.0036256
bedpan_01b.jpg,24.017874,20.570478,-2.4220521,8.088662,28.57701,4.0572906,9.75979,8.683303,6.5869265,-0.9192304,20.597223,0.50855094,-0.79716575,7.1694837,16.533186,-4.6472974,19.417234,1.6812764,37.582954,10.127989,13.826344,3.9923296,4.8527966,-1.0577914,27.450954,6.14642,0.93119127,0.5373928,-2.9613376,-3.2052333,5.6300774,5.826904,-1.4980044,12.637041,-3.100802,1.8902013,6.0249968,2.243431,12.210649,1.6559083,2.0702405,2.299247,4.725585,17.935308,9.391642,7.0545325,6.181145,3.2541316,10.11038
bedpost_01b.jpg,39.97241,4.9349613,-2.4335387,6.940116,32.90124,8.2929535,11.14511,-1.3493634,34.357746,5.5598946,8.381845,31.513777,-0.38472804,-1.535034,10.430834,2.2341807,5.2869205,1.9518938,3.9659905,9.2277155,-4.3411384,1.5538226,1.8490627,16.486015,6.01336,14.588243,1.5451596,5.649051,-1.5900195,3.6752045,1.4841331,2.7324927,-4.5033026,-1.936888,-0.49502128,1.2973832,5.759263,-3.059841,3.0394678,-0.57268476,3.9604573,3.870044,2.6343791,-2.27614,1.6491816,-6.064002,1.3668917,5.461037,2.395655
bee_01b.jpg,-2.3684053,7.518432,59.201324,-6.1560555,7.1112804,31.27301,5.3355784,7.0803566,0.6457796,-1.7608229,5.0455866,-3.621626,0.45832676,0.70490354,2.9286203,4.5080614,1.2502413,-0.2706306,2.5202322,-6.6375213,3.448772,1.6413503,7.863751,8.576866,4.364963,3.57306,-0.577751,-0.93857247,15.283829,5.744308,8.321799,4.182647,2.535014,-0.99045134,25.389189,-3.1636357,1.3928739,4.122155,5.488298,2.9903493,6.362214,-2.3675165,-1.6448673,-2.456731,-0.3241545,1.5196371,3.8312502,5.2852807,3.8266764
beehive_01b.jpg,-1.4808525,29.44212,34.07182,6.982606,3.7816637,33.290627,25.199562,2.276678,22.269812,-4.2671347,8.147873,8.342906,-0.04525045,2.6538298,3.392217,-1.169068,10.352892,-4.636484,1.0981877,0.84044105,3.6390464,9.761762,3.695868,3.3911796,2.6926951,-1.135755,2.0788126,-0.18006223,13.518165,8.324648,18.209723,5.3703656,2.7631373,0.75229836,19.631449,1.0922557,1.9222159,4.1735353,3.7459228,0.50275135,6.2606244,3.922767,5.1988454,5.6960845,-1.599786,2.0413916,7.903674,3.4967191,4.8673124
beer_01s.jpg,13.866314,47.32791,7.395691,2.697264,5.4249454,4.092274,1.9061354,6.898524,9.607822,7.5758033,8.010593,8.485257,1.3478537,12.60497,4.19431,-4.1533256,11.03861,2.8217933,52.422844,0.14716321,7.4652457,2.1404283,6.2622814,3.5019643,1.1189299,4.7433634,4.4261293,8.325361,7.678449,0.21404,2.457114,3.0814764,-2.1415331,0.27604643,2.6768708,0.021086121,3.7501945,3.6240556,2.705595,3.68412,6.215529,1.072514,1.8668823,3.3474624,2.5183268,5.76197,-1.3563687,3.6595008,0.7584315
beet_01b.jpg,5.708302,64.18858,11.921455,3.44414,3.2099266,44.699852,1.7246859,0.84344333,3.9798048,0.120493725,10.331335,-2.9840202,3.7681077,5.084183,8.994516,2.8648431,9.980447,1.7611848,0.4821116,0.42720726,0.2703068,5.479499,22.480145,6.4543576,-0.4323464,7.0587664,-0.05644001,3.29784,2.465095,16.19951,4.6788917,-0.24005584,0.9995666,-0.026427582,2.6829445,2.9738219,-1.5863612,1.8325442,-0.46869788,-0.45737737,1.9988209,2.981488,1.6441766,1.9548032,-2.28776,-0.93745005,1.8492864,2.6715088,3.4639344
beetle_01b.jpg,4.908517,4.545841,59.19006,2.2212706,1.4233602,17.544846,0.35200912,3.5198364,-1.6015217,2.7336838,0.044740736,0.2547438,-1.1841671,-5.719797,1.6491495,1.3488754,4.9079933,2.567956,-2.7778563,0.58275163,4.0949235,10.291101,0.90340984,0.27083004,5.8002353,7.682435,3.1832051,0.5515774,11.69619,1.9269552,0.87987554,-1.805992,-1.0942764,0.9093391,41.592793,3.107422,6.9189095,2.8869998,3.8581207,3.4672358,1.5089165,-0.93493795,-2.065948,0.18210523,0.6223741,-1.6511493,1.6430622,-1.766897,1.3554349
bell_01b.jpg,53.885895,6.783232,8.859864,4.5006046,7.0945168,7.999923,11.70039,0.44176096,15.152118,-1.4111156,3.2980914,26.84108,10.82801,4.6769066,15.892893,-0.30022696,6.189268,-2.60093,7.864936,4.4154963,2.0713162,0.93491423,4.457498,8.616447,1.685068,4.8337455,5.317549,31.34907,5.897314,8.911582,4.2167025,-2.5139976,1.0324996,-1.0226822,-2.2000837,9.148589,-0.38261983,1.4669266,-0.099284574,1.3752279,2.9418554,8.353024,6.6279435,4.140395,2.590502,0.27189255,2.830672,4.1233993,5.6759334
bell_pepper_01b.jpg,-2.2966218,60.56707,19.589853,3.4706223,1.4384341,39.43012,0.5589758,0.14663176,0.32579547,-1.3638102,15.7712345,-3.0914264,-0.4428084,0.85409766,1.4528279,1.8887295,25.3893,1.9732256,0.17959811,1.4052857,5.299215,11.113977,14.929188,1.8831952,1.0867122,-0.51098776,3.5162206,0.10878676,0.47362176,11.197567,4.3421507,3.2985563,4.036834,0.29026577,6.3616233,2.3956895,3.8050451,3.917496,4.7231665,5.7296476,0.5009899,3.8258505,0.781467,4.132422,-1.3505523,-0.03182357,2.2975085,0.43426523,3.4626093
belt_01b.jpg,39.02912,7.7074313,3.1488676,47.70765,0.44604382,2.6461823,5.8056636,0.7093478,23.905268,4.3004417,4.006489,8.934517,2.9317207,10.162424,6.3263483,5.9625797,8.306161,6.628573,1.8778331,1.662907,3.1426437,4.5882235,10.083921,9.224483,3.5127275,9.887721,13.793479,3.3597395,2.752705,6.4394593,-1.0915235,3.0701637,3.598569,4.9604406,-0.7864123,27.08152,11.214065,1.7657135,3.588767,1.6292641,6.2138057,2.8892162,2.4093146,0.8870829,1.0454938,2.5761461,-1.7969542,4.457957,0.9648172
belt_buckle_01b.jpg,42.26937,8.622009,20.127527,21.689596,0.6935385,6.718417,11.106831,3.46684,13.52303,16.130365,1.4029784,29.192171,-3.6435165,9.002112,21.732054,3.9248943,1.6797572,6.8060913,-0.856431,-4.3867755,-1.399214,6.435283,-2.463244,7.718344,-2.0115662,-2.723329,16.115463,-0.024722842,0.8846031,4.338301,3.294213,0.9686336,-2.4924073,0.3247024,1.6378727,10.502409,0.5987429,0.2782369,-1.9462414,2.4383795,-1.3151896,-4.9145365,4.1042523,-2.9305823,5.980411,0.31647402,-1.2293991,4.299323,-4.130573
bench_01b.jpg,8.519096,2.627311,25.567102,2.2136245,28.594955,43.752384,36.939976,5.8517213,25.339142,2.6354322,0.7542481,10.059555,-5.8838377,18.50352,-1.030814,2.3322666,-6.7234807,4.8217726,-1.2695912,2.2301555,2.8357913,0.44555628,5.8719435,7.9068103,2.0392077,4.162968,3.2841558,5.6029186,4.6977034,1.9114219,4.10728,0.124109164,6.997724,-0.22032875,-3.2717638,-1.6323079,6.0582957,2.642813,-3.7132423,-0.30782324,2.9157898,9.275251,12.047073,7.424108,3.8082473,6.828123,4.986448,5.4347777,-0.07781908
berry_01b.jpg,-0.8350687,75.5747,9.291064,2.6066399,1.6194682,29.85521,-1.4728694,-1.8443608,-2.8560655,3.1597633,17.731594,-0.85534304,3.3053856,3.5755284,8.469696,2.3793983,11.41294,-0.7768251,7.013265,1.730288,-1.0070838,3.024003,16.94621,10.729779,0.2558575,4.915984,-1.5559659,-0.2905503,-0.91513467,11.295448,3.5005734,-1.4669523,3.6117728,1.7957926,3.5682101,0.9884564,-0.088474385,4.486756,-0.22705719,0.28821343,-0.54753083,0.38875902,0.98738754,3.1827972,0.5701232,2.0419853,2.0635457,1.4054382,1.446557
bib_02s.jpg,18.635092,27.028162,1.2073154,54.931744,20.001245,-4.7284756,1.9008467,-2.1179144,3.8084588,13.367264,17.01354,4.0148964,-3.6678553,5.3421135,14.345195,5.315871,3.2781687,6.132483,9.440025,-1.3562306,4.2758904,-2.2320395,6.021108,15.973057,13.271631,-0.16878024,1.4935529,0.29570684,7.9364166,4.6304603,5.5797415,8.423161,7.342366,13.244793,0.08790986,13.08759,2.9748497,2.9851863,-0.49152112,-3.5255752,8.352217,5.0729675,1.6865481,5.6017,16.235832,2.847963,1.303254,12.206397,1.3911948
bike_01b.jpg,32.683205,-3.077979,3.9694502,16.922506,8.06153,4.503657,6.2080526,55.442917,3.7330754,5.4945736,20.411936,0.13050756,1.0554785,35.018513,6.3980045,8.082445,-0.8017772,3.8708932,3.878657,4.6463785,12.210304,-1.6701772,5.1768794,0.77920675,-0.75365055,2.36109,2.4367423,8.779333,2.714292,2.839139,7.971713,-1.5228418,3.7400625,1.5526705,-2.197025,3.7638996,-1.0510029,-1.7661395,-0.24215224,-1.5875462,-0.45923328,0.5536751,16.687635,4.6809015,12.58173,1.5727751,4.372708,4.0331597,3.046106
bikini_01b.jpg,1.2051775,5.723346,20.47417,36.137672,3.8382134,-2.9403837,1.5452251,6.5277944,-3.0342522,62.23114,5.843286,1.0989226,3.0286605,6.568058,4.393061,-1.535361,0.26149,0.37578997,2.7681572,-0.39089093,20.966217,3.4139261,-1.200561,5.5206947,6.7531853,1.0934708,5.0343804,-1.3426098,3.259988,4.66123,2.6128135,4.307809,6.7834654,5.812446,3.591323,9.025679,7.6829286,-1.579367,0.8328572,0.5308431,2.5316603,3.1666453,0.5571051,-3.7951663,5.738282,0.05290378,4.972282,-0.12351833,-2.1024644
bin_01b.jpg,35.70831,6.244395,0.43206438,7.431832,24.915695,8.377666,5.0183716,9.811359,9.100758,0.25352296,19.19425,-2.430663,10.444885,3.0223489,-0.49031243,-0.7695368,30.938868,30.169333,6.9058022,5.1753626,1.9085937,8.093857,13.4111595,0.33376032,1.6851006,3.3011854,-0.22001266,0.6529182,-1.7885029,2.8386264,6.4296646,5.208898,2.5792952,2.7228384,-0.23418218,3.18725,0.8928716,5.5780582,11.521123,-0.7026254,1.2060963,6.497668,6.7011,26.183554,2.6991584,0.25438553,2.9966996,0.84396285,6.216669
binder_01b.jpg,31.04247,8.811633,0.62453765,15.619951,27.920431,8.305684,0.6409071,0.5093684,8.515637,-3.5277908,8.892354,2.612053,17.748186,6.197966,3.8223221,4.050317,6.8377614,54.30213,-0.90705955,7.668351,-2.2563245,-1.9687672,-2.1281962,1.1582066,-3.0390868,16.533985,3.0287504,5.4539194,2.2395554,4.0722804,4.3067875,7.96606,-2.3309398,9.731472,0.8476691,9.677759,2.210735,4.9593854,7.577148,2.9369473,1.3087709,-1.0654492,2.9135175,10.352871,-1.9839786,7.4996963,-1.0319465,2.0186486,4.9516635
binoculars_01s.jpg,46.412254,0.86739856,16.591988,21.776878,-4.8931165,9.142504,3.6595078,17.277987,7.4463763,9.503128,-0.6400152,12.012869,23.157103,6.259445,7.6143093,4.7362556,8.836651,-0.80577934,6.748878,4.2245255,9.746672,5.710779,7.0610943,5.3305216,5.2823277,21.993246,10.649398,2.8039196,15.194268,1.4267225,3.0595195,2.203357,1.2199336,2.481707,3.6613636,3.903922,11.762512,8.865461,2.568692,8.045878,13.041197,4.8318295,6.702606,5.2862754,5.244805,3.9771523,5.241482,-1.057612,5.15482
bird_01b.jpg,-2.3508418,9.935817,67.11851,3.1436875,2.1069021,28.398006,8.252732,1.0543344,5.582061,-0.24232268,14.108112,8.623024,1.505918,3.5597012,3.1345937,3.4843657,-2.0744364,3.7536383,3.171628,3.5423603,5.0445914,-3.9780595,6.042004,1.2870336,0.6205474,6.5653467,0.029857084,6.9066615,30.958344,0.92933786,2.5363824,-3.724455,1.5091506,1.8925464,11.081329,2.763189,5.56778,-1.93654,0.19445638,2.295346,-0.7925309,3.4256165,0.87768835,1.8023894,1.999623,-1.4041244,4.106652,3.0448046,2.9882445
birdbath_01b.jpg,40.31583,10.145734,15.39094,-1.0255638,18.57132,12.532997,32.173195,-1.967211,0.52746105,-4.6101494,2.2724543,13.701914,5.1915736,6.5005875,25.69312,4.2591634,-0.11454742,2.7693667,30.268978,0.83560944,16.93615,12.388772,2.6008346,2.117643,7.9499617,0.51408356,0.47803614,2.7352993,7.993685,0.8335983,2.3333716,3.3092997,7.341062,6.19096,4.3113456,2.5488436,1.451232,7.275869,1.3216943,0.9474309,-0.99997616,-1.7230686,7.4683795,6.106883,2.4513223,4.0161242,5.3209124,3.1861022,4.302205
birdcage_01b.jpg,39.481693,2.8009408,32.12196,1.9308431,12.628376,-0.93283904,7.5492887,4.554159,10.314125,3.803195,7.1366334,22.7545,1.4863179,-5.507027,0.70900226,-1.6881344,16.137085,1.9387268,6.5120516,5.4279804,2.4656196,1.5078198,2.2769017,1.4118323,-2.8349884,0.21612416,8.40408,5.5704584,20.1627,0.63642764,9.477299,2.1484294,-3.4344275,0.9085334,8.055532,7.533197,2.0142488,5.6211677,1.7867681,4.659831,4.4365125,16.590002,8.22547,13.963858,4.3580546,1.1767464,16.343576,3.7839348,3.4847684
birdhouse_01b.jpg,27.336338,1.8731455,30.246199,-3.221237,17.390007,15.993066,42.677784,7.14088,26.359602,-1.0609092,5.2194533,7.695809,8.33856,9.743943,3.098688,-1.6664425,4.2976203,3.5614445,6.0801396,2.6337671,2.2344012,6.305687,3.789821,-2.834243,8.761057,2.695207,6.713772,1.4630365,24.94174,7.2561903,1.6400595,-0.8005079,1.1274185,-0.5309673,4.228535,-2.685407,-0.29169628,-2.3416827,5.4799027,2.9037046,2.3328598,6.751518,8.447103,13.069635,2.3545034,2.212697,0.82040465,1.8551238,4.7478347
birthday_cake_01b.jpg,-1.4615896,49.59883,3.9319146,1.388044,7.703902,-1.9761152,0.24133441,1.1357716,0.5302445,2.4172893,23.103283,22.297634,2.4393868,0.6110441,12.242082,6.5285587,4.891957,9.934662,9.598228,8.776805,0.39734766,1.9666853,6.9666147,22.280025,9.096935,5.8892403,5.2901006,8.034679,6.4017506,5.578396,8.246613,-1.2104728,6.0042415,3.469785,0.30353788,0.5370753,0.9076213,5.137374,-0.5711354,21.980944,5.500176,1.7143266,2.2144876,3.2723553,12.478378,0.35456997,0.13275808,6.333643,2.367886
biscuit_01b.jpg,4.481305,78.76921,13.524474,8.230983,2.7468789,2.8972697,-0.23799306,0.16267374,6.7988744,3.0998569,-2.1016557,2.919785,0.9122186,-3.8569033,7.023658,2.3691103,9.460924,0.07858752,4.1665726,0.060754105,1.1101974,7.630063,1.3375548,4.4491587,3.790126,2.4421327,-1.3847927,0.34494883,3.675145,5.8251038,1.2554717,-0.4033016,6.512309,2.1980078,-0.42517,-1.8310752,3.6092625,0.5023955,0.58027834,0.37763602,-0.20815125,-1.3355277,-1.9033723,2.3427641,1.0225217,2.2161443,-2.4105034,4.2994857,-0.3996324
bison_01b.jpg,0.02420079,6.765963,77.66219,-3.0871525,-3.5450258,9.650878,10.234313,12.444453,3.1278582,-2.2146358,5.7977734,0.17242423,0.6536927,3.2727447,-3.0962276,0.21455176,8.562552,3.0911808,-0.6272225,-3.0383313,4.8718634,7.3385715,0.009844825,0.04363628,-0.058573205,0.39593711,7.379793,0.9814577,7.8663573,-0.79624075,0.49746987,-0.068808675,2.8211446,-4.9722595,-1.4114186,0.020792242,-0.53652525,-0.009533577,4.6260843,0.34430656,-0.6906867,0.031373277,2.249562,-0.0346072,0.66993684,2.4751108,-4.5315824,3.8721263,-0.4837363
blackberry_01b.jpg,-2.2287245,61.42897,25.664759,2.3557396,-1.3320946,48.537598,6.4947276,3.8056173,1.6536276,2.0902913,7.345997,-0.5840929,2.087085,3.9430268,1.6138483,0.4348168,12.010852,3.8894057,7.109123,-0.49803954,0.9135139,5.8534546,6.5091467,11.670713,1.2020364,14.495191,0.31461978,0.7341834,3.6110058,8.778301,2.5353684,-2.882623,-1.3150325,-2.72658,4.215752,1.3395005,3.334956,2.1390886,-1.2225085,0.30027387,2.6470997,0.030545332,-0.8011871,1.2771115,-0.607815,2.0233686,0.18676496,4.5918646,-0.8168349
blanket_01b.jpg,4.2675714,5.389373,3.9701853,42.494205,37.23765,-2.3274362,3.6829188,2.096237,14.416057,0.5065309,34.912384,13.496373,4.241128,3.2583556,4.3982162,-0.35665333,14.044248,16.188702,3.5126777,0.97854567,-3.3088484,7.5208945,14.191827,17.845104,1.7291446,2.854125,1.1364713,5.1268077,-3.5127454,1.5460584,16.595406,27.953312,5.15421,13.294787,1.1407174,2.33829,-1.4792336,1.8769096,4.483258,2.8723388,-1.8373367,1.9856827,2.187233,-0.7122507,8.819847,2.0890343,5.192873,17.10484,2.3841488
blazer_01b.jpg,16.899654,4.4767036,0.75043833,64.898285,17.591503,7.93838,-4.1732435,3.6179729,9.086129,23.654507,14.110534,7.8287764,0.851023,5.34063,1.4980292,1.4448202,5.709972,7.675779,3.5641844,3.7195325,1.8288639,0.917745,10.113018,25.123226,6.948964,7.9170322,2.3135452,-0.9223524,2.5511422,5.222148,0.28607455,2.4897618,7.3718657,4.5724072,1.0484076,3.581608,1.5607666,7.6806126,-0.40932262,1.8805057,0.58675265,2.2644384,4.2863846,5.7394958,-1.1004577,3.4634702,-3.7779253,0.3495127,1.0516936
blender_01b.jpg,31.621033,51.113354,0.109915994,5.2009277,10.625313,5.430704,1.2974899,2.070574,-3.7552912,3.0033116,0.38970876,3.948707,26.939249,0.5177409,11.885793,4.077506,3.0074267,-1.6562479,42.12641,-1.8589529,8.7017355,6.91905,3.4948137,1.419638,10.5439415,1.2092603,-0.1736896,3.4924269,1.0444824,2.4128177,3.4817483,2.425035,7.1432858,5.1809287,-3.8997166,1.3355904,4.8146887,4.350188,7.341806,2.6522813,1.236608,-0.7922858,3.8783987,0.69597614,3.3452053,3.9066427,4.010375,1.6142379,2.645628
blimp_01b.jpg,21.443409,8.584872,3.9853356,6.458908,0.16951916,-1.0183995,6.4090266,35.8124,1.2286384,-0.0006671995,4.624111,1.6082809,14.454773,15.936369,9.991264,5.830972,-0.37862965,6.4177694,5.387622,4.208577,16.837742,-0.5834036,5.685949,-1.5070509,-0.113791786,1.1617876,3.5381086,6.440135,46.54616,13.783661,4.964681,2.6908648,2.5069122,5.6543517,8.327894,5.01151,2.8338606,1.1755109,5.5880218,4.1074953,-0.8776284,9.070816,2.8534305,1.1875377,0.19588818,1.1862216,1.1616417,-3.6462388,3.7276692
blind_01b.jpg,24.9986,-0.73486364,1.1810616,8.9163265,45.884357,0.96320546,10.431859,-0.68169254,23.401041,9.845475,-0.33907202,-1.5329971,10.916726,-3.5007563,2.8102782,1.7941486,9.752829,7.392891,-1.5244907,11.004389,1.6043177,2.4358456,5.168421,-3.442619,3.1967037,4.702996,0.05982006,3.5364702,4.896439,-0.08813399,13.13554,21.284086,2.456792,11.87201,1.541373,6.5366774,-2.3025303,6.0089064,0.323157,0.27939618,8.204642,8.542563,2.2502294,-2.9908864,4.152213,0.96574056,16.398258,2.0530484,4.2096524
blinder_01b.jpg,16.777037,4.8361397,54.767586,21.57846,-3.3720539,7.573636,0.27630013,17.898727,5.926302,12.350401,4.9308763,13.159052,7.587851,20.643911,7.1381755,-1.1400555,-0.74906695,-0.56420714,-0.43720695,-3.7487528,5.5953155,-3.7309353,24.30525,1.6432955,0.47112033,5.878556,8.414523,-0.8980335,5.6672425,4.6914377,0.18129069,1.2021477,1.0337662,1.6656022,6.81148,7.5580435,7.9581337,6.710696,2.7447639,5.1932716,14.557585,1.5132507,4.3566694,4.8095627,0.9467531,2.9080591,2.320616,0.9840306,-0.090795755
blindfold_01b.jpg,21.03884,-0.56072336,12.55046,32.88891,8.347435,-2.115953,7.2919106,1.3033011,5.811328,24.995937,1.3880429,21.284704,6.934558,6.464953,5.63061,0.13721833,-3.1534526,5.086001,0.9261517,0.7919375,4.022141,5.2677617,5.4834056,9.149257,8.723402,15.148086,8.334392,3.1559641,5.3069367,7.305488,2.9273021,6.7309985,10.964399,7.6806335,-0.21751775,7.854207,5.3197517,5.64965,-0.19565877,2.770397,31.904188,3.3557467,-0.2075906,1.678933,5.906003,4.1792417,4.538737,1.9844022,1.2513142
block_01b.jpg,32.96285,2.6272297,2.1033428,-0.61975604,18.410984,-1.5203944,11.7115,-0.32236958,50.149345,0.066816434,4.79338,-1.14613,1.8598126,5.856534,-1.9929707,11.183671,18.667225,22.64969,0.62216467,8.515488,-1.303641,10.182048,3.9226272,-1.2747933,2.344434,4.7319937,2.2608259,-0.5111362,0.11601951,11.845176,2.299517,12.859519,4.622573,8.654983,-2.292863,-0.16604578,2.749953,5.3608084,10.480433,0.5409756,2.4208183,3.6203697,0.9012052,7.3352933,3.510597,3.477335,0.46436536,3.6121056,3.6327255
blouse_01b.jpg,1.0588616,3.742301,15.004985,57.074745,11.188832,7.202217,-1.136802,2.6774995,-1.4414277,42.674767,9.113667,8.285537,2.9835775,-3.6587183,4.8214316,2.0617802,1.1561207,8.748335,4.092738,3.224245,-0.69678444,0.2734662,10.742518,19.396152,4.42018,9.429203,0.30747056,-1.0933499,2.0742931,4.9667,-1.0065749,2.378214,17.16099,5.896421,-0.96544755,-0.3800206,1.3878558,2.2396061,-0.33572176,0.5665146,6.8705482,3.1427782,3.3700318,3.5551977,2.644838,2.43367,0.6281333,1.8610425,1.4639804
blower_01b.jpg,41.45811,-0.5697265,2.5881133,7.9239054,17.886364,16.759842,7.5660653,13.562094,1.7897643,17.262375,8.092755,0.34272075,26.231283,10.490809,11.542196,18.796535,-3.7235987,1.0208558,7.0464363,-1.3376862,6.3153834,0.17332453,0.32043862,-2.307647,15.798428,1.5501041,1.5290264,8.8266115,-1.1288053,2.0037372,4.935582,4.2319655,0.12165844,1.3922359,1.8209146,0.65464824,2.6824574,-2.589494,23.217312,10.621368,2.9961739,5.3428216,7.5922885,5.5969434,4.2569327,0.39430237,10.893067,2.4563172,3.2570112
blowfish_01b.jpg,3.4348826,12.039104,46.477997,1.7122153,1.364859,20.62973,0.46347547,1.1979938,-0.9749772,9.639028,2.8240533,3.1634066,-6.188128,0.5143141,12.223946,0.19426979,5.806629,1.0888493,2.627194,0.7934913,36.850716,3.4486334,4.1276584,4.3397713,6.0687,-5.373803,3.8503914,1.7518584,3.9862168,20.774446,11.01853,1.6761161,-0.9771748,2.4334774,31.131989,1.6422201,-0.40357718,3.2932143,1.2152524,2.8785684,3.6249049,3.0812476,1.566975,3.0889452,-2.839982,2.0394962,8.37768,2.1796231,4.843591
blowgun_01s.jpg,17.231565,5.2665696,27.875057,9.413724,1.4852986,13.230449,20.678776,1.9924402,16.306236,32.514114,4.3721623,0.65794736,1.7881992,14.21967,1.1240491,20.490805,2.6245275,-0.4687531,3.568834,28.515461,6.5647388,1.7631896,-1.753954,-4.2427278,3.072263,3.2879438,17.04792,12.574105,5.4484143,0.33997098,2.9214323,-2.5335875,-2.6323485,2.7817562,3.1745267,6.355589,3.5066855,-0.8422278,4.533277,8.411978,6.795658,9.8335285,6.225975,-0.0758633,0.12796181,3.3656142,-0.06678878,-0.75113094,4.1296115
blowtorch_01b.jpg,48.25466,-1.637378,-2.5891895,-2.5462275,12.897394,-2.67542,5.1322904,13.944507,-4.1307473,-1.3252778,5.9365287,2.507069,23.559746,-1.6574591,14.241277,15.813457,-3.2280214,7.4773693,10.270007,8.673647,-1.3682911,-2.923415,14.376853,2.0672145,7.5554104,12.329995,14.405723,-1.8673375,5.6728563,-4.368859,-3.0289133,1.391239,2.5559046,6.747736,3.8245637,-0.086255,0.7595339,9.2481785,6.3153596,35.02295,2.5228958,-1.6063519,0.18322784,1.4017639,2.232935,2.552933,4.793253,1.4729131,3.169406
blueberry_01b.jpg,3.2949164,58.392757,16.070343,7.650877,-0.17774087,37.283333,2.8173685,0.7571631,0.43992242,3.11998,9.608898,-6.468712,2.8650255,2.5133283,7.5633726,-0.2927404,24.23371,-1.2455082,8.87647,1.4089911,6.9132404,22.65076,5.1077275,5.125944,1.009192,6.2476454,5.19537,-1.3409214,2.3085778,13.847733,8.251454,5.8124785,2.9878561,0.8163245,1.9107535,1.867309,5.2348146,5.750217,1.7128763,-0.14130175,2.7026813,2.1059632,-1.0234941,3.0197778,-1.8603796,1.3919423,2.6909294,-1.417129,0.74330455
boa_01s.jpg,4.809485,5.1956577,21.586512,60.654884,3.9920897,7.9375176,0.58922243,2.652494,-0.94248587,31.419865,17.717747,16.670868,4.838843,0.70518017,-0.5437052,-2.3103483,3.467723,-3.1914954,8.264722,1.1573257,3.59013,8.627859,7.789044,21.15132,4.6652803,5.950552,2.5532944,4.0897794,9.656857,3.3957787,10.835089,5.514034,7.8269563,0.3581639,4.1844354,3.2878578,4.7642093,3.4125845,1.9082484,2.078435,3.7565954,6.357972,4.4932203,0.7720548,-1.2686044,-0.54588675,1.1844629,4.5334396,2.094018
boar_01b.jpg,3.5407305,13.147797,86.935135,1.6063594,0.72795975,3.5885677,7.11087,0.6964652,2.899154,4.360346,-4.742649,-0.6695261,-0.50709826,1.391782,0.47739655,1.3406281,2.9996712,1.8922865,0.9423417,-3.1841538,3.5917356,6.9532623,-1.3492,-1.7957767,-0.15453929,0.94089425,2.3830311,0.030725263,-1.6339734,0.37451237,-0.09955652,2.5776317,0.65882593,-1.002807,4.95618,0.19361041,1.2611916,-1.1518745,2.9623733,0.08527851,-0.8443167,0.032584555,2.487597,0.8776395,3.2614603,-1.3606402,0.30632782,0.8706903,-0.54034734
board_01b.jpg,23.173826,8.554821,1.6636624,4.581755,31.509035,7.7476797,10.729976,3.1703048,58.04208,-3.7580843,2.4943297,2.5445435,-1.8756512,2.8429549,-1.2201111,8.308804,18.078215,15.83169,-1.3034884,9.137673,1.9868195,7.434743,3.4573703,-2.2438369,6.6515975,3.0720186,-0.4215719,3.515038,-2.7143435,-2.6849139,7.2659836,17.79953,2.936294,10.850493,-1.947593,1.6215112,9.351227,3.6968184,10.284991,-1.4056284,1.742749,1.81824,0.027933437,1.1857275,0.7255242,-0.18753545,0.9036755,4.0224147,-0.32870397
board_game_01b.jpg,6.89071,8.078658,1.9881252,3.8007128,9.119434,0.6097233,-0.5730738,-1.1846317,7.2666464,4.221781,39.44187,14.990917,14.563875,31.121502,2.8901756,-1.6224874,32.001717,31.359833,3.6407237,7.4768224,-2.5977447,-5.2748146,3.4310699,3.7144828,3.1925035,4.103246,-1.4206514,7.0534945,0.8044895,2.045503,-1.5099658,4.8221602,1.9541104,2.4803154,-1.2649192,0.82844126,2.8001268,-2.7850504,-1.8561995,2.373813,1.8909335,4.5137143,0.63826627,3.9918013,15.564966,1.0941162,1.43281,1.1567208,2.400655
boat_01b.jpg,22.579645,2.4600694,9.174442,2.032895,10.290124,6.251686,18.073538,35.915104,17.089497,2.7152622,3.15655,2.353678,-0.70370233,9.407716,0.386299,3.5044973,-2.266499,3.0836716,9.604156,5.679234,59.341778,7.9191813,7.2420597,3.4456997,2.7560146,2.0736299,4.5823164,1.9674765,13.072475,4.6163,2.8954248,2.7233925,2.862964,2.0164068,4.976021,6.7439585,7.6253233,4.835695,0.76762426,-3.0858214,0.14834794,5.448233,5.318487,8.597223,3.4197118,2.564457,-0.6914742,0.3172626,2.328305
bobsled_01s.jpg,32.774612,5.740691,6.6116943,12.168133,2.420975,4.2686567,5.545312,48.774986,7.8884773,13.028644,9.60346,3.5611045,6.727731,37.484146,5.298253,5.6840434,4.3415728,-0.8761361,5.7964287,8.329992,16.459297,3.6791465,5.3835735,1.9213581,0.36858428,1.2330142,12.685457,0.73580074,8.447647,5.399223,-3.0393932,-1.0317167,7.5461683,-3.6788642,4.2485027,-1.9490689,-3.1455908,-0.49049473,5.228974,2.3064551,-0.14915374,6.433396,7.142724,0.9613916,-2.6315215,1.3634892,-1.9671698,-2.888422,1.3584838
bok_choy_01b.jpg,0.089034624,60.724842,13.022128,5.8244257,2.6048534,61.951565,4.069962,-0.48047882,1.7743189,7.290978,0.6694828,-0.23909417,4.25105,2.454124,4.2277565,3.0728302,0.9439472,0.9953462,5.743343,9.04582,3.2401767,1.2510587,4.7771974,1.4194145,1.8865854,2.5202966,0.2553776,3.4837523,1.3740423,6.8753796,2.8788886,-3.0379632,4.9239264,2.5689409,0.3982524,0.027689664,-0.5053537,1.557014,-0.17365955,-0.27373424,1.9657154,-0.49537644,0.7622598,2.900916,1.1583079,-2.4284122,0.32444018,-0.0013720244,3.0230377
bolo_tie_01b.jpg,19.518576,6.828425,13.980868,46.536125,4.9736586,5.293076,6.3477926,4.392465,8.945275,46.18011,3.3986762,17.022696,4.664037,4.9899464,0.75800323,4.918523,4.1184926,2.7613773,0.16606176,15.5183,-1.7940041,0.8243915,1.6643034,7.250787,-2.8673356,14.985225,9.500056,8.090448,6.7217813,0.103403345,4.4445233,3.7396426,11.798575,2.5712273,4.939925,13.170788,1.9216646,2.2417746,-1.0308017,-0.55632305,14.408135,7.135879,3.2705286,0.84411025,0.11760015,3.6292396,0.15416908,-1.7012861,1.3213028
bologna_01b.jpg,6.7748756,72.09279,17.666397,-3.2567089,1.5661312,0.29730612,-0.45770705,-0.75315356,4.5558105,-1.8530593,4.2678943,-1.3270137,-1.1741326,0.025049923,17.52868,4.1971574,8.974219,5.897991,-2.6554687,-0.042423792,-0.25287318,5.239274,5.613412,0.23833327,4.0296597,0.15030788,4.568215,-0.07690862,0.43097305,3.0257862,5.047793,6.6125326,-1.3358058,6.596463,3.66042,2.6452322,6.481609,-1.2181466,2.6627736,1.8125021,-0.62781924,0.5371233,-1.7551618,0.04958948,3.7012212,1.2837489,2.0655203,3.3120472,2.4732513
bolt_01b.jpg,70.1349,3.5156853,1.6191974,1.3029131,3.4650233,8.657829,17.73293,14.329608,7.8102202,1.965281,4.4408813,0.020390749,4.4042683,8.746803,6.7983823,14.624331,10.829304,-0.28692973,1.6572167,8.30386,-1.0962937,0.9056328,5.380188,2.208628,4.281721,1.4954858,1.1100363,1.3173963,0.68720484,5.1446476,6.9799676,3.1629567,0.92378354,0.28872603,4.934632,11.033067,4.512278,1.8865334,8.001275,-0.19537173,1.663019,6.3598266,2.2504199,0.5066186,-0.6181107,1.6387025,6.587811,2.8916414,3.5983179
bomb_01b.jpg,41.76358,4.8585114,1.8200349,0.6190425,0.8472602,-0.8553121,3.3475823,31.211842,10.253189,2.3360178,1.6957093,5.549913,18.677357,-2.1825767,10.681263,5.7316036,3.1568878,-1.6581562,2.1296163,5.4294143,12.935899,8.972271,6.481646,-0.38844478,2.9266665,3.9520752,39.596878,1.1173384,14.089921,10.400565,0.21497649,-1.6180472,-2.3280141,-1.100788,3.6571774,-2.7479248,2.796589,-0.61105055,9.460947,16.748215,4.661458,2.8773417,2.5787833,3.1368012,2.599155,3.995847,-2.286237,-1.6358515,4.2393246
bone_01b.jpg,15.318887,11.362043,23.868498,1.921932,1.8175308,18.671375,27.18739,-5.0043516,4.6844087,7.2928734,-5.3535247,-0.8018015,-3.0940487,11.505823,3.804569,14.229896,4.7139125,-3.36631,2.979938,16.09315,1.9564801,23.362473,1.3887097,5.254869,10.657336,-0.20239502,10.05551,6.6619215,5.4593267,7.010876,0.77134126,3.1086736,13.013389,5.467819,12.813427,-0.29154187,15.454035,2.1033483,-0.12542886,4.4393682,-0.74256706,0.15562409,-0.76631457,2.3323662,1.8951999,14.825867,-0.70124835,0.8004016,0.66878647
bongo_01s.jpg,42.583656,12.951188,2.968571,12.187813,12.001119,-1.8505642,3.1499512,8.947012,27.813524,3.2004714,5.005974,14.421651,9.076905,13.843234,24.813143,-1.7045815,10.607846,3.7570982,21.500858,6.366811,1.9501153,2.8058026,0.09938036,-3.4284294,0.9811524,7.4259906,2.44214,29.226542,2.2522948,7.0616336,4.540675,4.4950666,-0.7429501,1.6823381,-2.1257107,2.1792915,7.0849204,-1.8730916,4.6745768,5.35595,3.1525896,3.1278343,2.2244911,13.003439,1.6963322,-2.8924103,6.18823,7.8965983,12.262038
bonnet_01s.jpg,12.565597,12.403722,13.806081,53.935505,16.305609,2.3360543,1.6325566,3.3319564,2.5436113,22.796938,6.7903504,11.911762,-0.80494004,1.7840402,14.068704,5.4152937,-0.1887021,3.2074187,4.862793,-1.0107007,2.3420582,0.0011718832,2.8320222,17.01181,16.399054,6.428847,4.660634,2.955364,4.520635,6.5982423,7.177326,6.588211,15.822646,11.758913,0.5652646,4.6033425,3.1078594,5.235423,3.9680295,-0.9406734,26.999422,2.6467295,3.005732,5.8151746,6.673131,4.0895467,4.8796983,8.792396,8.188459
bonsai_01b.jpg,23.066095,13.06531,12.504909,-3.5369835,10.584348,58.158867,21.736723,7.71229,13.28493,-1.3292757,5.253038,10.476485,12.778571,6.427563,9.177152,5.7557745,-8.813204,9.182226,5.9757056,7.4945397,3.7471468,5.718638,5.120014,5.9904256,1.9180827,7.286208,0.027813856,-0.9122703,7.080629,8.412271,3.8710368,-3.7415056,4.585895,3.0965626,-2.1925738,0.654385,-0.33752248,3.156092,1.0670543,0.5745595,-1.5912619,2.9465368,1.8228124,6.9387255,5.780341,-4.6056733,-5.2803855,1.4616083,1.7336771
book_01b.jpg,14.208258,1.1861662,0.09635323,10.619579,27.566904,3.120216,1.277208,4.492097,13.406406,1.8751832,18.920525,11.044364,17.7127,6.185156,-3.2172248,-0.16218536,28.175854,44.38305,2.3112814,5.7683544,-0.14377916,0.7815205,-2.0203576,6.7155704,-2.7268317,8.608319,5.076876,2.9684625,0.40289146,-1.6274999,0.6259339,2.3089635,0.053159986,1.3253539,-0.554517,6.6992006,-3.3036172,2.6147568,2.9162726,4.2582135,3.0516715,-1.6916314,4.9132767,2.6979744,1.9265513,8.079915,-3.7220478,2.427432,3.12912
bookmark_01s.jpg,17.858473,5.103737,6.6243367,15.220616,12.614112,5.4287977,0.81535476,-0.5683733,10.885323,4.7881136,24.39186,22.676376,3.839363,2.5355692,5.3373656,11.832458,7.1030354,43.717735,5.327594,9.62416,4.896674,-3.798971,1.4163634,9.556178,0.8780047,11.486779,4.5411587,1.8975774,7.3669934,3.5989337,2.9303145,1.873261,-0.82465345,7.2922244,9.632654,12.079118,-2.7392972,1.6691985,-8.225109,-4.759335,-0.073132664,-2.939951,-2.8717108,1.8863293,1.843028,2.3799572,-1.4838672,3.3391256,1.9817207
bookshelf_01b.jpg,33.594116,3.092607,-2.8680844,7.1381288,45.58451,5.394378,14.177622,4.356152,31.020693,-4.809947,8.784858,-4.6796165,8.450165,4.0208297,-7.590936,1.6666312,18.505758,14.5037365,2.8546648,9.459239,-2.646719,3.194036,1.5338866,-1.4073553,-2.298524,2.5425267,4.8062315,1.711872,-2.3695219,-3.82544,-0.36133313,3.7777748,-0.42695916,-0.11088467,0.0748422,2.4759054,-3.0368745,-1.645782,13.2417965,5.4743767,0.6921791,7.7873,3.3676739,9.58408,1.555046,3.021568,0.51469666,2.5718935,-0.6634214
boomerang_01s.jpg,38.16064,3.2173164,8.608082,1.3946733,10.552647,1.2762208,13.017593,6.035548,36.29753,-1.6904881,9.771067,13.651462,-3.969629,27.046877,4.0570974,24.837376,6.70623,4.479639,5.8688617,19.987957,10.420484,-0.20054048,7.592371,2.1219656,3.0641189,6.888663,13.552343,11.48199,2.3922677,-3.3683028,1.7699629,-0.451182,-0.028096441,0.08313498,0.1987772,11.2519865,10.823535,1.7411325,-5.4574966,-2.2726603,3.00561,6.583839,4.601961,-1.7216921,3.570868,0.82964283,1.7582005,6.174535,1.5435591
boot_01b.jpg,32.264618,2.298605,9.970246,39.4141,0.10848213,3.169008,16.575178,7.668115,26.539337,13.719338,-4.9447665,12.0271225,1.9593037,14.2985525,2.9448144,-0.5464132,5.380274,-1.5144303,2.8349292,-1.0119666,0.91748714,13.894369,3.1291194,6.1158104,-1.664081,12.712378,13.534215,3.7194107,1.3944397,2.1060119,4.54925,2.713896,-1.4094144,0.607682,0.9483667,12.420945,28.779379,-0.5229168,9.03232,0.89148927,9.740875,0.6556049,5.5904126,8.158169,3.3709316,3.0062737,-3.9951909,3.2096007,3.9015622
bottle_01b.jpg,25.527266,27.716805,1.087009,5.585147,1.6857911,9.320479,4.926502,4.296281,5.625395,1.4690595,37.037384,13.262862,0.15772647,4.55113,1.7257915,1.1130124,21.770857,2.5751357,50.673515,10.7965555,15.0547,-0.83496785,10.578828,7.8123107,1.5273505,7.293014,2.9732502,5.836087,9.296624,1.0552565,1.1902943,-0.28951558,1.8249396,3.142296,2.4370496,1.9351523,1.2079666,16.54722,1.068208,4.705442,2.128398,5.8264365,-1.5021678,6.0301213,3.8063102,1.9111687,-0.008465815,4.8539004,1.8965995
bottle_opener_01b.jpg,56.17748,6.903501,5.641725,6.386587,3.0979724,4.8205624,2.7149856,5.0627985,3.2328002,0.84905326,9.495261,-4.7358804,11.187747,11.243274,2.3386068,45.168102,1.8221961,12.429331,7.101862,5.9936686,3.6287065,-1.9831885,15.604013,-0.5017819,6.101856,10.263595,-2.102837,0.51407486,-2.1655009,7.46445,2.368924,0.27181384,-2.0188787,1.6788725,6.068324,13.396904,1.4978433,-2.099122,4.3461027,3.7486792,-2.5642195,-1.4332701,5.5387387,3.8137798,1.4062957,0.6646153,3.9832637,2.5495203,2.1044233
boulder_01b.jpg,13.294167,12.1185255,18.723032,1.422598,-4.2289095,11.250028,33.484016,11.450246,22.076342,2.6339245,-0.5069597,5.6899266,-3.714005,12.26616,20.698154,5.82422,5.397651,2.4340932,-1.0273983,-0.65791994,4.739139,28.630817,4.140067,2.9944425,-1.253439,0.7373502,5.645588,1.7179571,8.183293,35.680355,0.306822,5.635558,5.690607,4.1798515,5.521278,2.3510532,-3.4605346,15.660572,6.0559974,0.3302843,1.6942856,5.610702,5.5641418,3.2979627,-2.2248518,5.2866673,-3.5434155,-0.30454987,6.554149
bouquet_01b.jpg,3.3256655,27.535778,13.39203,16.744482,8.748904,42.07214,4.839147,1.2430674,8.926757,9.767446,14.923969,24.163216,-1.1952335,-5.199509,6.270744,-1.179963,3.1385775,2.8600214,6.0857368,2.685497,2.3036826,2.508823,6.599372,46.469975,6.1077895,10.471182,3.3183937,3.1320646,4.3582735,10.585067,2.4484935,-4.3788605,10.185441,0.8404646,-1.651296,1.3381917,5.0124507,2.2948067,3.8940616,0.7115474,10.2864065,4.402936,3.1884923,4.6712937,2.080902,3.7541986,-3.403579,11.3005,5.76447
bow1_01b.jpg,11.986012,5.852518,17.200304,35.44348,0.054458436,6.7792697,-2.2432384,3.5720673,-0.3381841,28.29541,28.544743,7.457444,-2.162312,8.484807,7.879555,5.0765147,7.8688464,5.005248,3.9312794,3.3705115,1.153239,-1.0001097,15.431541,34.75759,13.255108,5.784051,2.4570043,4.24429,3.2089996,7.9915514,13.2963,7.593818,-0.53506523,6.8636713,3.4521625,15.724124,15.899014,7.812944,-0.75617915,-0.7383552,23.296776,2.511869,3.4108295,0.40893722,8.264117,2.747455,1.5408403,3.1704173,6.771761
bow2_01s.jpg,32.071987,-1.231205,9.500675,9.57959,12.966386,3.268507,16.0929,19.996353,17.785852,7.0131106,5.151113,3.556213,4.8635244,29.352036,6.33969,16.293896,0.22286686,5.5411067,4.1227636,25.798193,2.3642156,-0.8814732,-0.114190646,3.047492,3.3935041,0.31718895,24.606134,15.109946,5.73049,-4.1556983,-1.1505497,-6.1702332,5.5960245,0.87627584,3.6826491,9.920889,-0.047454424,1.8685662,3.3824742,0.09895778,-1.0167992,5.4928617,5.318167,0.37427676,3.758384,0.3354697,0.31027383,3.2283847,-0.18468788
bow3_01b.jpg,16.037046,7.82834,4.444851,17.921303,9.714472,7.696961,-4.8616896,-2.4357953,4.0853095,2.1770291,33.690132,19.983261,12.687471,9.525425,11.110214,2.1952949,2.240349,31.467339,1.8866818,0.5174059,-2.4366007,0.12197811,8.594413,29.449495,5.23243,9.661216,-1.89453,10.718939,1.8295056,9.37754,9.884403,7.022173,5.0784225,7.171611,0.20549074,6.107711,1.288466,7.5562077,3.9335132,0.51147926,4.4866705,3.3817906,2.3042111,10.098993,11.224981,1.4232005,-0.31225348,7.4980855,6.801074
bowl_01b.jpg,26.784798,41.42769,1.2945899,7.380639,25.435595,2.8055809,-1.6531205,1.1049149,0.6099602,1.9713763,23.834797,10.821191,2.094774,11.341018,27.509075,2.276051,9.354253,8.190937,27.304962,0.25318637,4.1429195,4.9657063,0.64736176,3.028582,9.705101,2.255498,-1.9743993,3.596572,2.8958035,7.077025,1.7408603,10.205656,8.776212,10.118365,-4.1891923,-3.8102784,1.4800702,4.8696856,0.51838475,-0.72736555,0.876249,2.6704946,-0.32864305,11.549461,5.942992,-2.4678771,5.6750493,3.0199032,6.7596383
bowler_hat_01b.jpg,21.80131,3.2148314,6.677217,31.460976,7.9047365,2.723589,-0.15134923,4.606495,7.3446674,24.038671,7.262062,18.032997,0.23675458,14.889849,26.42781,3.8717554,0.16435036,3.501573,8.5163555,0.8108343,2.1071038,2.389107,0.2609131,5.112133,-0.66514325,27.064852,3.3772879,4.901718,4.5886254,12.65371,6.9053984,4.871231,2.6087534,7.742253,-0.51524276,6.627785,8.338688,8.495451,-2.3380423,7.1007056,23.889866,-4.5718694,3.0898988,1.0015485,-0.53318125,2.8797708,-1.1035818,1.4111392,3.231883
bowling_ball_01b.jpg,29.274868,1.8760195,-0.7183138,6.648877,6.1109967,11.405976,-5.0201044,-0.46065953,9.825126,2.381017,35.949734,1.9929522,-1.6166514,38.51528,22.190619,8.044304,32.121925,6.326507,5.78923,8.112563,2.6352775,3.8215134,9.972047,3.8339164,7.7945023,6.898562,5.785761,4.2988863,2.6820185,25.580141,-0.2403033,0.15572132,-0.5098904,-2.2075577,-1.8335949,5.702834,9.301249,4.6895814,1.7487396,-0.53010964,6.7031302,0.82539034,-0.26194546,4.7190943,0.8217598,3.2395732,-1.6764054,0.59737265,6.4022703
bowtie_01b.jpg,21.709385,2.144409,8.217866,56.452854,5.1722097,-1.7304443,-0.5546469,4.9724827,2.7544518,41.414894,24.592989,17.196419,6.427667,7.1953115,3.1532724,0.7104215,12.928801,8.2584,3.7006564,-0.20020437,-1.2974753,1.4052862,5.9774637,13.059953,0.2602948,6.946981,-1.4463034,2.6571577,4.72112,4.0349298,8.2992525,7.2303677,0.9207098,0.66502786,0.6325401,12.43179,3.573104,1.6215756,2.6686084,-0.21611722,13.343276,1.9737389,-1.2021579,-0.14690757,1.653461,2.397882,4.760441,4.7417045,4.128483
box_01b.jpg,21.703323,-8.65451,-1.1900903,13.031777,24.087313,0.18628454,11.865654,12.326951,11.801166,2.1585653,14.469871,15.758244,12.412571,2.1977458,1.4606992,4.447268,19.404963,37.595474,8.473446,2.5046363,-6.686641,9.198949,4.752905,4.8263144,7.3589725,2.2130218,3.831739,4.243355,3.1793985,2.7029,4.6454453,7.583471,1.6226554,4.076515,-4.0737324,-1.7169635,1.5711732,3.4076314,15.413562,7.7009006,3.178703,2.841969,5.799389,17.093948,6.733211,3.0796003,-3.0985615,1.3889719,2.659825
boxer_shorts_01b.jpg,3.8653514,9.048268,16.428078,45.548244,13.316415,-1.2456164,-5.9969134,-1.4047967,0.7463728,63.72853,2.6185083,2.5803916,-0.42904484,8.177312,3.8299427,2.3973675,0.7232156,2.2756796,1.6296303,2.5773506,2.5835707,-3.4725473,0.68467706,-2.0311785,9.18301,0.27644458,3.6729012,4.015862,1.3468953,5.0206766,0.28992808,1.9330347,2.9179204,5.1333017,2.4350808,2.6473053,11.069311,-1.9260647,-0.9258356,4.2307105,2.0630555,2.3064358,-1.2825025,1.2548187,4.387789,4.8744893,2.3696358,1.7930087,-1.2731032
boxing_gloves_01b.jpg,24.009295,6.1605363,2.7078667,37.41822,-0.7180486,3.2218113,2.2821257,4.182446,8.670468,7.35713,12.472002,10.554373,-1.9386675,43.523552,2.94757,7.147356,0.9154432,0.85942185,0.64143765,2.2686734,-0.1766218,-1.032763,27.870544,3.6052763,0.72261626,4.794992,20.219149,7.693754,7.7369256,8.210442,2.6294363,4.3925953,6.7078295,7.9343944,1.0799193,6.1144295,28.247139,2.545586,-0.84230316,2.8366354,9.44133,4.9895205,0.2360519,5.1367335,-0.24029073,3.0610812,2.1288037,4.8396053,1.8799537
boy_01b.jpg,1.4495533,5.6372795,27.583221,12.405003,6.5382676,2.7664545,2.3618608,2.0341089,-2.6316326,54.752846,7.928919,0.3641136,2.0266201,21.334936,1.3938453,2.154096,-2.340043,5.5584965,1.7613139,2.1776557,0.78756595,-4.0243382,-0.22685458,4.4699683,5.538638,3.8426387,3.3566012,6.770212,2.4064605,-0.6476594,1.0085521,-0.6658784,-0.076853484,-0.93491024,-0.20379014,-2.296241,4.4698086,0.2883749,-3.566803,-1.252541,23.614267,2.7386599,-0.06389105,3.4369528,20.028196,3.5034995,2.994483,0.14268905,0.12784167
bra_01s.jpg,18.633348,-1.2575053,4.5570874,55.959736,12.73841,2.1370842,-3.6372483,3.166733,-4.238221,33.362225,12.155923,9.122634,7.9714046,6.561539,9.076424,2.09748,5.7878265,1.5220982,8.762179,-0.13574344,1.3695089,1.0336722,7.126481,18.501669,8.148156,12.396558,4.6857085,0.49701762,1.9869049,4.396309,5.1793327,3.1721454,5.4255505,5.102354,-0.6696223,13.384361,3.9560227,2.7016928,3.0097723,2.5416896,8.290346,2.5931413,2.7026167,1.2905953,0.15388718,2.0868819,3.3613338,3.0713222,-0.075307675
brace_01b.jpg,32.687695,-3.9808843,0.5065236,40.26354,9.32428,2.3640208,7.2451816,4.9652247,2.7755783,14.767578,2.1345124,1.4335434,6.2436757,29.980925,3.0480895,2.7520556,0.60726404,9.35514,3.71908,-3.061039,2.3273406,3.944571,8.625288,-5.97453,5.527017,15.293702,16.586948,3.2949474,-1.4016676,-0.71123666,0.42860955,1.6605005,5.0988936,5.7558947,-1.3361708,6.687148,18.461332,-1.2045958,5.6138644,0.27433997,3.6482215,5.520088,6.863521,4.2318096,6.4023523,13.082346,2.2030125,-0.64740294,1.3005247
bracelet1_01s.jpg,42.394424,9.841451,-0.9651811,37.77419,-2.2219822,7.682183,2.8958108,-0.16337396,17.091516,0.12632273,4.1782637,6.105382,7.586202,6.9558544,15.112793,10.663088,10.324654,5.685609,6.382345,11.51766,6.0030684,13.4183035,6.31492,13.631063,6.4510202,2.3479354,5.7742915,4.058895,-0.4874047,5.154906,1.8672175,4.4302473,5.7750883,8.452108,3.7048182,21.745731,12.989511,0.15176255,1.336606,-4.559218,5.272503,2.8169622,0.007541105,2.441331,0.55166876,4.4936604,-0.9326879,5.568317,2.3047953
bracelet2_01b.jpg,35.371346,5.2303104,5.6017427,22.441214,-0.31365353,2.762807,0.2588939,1.4650693,1.8025401,23.955637,24.458282,28.53167,1.2639225,0.6601281,27.961355,2.8724444,10.366652,4.942495,-1.1155977,1.9480009,3.5478797,3.3285015,3.622865,23.22199,7.999821,7.987197,4.7322974,5.8568525,5.7239475,1.4909536,11.391577,0.41978565,-1.075489,1.9770447,3.8519144,19.783339,25.766289,5.602917,-1.5915152,-3.3672094,9.73411,4.4592714,-1.988908,3.106947,4.3758626,-0.50896335,3.812249,14.180772,2.625956
bracket_01b.jpg,52.13642,13.097291,0.9299003,-1.6462009,38.85474,3.6390555,4.736121,1.4224826,21.685577,-1.3114241,1.5627574,1.6884912,1.4170383,-0.50949717,-3.2697976,7.7492433,8.38709,14.053501,5.0502644,10.817635,1.0628753,-5.188156,4.263253,1.8332299,2.3197896,4.71548,2.8595548,-3.1592288,-1.4848037,-2.0822089,1.9561276,5.7664227,-1.465349,2.7577574,1.5349206,4.4544997,4.617296,3.7843544,7.949999,-1.3899705,0.069250725,10.767401,1.8224318,4.232325,-0.4779921,-1.2144696,3.357088,0.11097342,-0.788437
braid_01b.jpg,5.8015857,12.08878,21.333961,20.123243,6.324739,2.8583028,-0.30955598,-2.4030585,13.377333,45.537464,7.05925,4.7395906,0.20284681,1.0980775,3.164272,5.0647454,7.631167,-1.911946,-2.106031,5.846147,-1.9225135,2.4856682,1.7373428,23.65648,8.328122,1.6342236,1.046424,0.8842321,1.5964087,5.754481,21.042103,4.664713,0.3860183,-0.6098219,1.1226907,11.764722,11.187491,1.931819,3.3500175,0.33086553,34.09442,0.5302539,6.741774,-1.7566953,5.2037935,0.7190557,6.482331,5.2640595,2.3509107
brake_01b.jpg,69.00958,2.466845,1.4630232,9.396574,-1.0508469,0.6460685,9.793454,25.072735,14.882719,0.19259788,-1.5055475,5.9768586,6.224019,13.074181,14.296855,7.448308,8.959053,4.076106,-2.4750178,0.9579617,-0.097121485,9.221725,2.4069495,2.695506,-2.784001,0.120226756,2.1547236,5.2247567,-0.92673784,4.0064716,5.8283324,0.57365966,-2.579116,-2.1073825,4.6453347,13.750428,6.575412,1.1165426,4.0146413,-0.24417755,-1.3787208,1.2369248,7.149381,1.57586,-1.8926039,-2.336213,3.732296,2.3788888,0.9754492
branch_01b.jpg,9.674836,6.1542315,28.551853,-1.2968296,2.9593136,47.57807,34.077366,6.394613,23.23887,-2.069656,4.0993204,6.0478287,0.74530333,7.518813,-3.0318213,10.250057,2.5446515,1.7839439,-0.9267395,16.562468,9.402543,14.489077,1.6558269,5.1012626,-0.44591865,-1.2062181,0.19024917,3.367293,8.108135,4.066541,14.705154,1.6239845,1.5506552,-0.1972381,11.57377,10.591383,2.8931222,-3.1356664,-1.4009324,-0.5555497,-4.012847,5.642146,2.9328458,-3.7252798,-2.5175295,1.7709529,-0.13843718,2.2241569,0.27959162
brass_knuckles_01b.jpg,48.467873,7.6743946,9.336863,13.409631,-2.3105063,1.299566,10.6370535,5.6914835,8.294363,30.081371,5.2115293,6.5283775,-4.355932,19.215557,11.446213,8.972942,13.468173,8.107795,1.1043493,-5.1546593,0.99323446,8.563265,3.417156,-3.1590872,0.8754596,9.128411,15.887459,5.0784035,0.6854801,8.742916,7.047323,1.845124,-3.1981297,-1.4981143,1.0703613,20.089228,23.161524,-0.32872742,0.23616627,1.5943475,3.0606952,0.66474676,4.6440473,2.9784076,7.499294,-2.4121265,9.5501175,7.8623323,2.133165
bread_01b.jpg,9.896373,77.07834,8.995626,4.5667677,8.120426,4.486238,0.015512481,1.0170892,12.011653,-1.3074411,1.4632225,2.2323859,5.6230574,-1.2625962,1.722569,7.3835335,-0.6566856,0.2879532,6.96624,2.3428805,3.826309,4.240354,4.0290127,3.947915,4.7141385,0.046443287,0.18882938,3.3065324,0.7954521,5.3397427,3.7323742,3.1123004,5.4560075,4.658654,-0.53254634,-3.9139993,4.365907,-0.40527955,1.8246852,-1.008112,0.01421608,-0.17747861,-0.48076314,1.1992257,-0.114655405,1.1650927,-1.0594487,4.3586364,-0.7462462
breadbox_01b.jpg,27.382969,45.720478,10.065407,4.510224,38.634174,4.224883,1.8597119,6.5633016,35.684685,-2.3922353,4.2995853,9.358141,6.850073,-2.985959,1.0252316,3.4292836,5.2293673,13.2802725,10.781727,-1.8432938,-0.8742727,-1.9478377,0.9494729,2.5894458,5.4430637,2.9861138,1.5254024,-0.2634045,0.061665196,2.9284682,4.158806,5.830829,2.652905,5.318199,0.33485237,-4.6700583,-1.0020161,-2.5415504,6.4336166,0.53611547,-0.9949274,3.7724745,1.5975088,15.438535,2.779128,-1.7607318,3.35668,5.8982177,2.3474681
breadstick_01b.jpg,6.3259134,75.8696,9.684806,6.712573,7.8633547,-0.2693707,1.327296,5.0148764,9.586737,-0.01653172,-3.5264127,-0.14666902,3.2098658,-0.012689922,2.003439,2.5192525,3.0397632,2.9339166,0.76920635,10.790596,0.6473299,0.8383506,1.250991,0.5790269,6.9744782,1.8856251,-0.02022162,4.3814144,0.9652232,-2.407715,1.0779836,1.7876955,4.020961,6.3501663,2.169527,-3.470321,2.6476736,-2.1363442,2.235464,4.699151,-0.95147717,1.9144837,2.925112,2.1112046,1.2889386,-1.8021994,-0.7944405,0.9223344,2.494523
