Weight
0.7009891183290989
0.5292336491423043
1.0
0.14617884673715645
0.15316556015893634
0.09203712666596012
0.14653370744973218
0.07587657046907038
0.13926009533478492
0.06402088250730247
-0.008052412484513211
-0.0004356983642682065
0.06080055066810224
0.012163933580977405
-0.004464976449775606
0.010331651958743153
-0.037826069402569926
-0.03858723773240629
-0.10391259681537067
-0.07272101762405599
0.0869664447546427
0.019573772605864813
-0.09619905349331813
-0.11102228451300776
-0.1149949222832937
-0.11958056200040808
-0.00029911675586330883
-0.03625563876430657
-0.10369854446981375
-0.11210961221639267
-0.04551675237716371
-0.0962914640820445
-0.15884004406100008
-0.16478956385103288
0.009711189663590565
-0.05950188446179105
-0.10005090915386763
-0.14894652093780472
-0.09168067596612374
-0.15532067523392096
-0.13042310850201144
-0.1374400258219791
-0.11460653606903717
-0.14778678511193347
-0.08323241206412277
-0.16954699137003626
-0.12382812673222804
-0.16456963388295548
-0.19431124697784943
